SVM-light Version V6.02
2 # kernel type
3 # kernel parameter -d 
0.005 # kernel parameter -g 
1 # kernel parameter -s 
1 # kernel parameter -r 
empty# kernel parameter -u 
400 # highest feature index 
2225 # number of training documents 
586 # number of support vectors plus 1 
-2.6850224 # threshold b, each following line is a SV (starting with alpha*y)
-1.531360146648750975018060671573 1:1.72 2:0 3:0.19 4:1.15 5:0.56999999 6:0.95999998 7:0.19 8:0.95999998 9:0.38 10:0.56999999 11:0 12:0.19 13:0.95999998 14:0.19 15:0.38 16:0.56999999 17:0.38 18:0.56999999 19:0 20:0 21:0 22:0 23:0 24:0 25:0 26:0 27:0 28:0 29:0 30:0 31:0 32:0 33:0 34:0 35:0 36:0 37:0 38:0 39:0 40:0 41:0.19 42:0 43:0.38 44:0.56999999 45:0.19 46:0 47:0 48:0.56999999 49:0.56999999 50:1.34 51:0.38 52:0 53:0.19 54:0.38 55:0.19 56:0 57:0 58:0.76999998 59:0 60:0.19 61:0.76999998 62:0 63:0.56999999 64:1.15 65:0.19 66:0.95999998 67:0 68:1.15 69:0.56999999 70:1.53 71:0.56999999 72:0.19 73:0.19 74:0 75:0.76999998 76:0.56999999 77:0.95999998 78:0.38 79:0 80:0.38 81:0.19 82:0 83:0 84:0.38 85:0 86:0.19 87:0.19 88:0.38 89:0 90:0.56999999 91:0 92:0 93:0.19 94:0 95:0.19 96:0.19 97:0.38 98:0 99:0 100:0 101:0.95999998 102:0 103:0 104:0.38 105:0 106:0.38 107:0.38 108:0.19 109:0.76999998 110:0.19 111:0.19 112:0 113:0.38 114:0.38 115:0.56999999 116:0 117:0.56999999 118:0.76999998 119:0 120:0.19 121:0.19 122:0 123:0 124:0 125:0 126:0.56999999 127:0 128:0 129:0 130:0 131:0 132:0 133:0 134:0 135:0 136:0 137:0.19 138:0.19 139:0 140:0 141:1.34 142:0 143:0.56999999 144:0.19 145:0.19 146:0.38 147:0 148:0.56999999 149:0.19 150:0.95999998 151:0.56999999 152:0.19 153:0.19 154:0 155:0.38 156:0.38 157:0 158:0.76999998 159:0 160:0.19 161:0.38 162:0 163:0.19 164:0 165:0.19 166:0.19 167:0.19 168:0.19 169:0.19 170:1.15 171:0.19 172:0.38 173:0.19 174:0.38 175:0.38 176:0.38 177:0.19 178:0.56999999 179:0 180:0.19 181:0.95999998 182:0 183:1.34 184:0.56999999 185:0.19 186:0 187:0.19 188:0.56999999 189:0.56999999 190:0.76999998 191:0 192:0.19 193:1.15 194:0.38 195:0.38 196:0.19 197:0.95999998 198:0.76999998 199:0 200:0 201:0.56999999 202:0 203:0.38 204:0.19 205:0 206:0 207:0 208:0.19 209:0.19 210:0 211:0 212:0 213:0.19 214:0 215:0.19 216:0 217:0 218:0.95999998 219:0 220:0 221:0.19 222:0 223:0 224:0.19 225:0 226:0.19 227:0 228:0.38 229:0 230:0.19 231:0 232:0 233:0 234:0.38 235:0.19 236:0.19 237:0.19 238:0 239:0 240:0 241:0.76999998 242:0 243:0.76999998 244:0.56999999 245:0.19 246:0.38 247:0 248:0.56999999 249:0.38 250:0.19 251:0 252:0 253:0.76999998 254:0 255:0.19 256:0.56999999 257:0.19 258:0.19 259:0 260:0 261:0 262:0 263:0.19 264:0.56999999 265:0.38 266:0.38 267:0 268:0 269:0.38 270:0 271:0.19 272:0 273:0 274:0.38 275:0.56999999 276:0.38 277:0.19 278:0.19 279:0 280:0 281:0.38 282:0 283:0.56999999 284:1.53 285:0.19 286:0.19 287:0 288:0.19 289:0.19 290:0.76999998 291:0.38 292:0.19 293:0 294:0.38 295:0.56999999 296:0 297:0.56999999 298:0.38 299:0 300:0.38 301:0.19 302:0 303:0.19 304:0.19 305:0.38 306:0.19 307:0 308:0.38 309:0.38 310:0.38 311:0.19 312:0.19 313:0.19 314:0.19 315:0.56999999 316:0.19 317:0.19 318:0.19 319:0 320:0 321:0.38 322:0 323:0.19 324:1.15 325:0 326:0.19 327:0 328:0.19 329:0.19 330:0 331:0 332:0.19 333:1.15 334:0.38 335:0.56999999 336:0.19 337:0.38 338:0.38 339:0 340:0 341:0.76999998 342:0 343:0.38 344:2.1099999 345:0.19 346:0.95999998 347:0 348:0.19 349:0.56999999 350:0.38 351:0 352:0.38 353:0 354:0.38 355:0.76999998 356:0.38 357:0.19 358:0.56999999 359:0 360:0 361:0 362:0 363:0 364:0 365:0 366:0 367:0 368:0 369:0 370:0 371:0 372:0 373:0 374:0 375:0 376:0 377:0 378:0 379:0 380:0 381:0 382:0 383:0 384:0 385:0 386:0.19 387:0 388:0.38 389:0 390:0.38 391:0 392:0 393:0 394:0 395:0 396:0 397:0 398:0.56999999 399:0 400:0 #
-0.72942587892695964768563499092124 1:0.25 2:0 3:0.12 4:0.38 5:0.25 6:0.25 7:0 8:0.62 9:0.5 10:0.88 11:0 12:0.12 13:0.25 14:0.12 15:0.88 16:0.38 17:0.12 18:0.38 19:0 20:0.12 21:0.12 22:0 23:0.12 24:0 25:0 26:0.12 27:0 28:0.38 29:0 30:0.25 31:0.12 32:0 33:0 34:0.12 35:0.25 36:0.12 37:0 38:0.25 39:0 40:0.25 41:0 42:0.12 43:0.12 44:0.38 45:0.12 46:0.25 47:0.12 48:0.62 49:0.25 50:0.38 51:0.25 52:0.38 53:0.12 54:0.62 55:0.12 56:0.25 57:0.25 58:0.38 59:0 60:0.25 61:0.25 62:0.12 63:0.25 64:0.12 65:0.12 66:0.25 67:0 68:0.25 69:0.12 70:0.25 71:0.25 72:0.25 73:0.5 74:0.25 75:0.25 76:0.5 77:0 78:0.75 79:0.12 80:0.38 81:0.25 82:0 83:0.12 84:0.25 85:0.62 86:0.5 87:0.25 88:0.12 89:0.38 90:0.12 91:0.12 92:0.12 93:0.25 94:0.12 95:0.12 96:0.75 97:0.25 98:0.25 99:0 100:0 101:0.5 102:0.12 103:0.38 104:0 105:0.75 106:0.5 107:0.12 108:0.12 109:0 110:0.88 111:0 112:0.25 113:0.12 114:0.38 115:0.25 116:0.38 117:0.38 118:0.75 119:0 120:0 121:0 122:0.12 123:0 124:0.25 125:0 126:0 127:0.12 128:0.25 129:0 130:0.75 131:0 132:0 133:0.12 134:0 135:0 136:0.12 137:0 138:0 139:0.12 140:0.12 141:0.5 142:0 143:0.12 144:0.25 145:0.12 146:0.25 147:0 148:0.5 149:0.25 150:0.62 151:0 152:0.5 153:0.12 154:0.38 155:0.5 156:1 157:0.5 158:0.62 159:0.12 160:0.38 161:0.25 162:0 163:0.12 164:0.5 165:0.25 166:0.12 167:0.12 168:0.25 169:0.25 170:0.5 171:0.12 172:0 173:0.12 174:0 175:0.25 176:0.5 177:0.5 178:0.12 179:0 180:0.12 181:0.62 182:0.25 183:0.62 184:0.38 185:0.38 186:0.38 187:0.62 188:0.75 189:0.38 190:1.12 191:0 192:0.75 193:0.62 194:0.38 195:0.62 196:0.62 197:0.75 198:0.25 199:0.12 200:0.75 201:0.25 202:0 203:0.25 204:0.12 205:0 206:0.12 207:0 208:0.12 209:0.38 210:0.12 211:0.12 212:0 213:0.12 214:0 215:0.12 216:0.25 217:0.12 218:0.25 219:0 220:0 221:0.12 222:0.12 223:0.62 224:0.25 225:0.25 226:0.12 227:0 228:0 229:0 230:0.5 231:0.12 232:0.38 233:0.5 234:0.38 235:0.38 236:0.62 237:0.12 238:0.38 239:0 240:0 241:0.25 242:0.25 243:0.12 244:0.38 245:0 246:0.5 247:0 248:0.25 249:0.12 250:0.38 251:0 252:0.25 253:0 254:0 255:0.38 256:0.5 257:0.12 258:0.25 259:0.12 260:0.25 261:0 262:0.25 263:0 264:0 265:0 266:0.25 267:0.12 268:0.25 269:0.12 270:0.38 271:0.25 272:0.25 273:0.12 274:0.25 275:0.12 276:0.38 277:0.12 278:0.5 279:0.25 280:0.12 281:0.25 282:0.38 283:0.12 284:0.38 285:0.38 286:0.25 287:0.12 288:0.38 289:0.25 290:0.25 291:0.38 292:0.38 293:0.12 294:0 295:0.88 296:0.62 297:0 298:0.75 299:0.12 300:0.38 301:0.62 302:0.25 303:0.62 304:0.62 305:0.62 306:0.75 307:0.12 308:0.62 309:0.25 310:1.38 311:0.12 312:0.25 313:0 314:0.38 315:0.38 316:1 317:0.25 318:0.5 319:0.12 320:0.25 321:0.38 322:0 323:0.5 324:0 325:0.25 326:0.12 327:0 328:0.5 329:0.25 330:0.62 331:0.12 332:0.38 333:0.12 334:0 335:0.25 336:0.12 337:0.25 338:0.5 339:0 340:0.38 341:0.75 342:0 343:0.38 344:0.38 345:0.25 346:0.75 347:0 348:0.5 349:0.38 350:0.5 351:0.25 352:0.5 353:0.5 354:0.12 355:0.38 356:0.75 357:0.62 358:0.88 359:0 360:0 361:0 362:0.12 363:0.25 364:0.12 365:0.12 366:0.12 367:0 368:0.12 369:0 370:0 371:0 372:0.12 373:0 374:0 375:0.12 376:0 377:0.12 378:0 379:0 380:0 381:0.25 382:0 383:0.12 384:0.25 385:0.12 386:0.25 387:0.25 388:0.12 389:0.25 390:0.5 391:0 392:0 393:0.38 394:0.25 395:0.12 396:0.25 397:0.25 398:0.25 399:0.12 400:0.25 #
-1.531360146648750975018060671573 1:0.44 2:0 3:0 4:0.22 5:0.22 6:0.66000003 7:0 8:0 9:0.44 10:0.66000003 11:0 12:0.22 13:0 14:0.22 15:0 16:0.44 17:0 18:0.66000003 19:0 20:0.44 21:0.22 22:0 23:0 24:0.22 25:0 26:0.22 27:0.22 28:0.22 29:0.44 30:0.22 31:0 32:0 33:0 34:0 35:0 36:0 37:0 38:0.22 39:0 40:0 41:0 42:0 43:0.66000003 44:0.88 45:0 46:0.44 47:0.22 48:0.22 49:1.33 50:0.22 51:0.44 52:0.22 53:0.44 54:0.22 55:0 56:0.44 57:0 58:0 59:0 60:0.22 61:0.88 62:0 63:0.44 64:1.33 65:0.66000003 66:0.44 67:0.22 68:0.44 69:1.33 70:0 71:0.22 72:0 73:0.66000003 74:0 75:0.66000003 76:1.11 77:0.44 78:0.88 79:0 80:0.22 81:0 82:0 83:0.66000003 84:0.66000003 85:0.22 86:0.44 87:0.22 88:0.22 89:0.22 90:0 91:0.22 92:0 93:0.22 94:0.44 95:0 96:0 97:0.22 98:0.44 99:0.22 100:0 101:0 102:0.22 103:0 104:0.44 105:0 106:0.22 107:0 108:0 109:0.88 110:0.66000003 111:0.44 112:0.22 113:0 114:0 115:0.44 116:0.44 117:0.22 118:0.44 119:0.22 120:0.66000003 121:0 122:0.22 123:0.22 124:0.22 125:0.22 126:0 127:0.22 128:0 129:0.22 130:0.22 131:0 132:0 133:0.44 134:0 135:0 136:0.22 137:0 138:0.22 139:0 140:0 141:0.22 142:0.22 143:0 144:0.44 145:0 146:0 147:0.22 148:0 149:0.66000003 150:0.22 151:0.22 152:0.22 153:0 154:0.22 155:0.44 156:0 157:0.44 158:0 159:0 160:0.44 161:0.66000003 162:0 163:0.66000003 164:1.99 165:0.44 166:0.66000003 167:0 168:0.88 169:1.55 170:1.55 171:0.22 172:0 173:0 174:0.22 175:0.22 176:0.88 177:0.88 178:0.66000003 179:0 180:0.44 181:0.22 182:0.66000003 183:0.44 184:0.22 185:0.44 186:0.22 187:0 188:0.22 189:0.88 190:1.11 191:0.44 192:0.88 193:0.44 194:0.44 195:0.22 196:0.44 197:0.66000003 198:0.66000003 199:0 200:0.22 201:0.44 202:0 203:0.22 204:0.44 205:0.22 206:0.22 207:0 208:0 209:0.88 210:0.44 211:0.22 212:0 213:0.22 214:0 215:0 216:0 217:0 218:0.22 219:0 220:0 221:0 222:0 223:0.22 224:0 225:0.66000003 226:0.22 227:0 228:0.22 229:0 230:0.22 231:0 232:0 233:0.22 234:0.22 235:0 236:0 237:0.66000003 238:0.44 239:0.22 240:0.22 241:0 242:0.22 243:0 244:0.22 245:0 246:0.22 247:0 248:0 249:0.44 250:0.66000003 251:0.44 252:0 253:0.22 254:0.22 255:0.44 256:0.22 257:0.44 258:0.22 259:0 260:0 261:0.44 262:0 263:0.22 264:0 265:0 266:0.44 267:0.44 268:0 269:0.22 270:0 271:0 272:0.22 273:0.22 274:0.22 275:0 276:0.22 277:0.44 278:0 279:0 280:0.44 281:0 282:0 283:0.22 284:0 285:0.22 286:0.22 287:0.22 288:0.22 289:0.44 290:0.22 291:0.22 292:0 293:0.22 294:0 295:0 296:0.22 297:0.22 298:0 299:0 300:0 301:0.22 302:0 303:1.11 304:0.22 305:0 306:0.22 307:0.44 308:0.22 309:0.88 310:0.66000003 311:0 312:0.22 313:0.44 314:0.66000003 315:0.22 316:0.66000003 317:0 318:0.22 319:0 320:0 321:0 322:0.22 323:0.44 324:0.88 325:0.66000003 326:0 327:0 328:0 329:0.44 330:0.88 331:0 332:0.22 333:0 334:0.22 335:0 336:0.44 337:0.66000003 338:0.44 339:0 340:0 341:0.44 342:0.22 343:0.44 344:1.55 345:0.22 346:0.22 347:0 348:0.66000003 349:0.44 350:0.66000003 351:0 352:0.44 353:0.22 354:0 355:0 356:0.44 357:0.22 358:0.66000003 359:0 360:0 361:0 362:0 363:0 364:0 365:0 366:0 367:0 368:0 369:0.22 370:0 371:0.22 372:0 373:0 374:0 375:0 376:0.22 377:0 378:0 379:0 380:0 381:0.44 382:0 383:0 384:0 385:0.22 386:0.44 387:0 388:0.44 389:0 390:0.44 391:0 392:0.66000003 393:0 394:0.22 395:0 396:0 397:0 398:0.44 399:0 400:0.22 #
-1.531360146648750975018060671573 1:0.85000002 2:0 3:1.0599999 4:0 5:0.20999999 6:0.20999999 7:0.20999999 8:0.63999999 9:0.41999999 10:0.41999999 11:0 12:0 13:0 14:1.27 15:1.0599999 16:0.20999999 17:0.41999999 18:1.0599999 19:0 20:0.20999999 21:0 22:0 23:0.20999999 24:0.20999999 25:0 26:0.41999999 27:0 28:0.20999999 29:0 30:0 31:0 32:0 33:0 34:0 35:0 36:0 37:0.20999999 38:0.20999999 39:0 40:0 41:0.63999999 42:0 43:0.85000002 44:0.63999999 45:0.20999999 46:0.41999999 47:0.20999999 48:0.85000002 49:0.41999999 50:0.41999999 51:0 52:0.20999999 53:0 54:0 55:0 56:0.20999999 57:0.41999999 58:0.63999999 59:0 60:0 61:0.63999999 62:0.20999999 63:0.41999999 64:0.63999999 65:0.20999999 66:1.27 67:0 68:0.20999999 69:0.20999999 70:0.63999999 71:0.41999999 72:0.41999999 73:0.20999999 74:0 75:0.41999999 76:0.85000002 77:0.63999999 78:0.41999999 79:0 80:0 81:0.20999999 82:0.20999999 83:0 84:0.20999999 85:0 86:0.41999999 87:0 88:0.41999999 89:0 90:0 91:0 92:0 93:0 94:0 95:0.20999999 96:0.20999999 97:0.41999999 98:0.41999999 99:0 100:0 101:1.27 102:0 103:0.41999999 104:0.41999999 105:0.20999999 106:0.20999999 107:0.20999999 108:0.41999999 109:0.63999999 110:0.63999999 111:0 112:0 113:0.20999999 114:0.20999999 115:0.85000002 116:0.41999999 117:0.85000002 118:1.0599999 119:0 120:0.20999999 121:0 122:0 123:0.41999999 124:0.20999999 125:0 126:0.20999999 127:0 128:0 129:0 130:0 131:0 132:0 133:0 134:0 135:0.20999999 136:0 137:0 138:0.41999999 139:0 140:0.20999999 141:0.63999999 142:0.63999999 143:0.63999999 144:0.41999999 145:0.20999999 146:0.63999999 147:0 148:0.41999999 149:0 150:1.0599999 151:0 152:0 153:0.41999999 154:0.20999999 155:0.41999999 156:0.41999999 157:0.20999999 158:0.63999999 159:0 160:0 161:0 162:0 163:0.20999999 164:0.20999999 165:0 166:0 167:0.20999999 168:0.63999999 169:0.20999999 170:0.63999999 171:0 172:0 173:0.20999999 174:0.20999999 175:0.85000002 176:0.63999999 177:0.63999999 178:0.20999999 179:0 180:0 181:1.27 182:0.20999999 183:0.20999999 184:0.63999999 185:0.41999999 186:0.41999999 187:0 188:0.20999999 189:0.41999999 190:1.27 191:0 192:0.20999999 193:1.0599999 194:0.41999999 195:0.85000002 196:0.20999999 197:0.63999999 198:0.63999999 199:0 200:0 201:0 202:0 203:0 204:0.63999999 205:0.20999999 206:0.20999999 207:0.20999999 208:0 209:0 210:0 211:0 212:0.20999999 213:0 214:0 215:0.20999999 216:0.20999999 217:0 218:0 219:0 220:0 221:0.41999999 222:0 223:0.41999999 224:0 225:0 226:0 227:0.41999999 228:0.41999999 229:0 230:0 231:0.20999999 232:0 233:0 234:0 235:0 236:0 237:0.20999999 238:0.20999999 239:0 240:0 241:0.20999999 242:0 243:0 244:0.41999999 245:0.20999999 246:0.20999999 247:0 248:0 249:0.63999999 250:0.20999999 251:0 252:0 253:0 254:0 255:0.41999999 256:0.20999999 257:0.20999999 258:0.41999999 259:0 260:0 261:0.41999999 262:0 263:0 264:0.20999999 265:0 266:0.20999999 267:0 268:0.85000002 269:0.41999999 270:0.41999999 271:0 272:0 273:0 274:0.41999999 275:0.41999999 276:0 277:0.20999999 278:0.63999999 279:0 280:0.20999999 281:0.20999999 282:0.20999999 283:0.63999999 284:1.0599999 285:0 286:0.85000002 287:0 288:0.41999999 289:0.63999999 290:1.27 291:0.41999999 292:0 293:0 294:0.41999999 295:0.20999999 296:0.20999999 297:0 298:0.41999999 299:0.20999999 300:0 301:0.63999999 302:0 303:0 304:0.41999999 305:0.20999999 306:1.0599999 307:0 308:0.63999999 309:0.20999999 310:0.20999999 311:0.20999999 312:0.20999999 313:0 314:0.20999999 315:0.20999999 316:0.20999999 317:0.20999999 318:0.63999999 319:0 320:0.20999999 321:0 322:0 323:0 324:0.63999999 325:0.41999999 326:0.85000002 327:0 328:0 329:0.20999999 330:1.0599999 331:0.20999999 332:0.20999999 333:0.20999999 334:0.20999999 335:0.63999999 336:0.41999999 337:0.20999999 338:0.63999999 339:0 340:0.20999999 341:1.0599999 342:0 343:0.63999999 344:0.85000002 345:0.20999999 346:0.63999999 347:0 348:0.41999999 349:0.20999999 350:0.41999999 351:0.20999999 352:0.20999999 353:0.85000002 354:0.63999999 355:0.20999999 356:1.0599999 357:0.63999999 358:0.85000002 359:0.20999999 360:0.41999999 361:0 362:0 363:0 364:0 365:0 366:0 367:0.20999999 368:0 369:0 370:0 371:0 372:0.20999999 373:0 374:0 375:0 376:0 377:0 378:0 379:0 380:0 381:0 382:0 383:0 384:0 385:0 386:0 387:0 388:0.20999999 389:0.20999999 390:0.41999999 391:0 392:0.41999999 393:0 394:0.20999999 395:0 396:0 397:0 398:0.20999999 399:0 400:0 #
-1.531360146648750975018060671573 1:2.5799999 2:0 3:0 4:1.9400001 5:0 6:0.64999998 7:0 8:0 9:0.64999998 10:0 11:0 12:0 13:0 14:0.64999998 15:0.64999998 16:0.64999998 17:0 18:0 19:0 20:0 21:0 22:0 23:0 24:0 25:0 26:0 27:0 28:0 29:0 30:0 31:0 32:0 33:0 34:0 35:0 36:0 37:0 38:0 39:0 40:0 41:0.64999998 42:0 43:0.64999998 44:0.64999998 45:0 46:0.64999998 47:0 48:1.29 49:0.64999998 50:2.5799999 51:0 52:0.64999998 53:0.64999998 54:0 55:0.64999998 56:0 57:0.64999998 58:1.29 59:0 60:0 61:0.64999998 62:0 63:0.64999998 64:0 65:1.29 66:1.29 67:0 68:0 69:1.29 70:1.29 71:0 72:0 73:1.9400001 74:0 75:1.9400001 76:0.64999998 77:0 78:0 79:0 80:0 81:0 82:0 83:0.64999998 84:1.29 85:0 86:0 87:0 88:0 89:0 90:0.64999998 91:0 92:0 93:0 94:0 95:1.9400001 96:0 97:0.64999998 98:0 99:0 100:0 101:0.64999998 102:0 103:1.9400001 104:1.9400001 105:0.64999998 106:0.64999998 107:0 108:0.64999998 109:0 110:0 111:0 112:0.64999998 113:0.64999998 114:0 115:0 116:0 117:0 118:0.64999998 119:0 120:0 121:0 122:0 123:0.64999998 124:0 125:0 126:0 127:0 128:0 129:0 130:0 131:0.64999998 132:0 133:0 134:0 135:0 136:0 137:0 138:0 139:0 140:0 141:0 142:0 143:0 144:0.64999998 145:0 146:0 147:0 148:0.64999998 149:0 150:1.29 151:0 152:0.64999998 153:0 154:0.64999998 155:0 156:0.64999998 157:0 158:1.9400001 159:0 160:0 161:0.64999998 162:0 163:1.29 164:0 165:0 166:0.64999998 167:0 168:1.29 169:0 170:0 171:0 172:0 173:0 174:0 175:0 176:0 177:0 178:0 179:0 180:0 181:0.64999998 182:0 183:1.9400001 184:0 185:0.64999998 186:1.29 187:0.64999998 188:0 189:0 190:1.29 191:0.64999998 192:0.64999998 193:0.64999998 194:0 195:0.64999998 196:0 197:1.29 198:0 199:0 200:0 201:0 202:0 203:0 204:0.64999998 205:0 206:1.29 207:0 208:0 209:0 210:0 211:0 212:0 213:0 214:0 215:0 216:0 217:0 218:0 219:0 220:0 221:0 222:0 223:0.64999998 224:0.64999998 225:0 226:0.64999998 227:0 228:0 229:0 230:0 231:0 232:0 233:0 234:0 235:0.64999998 236:0 237:0 238:0 239:0 240:0 241:1.29 242:0 243:0 244:1.29 245:0.64999998 246:0.64999998 247:0 248:0 249:0 250:1.29 251:0 252:0 253:0 254:0.64999998 255:0 256:0 257:0 258:0 259:0 260:0 261:0 262:0 263:0 264:0 265:0.64999998 266:0 267:0 268:0.64999998 269:0 270:0.64999998 271:0 272:0 273:0 274:1.29 275:0.64999998 276:0 277:0 278:0.64999998 279:0 280:0 281:0.64999998 282:0 283:0.64999998 284:0 285:0 286:0.64999998 287:0.64999998 288:0 289:0 290:1.29 291:0 292:0 293:1.29 294:1.29 295:0.64999998 296:0 297:0 298:1.29 299:0 300:0 301:0 302:0 303:0 304:1.29 305:0 306:0 307:0 308:0 309:0.64999998 310:0 311:0 312:0 313:0 314:0 315:0 316:0 317:0 318:0 319:0 320:0 321:0 322:0 323:0.64999998 324:0.64999998 325:0.64999998 326:0 327:0 328:0.64999998 329:0.64999998 330:0 331:0 332:0 333:0 334:0 335:0 336:0 337:0 338:0 339:0 340:0 341:0 342:0 343:1.29 344:0.64999998 345:0.64999998 346:0 347:0 348:1.29 349:0 350:0 351:0 352:0 353:0.64999998 354:0 355:0.64999998 356:0 357:0.64999998 358:0.64999998 359:0 360:0 361:0 362:0 363:0 364:0 365:0 366:0 367:0 368:0 369:0 370:0 371:0 372:0 373:0 374:0 375:0 376:0 377:0 378:0 379:0 380:0 381:0 382:0 383:0 384:0 385:0 386:0 387:0 388:0 389:0 390:0 391:0 392:0 393:0 394:0 395:0 396:0 397:0 398:0 399:0 400:0 #
1.3302914332586439627448271494359 1:0.62 2:0 3:0.62 4:0 5:0.62 6:0.62 7:0 8:1.25 9:0 10:1.25 11:0 12:0 13:0.62 14:0 15:0 16:1.88 17:0.62 18:0.62 19:0 20:0 21:0 22:0 23:0 24:0 25:0 26:0 27:0 28:0 29:0 30:0 31:0 32:0 33:0 34:0 35:0 36:0 37:0 38:0 39:0 40:0 41:1.25 42:0 43:0 44:0 45:0 46:0 47:0.62 48:1.25 49:0 50:0.62 51:0 52:0 53:0 54:0 55:0 56:0.62 57:1.88 58:0 59:0 60:0 61:1.25 62:0 63:1.25 64:1.88 65:0 66:0.62 67:0 68:0.62 69:0 70:0.62 71:0 72:0 73:0 74:1.25 75:0.62 76:0.62 77:0.62 78:0 79:0 80:0 81:0 82:0 83:0 84:1.25 85:0 86:0 87:0 88:0 89:0 90:0.62 91:0 92:0 93:0 94:0 95:0.62 96:0.62 97:0 98:0 99:0 100:0 101:0 102:0 103:0.62 104:1.25 105:0 106:0 107:0.62 108:0 109:0.62 110:0.62 111:0 112:0 113:0 114:0 115:0 116:0 117:0.62 118:0.62 119:0 120:0 121:0 122:0 123:0 124:0 125:0.62 126:0 127:0 128:0 129:0 130:0.62 131:0 132:0.62 133:0.62 134:0 135:0 136:0 137:0 138:0 139:0 140:0 141:0.62 142:0 143:1.25 144:0.62 145:0 146:0 147:0 148:0 149:0 150:0.62 151:0 152:1.25 153:0 154:1.25 155:0 156:0.62 157:0 158:0 159:0 160:0 161:0.62 162:0 163:0 164:0 165:0 166:0.62 167:0 168:0 169:0 170:0.62 171:0 172:0 173:0 174:0 175:0.62 176:0.62 177:0 178:2.5 179:0 180:0 181:0 182:0 183:1.25 184:0.62 185:1.25 186:0 187:0 188:0.62 189:0.62 190:1.25 191:0 192:0.62 193:1.88 194:0.62 195:0.62 196:0 197:0.62 198:0 199:0.62 200:0 201:0 202:0 203:0 204:0 205:0 206:0 207:0 208:0.62 209:0 210:0 211:0.62 212:0 213:0 214:0 215:0 216:0 217:0 218:0 219:0 220:0 221:0.62 222:0 223:0 224:0 225:0 226:0 227:0 228:0 229:1.25 230:0.62 231:0 232:0 233:0.62 234:0 235:0 236:0.62 237:0.62 238:0 239:0 240:1.88 241:0.62 242:0 243:0 244:0.62 245:0 246:0.62 247:0 248:0.62 249:0.62 250:0 251:0 252:0 253:0 254:0 255:0 256:0.62 257:0 258:0.62 259:0 260:0 261:1.25 262:0 263:0 264:0.62 265:0 266:0.62 267:0 268:0 269:0 270:0.62 271:0 272:1.25 273:0 274:0 275:0 276:0 277:0 278:0 279:0 280:0 281:0.62 282:0 283:0 284:0.62 285:0 286:0 287:0.62 288:0 289:0 290:1.25 291:0 292:0 293:0 294:0.62 295:1.25 296:0 297:0 298:0 299:0 300:0 301:0 302:0 303:0.62 304:0 305:0.62 306:0 307:0.62 308:1.25 309:0.62 310:0.62 311:0 312:0.62 313:0 314:0.62 315:0 316:0.62 317:0 318:0 319:0.62 320:0 321:0 322:0 323:0 324:0 325:0 326:1.25 327:0 328:0 329:1.25 330:0.62 331:0 332:0 333:0 334:0 335:0.62 336:0.62 337:0 338:0.62 339:0 340:0 341:0.62 342:0 343:0 344:1.88 345:0 346:0 347:0 348:0 349:0.62 350:0 351:0 352:1.25 353:0 354:0 355:0.62 356:0 357:0 358:0.62 359:0 360:0 361:0.62 362:0 363:0.62 364:0 365:0 366:0 367:0 368:0 369:0 370:0 371:0 372:0.62 373:0 374:0 375:0 376:0 377:0 378:0 379:0 380:0 381:0 382:0 383:0 384:0 385:0 386:0.62 387:0 388:0 389:0 390:0 391:0 392:0 393:0.62 394:0 395:0 396:0 397:0 398:0 399:0.62 400:0 #
-1.531360146648750975018060671573 1:1.89 2:0 3:1.26 4:0.94999999 5:0.63 6:0.31999999 7:0.31999999 8:0 9:0 10:1.89 11:0.31999999 12:0.31999999 13:1.26 14:0 15:4.0999999 16:0 17:0.31999999 18:0.63 19:0.63 20:0.63 21:0 22:0 23:0 24:0 25:0 26:0.31999999 27:0 28:0 29:0 30:0 31:0 32:0 33:0 34:0 35:0 36:0 37:0 38:0 39:0 40:0 41:1.26 42:0 43:0 44:0.31999999 45:0 46:0.63 47:0.31999999 48:0 49:0 50:1.89 51:0 52:0 53:1.26 54:0 55:0.63 56:0 57:0 58:1.26 59:0 60:0 61:0.63 62:0 63:0 64:0.63 65:0 66:0.31999999 67:0.63 68:0 69:0 70:0 71:0 72:0 73:0.31999999 74:0 75:0 76:0 77:0 78:1.26 79:0 80:0 81:0.31999999 82:0 83:0 84:0 85:0 86:0 87:0 88:0 89:0 90:0.31999999 91:0.31999999 92:0 93:0 94:0 95:0.31999999 96:0 97:0 98:0 99:0 100:0 101:1.26 102:0 103:0.63 104:0.31999999 105:0.31999999 106:0.63 107:0.31999999 108:0.31999999 109:0 110:0.94999999 111:0 112:0 113:1.26 114:0 115:1.58 116:0.63 117:0.94999999 118:0.31999999 119:0 120:0 121:0.94999999 122:0 123:0 124:0 125:0 126:0.31999999 127:0 128:0 129:0 130:0.31999999 131:0 132:0 133:0.31999999 134:0 135:0.94999999 136:0 137:0 138:0.63 139:0 140:0 141:0 142:0 143:0 144:0 145:0 146:0.31999999 147:0 148:0 149:0 150:0.31999999 151:0 152:0 153:0 154:0 155:0.31999999 156:0 157:0 158:0 159:0 160:0 161:0 162:0 163:0 164:0 165:0 166:0 167:0 168:0 169:0 170:0 171:0 172:0 173:0 174:0 175:0 176:0 177:0 178:0 179:0 180:0 181:0.63 182:0.31999999 183:1.58 184:0 185:0.31999999 186:1.58 187:0.31999999 188:0.31999999 189:0 190:1.26 191:0 192:0 193:1.58 194:0 195:1.26 196:0.31999999 197:0.63 198:0.63 199:0 200:0 201:0.31999999 202:0 203:0 204:0 205:0 206:0 207:0.31999999 208:0 209:0 210:0 211:0.31999999 212:0 213:0 214:0 215:0 216:0.31999999 217:0.31999999 218:0.31999999 219:0 220:0 221:0 222:0 223:0 224:0 225:0 226:0 227:0 228:0 229:0 230:0 231:0 232:0 233:0 234:0 235:0 236:0.31999999 237:0 238:0 239:0 240:0 241:1.26 242:0 243:1.26 244:0.31999999 245:0 246:1.26 247:0 248:0 249:0 250:0.31999999 251:0 252:0 253:1.26 254:0.31999999 255:1.58 256:0.63 257:0.31999999 258:0.94999999 259:0 260:0 261:0.94999999 262:0 263:0 264:0 265:0 266:0 267:0 268:0 269:0 270:0 271:0 272:0 273:0 274:0.31999999 275:0.31999999 276:0 277:0 278:0.31999999 279:0 280:0 281:3.47 282:0 283:0.94999999 284:0.31999999 285:0 286:1.26 287:1.26 288:0 289:0 290:0.94999999 291:0 292:0 293:1.26 294:0.31999999 295:1.58 296:0.63 297:0.63 298:0.94999999 299:0.31999999 300:0.63 301:0.31999999 302:0 303:0 304:0 305:0 306:0.94999999 307:0 308:0 309:0 310:0.31999999 311:0 312:0 313:0.31999999 314:0.31999999 315:0.63 316:0.31999999 317:0 318:0.31999999 319:0 320:0 321:0.94999999 322:0 323:0.31999999 324:0 325:0 326:0.63 327:0 328:0 329:0 330:0.31999999 331:0 332:0 333:0.31999999 334:0.31999999 335:0.31999999 336:0 337:0 338:0.63 339:0.31999999 340:0.31999999 341:1.26 342:0 343:0.63 344:0.31999999 345:0 346:0.63 347:0.31999999 348:0.31999999 349:0 350:1.89 351:0.63 352:0 353:0.31999999 354:0 355:0.63 356:0.31999999 357:0.94999999 358:0 359:0 360:0 361:0 362:0 363:0.63 364:0 365:0 366:0.31999999 367:0 368:0 369:0 370:0 371:0 372:0 373:0 374:0.31999999 375:0 376:0 377:0 378:0 379:0 380:0 381:0 382:0 383:0.31999999 384:0.63 385:0 386:0 387:0 388:0 389:0 390:0 391:0 392:0 393:0 394:0 395:0.31999999 396:0 397:0.31999999 398:0 399:0 400:0 #
-0.74378042568417257474067127986928 1:0.54000002 2:0 3:0.31999999 4:0.31999999 5:0.22 6:0.22 7:0 8:0.43000001 9:0.31999999 10:0.43000001 11:0.11 12:0.22 13:0.11 14:0.11 15:0.11 16:0.31999999 17:0.43000001 18:0.31999999 19:0.11 20:0.11 21:0 22:0 23:0 24:0 25:0 26:0.11 27:0 28:0.11 29:0 30:0 31:0 32:0 33:0.11 34:0 35:0 36:0.11 37:0 38:0 39:0 40:0 41:0.22 42:0.11 43:0.22 44:0.31999999 45:0.43000001 46:0.11 47:0 48:0.54000002 49:0.31999999 50:0.31999999 51:0.11 52:0.64999998 53:0 54:0.43000001 55:0.11 56:0.43000001 57:0.31999999 58:0.31999999 59:0.11 60:0 61:0.43000001 62:0 63:0.43000001 64:1.08 65:0.54000002 66:0.31999999 67:0.11 68:0.97000003 69:0.31999999 70:0.86000001 71:0 72:0.22 73:0.22 74:0.11 75:0.22 76:0.43000001 77:0.54000002 78:0.11 79:0 80:0.11 81:0.11 82:0 83:0.22 84:0.22 85:0.11 86:0.75999999 87:0 88:0.43000001 89:0.11 90:0.64999998 91:0.11 92:0.22 93:0.11 94:0.22 95:0.11 96:0.22 97:0.22 98:0.22 99:0 100:0.11 101:0.54000002 102:0.11 103:0.31999999 104:0.11 105:0 106:0.54000002 107:0.22 108:0.54000002 109:0.22 110:0.31999999 111:0.22 112:0.43000001 113:0.11 114:0 115:0.31999999 116:0.75999999 117:0.22 118:0.22 119:0.11 120:0.11 121:0 122:0 123:0 124:0 125:0 126:0.22 127:0.22 128:0.31999999 129:0.11 130:0 131:0.11 132:0.11 133:0 134:0.11 135:0.11 136:0.11 137:0.22 138:0.11 139:0 140:0.22 141:0.54000002 142:0 143:0.43000001 144:0.54000002 145:0.11 146:0.31999999 147:0 148:0 149:0.43000001 150:0.54000002 151:0 152:0.54000002 153:0.64999998 154:0.64999998 155:0.75999999 156:0.75999999 157:0.54000002 158:0.43000001 159:0 160:0.31999999 161:0.31999999 162:0 163:0.31999999 164:0.22 165:0.11 166:0.11 167:0.22 168:0.64999998 169:0.54000002 170:0.64999998 171:0.11 172:0.22 173:0.54000002 174:0.54000002 175:0 176:0.86000001 177:0.43000001 178:0.75999999 179:0 180:0.11 181:0.31999999 182:0 183:0.75999999 184:0.64999998 185:0.31999999 186:0.54000002 187:0.11 188:0.43000001 189:0.64999998 190:0.75999999 191:0.11 192:0.97000003 193:0.22 194:0.22 195:0.64999998 196:0.64999998 197:0.11 198:0.54000002 199:0.11 200:0.43000001 201:0.11 202:0.11 203:0.11 204:0 205:0 206:0.22 207:0 208:0 209:0.22 210:0.22 211:0 212:0 213:0 214:0 215:0 216:0 217:0 218:0.43000001 219:0 220:0.11 221:0.11 222:0 223:0.43000001 224:0.54000002 225:0.11 226:0.64999998 227:0 228:0.31999999 229:0.64999998 230:0.31999999 231:0 232:0.54000002 233:0.22 234:0.31999999 235:0.22 236:1.73 237:0 238:0.54000002 239:0 240:0.31999999 241:0 242:0 243:0 244:0.22 245:0.11 246:0.43000001 247:0 248:0.43000001 249:0.31999999 250:0.54000002 251:0.11 252:0.11 253:0.22 254:0 255:0.11 256:0.43000001 257:0.31999999 258:0.64999998 259:0 260:0.11 261:0.31999999 262:0 263:0.11 264:0.31999999 265:0.22 266:0 267:0 268:0.22 269:0.22 270:0.11 271:0 272:0.43000001 273:0.22 274:0 275:0.54000002 276:0.97000003 277:0.31999999 278:0 279:0 280:0.11 281:0.22 282:0 283:0.11 284:0.22 285:0.31999999 286:0.11 287:0 288:0.22 289:0.43000001 290:0.22 291:0.11 292:0.54000002 293:0.31999999 294:0.22 295:0.11 296:0.43000001 297:0.43000001 298:0.54000002 299:0 300:0 301:0.43000001 302:0.11 303:0 304:1.3 305:0.54000002 306:0.43000001 307:0.31999999 308:0.86000001 309:0.64999998 310:0.97000003 311:0.22 312:0.86000001 313:0.31999999 314:0.64999998 315:0.31999999 316:1.95 317:1.51 318:0.31999999 319:0 320:0 321:0.22 322:0 323:0.43000001 324:0.22 325:0.75999999 326:0.11 327:0.43000001 328:0.54000002 329:0.75999999 330:0.86000001 331:0.11 332:0.22 333:0.11 334:0.22 335:0.22 336:0.64999998 337:0.22 338:0.22 339:0.11 340:0 341:0.31999999 342:0 343:0.54000002 344:0.54000002 345:0.11 346:0.11 347:0.22 348:0.54000002 349:0.22 350:0.43000001 351:0 352:0.43000001 353:0.64999998 354:0.22 355:0.54000002 356:0.64999998 357:0.43000001 358:0.11 359:0 360:0 361:0 362:0 363:0 364:0 365:0 366:0 367:0 368:0 369:0.11 370:0.22 371:0 372:0 373:0 374:0 375:0 376:0 377:0 378:0.11 379:0 380:0.11 381:0 382:0 383:0.31999999 384:0.22 385:0.11 386:0.11 387:0.11 388:0 389:0.11 390:0.22 391:0 392:0.31999999 393:0 394:0.11 395:0.11 396:0.31999999 397:0.11 398:0.11 399:0 400:0.11 #
0.93706223288168921659035959237372 1:0.56999999 2:0 3:0.56999999 4:0.56999999 5:0.56999999 6:1.14 7:0 8:1.14 9:0 10:0.56999999 11:0 12:1.14 13:0.56999999 14:0.56999999 15:0 16:0 17:0 18:0 19:0 20:0 21:0 22:0 23:0 24:0 25:0 26:0 27:0 28:0 29:0 30:0 31:0 32:0 33:0 34:0 35:0 36:0 37:0 38:0 39:0 40:0 41:0.56999999 42:0 43:0.56999999 44:0 45:0.56999999 46:0 47:0 48:0 49:0.56999999 50:0.56999999 51:0 52:1.14 53:0 54:0 55:0.56999999 56:0 57:0.56999999 58:0.56999999 59:0 60:0 61:0.56999999 62:0 63:0.56999999 64:0 65:0 66:0 67:0 68:1.14 69:0 70:1.14 71:0 72:0 73:0 74:1.7 75:0.56999999 76:0.56999999 77:0 78:0.56999999 79:0 80:0 81:0 82:0 83:1.7 84:0.56999999 85:0 86:0 87:0 88:0 89:0.56999999 90:0.56999999 91:0 92:0 93:0 94:0.56999999 95:0.56999999 96:0 97:0.56999999 98:0 99:0 100:0 101:0 102:0 103:0 104:0 105:1.7 106:0 107:0 108:1.14 109:0 110:0 111:0 112:0.56999999 113:0 114:0.56999999 115:0.56999999 116:0 117:0 118:0 119:0 120:0.56999999 121:0.56999999 122:0 123:0 124:0 125:0 126:0 127:0 128:0 129:0 130:0 131:0 132:0 133:0 134:0 135:0.56999999 136:0 137:0 138:0.56999999 139:0 140:0 141:1.7 142:0 143:0 144:1.7 145:0 146:0.56999999 147:0 148:0 149:0 150:0.56999999 151:0.56999999 152:0 153:0 154:0 155:0 156:0 157:0.56999999 158:0.56999999 159:0 160:0 161:0 162:0 163:0.56999999 164:0 165:0 166:0 167:0 168:0.56999999 169:0 170:0 171:0 172:0 173:0.56999999 174:0.56999999 175:0 176:0 177:0 178:0.56999999 179:0 180:0.56999999 181:1.14 182:0 183:0 184:1.14 185:0.56999999 186:0 187:0.56999999 188:0 189:0 190:1.14 191:0 192:0 193:0 194:0 195:0 196:1.14 197:1.14 198:2.8399999 199:0 200:0.56999999 201:0.56999999 202:0 203:0 204:0 205:0 206:0 207:0 208:0 209:0 210:0.56999999 211:0 212:0 213:0 214:0 215:1.14 216:0 217:0 218:0 219:0 220:0 221:0 222:0 223:0 224:0.56999999 225:0 226:1.14 227:0.56999999 228:0.56999999 229:0 230:1.14 231:0 232:0 233:0 234:0 235:0 236:0 237:0.56999999 238:0.56999999 239:0 240:0 241:0 242:0 243:0 244:0.56999999 245:0 246:0.56999999 247:0 248:0 249:0 250:0.56999999 251:0 252:0 253:0.56999999 254:0 255:0.56999999 256:0.56999999 257:0 258:0 259:0 260:0.56999999 261:0 262:0 263:0 264:0 265:0 266:0 267:0.56999999 268:0 269:0.56999999 270:0.56999999 271:0 272:0 273:0.56999999 274:1.14 275:2.27 276:0 277:0 278:0.56999999 279:0 280:0 281:0.56999999 282:0 283:1.14 284:0.56999999 285:0.56999999 286:1.14 287:0 288:1.14 289:1.14 290:0.56999999 291:0 292:0.56999999 293:0 294:0 295:0 296:1.14 297:1.14 298:0 299:0 300:0 301:1.7 302:0 303:0 304:1.14 305:0 306:0 307:0 308:0 309:0 310:0.56999999 311:0 312:0 313:0.56999999 314:0 315:0 316:0 317:0 318:0.56999999 319:0 320:0.56999999 321:0 322:0 323:0.56999999 324:0 325:1.14 326:0.56999999 327:0 328:0.56999999 329:0 330:0.56999999 331:0.56999999 332:0 333:0 334:0 335:0.56999999 336:0.56999999 337:0 338:0 339:0 340:0 341:0 342:0 343:0 344:0 345:0 346:0 347:0 348:0 349:0.56999999 350:1.14 351:0.56999999 352:1.14 353:0.56999999 354:1.14 355:0.56999999 356:1.14 357:0.56999999 358:0.56999999 359:0 360:0 361:0 362:0 363:0 364:0 365:0 366:0 367:0 368:0 369:0 370:0 371:0 372:0 373:0 374:0 375:0 376:0 377:0 378:0 379:0 380:0 381:0 382:0 383:0 384:0 385:0 386:0 387:0 388:0 389:0 390:0 391:0 392:0.56999999 393:0.56999999 394:0 395:1.7 396:0 397:0 398:0 399:0 400:0 #
1.6596139888240279969267021442647 1:0.38 2:0 3:0 4:0 5:0.38 6:0.38 7:0.38 8:0.75999999 9:0.38 10:0 11:0 12:0.75999999 13:1.14 14:0 15:0.38 16:0 17:0 18:0 19:0 20:0.38 21:0.38 22:0 23:0 24:0 25:0 26:0 27:0 28:0 29:0 30:0 31:0 32:0 33:0 34:0 35:0 36:0 37:0 38:0 39:0 40:0 41:0 42:0 43:0.38 44:0.75999999 45:0 46:1.14 47:0 48:0 49:0 50:0.38 51:0 52:1.14 53:0.38 54:0.38 55:0.38 56:0 57:0 58:0.75999999 59:0 60:0 61:0.38 62:0 63:0.38 64:1.52 65:1.14 66:0 67:0 68:0 69:1.14 70:0 71:0.75999999 72:0.38 73:0 74:0.75999999 75:0.38 76:1.14 77:0 78:0.38 79:0 80:0.38 81:0 82:0 83:0.38 84:0.75999999 85:0 86:0.75999999 87:0.38 88:0 89:0 90:0.38 91:0.38 92:0 93:0 94:0 95:0.75999999 96:1.14 97:0.38 98:0 99:0 100:0 101:1.14 102:0 103:0 104:0 105:0.38 106:0.75999999 107:0 108:0 109:0.38 110:0 111:0 112:0.38 113:0.38 114:0 115:0 116:0 117:0.38 118:0.38 119:0 120:0.38 121:0.38 122:0 123:0 124:0.75999999 125:0 126:0.38 127:0.38 128:0 129:0 130:0 131:0 132:0 133:0 134:0 135:0.38 136:0 137:0 138:0 139:0.38 140:0 141:0.38 142:0 143:1.14 144:0 145:0.38 146:0 147:0 148:0 149:0.38 150:0 151:0 152:0 153:0 154:0.38 155:0 156:1.14 157:0 158:0 159:0 160:0 161:0 162:0 163:0.38 164:0.38 165:0 166:0 167:0.38 168:0 169:0.38 170:0.38 171:0 172:0.38 173:0.38 174:0 175:0.38 176:0.38 177:1.14 178:0 179:0 180:0 181:0.38 182:0 183:0.75999999 184:0 185:0 186:0 187:0 188:0.38 189:0.38 190:0.75999999 191:0.75999999 192:0 193:0.75999999 194:0.38 195:1.14 196:0.38 197:0.38 198:0.75999999 199:0 200:0 201:0.38 202:0 203:0 204:0 205:0 206:0 207:0.38 208:0.38 209:0.38 210:0 211:0 212:0 213:0 214:0 215:0.75999999 216:0.38 217:0 218:0 219:0 220:0 221:0.38 222:0.38 223:0 224:0.75999999 225:0 226:0.38 227:0 228:0 229:0 230:0.38 231:0.38 232:0.38 233:0.38 234:0.75999999 235:1.14 236:0.38 237:0 238:0.38 239:0 240:0.75999999 241:0.38 242:0 243:0 244:0.75999999 245:0.38 246:0 247:0 248:0 249:0 250:1.14 251:0 252:0.38 253:0.75999999 254:0.75999999 255:0.38 256:0.38 257:0.38 258:0 259:0 260:0.75999999 261:0 262:0 263:0 264:0.75999999 265:0 266:0 267:0 268:0.75999999 269:0.38 270:0.38 271:0 272:0 273:0.75999999 274:0.38 275:0.38 276:0 277:0 278:0 279:0 280:0 281:0 282:0 283:0.38 284:0.38 285:1.14 286:0.38 287:0 288:0.38 289:0 290:1.52 291:0 292:0 293:0.75999999 294:0 295:1.52 296:0.75999999 297:1.52 298:0.38 299:0 300:0 301:0 302:0 303:0.75999999 304:1.14 305:0.75999999 306:0 307:0.38 308:0 309:0 310:0 311:0 312:1.14 313:0.38 314:0 315:0.38 316:1.14 317:1.52 318:0.75999999 319:0 320:0 321:0.38 322:0 323:0.38 324:0 325:0.38 326:0.38 327:0 328:0.38 329:0 330:1.14 331:0 332:0.38 333:0.38 334:0.38 335:0 336:0.38 337:0.38 338:1.14 339:0 340:0.38 341:0.38 342:0 343:0.38 344:0.75999999 345:0.38 346:0 347:0.38 348:0.75999999 349:0.38 350:0.38 351:0 352:0.38 353:0 354:0 355:0.38 356:0 357:0.38 358:0 359:0 360:0 361:0 362:0 363:0 364:0 365:0 366:0 367:0 368:0 369:0 370:0 371:0 372:0.38 373:0 374:0 375:0 376:0 377:0 378:0 379:0 380:0 381:0 382:0 383:0.38 384:0 385:0 386:0 387:0 388:0 389:0.38 390:0.38 391:0 392:0.75999999 393:0 394:0 395:0.38 396:0.75999999 397:0 398:0 399:0 400:0 #
-1.531360146648750975018060671573 1:0 2:0 3:0.14 4:0 5:0 6:0.14 7:0 8:0.28999999 9:0 10:0.28999999 11:0 12:0 13:0 14:0 15:0 16:0.43000001 17:0.14 18:0 19:0 20:0.28999999 21:0 22:0.14 23:0.14 24:0.14 25:0 26:0.14 27:0 28:0 29:0 30:0.14 31:0 32:0.28999999 33:0 34:0 35:0.28999999 36:0.56999999 37:0 38:0 39:0 40:0 41:0.14 42:0 43:0.14 44:0.14 45:0.14 46:0.14 47:0 48:0.28999999 49:0.43000001 50:0.56999999 51:0 52:0.28999999 53:0.14 54:0 55:0 56:0.14 57:0 58:0.28999999 59:0 60:0 61:0.14 62:0.14 63:0 64:0.14 65:0 66:0 67:0 68:0.56999999 69:0.28999999 70:0.14 71:0 72:0.28999999 73:0 74:0.14 75:0 76:0.28999999 77:0.14 78:0.28999999 79:0 80:0 81:0 82:0 83:0 84:0.28999999 85:0.28999999 86:0 87:0 88:0.14 89:0 90:0.28999999 91:0.14 92:0.28999999 93:0.14 94:0.14 95:0 96:0.14 97:0.14 98:0 99:0 100:0.14 101:0 102:0.14 103:0.28999999 104:0 105:0.28999999 106:0 107:0 108:0.14 109:0 110:0.14 111:0 112:0.70999998 113:0 114:0.14 115:0 116:0.70999998 117:0.14 118:0.14 119:0 120:0 121:0 122:0 123:0 124:0 125:0 126:0 127:0 128:0 129:0.28999999 130:0 131:0 132:0 133:0.14 134:0 135:0 136:0 137:0 138:0 139:0 140:0 141:0 142:0.43000001 143:0.56999999 144:0 145:0 146:0.43000001 147:0 148:0.14 149:0.43000001 150:0.86000001 151:0.14 152:0.86000001 153:0.14 154:0 155:0 156:1.86 157:0.43000001 158:0 159:0 160:0.14 161:0.14 162:0.28999999 163:0 164:0.28999999 165:0.14 166:0.28999999 167:0.14 168:0.43000001 169:0.56999999 170:0.56999999 171:0 172:1.14 173:0 174:0.28999999 175:0.28999999 176:0.43000001 177:0 178:0.14 179:0 180:0.28999999 181:0.28999999 182:0.28999999 183:0 184:0 185:0.28999999 186:0.70999998 187:0 188:0.56999999 189:0.86000001 190:0.56999999 191:0.14 192:1.14 193:0.43000001 194:0.28999999 195:0 196:0.56999999 197:0.28999999 198:0.56999999 199:0 200:0 201:0 202:0 203:0.14 204:0.43000001 205:0 206:0.14 207:0 208:0 209:0.14 210:0 211:0 212:0 213:0 214:0 215:0 216:0.14 217:0 218:0 219:0 220:0 221:0.14 222:0.28999999 223:0.28999999 224:0.14 225:0.43000001 226:0.28999999 227:0 228:1.14 229:1.5700001 230:0.86000001 231:0 232:21.860001 233:0.14 234:1 235:0.28999999 236:3.71 237:0.56999999 238:0 239:0 240:1.29 241:0.14 242:0 243:0.14 244:0.14 245:0 246:0 247:0 248:0.28999999 249:0.28999999 250:0 251:0 252:0.43000001 253:0 254:0.14 255:0 256:0.43000001 257:0.14 258:0 259:0 260:0 261:0 262:0 263:0 264:0 265:0.28999999 266:0.14 267:0 268:0.28999999 269:0.14 270:0.14 271:0 272:0.86000001 273:0.14 274:0.28999999 275:0 276:0.28999999 277:0 278:0.14 279:0 280:0 281:0 282:0 283:0.14 284:0.14 285:0 286:0 287:0 288:0.43000001 289:0.14 290:0 291:0 292:0.14 293:0 294:0 295:0 296:0 297:0 298:0 299:0 300:0 301:0.43000001 302:0.14 303:0.28999999 304:0.43000001 305:0 306:0 307:0.14 308:1 309:0.14 310:1.71 311:0.28999999 312:4 313:0.56999999 314:0.14 315:0 316:4.29 317:1.4299999 318:0.86000001 319:0 320:0.28999999 321:0.14 322:0 323:0 324:0 325:0 326:0.14 327:0 328:0.28999999 329:0 330:0.56999999 331:0 332:0.56999999 333:0 334:0.14 335:0.14 336:1.4299999 337:0.56999999 338:0 339:0 340:0.14 341:0 342:0 343:0.28999999 344:0.14 345:0.14 346:0 347:0 348:0.28999999 349:0.14 350:0 351:0.14 352:0.28999999 353:0.28999999 354:0 355:0 356:0.56999999 357:0.14 358:0.28999999 359:0 360:0 361:0 362:0 363:0 364:0 365:0 366:0 367:0 368:0 369:0 370:0 371:0 372:0 373:0 374:0 375:0 376:0 377:0 378:0 379:0 380:0 381:0.14 382:0 383:0.28999999 384:0.14 385:0.14 386:0.28999999 387:0.14 388:0.14 389:0.14 390:0.14 391:0 392:0.86000001 393:0 394:0 395:0 396:0.14 397:0 398:0 399:0 400:0.28999999 #
-1.531360146648750975018060671573 1:0 2:0 3:0 4:0 5:0 6:0.13 7:0.13 8:0.13 9:0 10:0.13 11:0.13 12:0.13 13:0.13 14:0 15:0 16:0.38 17:0 18:0 19:0 20:0.25999999 21:0 22:0 23:0.13 24:0.25999999 25:0 26:0.13 27:0.13 28:0 29:0 30:0 31:0 32:0.50999999 33:0 34:0 35:0.25999999 36:0.13 37:0 38:0 39:0 40:0 41:0 42:0.13 43:0 44:0.25999999 45:0.13 46:0 47:0 48:0.25999999 49:0.13 50:0.13 51:0 52:0.38 53:0.13 54:0.25999999 55:0.13 56:0.38 57:0.13 58:0.63999999 59:0 60:0.13 61:0.13 62:0.13 63:0 64:0.13 65:0.13 66:0.13 67:0 68:0.25999999 69:0.50999999 70:0.76999998 71:0 72:0.13 73:0 74:0 75:0.13 76:0.25999999 77:0 78:0.13 79:0 80:0.38 81:0 82:0 83:0.38 84:0 85:0.50999999 86:0.50999999 87:0.13 88:0 89:0.50999999 90:0 91:0.25999999 92:0.63999999 93:0 94:0 95:0.13 96:1.03 97:0.25999999 98:0.25999999 99:0 100:0 101:0.13 102:0.13 103:0.13 104:0 105:0.38 106:1.03 107:0 108:0.25999999 109:0.38 110:0 111:0 112:1.28 113:0 114:0.13 115:0.13 116:0.89999998 117:0.13 118:0.38 119:0 120:0 121:0.13 122:0 123:0.25999999 124:0 125:0 126:0.25999999 127:0.50999999 128:0.25999999 129:0 130:0.13 131:0 132:0.50999999 133:0.13 134:0.25999999 135:0.25999999 136:0.25999999 137:0.13 138:0 139:0 140:0 141:0 142:0 143:0.25999999 144:0.25999999 145:0.25999999 146:0.25999999 147:0.25999999 148:0.38 149:0.50999999 150:0.25999999 151:0.13 152:1.03 153:0.76999998 154:0.13 155:0 156:0.38 157:0.63999999 158:0 159:0 160:0.25999999 161:0.25999999 162:0 163:0.25999999 164:0.25999999 165:0.13 166:0.25999999 167:0.13 168:0.25999999 169:0.25999999 170:0 171:0 172:0.13 173:0 174:0.50999999 175:0.25999999 176:0.25999999 177:0.13 178:0.25999999 179:0 180:0.25999999 181:0.13 182:0.13 183:0.13 184:0.38 185:0.13 186:0.13 187:0 188:0.25999999 189:0.13 190:0.38 191:0 192:0.13 193:0.25999999 194:0 195:0 196:0.38 197:0.13 198:0 199:0 200:0.38 201:0 202:0 203:0.13 204:0 205:0.13 206:0 207:0.50999999 208:0 209:0 210:0 211:0 212:0.25999999 213:0 214:0 215:0.25999999 216:0 217:0 218:0.13 219:0 220:0 221:0.13 222:0.25999999 223:0.25999999 224:0.25999999 225:0.89999998 226:1.03 227:0 228:1.03 229:0.38 230:0.50999999 231:0.25999999 232:22.82 233:0 234:0.63999999 235:1.03 236:2.6900001 237:0.25999999 238:0.13 239:0 240:0.63999999 241:0.13 242:0 243:0.25999999 244:0 245:0.50999999 246:0 247:0 248:0.38 249:0 250:0.13 251:0 252:0.50999999 253:1.03 254:0 255:0.13 256:0.89999998 257:0.25999999 258:0.13 259:0 260:0 261:0.13 262:0.25999999 263:0 264:0.13 265:0.50999999 266:0 267:0.63999999 268:0.25999999 269:0.13 270:0.13 271:0.13 272:0.13 273:0.25999999 274:0.13 275:0 276:0.25999999 277:0 278:0 279:0 280:0 281:0.25999999 282:0 283:0.25999999 284:0.38 285:0 286:0.13 287:0 288:0.38 289:0 290:0.13 291:0 292:0.89999998 293:0 294:0.25999999 295:0.13 296:0.13 297:0.13 298:0.25999999 299:0 300:0 301:0 302:0.25999999 303:0.38 304:0.13 305:0.38 306:0.89999998 307:0.25999999 308:0.76999998 309:0.13 310:0.25999999 311:0.25999999 312:2.8199999 313:1.03 314:0.50999999 315:0.13 316:1.92 317:0.13 318:0.38 319:0 320:0 321:0.13 322:0.25999999 323:0.13 324:0.13 325:0.13 326:0.13 327:0.25999999 328:0.38 329:0.13 330:0 331:0.13 332:0 333:0.50999999 334:0.13 335:0 336:0.13 337:0.25999999 338:0.25999999 339:0 340:0 341:0 342:0 343:0.13 344:0.38 345:0.38 346:0 347:0 348:0.38 349:0.13 350:0 351:0 352:0.63999999 353:0 354:0.13 355:0.13 356:0.13 357:0.38 358:0.25999999 359:0 360:0.13 361:0 362:0 363:0 364:0 365:0 366:0 367:0 368:0 369:0 370:0 371:0 372:0 373:0 374:0 375:0 376:0 377:0 378:0 379:0 380:0 381:0 382:0 383:0.13 384:0.25999999 385:0 386:0.38 387:0.13 388:0.13 389:0.25999999 390:0.13 391:0 392:0.38 393:0.13 394:0 395:0.25999999 396:0.13 397:0.13 398:0 399:0 400:0.25999999 #
-0.32700294168529503435749461459636 1:0.16 2:0.16 3:0.16 4:0.62 5:0 6:0 7:0 8:0.31 9:0.47 10:0.31 11:0 12:0 13:0.16 14:0 15:0 16:0 17:0.31 18:0.31 19:0 20:0.31 21:0.16 22:0 23:0.16 24:0 25:0.16 26:0.16 27:0.16 28:0.16 29:0 30:0 31:0 32:0 33:0 34:0 35:0 36:0 37:0 38:0 39:0 40:0.16 41:0.16 42:0 43:3.28 44:2.8099999 45:0.16 46:0.47 47:0.16 48:0 49:0.77999997 50:0.16 51:0 52:0.31 53:0 54:0.31 55:0.16 56:0.47 57:0.16 58:0.31 59:0 60:0.16 61:0.47 62:0 63:1.5599999 64:7.6599998 65:0.62 66:0.16 67:0 68:0.62 69:1.88 70:0.31 71:0.31 72:0.16 73:0.16 74:0.31 75:0.77999997 76:0.77999997 77:0.31 78:1.41 79:0 80:0.31 81:0 82:0 83:0.62 84:0.47 85:0 86:0.16 87:0.16 88:0 89:0.31 90:0 91:0.16 92:0.16 93:0 94:0 95:0 96:0.62 97:0.16 98:0 99:0 100:0.16 101:0 102:0 103:0 104:0.47 105:0.31 106:0.47 107:0 108:0 109:0.94 110:0 111:0 112:0.16 113:0 114:0 115:0.16 116:0.16 117:0 118:0 119:0 120:0 121:0.31 122:0 123:0 124:0.16 125:0.16 126:0 127:0 128:0 129:0.31 130:0.31 131:0 132:0 133:0.16 134:0.16 135:0.31 136:0.16 137:0 138:0.16 139:0 140:0 141:0.31 142:0 143:0 144:0.47 145:0 146:0.16 147:0 148:0.16 149:0.31 150:0.31 151:0 152:0.31 153:0.47 154:0.16 155:0.16 156:0.31 157:0 158:0.31 159:0.16 160:0 161:0.31 162:0.31 163:0.62 164:0.94 165:0 166:0.31 167:0.47 168:0.31 169:6.5599999 170:0.47 171:0.31 172:0.62 173:0.77999997 174:1.09 175:0.62 176:2.97 177:0.62 178:0.77999997 179:0 180:0 181:0.16 182:0 183:0.31 184:0.62 185:0.16 186:0 187:0 188:0.16 189:0.77999997 190:0 191:0.16 192:0 193:0 194:0.31 195:0.16 196:0.16 197:0 198:0 199:0.16 200:0 201:0 202:0 203:0.16 204:0.16 205:0.31 206:0 207:0 208:0 209:0.16 210:0 211:0 212:0 213:0 214:0 215:0 216:0.16 217:0 218:0.31 219:0 220:0 221:0 222:0 223:0.16 224:0.16 225:0.16 226:0 227:0.47 228:0.16 229:0.94 230:0.31 231:0 232:0.16 233:0.16 234:0.31 235:0 236:0.31 237:0 238:0 239:0 240:0 241:0 242:0 243:0.16 244:0.16 245:0 246:0 247:0.16 248:0.16 249:0.62 250:0.16 251:0 252:0 253:0 254:0.16 255:0 256:0.16 257:0.31 258:0.62 259:0 260:0 261:0 262:0 263:0.62 264:0.16 265:0.16 266:0.16 267:0.16 268:0.16 269:0.62 270:0.31 271:0 272:0.16 273:0.16 274:0.94 275:0.31 276:0.47 277:0.16 278:0.16 279:0.16 280:0 281:0.31 282:0.16 283:0.16 284:0.62 285:0.16 286:0.31 287:0.16 288:0.16 289:0.16 290:0.16 291:0 292:0.16 293:0 294:0.47 295:0 296:0.31 297:0.16 298:0 299:0 300:0 301:0 302:0.16 303:0.94 304:0.77999997 305:0 306:0 307:0 308:0.31 309:1.88 310:0.31 311:0.16 312:1.09 313:0.47 314:0.31 315:0.47 316:2.03 317:0.47 318:0.16 319:0 320:0.16 321:0.62 322:0 323:0.16 324:0.31 325:0 326:0.31 327:0.16 328:0.31 329:0.62 330:0 331:0 332:0 333:0.16 334:0 335:0 336:0 337:0.31 338:0.16 339:0 340:0 341:0.16 342:0.31 343:0.31 344:1.25 345:0.47 346:0 347:0 348:0.62 349:0.62 350:0.16 351:0 352:0 353:0 354:0.31 355:0.16 356:0.31 357:0 358:0.31 359:0 360:0 361:0.16 362:0 363:0 364:0 365:0 366:0 367:0.16 368:0 369:0 370:0 371:0 372:0 373:0 374:0 375:0 376:0 377:0 378:0 379:0 380:0.16 381:0 382:0 383:0.47 384:0 385:0.16 386:0 387:0 388:0 389:0.16 390:0 391:0 392:0 393:0 394:0 395:0.16 396:0.31 397:0.16 398:0 399:0 400:0.16 #
3.1453530637366116096131918311585 1:4.3299999 2:0.43000001 3:1.73 4:0.43000001 5:0 6:0.87 7:0.43000001 8:0 9:0.43000001 10:1.73 11:0.43000001 12:0 13:0.43000001 14:0 15:0.43000001 16:0.87 17:0 18:0.43000001 19:0 20:0 21:0 22:0 23:0 24:0 25:0 26:0 27:0 28:0 29:0 30:0.43000001 31:0 32:0 33:0 34:0 35:0 36:0 37:0 38:0 39:0 40:0 41:0.87 42:0 43:0 44:0.43000001 45:0 46:1.73 47:0.43000001 48:0 49:0 50:0.87 51:0 52:0.87 53:0.43000001 54:0 55:0.43000001 56:0.43000001 57:0 58:0.43000001 59:0.43000001 60:0.43000001 61:0.43000001 62:0 63:0.87 64:0.87 65:0 66:0.43000001 67:0.87 68:0.43000001 69:0 70:0.43000001 71:0 72:0.43000001 73:0 74:0.43000001 75:0.87 76:0 77:0.43000001 78:0.43000001 79:0 80:0 81:0 82:0 83:0.43000001 84:0 85:1.3 86:0.87 87:0 88:0 89:0 90:0 91:0 92:0 93:0 94:0 95:1.3 96:0 97:0 98:0 99:0.43000001 100:0 101:1.3 102:0 103:2.5999999 104:0.87 105:0.43000001 106:1.73 107:0.43000001 108:0.43000001 109:0 110:0.43000001 111:0.43000001 112:0 113:0.87 114:0 115:0.87 116:0 117:0 118:1.3 119:0 120:0 121:0 122:0 123:0 124:0.43000001 125:0 126:0.43000001 127:0.43000001 128:0 129:0 130:0 131:0 132:0 133:0 134:0.43000001 135:0.87 136:0 137:0 138:0.43000001 139:0.43000001 140:0 141:0.43000001 142:0 143:0 144:0.43000001 145:0 146:0.43000001 147:0 148:0 149:0 150:0.43000001 151:0 152:0 153:0 154:0 155:0 156:0 157:0 158:0.43000001 159:0 160:0 161:0 162:0 163:0 164:0 165:0 166:0.43000001 167:0 168:0.43000001 169:0.87 170:0.43000001 171:0 172:0 173:0 174:0 175:0 176:0.43000001 177:0 178:0.43000001 179:0 180:0 181:3.03 182:0 183:0.87 184:0.43000001 185:0 186:0.43000001 187:0 188:0 189:0.43000001 190:1.3 191:0 192:0.43000001 193:0.87 194:0 195:0.43000001 196:0.43000001 197:0.43000001 198:0 199:0 200:0 201:0.43000001 202:0 203:0 204:0 205:0 206:0 207:0 208:0 209:0 210:0 211:0 212:0 213:0 214:0 215:0.43000001 216:0.43000001 217:0 218:0.43000001 219:0 220:0 221:0.43000001 222:0 223:0 224:0 225:0 226:0.43000001 227:0 228:0 229:0 230:0 231:0 232:0 233:0 234:0 235:0 236:0.43000001 237:0 238:0.43000001 239:0 240:0 241:0 242:0 243:0.43000001 244:0.87 245:0.43000001 246:0.87 247:0 248:0 249:0 250:0.87 251:0 252:0 253:0 254:0 255:0.43000001 256:0 257:0 258:0 259:0.43000001 260:0 261:0 262:0 263:0 264:0 265:0.43000001 266:0 267:0 268:0 269:0 270:0 271:0 272:0 273:0 274:0 275:0 276:0 277:0.87 278:0.43000001 279:0 280:0 281:1.3 282:0 283:0.43000001 284:1.3 285:0.87 286:1.3 287:0 288:0.43000001 289:0.43000001 290:0.43000001 291:0 292:0 293:0 294:0.43000001 295:2.1600001 296:0.43000001 297:0 298:1.73 299:0 300:0 301:0 302:0 303:0 304:0 305:0 306:0.87 307:0.43000001 308:0.43000001 309:0 310:0.43000001 311:0.43000001 312:0 313:0.43000001 314:0.43000001 315:0.87 316:0 317:0 318:0.43000001 319:0 320:0 321:0 322:0 323:0 324:0 325:0 326:0 327:0 328:0 329:0.43000001 330:0 331:0 332:0 333:0.43000001 334:0 335:0.43000001 336:0 337:0 338:0.43000001 339:0 340:0 341:0.43000001 342:0 343:0.43000001 344:0.87 345:0.43000001 346:1.3 347:0 348:0 349:0.43000001 350:1.3 351:0 352:0 353:0.87 354:0 355:0.87 356:0.87 357:0 358:0.87 359:0 360:0 361:0 362:0 363:0 364:0 365:0.43000001 366:0 367:0.43000001 368:0 369:0 370:0 371:0 372:0 373:0 374:0 375:0.87 376:0 377:0 378:0 379:0 380:0 381:0 382:0 383:0 384:0 385:0 386:0 387:0 388:0 389:0 390:0 391:0 392:0 393:0 394:0 395:0 396:0.43000001 397:0 398:0 399:0 400:0 #
-1.1919700726693633896502433344722 1:0.44 2:0 3:0.22 4:0 5:0 6:0.66000003 7:0 8:0.22 9:0 10:0.44 11:0 12:0.44 13:0.22 14:0.22 15:0.22 16:0.66000003 17:0.44 18:0 19:0 20:0.87 21:0.66000003 22:0.22 23:0 24:0.44 25:0 26:0.44 27:0.22 28:0.44 29:0 30:0 31:0 32:0.22 33:0.22 34:0 35:0 36:0 37:0 38:0 39:0 40:0 41:0.44 42:0.22 43:1.3099999 44:0.44 45:0.22 46:0.44 47:0 48:0.66000003 49:0.44 50:1.53 51:0 52:0.66000003 53:0.22 54:0.22 55:0.66000003 56:0.66000003 57:0.22 58:0.66000003 59:0 60:0 61:0.44 62:0.22 63:0.66000003 64:0.44 65:0.22 66:0.66000003 67:0 68:1.3099999 69:1.09 70:0.22 71:0 72:0.22 73:0 74:0.22 75:0.22 76:0.22 77:0.22 78:0.22 79:0 80:0.22 81:0 82:0.22 83:0.87 84:0.22 85:0.44 86:0.44 87:0.22 88:0 89:0.44 90:0.44 91:0.22 92:0.66000003 93:0.44 94:0 95:0.22 96:0 97:0.22 98:0.22 99:0 100:0 101:0.66000003 102:0 103:1.3099999 104:0.44 105:0.44 106:0.22 107:0.22 108:0.22 109:0.87 110:0.66000003 111:0.22 112:0.44 113:0.22 114:0 115:0.44 116:0.87 117:0 118:0.22 119:0.44 120:0 121:0.22 122:0 123:0.44 124:0 125:0.22 126:0.44 127:0.44 128:0.22 129:0 130:0.22 131:0 132:0 133:0.22 134:0 135:0 136:0 137:0.22 138:0.22 139:0 140:0.22 141:0.22 142:0.22 143:0.66000003 144:0.22 145:0.22 146:0 147:0.44 148:0.44 149:1.09 150:0.44 151:0 152:0 153:0 154:0.22 155:0.22 156:0.66000003 157:0.87 158:0 159:0 160:0 161:0.22 162:0.44 163:0.44 164:0.87 165:0.87 166:0.66000003 167:0.22 168:0.44 169:0.66000003 170:0.44 171:0 172:0.66000003 173:0.66000003 174:0.44 175:0.87 176:0.44 177:0.87 178:0 179:0 180:0.44 181:0.44 182:0 183:0.22 184:0.22 185:0 186:0.44 187:0 188:0 189:1.53 190:0.66000003 191:0 192:0 193:0.44 194:0 195:0 196:0.87 197:1.3099999 198:0.22 199:0 200:1.09 201:0.22 202:0 203:0 204:0 205:0 206:0.22 207:0 208:0 209:0 210:0 211:0 212:0.22 213:0 214:0 215:0 216:0.22 217:0 218:0 219:0 220:0 221:0 222:0 223:0 224:0.87 225:1.53 226:0.87 227:0 228:0 229:0 230:0.66000003 231:0 232:0.87 233:0.44 234:0 235:0 236:0 237:0.22 238:0.22 239:0.22 240:0 241:0 242:0 243:0.66000003 244:0.66000003 245:0.22 246:1.09 247:0.22 248:0.22 249:0.66000003 250:0 251:0 252:0 253:0.22 254:0 255:0 256:0.22 257:0 258:0 259:0 260:0 261:0 262:0 263:0.44 264:0.44 265:0 266:0 267:0 268:0.22 269:0.44 270:0 271:0 272:0 273:0 274:0 275:0 276:0 277:0 278:0.22 279:0.22 280:0 281:0 282:0.22 283:0.22 284:0 285:0.22 286:0.22 287:0 288:0.22 289:0.44 290:0.66000003 291:0 292:0 293:0.66000003 294:0.22 295:0 296:0.22 297:0 298:0.22 299:0 300:0 301:0.22 302:0.44 303:0.44 304:0.44 305:0 306:0.66000003 307:0.66000003 308:0.22 309:0.87 310:0.44 311:0 312:0.44 313:0 314:0.22 315:0 316:1.3099999 317:0 318:0.22 319:0 320:0.22 321:0.44 322:0.22 323:0.22 324:0.44 325:0.22 326:0.22 327:0.22 328:0.66000003 329:0.44 330:0.44 331:0 332:0.44 333:0 334:0 335:0.22 336:0.44 337:0.22 338:0.87 339:0 340:0 341:0.44 342:0.22 343:0.22 344:0.22 345:0.22 346:0 347:0.22 348:0.44 349:0.44 350:0.22 351:0 352:0.66000003 353:0 354:0.22 355:0.22 356:0 357:0.44 358:0.44 359:0 360:0 361:0 362:0 363:0 364:0 365:0.22 366:0 367:0 368:0 369:0.22 370:0 371:0 372:0 373:0.22 374:0 375:0 376:0 377:0 378:0.22 379:0 380:0 381:0 382:0.22 383:0.66000003 384:0.44 385:0 386:0.22 387:0 388:0 389:0 390:0 391:0.22 392:0 393:0 394:0.22 395:0.22 396:0 397:0.44 398:0.44 399:0 400:0 #
5.3571475859773496353000155068003 1:4.9899998 2:0 3:0.28 4:1.11 5:0 6:0.82999998 7:0 8:0 9:0 10:1.39 11:0.55000001 12:0 13:2.49 14:0.55000001 15:0.55000001 16:0.55000001 17:2.77 18:0.28 19:0 20:0 21:0.28 22:0 23:0 24:0 25:0 26:0 27:0 28:0 29:0 30:0 31:0 32:0 33:0 34:0 35:0 36:0 37:0.28 38:0 39:0 40:0 41:0 42:0 43:0.55000001 44:0.28 45:0 46:0.28 47:0.28 48:0 49:0.28 50:0.28 51:0.55000001 52:0 53:0.28 54:0 55:0 56:0 57:0 58:0 59:0 60:0 61:0.55000001 62:0 63:0 64:0.28 65:0 66:0.28 67:0 68:0.55000001 69:0 70:0.28 71:0.28 72:0 73:0.55000001 74:0.55000001 75:0.28 76:0.55000001 77:0.28 78:0.55000001 79:0 80:0.28 81:0.55000001 82:0 83:0.28 84:0 85:0 86:0 87:0 88:0 89:0 90:0 91:0.28 92:0 93:0 94:0 95:0.28 96:0 97:0.28 98:0.28 99:0 100:0 101:1.39 102:0 103:0 104:0.28 105:0.28 106:3.5999999 107:0 108:0.82999998 109:0.28 110:0.28 111:0 112:0 113:0.28 114:0.28 115:0.55000001 116:1.11 117:1.11 118:1.11 119:0 120:0 121:0.28 122:0 123:0 124:0 125:0 126:0.28 127:0 128:0 129:0 130:0 131:0.28 132:0 133:0 134:0 135:0 136:0 137:0 138:0 139:0 140:0 141:0 142:0 143:0 144:0 145:0.28 146:0 147:0 148:0 149:0.55000001 150:0 151:0 152:0 153:0.82999998 154:0 155:0 156:0 157:0 158:0 159:0 160:0 161:0.55000001 162:0 163:0.28 164:0 165:0 166:0 167:0 168:0 169:0.28 170:0 171:0 172:0.28 173:0 174:0 175:0.28 176:0 177:0 178:0.55000001 179:0 180:0 181:0.82999998 182:0.28 183:0.55000001 184:0 185:0.28 186:0.55000001 187:0 188:0 189:0 190:1.39 191:0 192:0 193:0.82999998 194:0.28 195:1.11 196:1.11 197:0.55000001 198:0.28 199:0 200:0 201:0.55000001 202:0 203:0.28 204:0 205:0 206:0.28 207:0 208:0 209:0 210:1.11 211:0.28 212:0 213:0 214:0.55000001 215:0 216:0 217:0.28 218:0 219:0 220:0 221:0 222:0 223:0 224:0.28 225:0 226:0 227:0 228:0 229:0 230:0 231:0 232:0 233:0 234:0 235:0 236:0 237:0 238:0 239:0 240:0 241:1.11 242:0 243:0 244:0.28 245:0.55000001 246:0.55000001 247:0 248:0 249:0.55000001 250:0.82999998 251:0 252:0 253:0 254:0.82999998 255:0 256:1.66 257:1.11 258:1.11 259:0 260:0 261:0.55000001 262:0 263:0 264:0 265:0 266:0.28 267:0.28 268:0 269:0 270:0.28 271:0.28 272:0 273:1.11 274:3.5999999 275:0.28 276:0.28 277:0.55000001 278:0 279:0 280:0 281:0.82999998 282:0 283:0 284:0.82999998 285:0 286:1.39 287:0 288:0 289:0 290:0.82999998 291:0.28 292:0 293:0.28 294:0 295:1.11 296:0 297:0.55000001 298:0 299:0 300:0.28 301:0.82999998 302:0.28 303:0.28 304:0.82999998 305:0.28 306:1.11 307:0 308:0 309:0.28 310:0.55000001 311:0 312:0 313:0.55000001 314:0.28 315:0.82999998 316:1.11 317:0.28 318:0 319:0 320:0.28 321:2.77 322:0 323:0.28 324:0.28 325:0.28 326:1.39 327:0.28 328:0.28 329:0 330:0.28 331:0.28 332:0 333:0.28 334:0.55000001 335:0.28 336:0.55000001 337:0 338:0.82999998 339:0 340:0 341:0.55000001 342:0 343:0 344:0.82999998 345:0 346:0.55000001 347:0 348:0 349:0 350:0.55000001 351:0 352:0 353:1.11 354:0 355:0.82999998 356:0.28 357:0.55000001 358:0.55000001 359:0 360:0 361:0 362:0 363:0 364:0 365:0 366:0 367:0 368:0 369:0 370:0 371:0 372:0 373:0 374:0 375:0 376:0 377:0 378:0 379:0 380:0 381:0 382:0 383:0 384:0 385:0 386:0 387:0 388:0 389:0 390:0 391:0 392:0 393:0 394:0 395:0 396:0.55000001 397:0 398:0.28 399:0 400:0 #
-1.531360146648750975018060671573 1:9.3699999 2:0 3:0.44 4:0 5:0.44 6:2.1800001 7:0.44 8:0.22 9:0.22 10:0.64999998 11:0 12:0.44 13:0.87 14:0.64999998 15:1.09 16:0.22 17:1.74 18:2.1800001 19:0 20:0.44 21:0 22:0 23:0 24:0.22 25:0.22 26:0 27:0 28:0 29:0 30:0 31:0 32:0 33:0.22 34:0 35:0 36:0.44 37:0 38:0.22 39:0 40:0.22 41:0.64999998 42:0 43:0 44:0.44 45:0 46:0.87 47:0 48:0 49:0 50:0.64999998 51:0 52:0.22 53:0 54:0 55:0 56:0 57:0.22 58:0.44 59:0 60:0 61:1.09 62:0 63:0.44 64:0.44 65:0.22 66:0.64999998 67:0 68:0 69:0 70:0 71:0 72:0 73:0.44 74:0.22 75:0.22 76:0.22 77:0 78:0.87 79:0 80:0 81:0 82:0 83:0.44 84:0 85:0 86:0.44 87:0 88:0 89:0 90:0.64999998 91:0 92:0.22 93:0.22 94:0 95:0 96:0 97:0 98:0 99:0 100:0 101:0.87 102:0.44 103:0.44 104:0.44 105:0.22 106:4.5799999 107:0 108:0.44 109:0 110:0.64999998 111:0 112:0 113:0.87 114:0.44 115:1.74 116:1.09 117:0.87 118:0.44 119:0 120:0 121:0.22 122:0 123:0 124:0 125:0 126:0 127:0 128:0 129:0 130:0.64999998 131:0 132:0 133:0 134:0 135:0 136:0 137:0 138:0 139:0 140:0.22 141:0.44 142:0 143:0.22 144:0 145:0 146:0.22 147:0 148:0 149:0 150:0 151:0.22 152:0 153:0 154:0 155:0.22 156:0 157:0 158:0 159:0 160:0 161:0 162:0.22 163:0 164:0 165:0 166:0 167:0 168:0 169:0 170:0 171:0 172:0 173:0 174:0 175:0.22 176:0.22 177:0 178:0 179:0 180:0 181:0.22 182:0 183:0.22 184:0.22 185:0 186:0.87 187:0 188:0.22 189:0 190:0.87 191:0.22 192:0 193:0.64999998 194:0.64999998 195:0.44 196:0.64999998 197:0.44 198:0.87 199:0 200:0 201:0.22 202:0 203:0 204:0.22 205:0 206:0.22 207:0 208:0 209:0 210:0 211:0 212:0 213:0.22 214:0 215:0 216:0 217:0 218:0 219:0 220:0 221:0.44 222:0 223:0 224:0 225:0 226:0 227:0 228:0 229:0.22 230:0 231:0 232:0 233:0.22 234:0 235:0 236:0 237:0 238:0 239:0 240:0.22 241:1.3099999 242:0 243:0.22 244:0.44 245:0.22 246:0.87 247:0.22 248:0.22 249:0 250:0.22 251:0 252:0 253:0 254:0.22 255:0.64999998 256:0.44 257:0.22 258:0 259:0 260:0.22 261:0.64999998 262:0.22 263:0 264:0.44 265:0.22 266:0.44 267:0 268:0 269:0 270:0 271:0 272:0.22 273:0.44 274:4.5799999 275:0.44 276:0 277:0 278:0.44 279:0 280:0 281:1.53 282:0.22 283:0.22 284:0.44 285:0 286:0.44 287:0.44 288:0 289:0 290:0.87 291:0 292:0 293:0.22 294:0.64999998 295:0.87 296:0.64999998 297:0.22 298:0.87 299:0 300:0 301:1.09 302:0.22 303:0.44 304:0.22 305:0 306:0.22 307:0 308:0 309:0.22 310:0.44 311:0.22 312:0 313:0.64999998 314:0.22 315:0.87 316:0.87 317:0 318:0.22 319:0 320:0.22 321:1.96 322:0 323:0.22 324:0 325:0 326:0.44 327:0 328:0 329:0 330:0 331:0 332:0 333:0 334:0.22 335:0.64999998 336:0.22 337:0.87 338:0.44 339:0 340:0 341:1.3099999 342:0.22 343:0 344:1.3099999 345:0.22 346:0.87 347:0 348:0.22 349:0.22 350:0.64999998 351:0 352:0 353:0.44 354:0.22 355:0.22 356:0.64999998 357:0.44 358:0.87 359:0 360:0 361:0 362:0 363:0 364:0 365:0 366:0 367:0 368:0 369:0 370:0 371:0 372:0 373:0 374:0 375:0 376:0 377:0 378:0 379:0 380:0 381:0.22 382:0 383:0.22 384:0 385:0.22 386:0.22 387:0 388:0 389:0 390:0.22 391:0 392:0 393:0 394:0 395:0 396:0.44 397:0 398:0 399:0 400:0 #
-0.57614904193722338288097262193332 1:10.47 2:0 3:0.19 4:0.19 5:0.38999999 6:0.97000003 7:0.19 8:0 9:0.19 10:0.19 11:0.38999999 12:0.38999999 13:3.0999999 14:0.57999998 15:1.16 16:2.3299999 17:0.97000003 18:0.57999998 19:0.19 20:0.77999997 21:0 22:0 23:0 24:0 25:0 26:0 27:0 28:0 29:0.19 30:0.19 31:0 32:0 33:0 34:0 35:0 36:0 37:0 38:0 39:0.19 40:0.19 41:0 42:0 43:0.57999998 44:0.19 45:0.19 46:0.19 47:0.19 48:0 49:0.19 50:0 51:0 52:0 53:0.19 54:0 55:0.19 56:0.38999999 57:0.19 58:0.57999998 59:0 60:0.38999999 61:0.38999999 62:0 63:0 64:0 65:0 66:0 67:0 68:0 69:0 70:0.19 71:0 72:0 73:0 74:0 75:0 76:0.38999999 77:0.19 78:0 79:0 80:0 81:0.38999999 82:0 83:0 84:0.19 85:0.19 86:0.19 87:0 88:0.19 89:0 90:0.19 91:0.19 92:0 93:0.19 94:0 95:0.19 96:0.19 97:0.19 98:0.19 99:0 100:0 101:0.38999999 102:0 103:0.38999999 104:0 105:0.38999999 106:2.9100001 107:0 108:0 109:0.19 110:0.19 111:0 112:0 113:0.19 114:0.57999998 115:0.97000003 116:0.97000003 117:0.38999999 118:0.19 119:0 120:0.57999998 121:0.38999999 122:0.19 123:0.19 124:0 125:0 126:0 127:0 128:0.19 129:0 130:0 131:0 132:0 133:0.19 134:0 135:0 136:0.19 137:0.19 138:0.38999999 139:0 140:0 141:0 142:0 143:0 144:0 145:0.19 146:0 147:0.19 148:0 149:0 150:0 151:0.19 152:0.19 153:0.19 154:0 155:0 156:0 157:0 158:0 159:0 160:0 161:0.38999999 162:0 163:0.19 164:0.19 165:0.19 166:0 167:0.19 168:0 169:0 170:0 171:0 172:0 173:0.19 174:0.19 175:0 176:0.19 177:0.19 178:0 179:0 180:0 181:0.57999998 182:0 183:0 184:0.19 185:0.19 186:0.38999999 187:0 188:0.19 189:0.19 190:0.38999999 191:0 192:0.38999999 193:0 194:0 195:0.38999999 196:0 197:0 198:0.57999998 199:0 200:0 201:0.19 202:0 203:0.19 204:0.19 205:0 206:0 207:0 208:0 209:0 210:0.38999999 211:0 212:0 213:0.19 214:0 215:0.19 216:0.19 217:0 218:0 219:0.19 220:0 221:0.19 222:0 223:0.19 224:0 225:0.19 226:0 227:0 228:0 229:0.19 230:0 231:0.19 232:0 233:0.19 234:0.19 235:0 236:0.19 237:0.38999999 238:0 239:0 240:0 241:2.1300001 242:0 243:0.19 244:0 245:0.19 246:0.77999997 247:0.19 248:0 249:0 250:0.38999999 251:0.19 252:0 253:2.3299999 254:0.57999998 255:1.16 256:0.77999997 257:0.19 258:0.19 259:0 260:0 261:1.16 262:0.19 263:0 264:0 265:0 266:0.19 267:0 268:0 269:0.19 270:0 271:0 272:0 273:0.57999998 274:0.97000003 275:0 276:0.38999999 277:0.57999998 278:0 279:0.19 280:0.19 281:0.38999999 282:0 283:0.19 284:0 285:0 286:0.19 287:0.19 288:0 289:0 290:0.19 291:0 292:0.19 293:0.57999998 294:0.57999998 295:0.77999997 296:1.9400001 297:0.77999997 298:0.38999999 299:0 300:0.19 301:2.52 302:0.38999999 303:0 304:0 305:0.19 306:2.1300001 307:0 308:0.19 309:0 310:0.19 311:0.19 312:0.38999999 313:0.57999998 314:0.19 315:0.57999998 316:3.6800001 317:0.77999997 318:0.77999997 319:0.19 320:0.38999999 321:2.1300001 322:0 323:0 324:0 325:0 326:0 327:0.19 328:0 329:0 330:0.57999998 331:0.38999999 332:0.19 333:0.19 334:0.38999999 335:0 336:0.57999998 337:0.57999998 338:0.57999998 339:0 340:0 341:0.77999997 342:0 343:0.38999999 344:0 345:0.19 346:0 347:0.19 348:0 349:0.38999999 350:0.38999999 351:0 352:0 353:0.38999999 354:0 355:0.97000003 356:0.38999999 357:0.19 358:0.19 359:0.19 360:0 361:0 362:0 363:0 364:0 365:0 366:0 367:0.38999999 368:0 369:0.19 370:0 371:0 372:0 373:0 374:0.38999999 375:0 376:0.19 377:0 378:0 379:0 380:0 381:0.77999997 382:0 383:0.77999997 384:0 385:0 386:0.38999999 387:0 388:0.19 389:0 390:0 391:0 392:0.19 393:0 394:0 395:0 396:0.38999999 397:0 398:0 399:0 400:0.19 #
-1.531360146648750975018060671573 1:0 2:0.15000001 3:0 4:0 5:0 6:0 7:0 8:0.15000001 9:0.15000001 10:0.15000001 11:0.15000001 12:0 13:0 14:0.28999999 15:0 16:0.15000001 17:0 18:0 19:0 20:0 21:0 22:0.15000001 23:0.15000001 24:0 25:0 26:0.15000001 27:0.15000001 28:0.15000001 29:0 30:0.44 31:0 32:0.28999999 33:0 34:0 35:0 36:0.15000001 37:0 38:0 39:0 40:0.15000001 41:0.15000001 42:0 43:0.73000002 44:0.28999999 45:0.15000001 46:0.28999999 47:0 48:0.73000002 49:0.73000002 50:0.58999997 51:0 52:0.88 53:0 54:0.28999999 55:0 56:0.44 57:0.15000001 58:0 59:0 60:0.15000001 61:0 62:0.15000001 63:0.28999999 64:0 65:0.28999999 66:0.15000001 67:0.15000001 68:1.03 69:0.88 70:0.15000001 71:0 72:0.58999997 73:0 74:0.15000001 75:0.58999997 76:0.44 77:0.44 78:0.15000001 79:0 80:0.28999999 81:0.15000001 82:0 83:0.15000001 84:0.28999999 85:0.15000001 86:0.15000001 87:0.15000001 88:0.44 89:0.58999997 90:0.28999999 91:0 92:0 93:0 94:0.28999999 95:0.28999999 96:0.44 97:0.15000001 98:0.15000001 99:0 100:0.44 101:0 102:0 103:0 104:0.28999999 105:0 106:0 107:0 108:0.88 109:0.28999999 110:0.15000001 111:0.15000001 112:0.15000001 113:0 114:0 115:0 116:0.44 117:0.15000001 118:0 119:0 120:0 121:0 122:0 123:0.15000001 124:0 125:0 126:0 127:0 128:0.44 129:0 130:0 131:0 132:0 133:0 134:0.28999999 135:0 136:0.15000001 137:0 138:0.15000001 139:0 140:0 141:0 142:0.15000001 143:1.3200001 144:0.58999997 145:0.88 146:0.44 147:0 148:1.61 149:0.44 150:1.61 151:0.15000001 152:2.05 153:0.15000001 154:0.28999999 155:0.28999999 156:1.03 157:0.58999997 158:0.58999997 159:0 160:0.73000002 161:0.15000001 162:0.44 163:0.28999999 164:0.58999997 165:0.15000001 166:0.15000001 167:0.15000001 168:1.03 169:0.58999997 170:1.17 171:0 172:0.73000002 173:0.28999999 174:0.44 175:0.15000001 176:1.17 177:0.44 178:0.28999999 179:0 180:0 181:0 182:0.28999999 183:0.44 184:0.44 185:0.58999997 186:0 187:0.28999999 188:1.47 189:1.47 190:1.3200001 191:0 192:0.73000002 193:0.15000001 194:0.15000001 195:0.15000001 196:0.58999997 197:0.15000001 198:0.28999999 199:0 200:0.44 201:0 202:0 203:0.15000001 204:0.28999999 205:0 206:0.15000001 207:0 208:0 209:0 210:0.28999999 211:0 212:0.15000001 213:0.15000001 214:0 215:0 216:0 217:0 218:0 219:0 220:0 221:0.28999999 222:0 223:1.03 224:0.88 225:0.58999997 226:0.15000001 227:0.15000001 228:0.88 229:0.88 230:0.58999997 231:0 232:7.48 233:0.44 234:0.44 235:0.28999999 236:0.73000002 237:0.73000002 238:0.28999999 239:0 240:0.15000001 241:0 242:0 243:0 244:0.15000001 245:0.15000001 246:0 247:0 248:0.44 249:0 250:0.15000001 251:0.15000001 252:0.15000001 253:0 254:0 255:0.15000001 256:0.28999999 257:0.15000001 258:0 259:0 260:0 261:0.15000001 262:0 263:0.15000001 264:0.28999999 265:0 266:0 267:0.15000001 268:0.44 269:0.15000001 270:0.28999999 271:0.28999999 272:0.28999999 273:0.15000001 274:2.3499999 275:0.15000001 276:0.44 277:0.28999999 278:0.15000001 279:0 280:0.28999999 281:0 282:0 283:0.15000001 284:0.44 285:0.15000001 286:0 287:0 288:0.44 289:0 290:0.15000001 291:0 292:0.15000001 293:0 294:0.15000001 295:0 296:0.44 297:0.15000001 298:0.15000001 299:0 300:0 301:0.28999999 302:0.15000001 303:0.44 304:0.28999999 305:0.58999997 306:0 307:0 308:1.17 309:1.03 310:0.88 311:0.15000001 312:1.17 313:0.28999999 314:0 315:0 316:2.6400001 317:0.58999997 318:0.44 319:0 320:0.15000001 321:0 322:0 323:0.15000001 324:0.15000001 325:0.28999999 326:0.15000001 327:0 328:0.88 329:0.73000002 330:0.28999999 331:0 332:0.58999997 333:0 334:0.28999999 335:0.15000001 336:0 337:0.15000001 338:0.15000001 339:0 340:0.28999999 341:0 342:0.15000001 343:0 344:0.44 345:0.15000001 346:0.28999999 347:0 348:0.28999999 349:0.44 350:0.28999999 351:0 352:0.15000001 353:0 354:0.28999999 355:0 356:0.15000001 357:0.15000001 358:0 359:0 360:0.15000001 361:0 362:0 363:0 364:0 365:0 366:0 367:0 368:0 369:0 370:0 371:0 372:0 373:0 374:0 375:0 376:0 377:0 378:0 379:0 380:0 381:0 382:0.15000001 383:0 384:0.28999999 385:0 386:0.44 387:0 388:0.44 389:0 390:0.15000001 391:0 392:0.44 393:0.15000001 394:0.28999999 395:0.15000001 396:0.58999997 397:0 398:0.15000001 399:0 400:0 #
0.58975914692310293929722320172004 1:0 2:0 3:0 4:0 5:0 6:0.63 7:0 8:0 9:0 10:0 11:0 12:0 13:0 14:0.63 15:0 16:0 17:0 18:0 19:0 20:0 21:0 22:0 23:0 24:0 25:0 26:0 27:0 28:0.63 29:0 30:0 31:0 32:0 33:0 34:0 35:0 36:0 37:0 38:0 39:0 40:0 41:0 42:0 43:1.9 44:0 45:0 46:0.63 47:0 48:0.63 49:1.27 50:1.27 51:0 52:0 53:0 54:0 55:0 56:1.27 57:0 58:0 59:0 60:0 61:0 62:0 63:1.27 64:1.27 65:0 66:0 67:0 68:0.63 69:1.27 70:0.63 71:0 72:0 73:0 74:0 75:0.63 76:0 77:0 78:0 79:0 80:0 81:0 82:0 83:0 84:1.9 85:0 86:0.63 87:0 88:0.63 89:0 90:0 91:0 92:0 93:0 94:0 95:0 96:0 97:0 98:0.63 99:0 100:0.63 101:0 102:0 103:0 104:0.63 105:0 106:0 107:0.63 108:0 109:0 110:0.63 111:0 112:0 113:0 114:0 115:0 116:0 117:0 118:0.63 119:0 120:0 121:0 122:0 123:0 124:0 125:0.63 126:0 127:0 128:0 129:0 130:0 131:0 132:0 133:0 134:0 135:0 136:0 137:0 138:0 139:0 140:0 141:0 142:0 143:0 144:1.27 145:0 146:0 147:0 148:0 149:1.9 150:0 151:0 152:1.9 153:0 154:1.27 155:0 156:0.63 157:0.63 158:0 159:0 160:0 161:0 162:0 163:0.63 164:0 165:0.63 166:0 167:0 168:1.27 169:0.63 170:0 171:0 172:1.27 173:0.63 174:0 175:0 176:1.27 177:1.27 178:0 179:0 180:1.27 181:0.63 182:0.63 183:1.27 184:0 185:0 186:0 187:0 188:0 189:0 190:1.27 191:0 192:0.63 193:0 194:0.63 195:0 196:1.9 197:0.63 198:0 199:0 200:0 201:0 202:0 203:0 204:0 205:0.63 206:0 207:0 208:0.63 209:0 210:0 211:0 212:0.63 213:0 214:0 215:0 216:0 217:0 218:0 219:0 220:0 221:0.63 222:0 223:1.9 224:0 225:0.63 226:0 227:0 228:0.63 229:1.9 230:1.27 231:0 232:21.52 233:0 234:0 235:0 236:0.63 237:0 238:0 239:0 240:0 241:0 242:0 243:0 244:0 245:0 246:0 247:0 248:0 249:0 250:0 251:0.63 252:0 253:0 254:0 255:0 256:0 257:0 258:0.63 259:0 260:0 261:0 262:0 263:0 264:0 265:0.63 266:0.63 267:0 268:1.27 269:0 270:0.63 271:0 272:0 273:0 274:0 275:0 276:0 277:0 278:0 279:0 280:0 281:0 282:0 283:0 284:0 285:0 286:0 287:0 288:0 289:0.63 290:0 291:0 292:0 293:0 294:0 295:0 296:0.63 297:0 298:0 299:0 300:0 301:0 302:0 303:0 304:0.63 305:0.63 306:0 307:0 308:0 309:0.63 310:0.63 311:0.63 312:1.9 313:0.63 314:0 315:0 316:3.1600001 317:0.63 318:0 319:0 320:0 321:0 322:0 323:0 324:0 325:0 326:0 327:0 328:1.27 329:0 330:0 331:0 332:1.27 333:0 334:0 335:0 336:0 337:0 338:0.63 339:0 340:0 341:0 342:0 343:0 344:0 345:0.63 346:0 347:0 348:0 349:0 350:0.63 351:0 352:0.63 353:0 354:0 355:0.63 356:0 357:0 358:0 359:0 360:0 361:0 362:0 363:0 364:0 365:0 366:0 367:0 368:0 369:0 370:0 371:0 372:0 373:0 374:0 375:0 376:0 377:0 378:0 379:0 380:0 381:0 382:0 383:0 384:0 385:0 386:0 387:0 388:0 389:0.63 390:0.63 391:0 392:0 393:0 394:0.63 395:0 396:0 397:0 398:0 399:0 400:0 #
1.3485170455254409382916946924524 1:0 2:0 3:0 4:0.079999998 5:0 6:0 7:0 8:0 9:0 10:0 11:0 12:0.33000001 13:0 14:0 15:0.079999998 16:0.25 17:0.079999998 18:0 19:0 20:0.16 21:0 22:0 23:0.079999998 24:0 25:0 26:0.079999998 27:0 28:0 29:0.079999998 30:0 31:0 32:0.25 33:0 34:0 35:0 36:0.16 37:0 38:0.079999998 39:0 40:0 41:0 42:0 43:0.079999998 44:0.079999998 45:0.079999998 46:0.16 47:0.079999998 48:0.33000001 49:0.33000001 50:0.33000001 51:0.079999998 52:0.41 53:0.079999998 54:0.16 55:0 56:0.16 57:0.16 58:0.079999998 59:0.079999998 60:0.079999998 61:0.16 62:0 63:0.16 64:0.49000001 65:0 66:0.079999998 67:0.079999998 68:0.25 69:0.25 70:0.16 71:0 72:0.25 73:0.25 74:0.079999998 75:0 76:0.25 77:0.079999998 78:0.16 79:0 80:0.079999998 81:0 82:0 83:0.16 84:0 85:0.16 86:0 87:0.079999998 88:0.25 89:0.16 90:0.25 91:0 92:0 93:0.079999998 94:0.079999998 95:0 96:0.16 97:0.16 98:0 99:0.079999998 100:0.079999998 101:0 102:0.079999998 103:0.16 104:0.25 105:0 106:0.49000001 107:0 108:0.16 109:0.079999998 110:0.16 111:0 112:0.33000001 113:0 114:0.079999998 115:0.079999998 116:0.25 117:0.16 118:0.079999998 119:0 120:0.079999998 121:0.079999998 122:0 123:0 124:0 125:0.079999998 126:0 127:0.91000003 128:0.079999998 129:0.25 130:0.25 131:0.079999998 132:0.33000001 133:0 134:0.74000001 135:0 136:0.079999998 137:0 138:0.079999998 139:0 140:0.16 141:0.079999998 142:0 143:0.41 144:0.41 145:0.16 146:0.25 147:0.16 148:0.33000001 149:0.41 150:0.33000001 151:0.079999998 152:1.3200001 153:0.41 154:0.57999998 155:0 156:1.24 157:0.25 158:0 159:0 160:0 161:0 162:0 163:0.33000001 164:0.49000001 165:0.079999998 166:0 167:0.16 168:0.49000001 169:0.74000001 170:0.25 171:0 172:0.91000003 173:0.25 174:0.16 175:0.16 176:0.49000001 177:0.25 178:0 179:0.079999998 180:0.079999998 181:0.16 182:0.079999998 183:0.16 184:0.16 185:0.16 186:0.079999998 187:0.25 188:0.16 189:0.25 190:0.33000001 191:0.25 192:0.49000001 193:0.49000001 194:0.16 195:0.079999998 196:0.66000003 197:0.16 198:0.16 199:0 200:0.16 201:0 202:0 203:0.25 204:0.079999998 205:0 206:0.079999998 207:0.079999998 208:0.33000001 209:0.079999998 210:0.079999998 211:0 212:0.33000001 213:0 214:0 215:0 216:0.079999998 217:0 218:0 219:0 220:0 221:0.079999998 222:0.16 223:0.33000001 224:0.079999998 225:0 226:0.16 227:0.16 228:1.48 229:0.66000003 230:0.91000003 231:0.25 232:13.36 233:1.73 234:0.81999999 235:0.079999998 236:2.47 237:1.3200001 238:0.33000001 239:0 240:0.33000001 241:0.25 242:0 243:0.16 244:0.079999998 245:0.25 246:0.16 247:0.16 248:0.99000001 249:0.16 250:0.079999998 251:0.16 252:1.8099999 253:0.74000001 254:0.41 255:0 256:1.3200001 257:0.57999998 258:0.079999998 259:0 260:0.079999998 261:0 262:0.079999998 263:0 264:0.16 265:0.079999998 266:0.079999998 267:0.49000001 268:0.25 269:0 270:0.25 271:0.079999998 272:0.25 273:1.15 274:8 275:0.25 276:0.91000003 277:0.25 278:0.079999998 279:0.079999998 280:0.41 281:0 282:0 283:0.079999998 284:0.079999998 285:0 286:0 287:0 288:0.079999998 289:0.25 290:0.079999998 291:0 292:0 293:0.079999998 294:0.079999998 295:0 296:0.079999998 297:0 298:0.079999998 299:0 300:0 301:0.079999998 302:0.16 303:0.16 304:0.079999998 305:0.33000001 306:0.57999998 307:0.41 308:0.57999998 309:0.41 310:0.49000001 311:0.25 312:2.72 313:1.3200001 314:0.49000001 315:0.079999998 316:2.3099999 317:1.15 318:0.33000001 319:0 320:0.16 321:0 322:0.079999998 323:0.16 324:0.25 325:0.16 326:0.079999998 327:0 328:0.16 329:0.41 330:0.33000001 331:0.079999998 332:1.15 333:0.91000003 334:0.33000001 335:0 336:0.57999998 337:0.57999998 338:0.079999998 339:0.079999998 340:0.079999998 341:0.079999998 342:0 343:0.079999998 344:0 345:0.079999998 346:0 347:0 348:0 349:0.25 350:0.079999998 351:0 352:0.25 353:0 354:0.16 355:0.079999998 356:0.49000001 357:0.079999998 358:0 359:0 360:0.079999998 361:0 362:0 363:0 364:0 365:0.079999998 366:0 367:0 368:0.16 369:0 370:0 371:0 372:0 373:0 374:0 375:0 376:0.079999998 377:0.079999998 378:0.079999998 379:0.079999998 380:0 381:0 382:0.079999998 383:0 384:0 385:0 386:0.16 387:0.079999998 388:0.33000001 389:0.16 390:0.079999998 391:0 392:0.25 393:0.079999998 394:0.49000001 395:0 396:0.079999998 397:0.16 398:0 399:0.079999998 400:0.079999998 #
2.7657464928235500067899010900874 1:0 2:0 3:0 4:0 5:0 6:0 7:0 8:0 9:0 10:0 11:0 12:0 13:0 14:0 15:0 16:0 17:0 18:0 19:0 20:0 21:0 22:0 23:0 24:0 25:0 26:0 27:0 28:0 29:0 30:0 31:0 32:0.62 33:0 34:0 35:0 36:0 37:0 38:0 39:0 40:0 41:0 42:0 43:0 44:0 45:0 46:0 47:0 48:0 49:0.62 50:0.62 51:0 52:1.25 53:0 54:0 55:0.62 56:0.62 57:0 58:0 59:0 60:0 61:0 62:0 63:0 64:0 65:0 66:0 67:0 68:1.25 69:1.25 70:0 71:0 72:0 73:0 74:0 75:0.62 76:1.88 77:0 78:0.62 79:0 80:0.62 81:0 82:0 83:0 84:0.62 85:0 86:0.62 87:0 88:0.62 89:0.62 90:0 91:0 92:1.88 93:0 94:0.62 95:0 96:0.62 97:0 98:0 99:0 100:0 101:0 102:0 103:0 104:0 105:0 106:0 107:0 108:1.25 109:0 110:0 111:0 112:0 113:0 114:0 115:0 116:0.62 117:0 118:0.62 119:0 120:0 121:0 122:0 123:0 124:0 125:0 126:0 127:0 128:0 129:0 130:0 131:0 132:0 133:0 134:0 135:0 136:0 137:0 138:0 139:0 140:0 141:0 142:0 143:0 144:1.25 145:1.25 146:0 147:0 148:1.88 149:1.88 150:1.25 151:0 152:1.88 153:1.25 154:0.62 155:0 156:1.25 157:0.62 158:0 159:0 160:0.62 161:0 162:0 163:0.62 164:1.25 165:1.25 166:0.62 167:0 168:2.5 169:1.25 170:1.25 171:0 172:1.25 173:0.62 174:0 175:0 176:0 177:0.62 178:0.62 179:0 180:0.62 181:0 182:0 183:1.25 184:0.62 185:0.62 186:0 187:0 188:1.25 189:1.25 190:0.62 191:0 192:0.62 193:0 194:0 195:0 196:0 197:1.25 198:0 199:0 200:0 201:0 202:0 203:0 204:0 205:0 206:0 207:0 208:0 209:0 210:0 211:0 212:0 213:0 214:0 215:0 216:0.62 217:0 218:0 219:0 220:0 221:0 222:0.62 223:1.25 224:1.88 225:1.25 226:0.62 227:0 228:1.88 229:1.25 230:1.88 231:0 232:10 233:0 234:1.88 235:0 236:0.62 237:0 238:0 239:0 240:0 241:0 242:0 243:0 244:0 245:0 246:0.62 247:0 248:1.25 249:0.62 250:0.62 251:0 252:0 253:0 254:0 255:0 256:0 257:0 258:0 259:0 260:0 261:0 262:0 263:0 264:0 265:0 266:0 267:0 268:0.62 269:1.25 270:0 271:0 272:1.25 273:0 274:0 275:0 276:0 277:0 278:0 279:0 280:0 281:0 282:0 283:0 284:0 285:0 286:0 287:0 288:0 289:0.62 290:0 291:0 292:0.62 293:0 294:0 295:0 296:0 297:0 298:0 299:0 300:0 301:0 302:0 303:0.62 304:0 305:0 306:0 307:0 308:1.25 309:0.62 310:0 311:0 312:2.5 313:0.62 314:0 315:0 316:1.25 317:0 318:0.62 319:0 320:0.62 321:0 322:0 323:0 324:0 325:0 326:0 327:0 328:0 329:0 330:1.25 331:0 332:0.62 333:0 334:0 335:0 336:0.62 337:0 338:0 339:0 340:0 341:0 342:0 343:0 344:0.62 345:1.25 346:0 347:0 348:0 349:0.62 350:0 351:0 352:0.62 353:0 354:0 355:0 356:0 357:0 358:0 359:0 360:0 361:0 362:0 363:0 364:0 365:0 366:0 367:0 368:0 369:0 370:0 371:0 372:0 373:0 374:0 375:0 376:0 377:0 378:0 379:0 380:0 381:0 382:0 383:0 384:0 385:0 386:0 387:0 388:0.62 389:0.62 390:0 391:0 392:0 393:0.62 394:0 395:0 396:0 397:0 398:0.62 399:0 400:0 #
-1.531360146648750975018060671573 1:0 2:0 3:0 4:0.70999998 5:0.70999998 6:0 7:0 8:0 9:0 10:0 11:0 12:0 13:0 14:0 15:0 16:0.70999998 17:1.4299999 18:0.70999998 19:0 20:0 21:0 22:0 23:0 24:0 25:0 26:0 27:0 28:0 29:0 30:0 31:0 32:0 33:0 34:0 35:0 36:0 37:0 38:0 39:0 40:0 41:0.70999998 42:0 43:0.70999998 44:0 45:0 46:0.70999998 47:0 48:0.70999998 49:0.70999998 50:0 51:0 52:0 53:0 54:0 55:0.70999998 56:0 57:0 58:0.70999998 59:0 60:0.70999998 61:0 62:0 63:0 64:0 65:0.70999998 66:0 67:0 68:0 69:1.4299999 70:0.70999998 71:0 72:0 73:0 74:0 75:0.70999998 76:0 77:0.70999998 78:0.70999998 79:0 80:0.70999998 81:0 82:0 83:0.70999998 84:0 85:0 86:0 87:0 88:0 89:0 90:2.1400001 91:0 92:0 93:0 94:0 95:1.4299999 96:0 97:0.70999998 98:0 99:0 100:0 101:0 102:0 103:0.70999998 104:1.4299999 105:0 106:1.4299999 107:0 108:0.70999998 109:1.4299999 110:0 111:0 112:0 113:0.70999998 114:0 115:0 116:0.70999998 117:0.70999998 118:0 119:0 120:0 121:0.70999998 122:0 123:0 124:0 125:0 126:0 127:0 128:1.4299999 129:0 130:0 131:0 132:0 133:0.70999998 134:0 135:0 136:0 137:0 138:0.70999998 139:0 140:0 141:0 142:0 143:0.70999998 144:0 145:0 146:0 147:0 148:0 149:0 150:0.70999998 151:0.70999998 152:0 153:0 154:0 155:1.4299999 156:0 157:0 158:0 159:0 160:0 161:0 162:0 163:0.70999998 164:0 165:0.70999998 166:1.4299999 167:0 168:0 169:0 170:0 171:0.70999998 172:0 173:0 174:0 175:0 176:0.70999998 177:0 178:2.8599999 179:0 180:0.70999998 181:0 182:0 183:1.4299999 184:0 185:1.4299999 186:0.70999998 187:0.70999998 188:0 189:0 190:1.4299999 191:0 192:0 193:2.8599999 194:0.70999998 195:0 196:0 197:0.70999998 198:0.70999998 199:0 200:0 201:0.70999998 202:0 203:0 204:0 205:0 206:0 207:0 208:0 209:0 210:0.70999998 211:0 212:0 213:0 214:0 215:0.70999998 216:0 217:0 218:0 219:0 220:0 221:0 222:0 223:0 224:0 225:0 226:0 227:0 228:0 229:0 230:0 231:0 232:0 233:0 234:0.70999998 235:0 236:0 237:0 238:0 239:0 240:0 241:0 242:0 243:0 244:1.4299999 245:0 246:0.70999998 247:0 248:0 249:0 250:0.70999998 251:0 252:0 253:0 254:0 255:0 256:0 257:0 258:1.4299999 259:0 260:0 261:0.70999998 262:0 263:0 264:0 265:0 266:0.70999998 267:0 268:0 269:0.70999998 270:0 271:0 272:0 273:0 274:0 275:0 276:0 277:0 278:0.70999998 279:0 280:0 281:0 282:0 283:0.70999998 284:0 285:0.70999998 286:0 287:0.70999998 288:0.70999998 289:1.4299999 290:0 291:0 292:0 293:0 294:0 295:0 296:0 297:0 298:1.4299999 299:0 300:0 301:0 302:0 303:0 304:0.70999998 305:0 306:0 307:0.70999998 308:0 309:0 310:0.70999998 311:0 312:0 313:0 314:0.70999998 315:0.70999998 316:0 317:0.70999998 318:1.4299999 319:0 320:0 321:0.70999998 322:0 323:0 324:0 325:0 326:0.70999998 327:0.70999998 328:0 329:1.4299999 330:0 331:0 332:0 333:0 334:0 335:0 336:0 337:0 338:1.4299999 339:0.70999998 340:0 341:0.70999998 342:0 343:0 344:2.1400001 345:0 346:0.70999998 347:0.70999998 348:0 349:0.70999998 350:3.5699999 351:0 352:0.70999998 353:0 354:0.70999998 355:0 356:2.8599999 357:0.70999998 358:2.1400001 359:0 360:0 361:0 362:0 363:0 364:0 365:0 366:0 367:0 368:0 369:0 370:0 371:0 372:0 373:0 374:0 375:0 376:0.70999998 377:0 378:0 379:0 380:0 381:0 382:0 383:0 384:0 385:0.70999998 386:0.70999998 387:0 388:0 389:0 390:0 391:0 392:0 393:0 394:0 395:0 396:0 397:0 398:0.70999998 399:0 400:0 #
-1.531360146648750975018060671573 1:0.039999999 2:0 3:0 4:0.11 5:0.15000001 6:0.11 7:0.039999999 8:0.15000001 9:0.15000001 10:0.44999999 11:0.039999999 12:0.23 13:0.23 14:0.11 15:0.039999999 16:0.23 17:0.23 18:0.15000001 19:0.039999999 20:0.079999998 21:0.039999999 22:0 23:0.039999999 24:0 25:0.079999998 26:0.11 27:0 28:0.079999998 29:0.11 30:0.079999998 31:0 32:0.23 33:0.039999999 34:0 35:0.039999999 36:0.25999999 37:0 38:0.039999999 39:0.039999999 40:0.079999998 41:0.11 42:0 43:0.34 44:0.34 45:0.19 46:0.23 47:0.19 48:0.15000001 49:0.25999999 50:0.49000001 51:0.079999998 52:0.60000002 53:0.19 54:0.19 55:0.15000001 56:0.41 57:0.19 58:0.039999999 59:0 60:0.19 61:0.039999999 62:0.15000001 63:0.19 64:0.23 65:0.23 66:0.15000001 67:0.079999998 68:0.41 69:0.72000003 70:0.41 71:0.079999998 72:0.94 73:0.079999998 74:0.30000001 75:0.25999999 76:0.56 77:0.15000001 78:0.15000001 79:0.039999999 80:0.23 81:0.11 82:0.19 83:0.079999998 84:0.25999999 85:0.15000001 86:0.25999999 87:0.079999998 88:0.11 89:0.25999999 90:0.38 91:0.079999998 92:0.25999999 93:0.079999998 94:0.11 95:0.039999999 96:0.56 97:0.23 98:0.11 99:0.039999999 100:0.15000001 101:0.079999998 102:0 103:0.34 104:0.30000001 105:0.11 106:0.41 107:0 108:0.34 109:0.30000001 110:0.30000001 111:0 112:0.52999997 113:0.079999998 114:0.25999999 115:0.15000001 116:0.56 117:0.19 118:0.19 119:0 120:0.079999998 121:0.11 122:0.079999998 123:0 124:0.079999998 125:0 126:0.079999998 127:0.44999999 128:0.15000001 129:0.079999998 130:0.11 131:0 132:0.19 133:0.15000001 134:0.19 135:0 136:0.41 137:0.039999999 138:0 139:0 140:0.11 141:0.19 142:0.23 143:0.41 144:0.38 145:0.34 146:0.23 147:0.19 148:0.79000002 149:0.38 150:0.44999999 151:0.079999998 152:0.63999999 153:0.25999999 154:0.23 155:0.079999998 156:0.75 157:0.25999999 158:0.25999999 159:0.039999999 160:0.15000001 161:0.23 162:0.11 163:0.34 164:0.38 165:0.52999997 166:0.15000001 167:0.079999998 168:0.72000003 169:0.60000002 170:0.49000001 171:0.11 172:0.44999999 173:0.19 174:0.41 175:0.19 176:0.49000001 177:0.52999997 178:0.15000001 179:0 180:0.15000001 181:0.25999999 182:0.15000001 183:0.41 184:0.52999997 185:0.23 186:0.60000002 187:0.11 188:0.34 189:0.68000001 190:0.98000002 191:0.11 192:0.63999999 193:0.63999999 194:0.30000001 195:0.15000001 196:0.94 197:0.41 198:0.38 199:0 200:0.23 201:0.15000001 202:0.039999999 203:0.039999999 204:0.079999998 205:0.039999999 206:0.039999999 207:0.039999999 208:0.039999999 209:0.11 210:0.039999999 211:0 212:0.15000001 213:0.19 214:0 215:0.039999999 216:0.19 217:0.11 218:0.039999999 219:0.039999999 220:0.039999999 221:0.34 222:0 223:0.52999997 224:0.82999998 225:0.34 226:0.49000001 227:0.079999998 228:0.68000001 229:0.60000002 230:0.72000003 231:0.039999999 232:7.7199998 233:0.19 234:0.68000001 235:0.079999998 236:1.58 237:0.75 238:0.34 239:0 240:0.23 241:0.11 242:0 243:0.15000001 244:0.15000001 245:0.079999998 246:0.079999998 247:0.039999999 248:0.38 249:0.34 250:0.52999997 251:0.079999998 252:0.38 253:0.34 254:0.23 255:0.039999999 256:0.82999998 257:0.49000001 258:0.25999999 259:0.039999999 260:0.11 261:0.11 262:0.079999998 263:0.25999999 264:0.38 265:0.11 266:0.079999998 267:0.19 268:0.30000001 269:0.15000001 270:0.44999999 271:0.079999998 272:0.11 273:0.38 274:3.54 275:0.34 276:0.72000003 277:0.15000001 278:0.15000001 279:0.039999999 280:0.15000001 281:0.079999998 282:0.039999999 283:0.039999999 284:0.039999999 285:0.15000001 286:0.15000001 287:0.11 288:0.19 289:0.19 290:0.19 291:0 292:0.19 293:0.11 294:0.079999998 295:0.11 296:0.25999999 297:0.11 298:0.19 299:0.039999999 300:0.039999999 301:0.38 302:0.11 303:0.49000001 304:0.52999997 305:0.38 306:0.56 307:0.38 308:0.79000002 309:0.56 310:1.13 311:0.25999999 312:1.51 313:0.98000002 314:0.56 315:0.15000001 316:1.66 317:0.75 318:0.38 319:0.079999998 320:0.23 321:0.079999998 322:0 323:0.25999999 324:0.19 325:0.15000001 326:0.19 327:0.11 328:0.41 329:0.23 330:0.41 331:0.039999999 332:0.98000002 333:0.30000001 334:0.15000001 335:0.15000001 336:0.68000001 337:0.49000001 338:0.19 339:0.079999998 340:0.19 341:0.079999998 342:0.079999998 343:0.11 344:0.19 345:0.079999998 346:0.23 347:0 348:0.19 349:0.38 350:0.25999999 351:0.15000001 352:0.079999998 353:0.079999998 354:0.30000001 355:0.23 356:0.44999999 357:0.039999999 358:0.079999998 359:0.039999999 360:0.11 361:0 362:0 363:0.039999999 364:0.039999999 365:0 366:0 367:0 368:0 369:0.15000001 370:0.039999999 371:0.039999999 372:0.15000001 373:0 374:0 375:0.039999999 376:0 377:0.039999999 378:0 379:0 380:0 381:0.039999999 382:0 383:0.25999999 384:0.38 385:0.23 386:0.079999998 387:0.079999998 388:0.11 389:0.079999998 390:0.19 391:0.11 392:0.23 393:0.15000001 394:0.11 395:0.039999999 396:0.30000001 397:0.11 398:0.039999999 399:0 400:0.19 #
-1.531360146648750975018060671573 1:0 2:0 3:0 4:0 5:0.28999999 6:0 7:0 8:0.44 9:0 10:0.28999999 11:0 12:0.15000001 13:0 14:0.15000001 15:0 16:0.15000001 17:0.28999999 18:0 19:0 20:0 21:0 22:0.15000001 23:0.15000001 24:0 25:0 26:0 27:0 28:0 29:0.28999999 30:0.73000002 31:0.15000001 32:0.15000001 33:0 34:0.28999999 35:0.15000001 36:0.28999999 37:0 38:0.15000001 39:0 40:0 41:0.28999999 42:0.58999997 43:0.58999997 44:0.58999997 45:0.28999999 46:0.28999999 47:0 48:0 49:0.15000001 50:0.58999997 51:0.15000001 52:0.44 53:0.15000001 54:0.58999997 55:0.28999999 56:0.44 57:0.28999999 58:0 59:0 60:0 61:0 62:0 63:0.44 64:0.15000001 65:0.44 66:0 67:0 68:0.73000002 69:0.28999999 70:0.88 71:0.15000001 72:0.58999997 73:0 74:0.15000001 75:0.28999999 76:0.58999997 77:0.28999999 78:0 79:0 80:0 81:0 82:0.28999999 83:0.28999999 84:0.15000001 85:0.28999999 86:0.28999999 87:0 88:0.58999997 89:0.44 90:0.15000001 91:0 92:0.28999999 93:0.28999999 94:0.28999999 95:0.15000001 96:0.44 97:0 98:0 99:0 100:0.28999999 101:0.15000001 102:0.28999999 103:0.44 104:0.15000001 105:0 106:0.73000002 107:0 108:0.44 109:0 110:0.28999999 111:0 112:0.28999999 113:0.15000001 114:0.15000001 115:0 116:0.73000002 117:0.15000001 118:0.15000001 119:0 120:0.44 121:0.15000001 122:0 123:0 124:0.15000001 125:0.15000001 126:0 127:0.15000001 128:0.44 129:0.15000001 130:0 131:0 132:0.15000001 133:0 134:0 135:0 136:0.15000001 137:0 138:0 139:0 140:0 141:0 142:0.15000001 143:0.58999997 144:0.44 145:0.15000001 146:0.28999999 147:0.28999999 148:1.03 149:1.76 150:0.28999999 151:0 152:1.03 153:0.28999999 154:0.44 155:0 156:1.47 157:0.28999999 158:1.03 159:0 160:0.15000001 161:0 162:0.15000001 163:0.28999999 164:0.58999997 165:0.44 166:0.44 167:0.28999999 168:0 169:0.15000001 170:1.17 171:0 172:0.28999999 173:0.15000001 174:0 175:0.58999997 176:1.47 177:0.58999997 178:0.28999999 179:0 180:0.28999999 181:0.15000001 182:0 183:0.28999999 184:1.03 185:0.15000001 186:0.28999999 187:0 188:1.3200001 189:1.17 190:1.47 191:0 192:0.88 193:0 194:0.15000001 195:0.15000001 196:0.88 197:0.15000001 198:0.44 199:0 200:0.58999997 201:0.15000001 202:0.15000001 203:0.44 204:0 205:0 206:0.15000001 207:0 208:0 209:0.15000001 210:0.15000001 211:0.44 212:0 213:0.15000001 214:0 215:0 216:0 217:0 218:0 219:0 220:0 221:0.28999999 222:0.15000001 223:0.73000002 224:0.15000001 225:0.44 226:0.28999999 227:0.15000001 228:1.17 229:0.44 230:0.28999999 231:0.15000001 232:12.76 233:0 234:0.58999997 235:0.15000001 236:0.58999997 237:0.15000001 238:0.15000001 239:0 240:0.28999999 241:0 242:0 243:0 244:0 245:0 246:0 247:0.15000001 248:0.15000001 249:0.58999997 250:0.15000001 251:0 252:0 253:0.15000001 254:0 255:0.15000001 256:0.15000001 257:0 258:0 259:0 260:0 261:0 262:0.15000001 263:0.28999999 264:0.28999999 265:0.73000002 266:0.15000001 267:0.15000001 268:0.28999999 269:0.15000001 270:0.15000001 271:0 272:0.28999999 273:0 274:0 275:0 276:0.28999999 277:0.15000001 278:0 279:0.15000001 280:0 281:0 282:0.15000001 283:0.15000001 284:0 285:0.28999999 286:0.15000001 287:0 288:0.44 289:0.15000001 290:0.44 291:0 292:0 293:0 294:0 295:0 296:0 297:0 298:0.15000001 299:0 300:0.28999999 301:0.44 302:0 303:0.58999997 304:0.28999999 305:0.58999997 306:0.58999997 307:0.28999999 308:1.76 309:0.88 310:0.88 311:0.28999999 312:0.58999997 313:0 314:0 315:0.15000001 316:1.47 317:0.44 318:0.44 319:0.44 320:0 321:0.15000001 322:0.15000001 323:0.15000001 324:0.44 325:0 326:0 327:0 328:0.58999997 329:0 330:0.28999999 331:0.15000001 332:0.44 333:0 334:0.15000001 335:0 336:0.44 337:0.73000002 338:0.28999999 339:0 340:0 341:0 342:0.15000001 343:0.15000001 344:0.44 345:0 346:0.44 347:0 348:0.15000001 349:0.15000001 350:0.58999997 351:0.15000001 352:0.28999999 353:0.15000001 354:0 355:0.15000001 356:0.15000001 357:0.44 358:0.44 359:0 360:0 361:0 362:0 363:0 364:0.15000001 365:0 366:0.15000001 367:0 368:0 369:0 370:0 371:0 372:0 373:0 374:0 375:0 376:0.15000001 377:0 378:0.15000001 379:0 380:0 381:0 382:0 383:0.15000001 384:0 385:0 386:0.28999999 387:0 388:0.15000001 389:0.28999999 390:0.44 391:0 392:0.28999999 393:0 394:0.28999999 395:0 396:0.28999999 397:0 398:0.15000001 399:0 400:0.44 #
1.4241947015353295658002252821461 1:7.2800002 2:0 3:1.27 4:2.8499999 5:0.31999999 6:1.9 7:0 8:0 9:1.27 10:0 11:0 12:0 13:0.94999999 14:0 15:0 16:0.31999999 17:1.27 18:0.94999999 19:0 20:0 21:0 22:0.31999999 23:0 24:0 25:0 26:0 27:0 28:0 29:0.31999999 30:0 31:0 32:0 33:0 34:0 35:0.31999999 36:0 37:0 38:0 39:0 40:0 41:1.27 42:0 43:0.63 44:0.31999999 45:0.31999999 46:0.31999999 47:0 48:0.31999999 49:0.31999999 50:0 51:0 52:0 53:0.31999999 54:0.94999999 55:0 56:0 57:0.94999999 58:0 59:0 60:0 61:0.63 62:0 63:0 64:1.27 65:0 66:0.63 67:0 68:0 69:0.31999999 70:0.63 71:0 72:0.31999999 73:0.63 74:0.63 75:1.58 76:0.31999999 77:0.63 78:0.31999999 79:0.63 80:0 81:0 82:0.31999999 83:0.31999999 84:0 85:0 86:0 87:0 88:0.31999999 89:0.31999999 90:0 91:0 92:0 93:0 94:0.31999999 95:0.63 96:0.63 97:0 98:0.31999999 99:0 100:0 101:0.63 102:0.31999999 103:0 104:0 105:0.63 106:0.94999999 107:0 108:0 109:0.63 110:0.63 111:0 112:0.31999999 113:0 114:0.31999999 115:0.63 116:0.31999999 117:0 118:0.63 119:0 120:0 121:0 122:0 123:0 124:0 125:0 126:0 127:0 128:0 129:0.31999999 130:0.31999999 131:0 132:0 133:0 134:0 135:0 136:0.31999999 137:0 138:0 139:0 140:0 141:0.63 142:0 143:0 144:0 145:0 146:0 147:0.31999999 148:0 149:0 150:0.31999999 151:0 152:0 153:0 154:0 155:0 156:0 157:0 158:0 159:0 160:0 161:1.9 162:0 163:0.63 164:0.94999999 165:0 166:0.31999999 167:0 168:0 169:0.94999999 170:0.31999999 171:0 172:0.31999999 173:0.94999999 174:1.27 175:0.63 176:0.31999999 177:0.31999999 178:0.31999999 179:0 180:0 181:0.63 182:0 183:0.63 184:0.31999999 185:0.31999999 186:0.31999999 187:0 188:0 189:0 190:0.31999999 191:0 192:0 193:0.63 194:0.31999999 195:0.31999999 196:0.31999999 197:0.94999999 198:0.31999999 199:0 200:0 201:0.31999999 202:0 203:0 204:0 205:0 206:0 207:0 208:0 209:0 210:0 211:0 212:0 213:0 214:0 215:0 216:0 217:0 218:0 219:0 220:0 221:0.31999999 222:0 223:0 224:0 225:0 226:0 227:0 228:0 229:0.63 230:0.31999999 231:0 232:0 233:0.31999999 234:0 235:0 236:0 237:0 238:0 239:0 240:0 241:0.94999999 242:0 243:0 244:0.63 245:0 246:0 247:0 248:0 249:1.27 250:0.31999999 251:0 252:0 253:2.8499999 254:0 255:0.63 256:0.31999999 257:0.31999999 258:0 259:0 260:0 261:0.63 262:0 263:0.94999999 264:0.94999999 265:0 266:0.63 267:0.31999999 268:0 269:0 270:0.31999999 271:0 272:0 273:0 274:1.9 275:0.63 276:0 277:0 278:0.94999999 279:0 280:0 281:0.63 282:0 283:0 284:0 285:0.63 286:0.31999999 287:0.31999999 288:0.31999999 289:1.27 290:0.63 291:0 292:0.31999999 293:0 294:0.63 295:0.31999999 296:0.63 297:0 298:0.94999999 299:0 300:0.31999999 301:0 302:0 303:0.31999999 304:0.31999999 305:0.31999999 306:0.63 307:0 308:0 309:0.63 310:0.63 311:0 312:0.31999999 313:0 314:0.31999999 315:0.63 316:0.63 317:0.31999999 318:0 319:0 320:0 321:0.94999999 322:0 323:0.31999999 324:0.31999999 325:0 326:0 327:0 328:0 329:0.31999999 330:0.31999999 331:0 332:0.31999999 333:0.31999999 334:0 335:0 336:0.63 337:0 338:1.27 339:0 340:0 341:1.27 342:0 343:0.63 344:0.31999999 345:0.63 346:0 347:0 348:0.31999999 349:0.63 350:0.31999999 351:0 352:0 353:0.31999999 354:0.31999999 355:0.94999999 356:0.31999999 357:0 358:0 359:0 360:0 361:0.31999999 362:0 363:0 364:0 365:0 366:0 367:0 368:0 369:0 370:0 371:0 372:0 373:0 374:0.31999999 375:0 376:0 377:0 378:0 379:0 380:0 381:0 382:0 383:0 384:0.31999999 385:0 386:0 387:0 388:0 389:0 390:0 391:0 392:0 393:0 394:0 395:0 396:0 397:0 398:0 399:0 400:0 #
1.914291297381846890246492876031 1:8.1199999 2:0 3:1.28 4:0.43000001 5:0 6:1.71 7:0 8:0 9:0.43000001 10:0.85000002 11:0.43000001 12:0.43000001 13:0.85000002 14:0.85000002 15:0.43000001 16:0 17:0.43000001 18:0.43000001 19:0 20:0 21:0 22:0 23:0 24:0 25:0 26:0 27:0 28:0 29:0 30:0 31:0 32:0.43000001 33:0 34:0 35:0 36:0.43000001 37:0 38:0 39:0 40:0 41:0 42:0.43000001 43:1.28 44:0 45:1.28 46:1.28 47:0.85000002 48:0 49:0.43000001 50:0 51:0 52:0.43000001 53:0.43000001 54:0.43000001 55:0.85000002 56:0.43000001 57:0 58:0.43000001 59:0 60:0 61:0.43000001 62:0 63:0.85000002 64:2.1400001 65:0 66:0 67:0 68:0 69:0.43000001 70:0 71:0 72:0 73:0.43000001 74:0.43000001 75:0.43000001 76:0 77:0 78:0 79:0 80:0 81:0 82:0 83:0.85000002 84:0 85:0 86:0 87:0.43000001 88:0 89:0.43000001 90:0 91:0 92:0 93:0 94:0.85000002 95:0.43000001 96:0.85000002 97:0 98:0.43000001 99:0 100:0.85000002 101:1.28 102:0 103:0.43000001 104:0.43000001 105:1.71 106:0.85000002 107:0.43000001 108:0 109:0.85000002 110:0.43000001 111:0 112:0.43000001 113:0 114:0 115:0.43000001 116:0 117:0.43000001 118:0 119:0 120:0 121:0.43000001 122:0 123:0 124:0 125:0 126:1.28 127:0 128:0.43000001 129:0.43000001 130:0 131:0 132:0 133:0 134:0.85000002 135:0 136:0.43000001 137:0 138:0 139:0 140:0 141:0 142:0 143:0.43000001 144:0 145:0 146:0.43000001 147:0 148:0 149:0 150:0 151:0 152:0 153:0 154:0.43000001 155:0 156:0.43000001 157:0.43000001 158:0.43000001 159:0 160:0 161:0.43000001 162:0 163:0.43000001 164:1.28 165:0.43000001 166:0 167:0 168:0 169:0.85000002 170:0.85000002 171:0 172:0 173:0 174:0 175:0 176:0 177:0.43000001 178:0 179:0 180:0.43000001 181:0.85000002 182:0 183:0.43000001 184:0 185:0 186:0 187:0.43000001 188:0.43000001 189:0 190:0.43000001 191:0.43000001 192:0 193:0 194:0 195:0.85000002 196:0.43000001 197:0 198:1.28 199:0 200:0 201:0.43000001 202:0 203:0.43000001 204:0 205:0 206:0 207:0 208:0 209:0 210:0 211:0.43000001 212:0 213:0.43000001 214:0.43000001 215:0 216:0 217:0 218:0 219:0 220:0 221:0.43000001 222:0 223:0.43000001 224:0 225:0 226:0 227:0.43000001 228:0 229:0 230:0 231:0 232:0 233:0 234:0 235:0.43000001 236:0 237:0 238:0 239:0 240:0.43000001 241:1.28 242:0 243:0.43000001 244:0 245:0 246:0 247:0.43000001 248:0 249:0.85000002 250:0 251:0 252:0 253:0.43000001 254:0 255:0.43000001 256:0.43000001 257:0 258:0 259:0.43000001 260:0 261:0.43000001 262:0 263:0 264:0.43000001 265:0 266:0.43000001 267:0.43000001 268:0.85000002 269:0 270:1.28 271:0 272:0 273:0 274:0.43000001 275:0 276:0 277:0.43000001 278:0.85000002 279:0 280:0 281:0.43000001 282:0 283:0.43000001 284:0 285:0.85000002 286:0.43000001 287:0 288:0.85000002 289:0.43000001 290:0.43000001 291:0 292:0.43000001 293:0 294:0.43000001 295:0.43000001 296:0 297:0 298:1.28 299:0.43000001 300:0 301:0.43000001 302:0 303:0.43000001 304:0 305:0 306:0.85000002 307:0.43000001 308:0 309:0 310:0 311:0 312:0 313:0.85000002 314:0 315:0.85000002 316:0.43000001 317:0 318:0.85000002 319:0 320:0 321:0.85000002 322:0 323:0.43000001 324:0 325:0 326:0.43000001 327:0 328:0 329:0 330:0 331:0.43000001 332:0 333:0.43000001 334:0 335:0 336:0.43000001 337:0 338:0 339:0 340:0 341:0.43000001 342:0 343:0 344:0.43000001 345:0.85000002 346:0 347:0.43000001 348:0 349:0 350:1.28 351:0 352:0 353:0.85000002 354:0.43000001 355:0.43000001 356:0.43000001 357:0.43000001 358:0.85000002 359:0 360:0 361:0 362:0 363:0 364:0 365:0 366:0 367:0 368:0 369:0 370:0 371:0 372:0 373:0 374:0 375:0.43000001 376:0.43000001 377:0 378:0 379:0 380:0 381:0.43000001 382:0.43000001 383:0 384:0 385:0 386:0 387:0 388:0 389:0 390:0 391:0 392:0 393:0 394:0 395:0.43000001 396:0 397:0.43000001 398:0 399:0 400:0 #
-1.531360146648750975018060671573 1:1.26 2:0.15000001 3:0.30000001 4:0.95999998 5:0.07 6:0.44 7:0.15000001 8:0.44 9:0.88999999 10:0.51999998 11:0.15000001 12:0.44 13:0.44 14:0.30000001 15:0.74000001 16:0.88999999 17:0.81 18:0.30000001 19:0.15000001 20:0.22 21:0 22:0 23:0.07 24:0.37 25:0 26:0.15000001 27:0 28:0 29:0.15000001 30:0.07 31:0 32:0.07 33:0 34:0.15000001 35:0 36:0.07 37:0.07 38:0.15000001 39:0 40:0 41:0.44 42:0.07 43:0.37 44:0.95999998 45:0.15000001 46:0.37 47:0.22 48:0.15000001 49:0.07 50:0.44 51:0.22 52:0.07 53:0.15000001 54:0.22 55:0.22 56:0.37 57:0.15000001 58:0.51999998 59:0.07 60:0.22 61:1.78 62:0.07 63:0.37 64:2.52 65:0.15000001 66:0.74000001 67:0.22 68:0.74000001 69:1.41 70:0.58999997 71:0.30000001 72:1.41 73:0.30000001 74:0.51999998 75:1.7 76:0.58999997 77:1.1900001 78:0.81 79:0.22 80:0 81:0.44 82:0.07 83:0.37 84:0.15000001 85:0.07 86:0.07 87:0.07 88:0 89:0.44 90:0.07 91:0 92:0.22 93:0 94:0 95:0.15000001 96:0.51999998 97:0.07 98:0 99:0 100:0.15000001 101:0.74000001 102:0.07 103:0.30000001 104:0.58999997 105:0.22 106:0.30000001 107:0 108:0.07 109:0.44 110:0.30000001 111:0 112:0.44 113:0.22 114:0.44 115:0.22 116:0.30000001 117:0.30000001 118:0.22 119:0.22 120:0.07 121:0.15000001 122:0.07 123:0.07 124:0.15000001 125:0.15000001 126:0.22 127:0 128:0.07 129:0.22 130:0.07 131:0 132:0.07 133:0.15000001 134:0.07 135:0.07 136:0.07 137:0 138:0.07 139:0 140:0 141:0.37 142:0.07 143:0.51999998 144:0.67000002 145:0.15000001 146:0.15000001 147:0.07 148:0.22 149:0.44 150:0.07 151:0 152:0.07 153:0.15000001 154:0.15000001 155:0.15000001 156:0 157:0.22 158:0.07 159:0 160:0 161:0.88999999 162:0.07 163:0.30000001 164:1.85 165:0.15000001 166:0.22 167:0.30000001 168:0.15000001 169:0.81 170:0.88999999 171:0.22 172:0.44 173:0.07 174:0.22 175:0.30000001 176:0.37 177:0.30000001 178:0.88999999 179:0.07 180:0.15000001 181:0.44 182:0.07 183:0.44 184:0.81 185:0.22 186:0.22 187:0 188:0.07 189:0.44 190:0.30000001 191:0 192:0.22 193:0.07 194:0.67000002 195:0.30000001 196:0.37 197:0.22 198:0.07 199:0.07 200:0.07 201:0.15000001 202:0 203:0.30000001 204:0.44 205:0.07 206:0.07 207:0.07 208:0.07 209:0.07 210:0.07 211:0.07 212:0.22 213:0 214:0 215:0.07 216:0.15000001 217:0 218:0.07 219:0 220:0.07 221:0.51999998 222:0 223:0.37 224:1.11 225:0.15000001 226:0.44 227:0.07 228:0 229:0.67000002 230:0.51999998 231:0.22 232:0.15000001 233:0.07 234:0.22 235:0.15000001 236:0.67000002 237:0.15000001 238:0.22 239:0.07 240:0 241:0.15000001 242:0.07 243:0.15000001 244:0.30000001 245:0.07 246:0.30000001 247:0.07 248:0.37 249:0.30000001 250:0.22 251:0 252:0.22 253:0.22 254:0 255:0 256:0.22 257:0.22 258:0.22 259:0 260:0.07 261:0.51999998 262:0 263:0.15000001 264:0.58999997 265:0.15000001 266:0.22 267:0 268:0.22 269:0.74000001 270:0 271:0.07 272:0.15000001 273:0.44 274:0.37 275:0.37 276:0.22 277:0.07 278:0.22 279:0.07 280:0.07 281:0.74000001 282:0.07 283:0.07 284:1.33 285:0.07 286:0.22 287:0.07 288:0.37 289:0.44 290:0.37 291:0.07 292:0.22 293:0 294:0.22 295:0.07 296:0.30000001 297:0.37 298:0.22 299:0.07 300:0.15000001 301:0.44 302:0.07 303:0.44 304:0.58999997 305:0.22 306:0.95999998 307:0.07 308:0.15000001 309:0.30000001 310:0 311:0.44 312:0.37 313:0.22 314:0.30000001 315:0.44 316:1.1900001 317:0.37 318:0.07 319:0 320:0.44 321:0.37 322:0.07 323:0.22 324:0.74000001 325:0.30000001 326:0.22 327:0.15000001 328:0.15000001 329:0.30000001 330:0.44 331:0 332:0.51999998 333:0.15000001 334:0.51999998 335:0.15000001 336:0.30000001 337:0.15000001 338:0.15000001 339:0 340:0 341:0.15000001 342:0.22 343:0.37 344:0.74000001 345:0.51999998 346:0.07 347:0.07 348:0.15000001 349:0.37 350:0.15000001 351:0.15000001 352:0.30000001 353:0.51999998 354:0 355:0.22 356:0.15000001 357:0.15000001 358:0.07 359:0 360:0.15000001 361:0 362:0 363:0.07 364:0.44 365:0 366:0 367:0 368:0 369:0.07 370:0 371:0 372:0.07 373:0 374:0.07 375:0 376:0.07 377:0.07 378:0.15000001 379:0 380:0 381:0.07 382:0.07 383:0.22 384:0.37 385:0 386:0.07 387:0.07 388:0.15000001 389:0.07 390:0 391:0 392:0.07 393:0 394:0.22 395:0.15000001 396:0.30000001 397:0 398:0 399:0 400:0 #
-0.43215375846098036394238306456828 1:4.25 2:0 3:0 4:2.3599999 5:0.47 6:0.47 7:0 8:0 9:0 10:0.94 11:0 12:0 13:0.47 14:0 15:1.89 16:0.94 17:0 18:0.47 19:0 20:1.42 21:0 22:0 23:0 24:0 25:0 26:0 27:0.47 28:0 29:0 30:0 31:0 32:0 33:0 34:0 35:0.47 36:0 37:0 38:0 39:0.47 40:0 41:0 42:0 43:0.47 44:0 45:0 46:0.47 47:0 48:0 49:0.47 50:0 51:0 52:0 53:0.47 54:0.47 55:0.47 56:0.47 57:0 58:0.94 59:0 60:0 61:1.42 62:0 63:1.89 64:0.94 65:0 66:0 67:0 68:0 69:0 70:0.94 71:0 72:0.94 73:0.47 74:1.42 75:0 76:0 77:0.47 78:0.47 79:0 80:0 81:0 82:0 83:0 84:0 85:0 86:0 87:0 88:0.47 89:0 90:0 91:0 92:0 93:0 94:0 95:0.47 96:0.47 97:0 98:0 99:0 100:0.47 101:0.94 102:0 103:0 104:0 105:0.47 106:0.94 107:0 108:0.47 109:0 110:0 111:0 112:0 113:0 114:0 115:0.94 116:0.47 117:0 118:1.42 119:0 120:0 121:0 122:0 123:0 124:0 125:0 126:0 127:0.47 128:0 129:0 130:0.47 131:0 132:0 133:0.47 134:0.47 135:0.47 136:0 137:0 138:0 139:0.47 140:0 141:0 142:0 143:0 144:0.47 145:0 146:0.47 147:0 148:0 149:0 150:0 151:0 152:0 153:0 154:0 155:0 156:0.47 157:0 158:0 159:0 160:0 161:0 162:0 163:0 164:0 165:0 166:0 167:0 168:0 169:0 170:0 171:0 172:0 173:0 174:0 175:0 176:0.47 177:0 178:0 179:0 180:0 181:0.94 182:0 183:0 184:0 185:0 186:0.47 187:0 188:0 189:0 190:0.47 191:0.47 192:0 193:0.47 194:0.47 195:1.42 196:0.94 197:0 198:0 199:0 200:0 201:0.94 202:0 203:0 204:0 205:0 206:0 207:0 208:0 209:0 210:0 211:0 212:0 213:0.47 214:0 215:0.47 216:0 217:0 218:0 219:0 220:0.47 221:0 222:0 223:0 224:0 225:0 226:0 227:0 228:0 229:0 230:0.47 231:0 232:0 233:0 234:0 235:0 236:0 237:0.47 238:0 239:0 240:0 241:0.47 242:0 243:0.94 244:0.47 245:0 246:0.47 247:0.47 248:0 249:0 250:0.47 251:0 252:0 253:0.94 254:0 255:0.94 256:0.47 257:0.47 258:0 259:0 260:0 261:0 262:0 263:0 264:1.89 265:0 266:0 267:0 268:0 269:0 270:0 271:0 272:0 273:0 274:0 275:0.47 276:0.94 277:0.94 278:0.47 279:0 280:0 281:2.8299999 282:0 283:0 284:0.47 285:0.47 286:1.42 287:0.47 288:0.47 289:0 290:1.42 291:0.94 292:0 293:0.47 294:0 295:5.1900001 296:1.42 297:1.42 298:0.47 299:0 300:0 301:0.47 302:0.47 303:0.47 304:0.47 305:0 306:0.47 307:0.47 308:0 309:0 310:0 311:0.47 312:0 313:0.94 314:0.94 315:0.94 316:0.94 317:0.47 318:0 319:0.94 320:0.47 321:0.47 322:0 323:0 324:0.94 325:0.47 326:0 327:0 328:0 329:0 330:0.47 331:0 332:0 333:0.47 334:0.47 335:0.94 336:0 337:0 338:0 339:0 340:0 341:0.94 342:0.47 343:0 344:0 345:0 346:0 347:0 348:0 349:0 350:0 351:0 352:0 353:0.47 354:0.47 355:1.42 356:0.47 357:0 358:0 359:0 360:0 361:0 362:0 363:0 364:0.47 365:0 366:0.47 367:0 368:0 369:0 370:0 371:0 372:0 373:0 374:0 375:0.47 376:0.47 377:0 378:0 379:0 380:0 381:0 382:0.47 383:0.47 384:0.94 385:0 386:0 387:0.47 388:0 389:0 390:0 391:0 392:0 393:0 394:0 395:0.47 396:0 397:0 398:0 399:0 400:0 #
