SVM-light Version V6.02
2 # kernel type
3 # kernel parameter -d 
0.0005 # kernel parameter -g 
1 # kernel parameter -s 
1 # kernel parameter -r 
empty# kernel parameter -u 
400 # highest feature index 
2225 # number of training documents 
874 # number of support vectors plus 1 
3.3324342 # threshold b, each following line is a SV (starting with alpha*y)
12.654605829407321593294000194874 1:1.2 2:0.07 3:0.44999999 4:0.67000002 5:0.37 6:0.37 7:0 8:0.81999999 9:0.30000001 10:0.67000002 11:0.07 12:0.22 13:0 14:0.44999999 15:0.22 16:1.05 17:0.30000001 18:0.30000001 19:0 20:0.30000001 21:0.15000001 22:0 23:0.15000001 24:0.07 25:0.07 26:0.15000001 27:0.07 28:0 29:0.07 30:0.44999999 31:0 32:0.15000001 33:0 34:0 35:0.07 36:0.07 37:0 38:0.15000001 39:0 40:0.22 41:0.51999998 42:0.22 43:0.22 44:0.15000001 45:0.37 46:0.37 47:0.07 48:0.15000001 49:0.37 50:0.51999998 51:0.30000001 52:0.37 53:0.30000001 54:0.15000001 55:0.22 56:0.44999999 57:0.44999999 58:0.44999999 59:0.07 60:0.07 61:0.75 62:0.15000001 63:0.37 64:1.05 65:0.22 66:0.37 67:0.07 68:0.60000002 69:0.44999999 70:0.44999999 71:0.30000001 72:0.37 73:0.15000001 74:0.07 75:0.30000001 76:1.12 77:0.51999998 78:0.30000001 79:0 80:0.07 81:0.07 82:0.07 83:0.15000001 84:0.15000001 85:0 86:0.44999999 87:0.15000001 88:0.30000001 89:0.37 90:0.44999999 91:0.07 92:0.15000001 93:0.15000001 94:0.07 95:0.15000001 96:0.44999999 97:0.37 98:0.22 99:0 100:0.07 101:0.15000001 102:0.15000001 103:0.15000001 104:0.44999999 105:0.51999998 106:0.37 107:0.15000001 108:0.22 109:0.37 110:0.44999999 111:0.07 112:0.75 113:0.15000001 114:0.44999999 115:0.30000001 116:0.89999998 117:0.30000001 118:0.44999999 119:0 120:0.15000001 121:0.22 122:0 123:0.22 124:0 125:0 126:0.07 127:0.07 128:0 129:0.07 130:0.15000001 131:0.22 132:0.07 133:0.15000001 134:0 135:0.07 136:0.07 137:0 138:0 139:0 140:0 141:0.51999998 142:0.07 143:0.30000001 144:0.60000002 145:0.22 146:0.30000001 147:0.15000001 148:0.07 149:0.44999999 150:0.22 151:0 152:0.60000002 153:0.44999999 154:0.15000001 155:0.07 156:0.22 157:0 158:0.37 159:0 160:0 161:0.67000002 162:0.07 163:0.22 164:0.22 165:0.22 166:0.30000001 167:0.15000001 168:0.15000001 169:0.89999998 170:0.44999999 171:0.07 172:0.44999999 173:0.22 174:0.44999999 175:0.37 176:0.44999999 177:0.22 178:0.67000002 179:0.15000001 180:0.07 181:0.44999999 182:0.15000001 183:0.37 184:0.37 185:0.22 186:0.51999998 187:0 188:0.51999998 189:0.60000002 190:0.60000002 191:0.07 192:0.81999999 193:0.22 194:0.37 195:0.67000002 196:0.97000003 197:0.22 198:0.30000001 199:0.15000001 200:0.07 201:0.07 202:0.07 203:0.15000001 204:0.15000001 205:0 206:0.15000001 207:0.07 208:0.15000001 209:0.22 210:0.07 211:0 212:0.22 213:0 214:0.15000001 215:0.15000001 216:0.15000001 217:0 218:0.07 219:0 220:0.07 221:0.37 222:0.22 223:0.44999999 224:0.75 225:0.22 226:0.30000001 227:0 228:0.44999999 229:0.30000001 230:0.60000002 231:0.15000001 232:0.15000001 233:0.30000001 234:0.30000001 235:0.44999999 236:0.60000002 237:0 238:0.44999999 239:0 240:0.07 241:0.15000001 242:0.07 243:0.37 244:0.15000001 245:0.22 246:0.22 247:0 248:0.30000001 249:0.07 250:0.37 251:0.07 252:0.30000001 253:0.22 254:0 255:0.15000001 256:0.37 257:0.37 258:0.15000001 259:0 260:0.30000001 261:0.37 262:0 263:0.37 264:0.37 265:0.30000001 266:0.15000001 267:0.07 268:0.07 269:0.37 270:0.22 271:0.15000001 272:0.30000001 273:0.22 274:0.07 275:0.07 276:0.37 277:0.22 278:0.22 279:0.07 280:0.15000001 281:0.37 282:0.15000001 283:0.15000001 284:0.60000002 285:0 286:0.30000001 287:0.15000001 288:0.44999999 289:0.51999998 290:0.51999998 291:0.22 292:0.22 293:0.15000001 294:0.30000001 295:0.15000001 296:0.81999999 297:0.22 298:0.15000001 299:0 300:0 301:1.05 302:0.30000001 303:1.05 304:0.67000002 305:0.30000001 306:1.05 307:0.07 308:0.22 309:0.37 310:0.97000003 311:0 312:0.44999999 313:0.75 314:0.60000002 315:1.2 316:2.3900001 317:0.37 318:0.30000001 319:0 320:0.37 321:0.07 322:0 323:0.37 324:0.37 325:0.30000001 326:0.37 327:0.07 328:0.07 329:0.51999998 330:0.15000001 331:0 332:0.22 333:0.22 334:0.30000001 335:0.15000001 336:0.67000002 337:0 338:0.07 339:0.07 340:0.07 341:0.37 342:0 343:0.22 344:0.75 345:0.15000001 346:0.51999998 347:0.07 348:0.22 349:0.07 350:0.15000001 351:0.07 352:0.15000001 353:0.15000001 354:0.07 355:0.30000001 356:1.12 357:0.22 358:0.22 359:0.07 360:0 361:0.07 362:0 363:0 364:0 365:0 366:0 367:0 368:0 369:0 370:0.07 371:0 372:0.07 373:0.07 374:0 375:0.30000001 376:0 377:0 378:0 379:0 380:0 381:0.22 382:0.07 383:0.07 384:0.15000001 385:0.15000001 386:0.15000001 387:0 388:0 389:0.07 390:0.15000001 391:0 392:0.07 393:0 394:0.22 395:0.15000001 396:0.22 397:0.30000001 398:0.07 399:0 400:0.07 #
-12.654605829407321593294000194874 1:0.81999999 2:0 3:0 4:1.02 5:0 6:0.41 7:0.41 8:0 9:0.2 10:0.81999999 11:0 12:0.41 13:0.2 14:0.2 15:0.41 16:0.41 17:0.41 18:1.23 19:0.2 20:0.2 21:0 22:0 23:0.2 24:0 25:0 26:0.2 27:0 28:0 29:0 30:0 31:0 32:0 33:0 34:0 35:0 36:0 37:0.2 38:0.2 39:0 40:0 41:0.41 42:0 43:0.2 44:0.81999999 45:0.2 46:0.61000001 47:0.2 48:0 49:0.2 50:0.41 51:0 52:0.41 53:0.41 54:0.41 55:0.41 56:0.61000001 57:0.41 58:0.2 59:0 60:0.41 61:0.2 62:0 63:0.61000001 64:0.61000001 65:0 66:0.41 67:0 68:0.2 69:0 70:1.64 71:0 72:0.2 73:0.2 74:0 75:0.41 76:0.2 77:0.41 78:0.81999999 79:0 80:0.2 81:0.2 82:0.2 83:0.2 84:0.2 85:0.2 86:0.2 87:0.2 88:0 89:0 90:0.41 91:0 92:0.2 93:0 94:0.2 95:0 96:0 97:0.2 98:0 99:0 100:0 101:0.61000001 102:0 103:0.61000001 104:0.41 105:0.2 106:0.61000001 107:0.41 108:0.41 109:0 110:0.61000001 111:0 112:0 113:0 114:0.61000001 115:0.2 116:1.23 117:0.2 118:0.81999999 119:0 120:0.61000001 121:0 122:0.2 123:0.2 124:0.41 125:0.2 126:0.2 127:0 128:0 129:0.2 130:0 131:0 132:0 133:0 134:0.2 135:0.61000001 136:0.2 137:0 138:0 139:0 140:0.2 141:0 142:0 143:0.41 144:0 145:0.2 146:0.41 147:0 148:0.2 149:0.2 150:0.41 151:0 152:0.2 153:0.2 154:0.81999999 155:0.2 156:0.61000001 157:0.61000001 158:0.2 159:0.2 160:0 161:0.61000001 162:0 163:0 164:0.2 165:0 166:0.41 167:0 168:0 169:0.2 170:0.2 171:0 172:0 173:0 174:0 175:0.2 176:0.2 177:0.41 178:0.2 179:0 180:0 181:1.23 182:0 183:0.41 184:0.61000001 185:0.2 186:1.4299999 187:0.2 188:0.41 189:0.81999999 190:1.84 191:0 192:0.2 193:0.41 194:0.41 195:0.41 196:0.61000001 197:1.02 198:2.05 199:0.41 200:0.2 201:0 202:0 203:0 204:0 205:0 206:0 207:0 208:0.2 209:0 210:0 211:0 212:0 213:0 214:0 215:0 216:0 217:0.2 218:0.2 219:0 220:0 221:0.2 222:0 223:0.41 224:0.2 225:0.2 226:0.2 227:0.2 228:0.2 229:0 230:0.61000001 231:0.2 232:0.2 233:0.2 234:0 235:0 236:0.41 237:0 238:0 239:0 240:0 241:0.41 242:0 243:0.41 244:0 245:0 246:0.2 247:0 248:0.81999999 249:0 250:0.61000001 251:0 252:0.2 253:0.41 254:0 255:0.2 256:0 257:0 258:0.2 259:0.2 260:0.2 261:0.61000001 262:0 263:0.41 264:0 265:0.2 266:0.41 267:0 268:0.41 269:0.2 270:1.02 271:0 272:0 273:0 274:0.61000001 275:0.61000001 276:0.2 277:0.2 278:0.2 279:0 280:0 281:0.2 282:0 283:0.2 284:0.61000001 285:0 286:0.41 287:0.41 288:0.41 289:0.2 290:0.81999999 291:0 292:0 293:0.2 294:0.2 295:1.02 296:1.02 297:0 298:0.41 299:0 300:0 301:0.2 302:0 303:0.41 304:0 305:0.41 306:0.81999999 307:0 308:0.41 309:0 310:0.81999999 311:0 312:0.61000001 313:0 314:0.61000001 315:0.41 316:0.2 317:0.41 318:1.23 319:0.41 320:0.41 321:0.81999999 322:0.2 323:0.2 324:0.41 325:0 326:0 327:0.2 328:0.41 329:0 330:1.02 331:0.2 332:0 333:0.2 334:0.41 335:0.61000001 336:0 337:0 338:0.2 339:0.2 340:0 341:0.2 342:0 343:0.81999999 344:0.41 345:0.2 346:0.41 347:0.41 348:0.81999999 349:0 350:1.23 351:0 352:0.61000001 353:1.23 354:0.2 355:0.41 356:1.02 357:0.2 358:0.61000001 359:0.2 360:0.41 361:0.41 362:0.2 363:0.2 364:0 365:0 366:0 367:0 368:0 369:0.41 370:0 371:0 372:0 373:0 374:0 375:0 376:0.41 377:0.2 378:0 379:0.41 380:0 381:0.2 382:0 383:0.41 384:0.2 385:0.2 386:0.2 387:0 388:0 389:0 390:0.61000001 391:0 392:0 393:0.2 394:0.2 395:0 396:0 397:0 398:0.61000001 399:0 400:0 #
9.0559022193477822781915165251121 1:1.24 2:0 3:0.41 4:0.82999998 5:0.41 6:0.41 7:1.24 8:0.41 9:1.24 10:0.41 11:0 12:0 13:0 14:0.82999998 15:0.41 16:0.41 17:0 18:0.41 19:0 20:0.41 21:0.41 22:0 23:0 24:0 25:0 26:0 27:0 28:0 29:0 30:0.41 31:0 32:0 33:0 34:0 35:0 36:0 37:0 38:0 39:0 40:0 41:0 42:0 43:0.82999998 44:0.41 45:0 46:0.41 47:0 48:0.41 49:0.82999998 50:0.82999998 51:0.41 52:0 53:0 54:0 55:0.41 56:0 57:0.41 58:0.41 59:0 60:0 61:1.65 62:0 63:0.41 64:0.82999998 65:0.41 66:0 67:0 68:0.41 69:0.82999998 70:0.41 71:0.41 72:0.82999998 73:0 74:0 75:0 76:0.41 77:1.24 78:0.41 79:0.41 80:0 81:0 82:0 83:0.41 84:0.41 85:0.41 86:0.41 87:0 88:0 89:0.41 90:0.41 91:0 92:0 93:0.41 94:0.41 95:0.41 96:0 97:0 98:0 99:0 100:0 101:0.41 102:0 103:0 104:0.41 105:0 106:0 107:0 108:0 109:0 110:0 111:0 112:0.41 113:0.82999998 114:0 115:0 116:0 117:0 118:0 119:0 120:0 121:0 122:0 123:0 124:0 125:0 126:0 127:0 128:0 129:0 130:0 131:0 132:0 133:0.41 134:0.41 135:0.41 136:0.41 137:0 138:0 139:0 140:0 141:0 142:0 143:0.82999998 144:0.41 145:0 146:0 147:0 148:0 149:0.41 150:0.41 151:0 152:0.41 153:1.24 154:0 155:0.41 156:0.41 157:0 158:0 159:0.41 160:0 161:1.24 162:0 163:0.41 164:0.82999998 165:0 166:0 167:0 168:0 169:1.65 170:0.41 171:0 172:0.82999998 173:0.41 174:0.41 175:0.82999998 176:0.41 177:0.41 178:0.41 179:0 180:0 181:0 182:0.41 183:0 184:2.48 185:0 186:0 187:0.41 188:0 189:1.24 190:2.0699999 191:0 192:0 193:0.41 194:0.41 195:1.24 196:0.41 197:0.41 198:0 199:0 200:0 201:0 202:0 203:0 204:0.41 205:0 206:0 207:0 208:0 209:0 210:0.41 211:0 212:0 213:0 214:0.41 215:0.82999998 216:0 217:0 218:0 219:0 220:0 221:0.41 222:0 223:0 224:0.82999998 225:0 226:0.41 227:0 228:0.41 229:0 230:0.41 231:0 232:0 233:0.41 234:0 235:0.41 236:0 237:0.41 238:0.41 239:0 240:0.41 241:0.41 242:0.41 243:0.41 244:0.41 245:1.24 246:0 247:0 248:0 249:0 250:0.41 251:0 252:0.41 253:2.0699999 254:0.82999998 255:0 256:0.41 257:0.41 258:0 259:0 260:0 261:0.41 262:0 263:0 264:0 265:0 266:0 267:0 268:0.41 269:0 270:0.41 271:0 272:0.82999998 273:0.41 274:1.65 275:0 276:1.24 277:0 278:0 279:0 280:0.41 281:1.24 282:0 283:0.82999998 284:0.41 285:0.82999998 286:0.41 287:0 288:1.24 289:0 290:0 291:0 292:0 293:0.41 294:0 295:1.24 296:0.41 297:0.41 298:0 299:0 300:0.41 301:0.82999998 302:0 303:0 304:0 305:0.41 306:0 307:0 308:0.41 309:0.41 310:1.24 311:0.41 312:0.41 313:0.41 314:0.41 315:0.41 316:0.41 317:1.24 318:0 319:0 320:0 321:0.82999998 322:0 323:0 324:0 325:0 326:0 327:0 328:1.24 329:0 330:0.82999998 331:0 332:0 333:0 334:0 335:0.82999998 336:1.24 337:0.41 338:0 339:0 340:0 341:0 342:0 343:0.41 344:0 345:0 346:0 347:0 348:0 349:0.82999998 350:0 351:0.41 352:0.41 353:0 354:0 355:0 356:0.41 357:0 358:0 359:0 360:0 361:0 362:0 363:0.82999998 364:0 365:0 366:0 367:0 368:0 369:0 370:0 371:0 372:0 373:0 374:0 375:0 376:0 377:0 378:0.41 379:0 380:0 381:0 382:0 383:0 384:0 385:0 386:0 387:0 388:0 389:0.41 390:0.41 391:0 392:0 393:0 394:0 395:0 396:0.41 397:0 398:0 399:0.41 400:0.41 #
12.654605829407321593294000194874 1:0.68000001 2:0.68000001 3:0.14 4:0.81999999 5:0.54000002 6:0.27000001 7:0.14 8:0.41 9:0.41 10:0.54000002 11:0 12:0.14 13:0.27000001 14:0 15:0.54000002 16:0.14 17:0.14 18:0.68000001 19:0 20:0.27000001 21:0.14 22:0 23:0 24:0.14 25:0 26:0.68000001 27:0 28:0.27000001 29:0 30:0.14 31:0 32:0 33:0.27000001 34:0 35:0.14 36:0.68000001 37:0 38:0.27000001 39:0 40:0 41:0.27000001 42:0 43:0.27000001 44:0.54000002 45:0 46:0.27000001 47:0 48:0.14 49:0.41 50:0.41 51:0.41 52:0.27000001 53:0.41 54:0 55:0.14 56:0.27000001 57:0.81999999 58:0.27000001 59:0 60:0.14 61:0.54000002 62:0.27000001 63:0.54000002 64:0.54000002 65:0.14 66:0.27000001 67:0.14 68:0.68000001 69:0.27000001 70:0.68000001 71:0.54000002 72:0.14 73:0.27000001 74:0.14 75:0.54000002 76:0.54000002 77:0.14 78:0.41 79:0.14 80:0 81:0.27000001 82:0 83:0.54000002 84:0.27000001 85:0.14 86:0 87:0.14 88:0.14 89:0.14 90:0.54000002 91:0 92:0.27000001 93:0.27000001 94:0 95:0.41 96:0.41 97:0.27000001 98:0.68000001 99:0 100:0 101:0.41 102:0.27000001 103:0.54000002 104:0.27000001 105:0.54000002 106:0 107:0.27000001 108:0.41 109:0.54000002 110:1.36 111:0.14 112:0.14 113:0 114:0.14 115:0.54000002 116:0.27000001 117:0.27000001 118:0.81999999 119:0 120:0.14 121:0.27000001 122:0 123:0 124:0 125:0 126:0.41 127:0 128:0 129:0 130:0 131:0.14 132:0.14 133:0.27000001 134:0 135:0 136:0.41 137:0 138:0.27000001 139:0 140:0.27000001 141:0.14 142:0 143:0.14 144:0.94999999 145:0.14 146:0.41 147:0.41 148:0.54000002 149:0.54000002 150:0.68000001 151:0 152:0.14 153:0 154:0.41 155:0.27000001 156:0.54000002 157:0.14 158:0.14 159:0.14 160:0.27000001 161:0.27000001 162:0.41 163:0 164:0.27000001 165:0.41 166:0.54000002 167:0.14 168:0 169:0.54000002 170:0.14 171:0.14 172:0 173:0.41 174:0.41 175:0.41 176:0.41 177:0.14 178:0.81999999 179:0 180:0.14 181:0.41 182:0.27000001 183:0.54000002 184:0.68000001 185:0.41 186:1.36 187:0.14 188:0.68000001 189:0.27000001 190:1.09 191:0.27000001 192:0.14 193:0 194:0.27000001 195:0.41 196:0.81999999 197:0.54000002 198:0.54000002 199:0 200:0.54000002 201:0 202:0 203:0.14 204:0 205:0 206:0.14 207:0 208:0.54000002 209:0.27000001 210:0.41 211:0 212:0.14 213:0.14 214:0 215:0.14 216:0 217:0.27000001 218:0.54000002 219:0 220:0.41 221:0 222:0.14 223:0 224:0.41 225:0.41 226:0.68000001 227:0 228:0.27000001 229:0 230:0.27000001 231:0.27000001 232:0.14 233:0.41 234:0.14 235:0.27000001 236:0.68000001 237:0.14 238:0.14 239:0 240:0 241:0.14 242:0 243:0.54000002 244:0.14 245:0.27000001 246:0.14 247:0.14 248:0 249:0.41 250:0.27000001 251:0 252:0.41 253:0 254:0.14 255:0.27000001 256:0.27000001 257:0.27000001 258:0 259:0 260:0.41 261:0.54000002 262:0.14 263:0.14 264:0.27000001 265:0.14 266:0.14 267:0.14 268:0.27000001 269:0.14 270:0.27000001 271:0.14 272:0.27000001 273:0.14 274:0 275:0.14 276:0.14 277:0.14 278:0.14 279:0 280:0 281:0.81999999 282:0.14 283:0.27000001 284:0 285:0.27000001 286:0.14 287:0.14 288:0.27000001 289:0.14 290:0.41 291:0.14 292:0.54000002 293:0 294:0.27000001 295:0.27000001 296:0.41 297:0.14 298:0.27000001 299:0.14 300:0.14 301:0.81999999 302:0.27000001 303:0.14 304:0.41 305:0.14 306:0.41 307:0.27000001 308:0.54000002 309:0.54000002 310:1.22 311:0.41 312:0.68000001 313:0.14 314:0.41 315:0.27000001 316:0.81999999 317:0.27000001 318:0.27000001 319:0.41 320:0 321:0.54000002 322:0.14 323:0.14 324:0.27000001 325:0.14 326:0.41 327:0 328:0.14 329:0.14 330:0 331:0.27000001 332:0 333:0.27000001 334:0.27000001 335:0.14 336:0.27000001 337:0 338:0.41 339:0.14 340:0.41 341:0.14 342:0 343:0.68000001 344:0.41 345:0.68000001 346:0.54000002 347:0.14 348:0.54000002 349:0.54000002 350:0.81999999 351:0 352:0.54000002 353:0.41 354:0.41 355:0 356:0.68000001 357:0.27000001 358:0.27000001 359:0.14 360:0.14 361:0 362:0 363:0.14 364:0 365:0.14 366:0 367:0 368:0.14 369:0.14 370:0 371:0 372:0.27000001 373:0 374:0.14 375:0 376:0 377:0.14 378:0 379:0 380:0 381:0.41 382:0 383:0.14 384:0.54000002 385:0.14 386:0.27000001 387:0 388:0 389:0.14 390:0.14 391:0.14 392:0 393:0.14 394:0.14 395:0 396:0.68000001 397:0 398:0.41 399:0 400:0.14 #
12.654605829407321593294000194874 1:0.70999998 2:0.28999999 3:0.14 4:0.70999998 5:0.28999999 6:0.70999998 7:0 8:0.28999999 9:0.56999999 10:0.14 11:0.14 12:0.14 13:0.14 14:0.14 15:0.43000001 16:0.70999998 17:0.43000001 18:0.43000001 19:0 20:0.14 21:0 22:0 23:0.14 24:0 25:0 26:0 27:0.14 28:0 29:0 30:0.28999999 31:0.14 32:0.70999998 33:0 34:0 35:0 36:0.14 37:0 38:0.14 39:0 40:0.14 41:0.28999999 42:0 43:0.28999999 44:0.56999999 45:0.43000001 46:0.14 47:0 48:0.14 49:0.14 50:0.43000001 51:0.28999999 52:0 53:0.14 54:0.56999999 55:0.43000001 56:0.28999999 57:0.43000001 58:0.56999999 59:0.14 60:0.14 61:1.28 62:0 63:0.28999999 64:0.14 65:0 66:0.43000001 67:0.28999999 68:0 69:0.43000001 70:0.28999999 71:0.14 72:0.56999999 73:0.28999999 74:0.28999999 75:0.86000001 76:1 77:0.14 78:0.14 79:0.14 80:0 81:0.14 82:0.28999999 83:0.28999999 84:0.28999999 85:0 86:0 87:0.14 88:0 89:0.28999999 90:0 91:0 92:0.28999999 93:0.14 94:0.28999999 95:0.28999999 96:0.28999999 97:0.28999999 98:0 99:0 100:0 101:0 102:0 103:0.14 104:0.14 105:0.14 106:0.14 107:0.56999999 108:0.28999999 109:0.14 110:0 111:0 112:0 113:0.14 114:0 115:0.70999998 116:0.70999998 117:0.14 118:0 119:0 120:0.14 121:0 122:0.14 123:0.14 124:0 125:0.14 126:0 127:0 128:0.14 129:0.14 130:0.14 131:0 132:0 133:0.43000001 134:0.28999999 135:0.28999999 136:0.43000001 137:0.14 138:0 139:0 140:0.14 141:0.14 142:0 143:0.14 144:0.14 145:0 146:0 147:0 148:0.14 149:0.14 150:0.14 151:0 152:0 153:0.14 154:0.14 155:0.28999999 156:0.28999999 157:0.43000001 158:0.14 159:0 160:0 161:0.43000001 162:0.14 163:0.28999999 164:0.28999999 165:0.14 166:0.14 167:0.14 168:0.28999999 169:0.14 170:0.86000001 171:0.14 172:0.14 173:0.14 174:0 175:0.56999999 176:0.70999998 177:0.56999999 178:0.56999999 179:0.14 180:0.14 181:0.28999999 182:0 183:0.56999999 184:0.56999999 185:0.43000001 186:0.56999999 187:0.14 188:0.28999999 189:0.14 190:0.70999998 191:0 192:0.14 193:0.56999999 194:0.70999998 195:0.70999998 196:0.70999998 197:0.70999998 198:0 199:0 200:0 201:0.14 202:0.14 203:0 204:0.28999999 205:0 206:0 207:0.14 208:0 209:0 210:0.14 211:0.14 212:0 213:0.14 214:0 215:0 216:0.28999999 217:0.14 218:0 219:0 220:0 221:0 222:0.14 223:0 224:0 225:0.14 226:0.14 227:0 228:0 229:0.28999999 230:0.56999999 231:0 232:0 233:0.43000001 234:0.14 235:0.43000001 236:0.86000001 237:0.43000001 238:0.28999999 239:0 240:0 241:0.43000001 242:0 243:0.56999999 244:0.43000001 245:0.14 246:0.14 247:0.14 248:0 249:0.28999999 250:0.70999998 251:0 252:0.28999999 253:0.14 254:0.14 255:0.86000001 256:0.56999999 257:1 258:0.28999999 259:0 260:0 261:0.28999999 262:0.14 263:0.28999999 264:0.28999999 265:0 266:0 267:0.14 268:0 269:0.28999999 270:0.70999998 271:0 272:0 273:0.14 274:0.14 275:0.28999999 276:0.28999999 277:0.43000001 278:0.43000001 279:0 280:0 281:1.14 282:0.28999999 283:0.28999999 284:0.56999999 285:0.14 286:0.14 287:0.14 288:0.14 289:0.56999999 290:0.28999999 291:0.14 292:0.14 293:0.56999999 294:0.43000001 295:1.4299999 296:1.71 297:0.86000001 298:0.86000001 299:0.14 300:0.56999999 301:0.43000001 302:0 303:1 304:1 305:0.43000001 306:0.28999999 307:0 308:0.28999999 309:1.14 310:1.4299999 311:0.14 312:0.56999999 313:0.56999999 314:0.28999999 315:1.14 316:1.5700001 317:0.43000001 318:0.86000001 319:0.28999999 320:0.14 321:0.14 322:0.14 323:0.43000001 324:0.86000001 325:0.14 326:0.43000001 327:0 328:0.14 329:0.56999999 330:0 331:0 332:0.14 333:1.4299999 334:0.28999999 335:1 336:1 337:0.86000001 338:0.43000001 339:0.14 340:0 341:0.28999999 342:0.14 343:0.28999999 344:0.14 345:0.43000001 346:0 347:0.43000001 348:0 349:0.56999999 350:0.28999999 351:0 352:0.43000001 353:0.56999999 354:0.14 355:0.43000001 356:0.43000001 357:0.43000001 358:0.56999999 359:0 360:0.14 361:0 362:0 363:0 364:0.14 365:0 366:0.14 367:0.14 368:0.14 369:0 370:0 371:0.14 372:0.14 373:0 374:0 375:0.14 376:0 377:0.14 378:0 379:0 380:0.14 381:0.43000001 382:0 383:0.14 384:0.14 385:0 386:0 387:0 388:0 389:0.14 390:0.14 391:0 392:0.14 393:0 394:0 395:0.28999999 396:0 397:0.14 398:0 399:0.28999999 400:0 #
12.654605829407321593294000194874 1:1.14 2:0 3:0.46000001 4:0.46000001 5:1.37 6:0.68000001 7:0.23 8:1.14 9:0 10:1.83 11:0.68000001 12:0.46000001 13:0.23 14:0.68000001 15:0.23 16:0.46000001 17:1.14 18:0.23 19:0 20:0.68000001 21:0.23 22:0 23:0.23 24:0 25:0 26:0 27:0 28:0 29:0 30:0 31:0 32:0 33:0 34:0.23 35:0 36:0 37:0.23 38:0.23 39:0 40:0.23 41:0.23 42:0.23 43:0 44:0 45:0.23 46:0.23 47:0.68000001 48:0.23 49:0.23 50:1.14 51:0 52:0 53:0 54:0 55:0.23 56:0.46000001 57:0 58:0 59:0 60:0.23 61:0.46000001 62:0 63:0 64:0.23 65:0 66:0 67:0 68:0 69:0.23 70:0.23 71:0 72:0 73:0.46000001 74:0 75:0.23 76:0.23 77:0 78:0.46000001 79:0 80:0 81:0.68000001 82:0 83:0 84:0 85:0.46000001 86:0 87:0 88:0 89:0 90:0.23 91:0.23 92:0 93:0 94:0.23 95:0.68000001 96:0.23 97:0.46000001 98:0.23 99:0 100:0.23 101:0.68000001 102:0.23 103:0.23 104:0 105:0 106:0.46000001 107:0.91000003 108:0.46000001 109:0.23 110:0.68000001 111:0 112:0 113:0.23 114:0.46000001 115:0.46000001 116:0.91000003 117:0 118:0.68000001 119:0 120:0.23 121:0 122:0 123:0 124:0 125:0 126:0 127:0 128:0.46000001 129:0 130:0.68000001 131:0 132:0.46000001 133:0.23 134:0 135:0.23 136:0 137:0 138:0 139:0 140:0.46000001 141:1.6 142:0.46000001 143:0 144:0.46000001 145:0 146:0.68000001 147:0.23 148:0 149:0.46000001 150:0.68000001 151:0 152:0 153:0 154:0.23 155:0.46000001 156:0.46000001 157:0 158:0.23 159:0 160:0.23 161:0.23 162:0 163:0.46000001 164:0.23 165:0 166:0.23 167:0 168:0.46000001 169:0 170:0 171:0 172:0.23 173:0.46000001 174:0 175:0 176:0 177:0.23 178:0.23 179:0 180:0 181:1.37 182:0 183:0.46000001 184:0.46000001 185:0.68000001 186:0.91000003 187:0 188:0.68000001 189:0.23 190:1.14 191:0.23 192:0.68000001 193:0.91000003 194:1.37 195:0 196:1.37 197:0.23 198:1.37 199:0 200:0.46000001 201:0 202:0 203:0 204:0 205:0 206:0.46000001 207:0 208:0.23 209:0 210:0.68000001 211:0 212:0 213:0 214:0.46000001 215:0 216:0 217:0 218:0.46000001 219:0 220:0 221:0 222:0 223:0.23 224:0 225:0 226:0.23 227:0 228:0.23 229:0 230:0.23 231:0 232:0.23 233:0.68000001 234:0 235:0.91000003 236:0 237:0 238:0 239:0 240:0.46000001 241:0.46000001 242:0 243:0.23 244:0 245:0.23 246:0.23 247:0 248:0.23 249:0.23 250:0 251:0 252:0.23 253:0 254:0.46000001 255:0.91000003 256:0.23 257:0.23 258:0.23 259:0.23 260:0.23 261:1.6 262:0 263:0.68000001 264:0 265:0 266:0.46000001 267:0 268:0.46000001 269:0.46000001 270:0.68000001 271:0 272:0 273:0.23 274:0.46000001 275:0.23 276:0.68000001 277:0 278:0.68000001 279:0 280:0.46000001 281:0.68000001 282:0.23 283:0.46000001 284:0.23 285:0.23 286:0.46000001 287:0 288:0 289:0.23 290:0.91000003 291:0.23 292:0.46000001 293:0 294:0.46000001 295:0.91000003 296:0.46000001 297:0 298:0.23 299:0 300:0 301:0.46000001 302:0.23 303:0.23 304:0 305:0.23 306:0.91000003 307:0 308:0.68000001 309:0 310:1.37 311:0 312:0.23 313:0.46000001 314:0.91000003 315:0 316:0.46000001 317:0 318:0.46000001 319:0.23 320:0.46000001 321:1.14 322:0 323:0 324:0 325:0 326:0 327:0 328:0.46000001 329:0.23 330:0.68000001 331:0 332:0 333:0.23 334:0.23 335:0 336:0 337:0.46000001 338:0.23 339:0 340:0 341:0.46000001 342:0 343:0.23 344:0.23 345:0 346:0.68000001 347:0 348:0.23 349:0.23 350:1.14 351:0.46000001 352:0.23 353:0.23 354:0.23 355:0.23 356:0.46000001 357:0.23 358:0.46000001 359:0.46000001 360:0 361:0.23 362:0 363:0 364:0 365:0 366:0 367:0 368:0 369:0 370:0 371:0 372:0 373:0 374:0.23 375:0 376:0.23 377:0.23 378:0 379:0 380:0 381:0.46000001 382:0 383:0.23 384:0.23 385:0.23 386:0.23 387:0.46000001 388:0.23 389:0 390:0.23 391:0.23 392:0 393:0 394:0.46000001 395:0.46000001 396:0.68000001 397:0.23 398:0 399:0 400:0 #
12.654605829407321593294000194874 1:1.71 2:0.20999999 3:1.0700001 4:0.43000001 5:0 6:0.85000002 7:0.20999999 8:0.85000002 9:0 10:0.63999999 11:0.20999999 12:0.43000001 13:0 14:0.43000001 15:0.20999999 16:0.63999999 17:0.85000002 18:0 19:0 20:0.20999999 21:0.20999999 22:0 23:0.20999999 24:0.20999999 25:0 26:0.43000001 27:0 28:0.43000001 29:0 30:0 31:0 32:0 33:0 34:0 35:0.43000001 36:1.0700001 37:0.85000002 38:0 39:0 40:0 41:0.63999999 42:0.43000001 43:0.43000001 44:0.85000002 45:0.43000001 46:0.43000001 47:0.20999999 48:0.20999999 49:0.20999999 50:0.85000002 51:0 52:0.43000001 53:0.20999999 54:0 55:0.20999999 56:0.20999999 57:1.0700001 58:0.20999999 59:0 60:0 61:0.63999999 62:0 63:0.85000002 64:0.63999999 65:0 66:0.20999999 67:0.43000001 68:0.43000001 69:0 70:0.85000002 71:0 72:0 73:0.20999999 74:0.20999999 75:0.63999999 76:0.20999999 77:0 78:0.85000002 79:0 80:0 81:0.43000001 82:0 83:0 84:0.20999999 85:0.20999999 86:0.43000001 87:0.43000001 88:0.20999999 89:0 90:0 91:0.20999999 92:0 93:0.43000001 94:0.20999999 95:0 96:0 97:0 98:0 99:0 100:0 101:0.63999999 102:0.20999999 103:1.0700001 104:0.85000002 105:0 106:1.28 107:0.43000001 108:0.43000001 109:0.63999999 110:0.43000001 111:0.43000001 112:0 113:0.20999999 114:0.43000001 115:0.43000001 116:1.0700001 117:0.63999999 118:0.43000001 119:0 120:0.20999999 121:0.20999999 122:0 123:0.20999999 124:0 125:0.20999999 126:0 127:0.20999999 128:0.20999999 129:0.43000001 130:0.43000001 131:0 132:0.20999999 133:0.63999999 134:0 135:0 136:0.20999999 137:0 138:0.63999999 139:0 140:0 141:0.43000001 142:0.43000001 143:0 144:0.63999999 145:0.20999999 146:0 147:0.20999999 148:0.20999999 149:0.63999999 150:0 151:0 152:0 153:0.20999999 154:0.20999999 155:0.20999999 156:0 157:0.63999999 158:0.20999999 159:0 160:0.20999999 161:0 162:0.20999999 163:0.43000001 164:0.20999999 165:0.20999999 166:0 167:0.20999999 168:0.20999999 169:0.20999999 170:0.63999999 171:0 172:0.20999999 173:0 174:0.20999999 175:0.63999999 176:0.20999999 177:0.20999999 178:0.43000001 179:0 180:0 181:1.0700001 182:0.63999999 183:0.43000001 184:0.63999999 185:0.43000001 186:0.85000002 187:0.20999999 188:0.20999999 189:0.20999999 190:0.63999999 191:0 192:0 193:0.20999999 194:0 195:1.0700001 196:0.20999999 197:0.43000001 198:0.20999999 199:0 200:0.63999999 201:0.20999999 202:0 203:0 204:0 205:0 206:0.20999999 207:0 208:0 209:0 210:0 211:0.20999999 212:0 213:0.20999999 214:0 215:0.43000001 216:0 217:0 218:0.20999999 219:0 220:0 221:0 222:0 223:0.20999999 224:0 225:0.20999999 226:0.20999999 227:0 228:0 229:0 230:0.20999999 231:0 232:0 233:0 234:0.20999999 235:0 236:0.20999999 237:0.20999999 238:0.20999999 239:0 240:0 241:0.43000001 242:0 243:0.63999999 244:0 245:0 246:1.49 247:0.20999999 248:0 249:0.43000001 250:0 251:0 252:0 253:0.20999999 254:0 255:0 256:0.43000001 257:0 258:0 259:0 260:0.20999999 261:0.20999999 262:0.20999999 263:0.20999999 264:0.20999999 265:0 266:0.63999999 267:0 268:0.20999999 269:0 270:0.20999999 271:0 272:0 273:0.20999999 274:0.43000001 275:0.20999999 276:0 277:0.43000001 278:0.20999999 279:0 280:0.20999999 281:0.63999999 282:0.43000001 283:0 284:0.20999999 285:0.20999999 286:0.63999999 287:0.63999999 288:0 289:0.43000001 290:1.0700001 291:0 292:0 293:0.20999999 294:0.20999999 295:0.43000001 296:0.43000001 297:0.85000002 298:0.63999999 299:0 300:0.63999999 301:0.63999999 302:0.20999999 303:0 304:0.43000001 305:0.20999999 306:1.28 307:0 308:0 309:0.20999999 310:0.43000001 311:0 312:0.20999999 313:0 314:0.43000001 315:1.0700001 316:0.63999999 317:0.85000002 318:0 319:0 320:0.20999999 321:0.63999999 322:0.63999999 323:0.20999999 324:0.43000001 325:0 326:0 327:0 328:0.63999999 329:0.20999999 330:0.63999999 331:0.20999999 332:0.20999999 333:1.0700001 334:0 335:1.0700001 336:0.63999999 337:0 338:0.43000001 339:0.20999999 340:0 341:0.20999999 342:0.20999999 343:0.63999999 344:0.20999999 345:0.43000001 346:0 347:0 348:0 349:0.43000001 350:0.85000002 351:0 352:0.20999999 353:0 354:0.43000001 355:0.43000001 356:0.43000001 357:0 358:0.63999999 359:0 360:0.20999999 361:0 362:0 363:0 364:0 365:0 366:0 367:0 368:0 369:0 370:0 371:0 372:0 373:0 374:0 375:0 376:0.20999999 377:0 378:0 379:0 380:0 381:0 382:0 383:0.43000001 384:0 385:0 386:0.85000002 387:0.20999999 388:0.20999999 389:0.20999999 390:0.20999999 391:0 392:0 393:0 394:0.20999999 395:0.20999999 396:0 397:0.20999999 398:0 399:0 400:0 #
12.654605829407321593294000194874 1:0.69999999 2:0 3:0.28 4:1.12 5:0.14 6:0.56 7:0.28 8:0.41999999 9:0.83999997 10:0.83999997 11:0.28 12:0.28 13:0.69999999 14:0.28 15:0.56 16:1.4 17:0.83999997 18:0.56 19:0 20:0.41999999 21:0 22:0 23:0 24:0 25:0 26:0 27:0.14 28:0 29:0 30:0 31:0 32:0 33:0 34:0.14 35:0 36:0.28 37:0 38:0 39:0.14 40:0.14 41:0.41999999 42:0 43:0.41999999 44:0.41999999 45:0.14 46:0.14 47:0.14 48:0.28 49:0.14 50:1.26 51:0 52:0 53:0.28 54:0.56 55:0.28 56:0.28 57:0.28 58:0.28 59:0 60:0.14 61:0.56 62:0.14 63:0.41999999 64:0.28 65:0.28 66:0.41999999 67:0.14 68:0.28 69:0.28 70:0.41999999 71:0 72:0.28 73:0.56 74:0.83999997 75:0.56 76:0.83999997 77:0.28 78:0.14 79:0.14 80:0.41999999 81:0.41999999 82:0 83:0.14 84:0.28 85:0.14 86:0.14 87:0 88:0.56 89:0 90:0.28 91:0 92:0.14 93:0.14 94:0 95:0.14 96:0.14 97:0 98:0 99:0 100:0 101:1.12 102:0.14 103:0.14 104:0 105:0.14 106:0.28 107:0 108:0.14 109:0.41999999 110:0.98000002 111:0 112:0.14 113:0.14 114:0.28 115:0.41999999 116:0.56 117:0 118:0.14 119:0 120:0 121:0.14 122:0 123:0 124:0 125:0 126:0 127:0 128:0.14 129:0 130:0.28 131:0 132:0 133:0 134:0.28 135:0.14 136:0 137:0 138:0 139:0 140:0 141:0.41999999 142:0 143:0.28 144:0.28 145:0 146:0.14 147:0.28 148:0.14 149:0.41999999 150:0.69999999 151:0.14 152:0.14 153:0.28 154:0.98000002 155:0 156:0.14 157:0.14 158:0 159:0 160:0 161:0.56 162:0 163:0.14 164:0.14 165:0 166:0.28 167:0 168:0.41999999 169:0.14 170:0.28 171:0 172:0 173:0.28 174:0.56 175:0.56 176:0.28 177:0.28 178:0.28 179:0 180:0 181:1.12 182:0 183:0.69999999 184:0.41999999 185:0.69999999 186:0.69999999 187:0 188:0.14 189:0.41999999 190:1.54 191:0 192:0.69999999 193:0.69999999 194:1.26 195:0.41999999 196:0.83999997 197:0.69999999 198:0.83999997 199:0 200:0.41999999 201:0.14 202:0.14 203:0 204:0.14 205:0 206:0.14 207:0 208:0 209:0 210:0.14 211:0 212:0 213:0.28 214:0.14 215:0.14 216:0 217:0 218:0 219:0 220:0 221:0.28 222:0 223:0.41999999 224:0 225:0 226:0.28 227:0 228:0 229:0 230:0.28 231:0 232:0.14 233:0.14 234:0.28 235:0.14 236:0 237:0 238:0 239:0 240:0.14 241:1.26 242:0 243:0.28 244:0.69999999 245:0 246:0.56 247:0 248:0.28 249:0.14 250:0.56 251:0 252:0 253:0.56 254:0.14 255:0.41999999 256:0.83999997 257:0.41999999 258:0.69999999 259:0 260:0.28 261:0.69999999 262:0.14 263:0.69999999 264:1.12 265:0.14 266:0.56 267:0 268:0.83999997 269:0.14 270:1.4 271:0.14 272:0.14 273:0.14 274:1.26 275:0.28 276:0.98000002 277:0.41999999 278:0.28 279:0.14 280:0.28 281:0 282:0.28 283:0.28 284:0.56 285:0.14 286:0.28 287:0 288:0.41999999 289:0.14 290:0.28 291:0.14 292:0 293:0.56 294:0.83999997 295:0.28 296:0.56 297:0.28 298:0.14 299:0.28 300:0.14 301:1.12 302:0 303:0.69999999 304:0.83999997 305:0 306:0.28 307:0 308:0.28 309:0.41999999 310:0.83999997 311:0.41999999 312:0.14 313:1.26 314:0.69999999 315:0.41999999 316:0.14 317:0.28 318:0.28 319:0.14 320:0.14 321:0.83999997 322:0 323:0.28 324:0.56 325:0.14 326:0.14 327:0 328:0 329:0.14 330:0.28 331:0 332:0.14 333:0.56 334:0.41999999 335:0.14 336:0.41999999 337:0.56 338:0.41999999 339:0 340:0.14 341:0.56 342:0 343:0.14 344:0.28 345:0.14 346:0.14 347:0 348:0.14 349:0.14 350:0.56 351:0 352:0 353:0.41999999 354:0.28 355:0.28 356:0.41999999 357:0.28 358:0 359:0 360:0.28 361:0 362:0 363:0 364:0 365:0.14 366:0 367:0 368:0 369:0.28 370:0.14 371:0 372:0 373:0 374:0.28 375:0 376:0 377:0 378:0 379:0 380:0 381:0.14 382:0 383:0.14 384:0.14 385:0.28 386:0 387:0 388:0 389:0.14 390:0.56 391:0 392:0 393:0.14 394:0.28 395:0.41999999 396:0.28 397:0.41999999 398:0 399:0 400:0 #
-12.654605829407321593294000194874 1:0.63999999 2:0 3:0.40000001 4:0.88999999 5:0.23999999 6:0.23999999 7:0.16 8:0.72000003 9:0.72000003 10:1.13 11:0.23999999 12:0.56 13:0 14:0.23999999 15:0.23999999 16:0.56 17:0.47999999 18:0.40000001 19:0 20:0.23999999 21:0 22:0 23:0 24:0 25:0 26:0.23999999 27:0.079999998 28:0.079999998 29:0 30:0 31:0 32:0.079999998 33:0 34:0 35:0.079999998 36:0 37:0.079999998 38:0.079999998 39:0 40:0 41:0.40000001 42:0.079999998 43:0.31999999 44:0.56 45:0 46:0.16 47:0 48:0.40000001 49:0.16 50:0.97000003 51:0.16 52:0.16 53:0.16 54:0.16 55:0.23999999 56:0.40000001 57:0.47999999 58:0.88999999 59:0 60:0.16 61:0.72000003 62:0 63:0.31999999 64:0.88999999 65:0.23999999 66:0.40000001 67:0.079999998 68:0.63999999 69:1.29 70:1.29 71:0.079999998 72:0.079999998 73:0.23999999 74:0.23999999 75:0.47999999 76:0.56 77:0.97000003 78:0.23999999 79:0 80:0.23999999 81:0.40000001 82:0 83:0.16 84:0.16 85:0.16 86:0.079999998 87:0 88:0.16 89:0.31999999 90:0.079999998 91:0.079999998 92:0.079999998 93:0.079999998 94:0.16 95:0.079999998 96:0.16 97:0.16 98:0.16 99:0.079999998 100:0.40000001 101:0.31999999 102:0.16 103:0.31999999 104:0.40000001 105:0.079999998 106:0.31999999 107:0.23999999 108:0.079999998 109:0.16 110:0.23999999 111:0 112:0.079999998 113:0 114:0.079999998 115:0 116:0.31999999 117:0.47999999 118:0.23999999 119:0 120:0.16 121:0.16 122:0 123:0 124:0 125:0 126:0 127:0 128:0.079999998 129:0.079999998 130:0.31999999 131:0.079999998 132:0.079999998 133:0.079999998 134:0 135:0.079999998 136:0.23999999 137:0.16 138:0.16 139:0 140:0 141:0.47999999 142:0.079999998 143:0.56 144:0.63999999 145:0.23999999 146:0.16 147:0 148:0.079999998 149:0.16 150:0.31999999 151:0 152:0.63999999 153:0.56 154:0.16 155:0.40000001 156:0.63999999 157:0.63999999 158:0.31999999 159:0 160:0.16 161:0.81 162:0.079999998 163:0.56 164:0.56 165:0.16 166:0.23999999 167:0.079999998 168:0.31999999 169:0.88999999 170:0.81 171:0.23999999 172:0.23999999 173:0.23999999 174:0.16 175:0.31999999 176:0.23999999 177:0.56 178:0.47999999 179:0.079999998 180:0.40000001 181:0.47999999 182:0 183:0.56 184:0.88999999 185:0.40000001 186:0.23999999 187:0.23999999 188:0.56 189:0.72000003 190:1.29 191:0.079999998 192:0.72000003 193:0.40000001 194:0.40000001 195:1.05 196:0.72000003 197:0.56 198:0.56 199:0 200:0.23999999 201:0 202:0 203:0.16 204:0.23999999 205:0 206:0.079999998 207:0 208:0.16 209:0.079999998 210:0.079999998 211:0.079999998 212:0.079999998 213:0 214:0.23999999 215:0.23999999 216:0.079999998 217:0.16 218:0.079999998 219:0 220:0.079999998 221:0.40000001 222:0.079999998 223:0.079999998 224:0.88999999 225:0.23999999 226:0.23999999 227:0.23999999 228:0.47999999 229:0.31999999 230:0.31999999 231:0 232:0.23999999 233:0.16 234:0.079999998 235:0.31999999 236:0.47999999 237:0.40000001 238:0.23999999 239:0.079999998 240:0.16 241:0.16 242:0.079999998 243:0.16 244:0.31999999 245:0.16 246:0.31999999 247:0.079999998 248:0.079999998 249:0.079999998 250:0.23999999 251:0 252:0.23999999 253:0.16 254:0.079999998 255:0.079999998 256:0.63999999 257:0.16 258:0.16 259:0 260:0.16 261:0.079999998 262:0 263:0.40000001 264:0.31999999 265:0.079999998 266:0.079999998 267:0 268:0.31999999 269:0.31999999 270:0.40000001 271:0.16 272:0.23999999 273:0.079999998 274:0.16 275:0.16 276:0.16 277:0.16 278:0.16 279:0 280:0.079999998 281:0.40000001 282:0.079999998 283:0.23999999 284:0.23999999 285:0 286:0.079999998 287:0.079999998 288:0 289:0.47999999 290:0.63999999 291:0.16 292:0.31999999 293:0.40000001 294:0.079999998 295:0.23999999 296:0.40000001 297:0.31999999 298:0.31999999 299:0.079999998 300:0.079999998 301:0.81 302:0 303:0.56 304:0.81 305:0.23999999 306:0.16 307:0.079999998 308:0.88999999 309:0.31999999 310:0.63999999 311:0.079999998 312:0.31999999 313:0.23999999 314:0.23999999 315:0.23999999 316:0.23999999 317:0.47999999 318:0.81 319:0.079999998 320:0.23999999 321:0.81 322:0.079999998 323:0.56 324:0.72000003 325:0.23999999 326:0.079999998 327:0 328:0.56 329:0.47999999 330:0.63999999 331:0.23999999 332:0.31999999 333:0.23999999 334:0.16 335:0.40000001 336:0.56 337:0.81 338:0.63999999 339:0 340:0.16 341:0.63999999 342:0 343:0.40000001 344:0.31999999 345:0.31999999 346:0.31999999 347:0.079999998 348:0.31999999 349:0.56 350:0.40000001 351:0.079999998 352:0.56 353:0.23999999 354:0.31999999 355:0 356:0.72000003 357:0.56 358:0.72000003 359:0 360:0.079999998 361:0 362:0 363:0 364:0 365:0.079999998 366:0 367:0 368:0.079999998 369:0 370:0 371:0 372:0.079999998 373:0 374:0.079999998 375:0 376:0.079999998 377:0 378:0 379:0 380:0 381:0.40000001 382:0 383:0.079999998 384:0.16 385:0.079999998 386:0.23999999 387:0.079999998 388:0.23999999 389:0.31999999 390:0.40000001 391:0 392:0.31999999 393:0.079999998 394:0.31999999 395:0 396:0.23999999 397:0.079999998 398:0 399:0 400:0 #
12.654605829407321593294000194874 1:1.6 2:0.23 3:0.80000001 4:1.03 5:0.91000003 6:0.68000001 7:0.34 8:0.23 9:0.68000001 10:1.6 11:0.23 12:0.68000001 13:0.46000001 14:0.34 15:1.25 16:1.48 17:0.56999999 18:1.03 19:0 20:0.11 21:0.34 22:0 23:0.11 24:0.23 25:0.11 26:0 27:0 28:0 29:0 30:0.11 31:0 32:0.11 33:0.11 34:0 35:0.11 36:0.11 37:0 38:0.23 39:0 40:0.11 41:1.48 42:0 43:1.14 44:0.23 45:0.11 46:0.34 47:0.34 48:0.23 49:0.34 50:1.14 51:0.11 52:0 53:0.23 54:0 55:0.68000001 56:0.11 57:0.34 58:0.46000001 59:0 60:0 61:1.14 62:0.11 63:0.68000001 64:1.37 65:0 66:0.46000001 67:0.23 68:0.11 69:0.34 70:0.56999999 71:0.23 72:0 73:0.11 74:0.34 75:1.37 76:0.34 77:0.68000001 78:0 79:0.11 80:0.46000001 81:0.23 82:0 83:0.11 84:0.11 85:0.11 86:0.11 87:0.34 88:0.23 89:0.34 90:0.11 91:0 92:0.34 93:0 94:0 95:0.34 96:0.11 97:0.11 98:0.11 99:0.11 100:0.11 101:0.68000001 102:0.11 103:0.11 104:0.56999999 105:0.23 106:0.34 107:0.11 108:0 109:0.34 110:0 111:0 112:0.34 113:0 114:0.11 115:0.46000001 116:0.56999999 117:0.11 118:0.46000001 119:0.11 120:0 121:0.23 122:0 123:0.23 124:0.11 125:0 126:0.34 127:0.11 128:0.11 129:0 130:0.34 131:0 132:0.11 133:0.11 134:0 135:0.34 136:0.34 137:0.11 138:0.11 139:0.11 140:0 141:0.68000001 142:0 143:0.11 144:0.34 145:0 146:0.23 147:0 148:0.11 149:0 150:0.23 151:0 152:0 153:0.23 154:0.11 155:0.23 156:0.46000001 157:0.34 158:0.23 159:0.11 160:0 161:0.11 162:0.11 163:0.23 164:0.46000001 165:0.34 166:0.23 167:0.23 168:0.11 169:0 170:0.46000001 171:0.11 172:0.11 173:0 174:0.11 175:0.34 176:0.34 177:0.11 178:0.11 179:0.11 180:0 181:1.9400001 182:0.34 183:0.68000001 184:0.56999999 185:0.11 186:0.23 187:0.11 188:0.34 189:0.34 190:1.03 191:0 192:0.11 193:0.11 194:0.23 195:0.68000001 196:0.46000001 197:0.46000001 198:0.80000001 199:0 200:0.11 201:0 202:0 203:0.34 204:0.23 205:0.11 206:0 207:0 208:0 209:0 210:0 211:0 212:0.23 213:0 214:0 215:0 216:0 217:0.11 218:0 219:0.11 220:0.11 221:0.46000001 222:0 223:0.34 224:0.23 225:0.11 226:0.34 227:0.11 228:0.11 229:0 230:0.34 231:0 232:0 233:0.23 234:0.11 235:0 236:0.23 237:0.23 238:0.11 239:0 240:0 241:0.23 242:0.23 243:0.34 244:0.34 245:0 246:0.11 247:0 248:0.11 249:0.11 250:0.23 251:0 252:0.34 253:0.46000001 254:0.11 255:0.23 256:0.11 257:0.11 258:0.56999999 259:0 260:0.11 261:0.11 262:0 263:0 264:0.23 265:0.23 266:0 267:0 268:0.11 269:0 270:0.46000001 271:0 272:0.11 273:0.11 274:0.11 275:0.34 276:0.23 277:0 278:0 279:0 280:0 281:2.05 282:0 283:0.23 284:0.80000001 285:0.11 286:0.68000001 287:0.34 288:0.23 289:0.11 290:0.80000001 291:0.11 292:0.11 293:0.56999999 294:0.11 295:1.25 296:0.91000003 297:0.56999999 298:0.91000003 299:0.11 300:0.11 301:0.80000001 302:0.11 303:0.46000001 304:0.46000001 305:0.23 306:0.23 307:0.23 308:0.34 309:0.56999999 310:0.68000001 311:0.11 312:0.23 313:0.46000001 314:0.11 315:0.56999999 316:0.23 317:0.46000001 318:0.80000001 319:0 320:0.11 321:0.80000001 322:0.23 323:0.34 324:0.34 325:0 326:0.23 327:0 328:0.23 329:0.11 330:0.11 331:0.23 332:0 333:0.34 334:0.23 335:0.80000001 336:0.68000001 337:0.23 338:0.23 339:0 340:0 341:1.14 342:0.11 343:0.80000001 344:0.80000001 345:0.23 346:0.23 347:0.23 348:0.46000001 349:0.34 350:0.34 351:0 352:0.11 353:0.23 354:0 355:0.80000001 356:0.23 357:0.34 358:0.68000001 359:0 360:0 361:0.11 362:0 363:0 364:0.11 365:0 366:0 367:0 368:0.23 369:0 370:0 371:0 372:0 373:0 374:0 375:0 376:0.11 377:0.11 378:0.23 379:0 380:0 381:0.11 382:0.11 383:0.23 384:0.11 385:0 386:0 387:0 388:0.11 389:0 390:0.11 391:0 392:0 393:0 394:0 395:0.34 396:0.11 397:0.11 398:0 399:0 400:0.11 #
-6.446346013730947177577945694793 1:1.75 2:0 3:0 4:0.51999998 5:0 6:0.69999999 7:0 8:0 9:0 10:0.34999999 11:0 12:0 13:1.4 14:0.17 15:1.22 16:0.17 17:0.34999999 18:0.69999999 19:0 20:0 21:0 22:0 23:0.17 24:0 25:0 26:0 27:0 28:0 29:0 30:0 31:0 32:0 33:0 34:0 35:0 36:0 37:0 38:0 39:0 40:0 41:0 42:0 43:0 44:0.17 45:0.17 46:0.17 47:0 48:0 49:0.17 50:0.17 51:0 52:0.34999999 53:0.17 54:0.17 55:0.17 56:0.34999999 57:0 58:0.17 59:0 60:0 61:0.17 62:0 63:0.17 64:0.87 65:0 66:0.17 67:0 68:0.17 69:0.34999999 70:0.34999999 71:0 72:0 73:0.87 74:0.34999999 75:0.34999999 76:0 77:0.34999999 78:0.17 79:0.17 80:0 81:0 82:0 83:0.17 84:0.34999999 85:0 86:0 87:0 88:0 89:0.17 90:0 91:0 92:0 93:0 94:0 95:0.17 96:0 97:0 98:0 99:0 100:0 101:0.69999999 102:0 103:0 104:0.51999998 105:0.17 106:0.51999998 107:0 108:0 109:0 110:0 111:0 112:0 113:0.17 114:0 115:0.17 116:0 117:0.34999999 118:0.51999998 119:0 120:0 121:0.17 122:0 123:0 124:0 125:0 126:0.34999999 127:0 128:0 129:0.17 130:0 131:0 132:0 133:0.17 134:0.17 135:0.17 136:0.17 137:0 138:0 139:0 140:0 141:0.34999999 142:0 143:0 144:0 145:0 146:0 147:0 148:0.17 149:0 150:0 151:0 152:0 153:0.17 154:0 155:0 156:0 157:0.17 158:0.17 159:0 160:0 161:0.17 162:0 163:0.51999998 164:0 165:0 166:0 167:0 168:0 169:0.51999998 170:0.34999999 171:0 172:0 173:1.4 174:0.34999999 175:0.51999998 176:0.17 177:0.17 178:0.17 179:0 180:0 181:0.34999999 182:0 183:0 184:0 185:0 186:0.17 187:0 188:0.17 189:0 190:0.17 191:0 192:0 193:1.22 194:0.17 195:0.34999999 196:0.17 197:0.34999999 198:0.17 199:0 200:0 201:0 202:0 203:0.17 204:0 205:0 206:0 207:0 208:0 209:0 210:0 211:0 212:0 213:0 214:0 215:0 216:0 217:0 218:0 219:0 220:0 221:0.34999999 222:0.17 223:0 224:0 225:0 226:0 227:0.17 228:0 229:0 230:0 231:0 232:0 233:0.17 234:0 235:0 236:0 237:0 238:0 239:0 240:0 241:1.75 242:0 243:0.17 244:1.05 245:0 246:0.51999998 247:0.51999998 248:0.17 249:1.75 250:0.34999999 251:0 252:0 253:12.94 254:2.27 255:2.97 256:6.29 257:0.34999999 258:0.34999999 259:0.17 260:0 261:0.34999999 262:0 263:0.17 264:0.17 265:0 266:0 267:0 268:0 269:0.17 270:0.17 271:0 272:0.17 273:2.97 274:0.51999998 275:0.17 276:0.17 277:0.34999999 278:0.34999999 279:0 280:0 281:0.69999999 282:0 283:0.17 284:0 285:0.34999999 286:0.34999999 287:0.17 288:0 289:0.34999999 290:0.69999999 291:0 292:0 293:1.5700001 294:0.69999999 295:3.5 296:1.75 297:1.75 298:0.34999999 299:0.17 300:0 301:0 302:0 303:0.17 304:0 305:0 306:0 307:0.34999999 308:0.17 309:0 310:0 311:0 312:0 313:6.1199999 314:0.51999998 315:1.92 316:0 317:0 318:0.17 319:0.17 320:0 321:0 322:0 323:0 324:0.51999998 325:0 326:0.17 327:0 328:0 329:0.51999998 330:0.34999999 331:0 332:0.17 333:0.51999998 334:0.17 335:0.17 336:0 337:0.17 338:0.17 339:0 340:1.5700001 341:0.34999999 342:0 343:0.34999999 344:0.34999999 345:0.17 346:0 347:0 348:0.17 349:0 350:0.34999999 351:0 352:0.17 353:0.51999998 354:0.17 355:0.51999998 356:0.17 357:0 358:0.34999999 359:0.17 360:0 361:0.17 362:0 363:0 364:0 365:0 366:0 367:0 368:0 369:0.17 370:0 371:0 372:0 373:0 374:0.17 375:0.17 376:0.17 377:0 378:0 379:0 380:0 381:0 382:0 383:0 384:0 385:0 386:0 387:0.17 388:0 389:0 390:0 391:0 392:0 393:1.22 394:0 395:0 396:0 397:0.17 398:0 399:0 400:0 #
-12.654605829407321593294000194874 1:1 2:0 3:0 4:0.67000002 5:0 6:0.67000002 7:0 8:0.33000001 9:0.33000001 10:0 11:0 12:0.33000001 13:0.33000001 14:0.33000001 15:0.67000002 16:2.3399999 17:0.33000001 18:0 19:0 20:0.33000001 21:0 22:0 23:0.33000001 24:0 25:0 26:0 27:0 28:0 29:0.33000001 30:0 31:0 32:0 33:0 34:0.33000001 35:0 36:0.33000001 37:0 38:0 39:0 40:0 41:1 42:0 43:0.33000001 44:0 45:0 46:0.33000001 47:0 48:0.67000002 49:0 50:0.33000001 51:0 52:1.34 53:0 54:0 55:0 56:0.33000001 57:0 58:0.33000001 59:0 60:0 61:0 62:0 63:0.33000001 64:0 65:0.33000001 66:0 67:0 68:0.33000001 69:0 70:0.33000001 71:0 72:0.33000001 73:0 74:0.33000001 75:0.67000002 76:0.33000001 77:0 78:0.33000001 79:0 80:0 81:0.67000002 82:0 83:0.33000001 84:0 85:1 86:0 87:0 88:0 89:0.33000001 90:0.33000001 91:1 92:0 93:0.33000001 94:0 95:0.33000001 96:0.67000002 97:0 98:0.33000001 99:0 100:0 101:0.33000001 102:0 103:0.33000001 104:0 105:1.34 106:0 107:0 108:0 109:0 110:0 111:0.33000001 112:0 113:0.33000001 114:0 115:0.33000001 116:0.67000002 117:0.67000002 118:0 119:0 120:0.33000001 121:0 122:0 123:0.33000001 124:0 125:0.33000001 126:0 127:0 128:0 129:0.33000001 130:0.33000001 131:0 132:0 133:0 134:0 135:0 136:0.33000001 137:0 138:0 139:0 140:0 141:0 142:0.67000002 143:0 144:0.33000001 145:0.33000001 146:0 147:0 148:0 149:0 150:0.67000002 151:0 152:0.33000001 153:0.67000002 154:0.33000001 155:0.67000002 156:0.33000001 157:0 158:0 159:0 160:0 161:0.33000001 162:0 163:0.33000001 164:0.67000002 165:0.33000001 166:0 167:0 168:0.33000001 169:0 170:0.67000002 171:0 172:0.33000001 173:0.67000002 174:0.33000001 175:0 176:0 177:0.33000001 178:0.67000002 179:0 180:0 181:0.33000001 182:0 183:0.67000002 184:0.33000001 185:0.33000001 186:1 187:0 188:0.33000001 189:0.33000001 190:0 191:0 192:0.33000001 193:1.34 194:0.67000002 195:0 196:1.34 197:0.67000002 198:0 199:0 200:0.33000001 201:0 202:0 203:0 204:0 205:0 206:0 207:0 208:0 209:0 210:0 211:0 212:0.67000002 213:0 214:0 215:0.67000002 216:0 217:0 218:0 219:0 220:0 221:0 222:0.33000001 223:0.33000001 224:0.33000001 225:0 226:0 227:0 228:0 229:0.67000002 230:2.01 231:0 232:0 233:0 234:0 235:0.33000001 236:0 237:1 238:1 239:0 240:0 241:1 242:0 243:0.33000001 244:0 245:0.33000001 246:0.33000001 247:1 248:0 249:0.67000002 250:1 251:0 252:0.33000001 253:1 254:0.33000001 255:0.67000002 256:1.34 257:0 258:0.33000001 259:0.33000001 260:0 261:1 262:0 263:0 264:0.33000001 265:0 266:1.34 267:0 268:0 269:0.67000002 270:0 271:0 272:0 273:0.33000001 274:0 275:0.33000001 276:0 277:0 278:0 279:0 280:0 281:0 282:0.33000001 283:0 284:0 285:0.33000001 286:0.33000001 287:0 288:0.33000001 289:0 290:0.67000002 291:0 292:0 293:1 294:1.34 295:0.67000002 296:0.33000001 297:0.67000002 298:0.33000001 299:0 300:0 301:1 302:0 303:0.33000001 304:0.33000001 305:0.33000001 306:0 307:0 308:1 309:0.33000001 310:1.34 311:0 312:1 313:2.6800001 314:0 315:0.67000002 316:2.3399999 317:1 318:0 319:0.33000001 320:0.33000001 321:0 322:0 323:0 324:0 325:0 326:0.67000002 327:0.33000001 328:0.67000002 329:1 330:0 331:0 332:0.67000002 333:0 334:0 335:0 336:0.67000002 337:0.33000001 338:1.34 339:0 340:0 341:0.67000002 342:0 343:0.67000002 344:0.33000001 345:0 346:0 347:0 348:0.33000001 349:0 350:0.33000001 351:0 352:0.33000001 353:0 354:0 355:0.33000001 356:1 357:0.67000002 358:0.67000002 359:0.33000001 360:0 361:0 362:0 363:0 364:0 365:0 366:0 367:0 368:0 369:0 370:0 371:0 372:0 373:0.33000001 374:0 375:0 376:0.33000001 377:0 378:0 379:0 380:0.33000001 381:0.33000001 382:0 383:0 384:0 385:0.33000001 386:0 387:0.33000001 388:0 389:0 390:0 391:0 392:0 393:0 394:0 395:0 396:0.33000001 397:0 398:0.33000001 399:0 400:0 #
-12.654605829407321593294000194874 1:6.5500002 2:0 3:1.38 4:1.38 5:0.34 6:1.72 7:0 8:0 9:0 10:0.69 11:0.69 12:0.69 13:1.72 14:0.34 15:1.03 16:2.0699999 17:1.72 18:0.34 19:0 20:0 21:0.34 22:0 23:0 24:0 25:0 26:0 27:0 28:0 29:0 30:0 31:0 32:0 33:0 34:0 35:0 36:0.34 37:0 38:0 39:0 40:0 41:0.69 42:0 43:0 44:0.69 45:0 46:0.69 47:0 48:0 49:0 50:0.69 51:0.34 52:0 53:0 54:0 55:0.69 56:0.69 57:0 58:0.34 59:0 60:0 61:1.03 62:0 63:0.34 64:0.34 65:0 66:0.34 67:0 68:0 69:0.34 70:1.72 71:0 72:0 73:0 74:0 75:0.34 76:0.34 77:0 78:0 79:0 80:0 81:0 82:0 83:0 84:0.34 85:0 86:0.34 87:0 88:0 89:0 90:0.34 91:0 92:0.34 93:0 94:0 95:1.38 96:0.34 97:0 98:0 99:0 100:0 101:1.38 102:0.34 103:1.03 104:0 105:0 106:0 107:0 108:0 109:0 110:0.34 111:0 112:0.34 113:0.69 114:0 115:0 116:1.03 117:0.69 118:1.38 119:0 120:0 121:0.34 122:0 123:0 124:0 125:0 126:0 127:0 128:0.34 129:0 130:0.34 131:0 132:0 133:0 134:0 135:0 136:0 137:0 138:0 139:0 140:0 141:0 142:0 143:0 144:0.34 145:0 146:0 147:0 148:0 149:0.34 150:0 151:0 152:0 153:0.34 154:0 155:0 156:0.34 157:0 158:0 159:0 160:0 161:0 162:0 163:0 164:0 165:0 166:0.34 167:0 168:0 169:0 170:0 171:0 172:0 173:0.34 174:0 175:0 176:0.34 177:0 178:0.34 179:0 180:0 181:1.38 182:0 183:0.34 184:0.34 185:0.34 186:0.69 187:0.34 188:0 189:0 190:1.03 191:0 192:0 193:1.03 194:1.03 195:0.69 196:0.69 197:0.69 198:0.34 199:0 200:0 201:0.34 202:0 203:0.69 204:0 205:0 206:0.34 207:0 208:0 209:0 210:0 211:0 212:0 213:0.34 214:0 215:0 216:0.34 217:0 218:0 219:0 220:0 221:0 222:0.34 223:0 224:0 225:0 226:0 227:0.34 228:0 229:0 230:0.34 231:0 232:0 233:0 234:0 235:0 236:0.34 237:0.34 238:0.34 239:0 240:0 241:1.72 242:0 243:0 244:0.34 245:1.03 246:1.03 247:0 248:0.34 249:0 250:0.69 251:0 252:0 253:0.69 254:0.34 255:1.03 256:0.34 257:0.69 258:0 259:0 260:0 261:0.69 262:0 263:0 264:0 265:0.34 266:0 267:0 268:0 269:0 270:0.69 271:0.34 272:0 273:1.03 274:0.69 275:0 276:0 277:0 278:0 279:0 280:0 281:1.03 282:0 283:0.34 284:0 285:0 286:1.03 287:0.34 288:0.34 289:0 290:0 291:0 292:0.69 293:0.34 294:0.34 295:1.38 296:1.38 297:0 298:0.34 299:0 300:0.69 301:2.4100001 302:0 303:0.69 304:0 305:0.34 306:0.34 307:0 308:0 309:0.69 310:1.03 311:0 312:0 313:1.72 314:0.34 315:0.69 316:0.69 317:0 318:0.69 319:0.34 320:0 321:2.0699999 322:0 323:0 324:0 325:0.34 326:0.34 327:0 328:0.34 329:0 330:0.34 331:0.34 332:0 333:0 334:0.69 335:0.34 336:0.34 337:0 338:0.34 339:0 340:0 341:0.69 342:0 343:0 344:0.69 345:0.34 346:0 347:0 348:0 349:0 350:0.69 351:0 352:0 353:0 354:0 355:0.34 356:0.34 357:1.03 358:0 359:0.34 360:0 361:0 362:0 363:0 364:0 365:0 366:0 367:0 368:0 369:0 370:0 371:0 372:0 373:0 374:0.34 375:0 376:0 377:0.34 378:0 379:0 380:0 381:0 382:0 383:0 384:0.34 385:0 386:0 387:0 388:0 389:0 390:0 391:0 392:0 393:0 394:0 395:0.34 396:0 397:0 398:0 399:0 400:0 #
12.654605829407321593294000194874 1:0 2:0 3:0.14 4:1.37 5:0 6:0 7:0 8:0.07 9:0.14 10:0.07 11:0 12:0.14 13:0.07 14:0.14 15:0 16:1.03 17:0 18:0 19:0 20:0.07 21:0 22:0 23:0.07 24:0 25:0 26:0 27:0 28:0 29:0.07 30:0.07 31:0 32:0 33:0 34:0 35:0 36:0 37:0 38:0.07 39:0 40:0 41:1.03 42:0 43:0.88999999 44:0.88999999 45:0 46:0.14 47:0 48:1.09 49:2.74 50:0.20999999 51:0.14 52:0.47999999 53:0.07 54:0.07 55:0.07 56:0.34 57:0.62 58:0.27000001 59:0 60:0.34 61:1.09 62:0 63:4.5799999 64:8.8199997 65:0 66:1.03 67:0.14 68:0.62 69:1.78 70:1.03 71:0.14 72:0.81999999 73:0.41 74:0.27000001 75:0.81999999 76:0.55000001 77:0.41 78:3.01 79:0.07 80:0.27000001 81:0 82:0 83:0 84:0.20999999 85:0.20999999 86:0 87:0.07 88:0.34 89:0.07 90:0.14 91:0 92:0.07 93:0 94:0 95:0 96:0.07 97:0.07 98:0.07 99:0 100:0.20999999 101:0.07 102:0 103:1.3 104:1.4400001 105:0 106:0 107:0 108:0.07 109:2.1199999 110:0.07 111:0 112:0.20999999 113:0 114:0.07 115:0 116:0.07 117:0.07 118:0.07 119:0.07 120:0.14 121:0 122:0 123:0 124:0 125:0.07 126:0 127:0 128:0.20999999 129:0 130:0.07 131:0 132:0 133:0 134:0 135:0.07 136:0.07 137:0 138:0 139:0 140:0 141:0 142:0 143:0.41 144:0.81999999 145:0.34 146:0.27000001 147:0.14 148:0.62 149:0.55000001 150:0.75 151:0.14 152:0.27000001 153:0 154:0.07 155:0.27000001 156:0.55000001 157:0.14 158:0.14 159:0.07 160:0.20999999 161:0.07 162:0.07 163:0.27000001 164:5.1300001 165:0.14 166:1.98 167:0 168:0.20999999 169:1.16 170:0.47999999 171:0.55000001 172:0.62 173:0 174:0.07 175:0.62 176:0.34 177:0.07 178:0.34 179:0 180:0.20999999 181:0 182:0.07 183:0.34 184:0.55000001 185:0.07 186:1.03 187:0.07 188:0.20999999 189:0.88999999 190:0.20999999 191:0.27000001 192:0.20999999 193:0 194:0.20999999 195:0.27000001 196:0.20999999 197:0 198:0.07 199:0 200:0.47999999 201:0 202:0 203:0.07 204:0.41 205:0.07 206:0 207:0.07 208:0.20999999 209:0.41 210:0.20999999 211:0.14 212:0.20999999 213:0 214:0 215:0 216:0 217:0 218:0 219:0 220:0.07 221:0.41 222:0.07 223:0.07 224:0.47999999 225:0 226:0.07 227:0 228:0.62 229:0.75 230:0.41 231:0.07 232:0.41 233:0.07 234:0.07 235:0.27000001 236:0.20999999 237:0.20999999 238:0.34 239:0 240:0.34 241:0 242:0 243:0 244:0.07 245:0.14 246:0.07 247:0 248:0 249:0.07 250:0.07 251:0 252:0 253:0 254:0.07 255:0 256:0 257:0 258:0.07 259:0 260:0.34 261:0.07 262:0.07 263:0.07 264:0.20999999 265:0 266:0 267:0 268:0.14 269:0.41 270:0 271:0 272:0.27000001 273:0 274:0 275:0.07 276:0.07 277:0 278:0.07 279:0 280:0.07 281:0.14 282:0 283:0.14 284:0.75 285:0.07 286:0 287:0 288:0.47999999 289:0.14 290:0.55000001 291:0.07 292:0.20999999 293:0 294:0.07 295:0.62 296:0.20999999 297:0.14 298:0 299:0 300:0.07 301:0.20999999 302:0 303:0.41 304:2.8 305:0.27000001 306:0.07 307:0 308:0.34 309:0.14 310:0.34 311:0.20999999 312:0.20999999 313:0 314:0 315:0.07 316:0.34 317:0.14 318:0.20999999 319:0 320:0.41 321:0 322:0 323:0.07 324:0.47999999 325:0.14 326:0.07 327:0 328:0.07 329:0 330:0.07 331:0 332:0.27000001 333:0 334:0.14 335:0.07 336:0.41 337:0.07 338:0.14 339:0 340:0.20999999 341:0.07 342:0 343:0 344:0.55000001 345:0 346:0.95999998 347:0 348:0.07 349:0.55000001 350:0.27000001 351:0.07 352:0.27000001 353:0.14 354:0.20999999 355:0.41 356:1.37 357:0.07 358:0.14 359:0 360:0.07 361:0 362:0 363:0 364:0 365:0 366:0 367:0 368:0 369:0.07 370:0 371:0 372:0.07 373:0 374:0 375:0 376:0 377:0.07 378:0 379:0 380:0 381:0.07 382:0 383:0.55000001 384:0.88999999 385:0 386:0.07 387:0 388:0.41 389:0.27000001 390:0.14 391:0 392:0.20999999 393:0.14 394:0.07 395:0 396:0.34 397:0.14 398:0.20999999 399:0 400:0.41 #
-12.654605829407321593294000194874 1:0.44 2:0 3:0.28999999 4:0.44 5:0.58999997 6:0.44 7:0 8:0.28999999 9:0.15000001 10:1.03 11:0.15000001 12:0.58999997 13:0.15000001 14:0.44 15:0 16:0.28999999 17:0.15000001 18:0.28999999 19:0 20:0.15000001 21:0 22:0 23:0.15000001 24:0 25:0 26:0 27:0 28:0 29:0.15000001 30:0 31:0 32:0.15000001 33:0 34:0 35:0 36:0.28999999 37:0 38:0 39:0 40:0 41:0.44 42:0.15000001 43:0.28999999 44:1.03 45:0.44 46:0.58999997 47:0.28999999 48:0.44 49:0.88 50:0.74000001 51:0.15000001 52:0.44 53:0 54:0 55:0.58999997 56:0.74000001 57:0.44 58:0.58999997 59:0 60:0.28999999 61:0.58999997 62:0.15000001 63:0.88 64:0.88 65:0.58999997 66:0.44 67:0 68:0.44 69:1.03 70:1.1799999 71:0.28999999 72:0.28999999 73:0.15000001 74:0.28999999 75:0 76:0.15000001 77:0.15000001 78:0.28999999 79:0.15000001 80:0.28999999 81:0.44 82:0 83:0 84:0.28999999 85:0 86:0.28999999 87:0.15000001 88:0.15000001 89:0.44 90:0.88 91:0.15000001 92:0.28999999 93:0.28999999 94:0 95:0 96:0.15000001 97:0.44 98:0.15000001 99:0.15000001 100:0.58999997 101:0.28999999 102:0 103:0.15000001 104:0.58999997 105:0.15000001 106:0 107:0.15000001 108:0.44 109:0.88 110:0.28999999 111:0.28999999 112:0.15000001 113:0 114:0.15000001 115:0 116:0.28999999 117:0.15000001 118:0.28999999 119:0 120:0.28999999 121:0 122:0 123:0 124:0.15000001 125:0.15000001 126:0.15000001 127:0 128:0 129:0.15000001 130:0.28999999 131:0 132:0 133:0 134:0 135:0 136:0 137:0 138:0.15000001 139:0 140:0.15000001 141:0.44 142:0 143:0.58999997 144:0.28999999 145:0.74000001 146:0.44 147:0.15000001 148:0.44 149:0.28999999 150:0.15000001 151:0 152:0.44 153:0.44 154:0.44 155:0 156:0.74000001 157:0.44 158:0.44 159:0 160:0.15000001 161:0.28999999 162:0 163:1.1799999 164:1.03 165:0.44 166:0.58999997 167:0.15000001 168:0.44 169:2.0599999 170:0.44 171:0.15000001 172:0.88 173:0.15000001 174:0.58999997 175:0.28999999 176:0.74000001 177:0 178:0.74000001 179:0.44 180:0.44 181:0.44 182:0 183:0.44 184:1.03 185:0.28999999 186:0.58999997 187:0.15000001 188:0.74000001 189:0.74000001 190:0.58999997 191:0.15000001 192:1.03 193:0.28999999 194:0.44 195:0.15000001 196:0.28999999 197:0.74000001 198:0.44 199:0.15000001 200:0.88 201:0.15000001 202:0 203:0.15000001 204:0.15000001 205:0.15000001 206:0 207:0 208:0.15000001 209:0.15000001 210:0.44 211:0 212:0 213:0.15000001 214:0.15000001 215:0.15000001 216:0.28999999 217:0.15000001 218:0.28999999 219:0 220:0 221:0.28999999 222:0 223:0.88 224:0 225:0.15000001 226:0.15000001 227:0 228:0.58999997 229:0.74000001 230:0.44 231:0.15000001 232:0.44 233:0 234:0.44 235:0 236:0.15000001 237:0.15000001 238:0.88 239:0 240:0.15000001 241:0 242:0 243:0.44 244:0.15000001 245:0.15000001 246:0 247:0 248:0.44 249:0.28999999 250:0.44 251:0.15000001 252:0 253:0 254:0 255:0 256:0.15000001 257:0.15000001 258:0.28999999 259:0 260:0 261:0.44 262:0 263:0 264:0.44 265:0.28999999 266:0 267:0 268:0.15000001 269:0.74000001 270:0.58999997 271:0 272:0.15000001 273:0 274:0.15000001 275:0 276:0.44 277:0.44 278:0.28999999 279:0 280:0 281:0.15000001 282:0 283:0.15000001 284:0.28999999 285:0.15000001 286:0.28999999 287:0 288:0.15000001 289:0 290:0.15000001 291:0.15000001 292:0 293:0 294:0.15000001 295:0.28999999 296:0.28999999 297:0 298:0.15000001 299:0 300:0 301:0.58999997 302:0 303:1.3200001 304:0.44 305:0.28999999 306:0.15000001 307:0 308:0.58999997 309:0.44 310:0.15000001 311:0.15000001 312:0.44 313:0.44 314:0.15000001 315:0.44 316:0 317:0.15000001 318:0.15000001 319:0 320:0.28999999 321:0.44 322:0.15000001 323:0.74000001 324:0.28999999 325:0.15000001 326:0.15000001 327:0 328:0.44 329:0.44 330:0.58999997 331:0 332:0 333:0 334:0.58999997 335:0.15000001 336:0 337:0.15000001 338:0.15000001 339:0 340:0.15000001 341:0.15000001 342:0 343:0.58999997 344:0.74000001 345:0 346:0 347:0.15000001 348:0.15000001 349:0.88 350:0.88 351:0.28999999 352:0 353:0.28999999 354:0 355:0.15000001 356:0.88 357:0.44 358:0.28999999 359:0 360:0.15000001 361:0 362:0 363:0.15000001 364:0 365:0 366:0 367:0 368:0.15000001 369:0.15000001 370:0 371:0 372:0.15000001 373:0 374:0 375:0 376:0 377:0.28999999 378:0 379:0 380:0 381:0.28999999 382:0.28999999 383:0.15000001 384:0 385:0.15000001 386:0.28999999 387:0 388:0.58999997 389:0.44 390:0.28999999 391:0.15000001 392:0.15000001 393:0.28999999 394:0.15000001 395:0.15000001 396:0.28999999 397:0.15000001 398:0.15000001 399:0 400:0 #
12.654605829407321593294000194874 1:1.9 2:0 3:0.27000001 4:0.81999999 5:0 6:0.54000002 7:0.54000002 8:0.27000001 9:1.9 10:0.54000002 11:0 12:0 13:0.54000002 14:0.54000002 15:2.1700001 16:0.27000001 17:0 18:0.27000001 19:0 20:0.81999999 21:0 22:0 23:0.54000002 24:0.27000001 25:0 26:0.27000001 27:0 28:0 29:0 30:0 31:0 32:0 33:0 34:0 35:0.27000001 36:0 37:0 38:0 39:0 40:0 41:2.72 42:0 43:2.45 44:2.72 45:0 46:1.63 47:0.27000001 48:0 49:0.27000001 50:0.27000001 51:0 52:0 53:0.27000001 54:0 55:0 56:0.27000001 57:0.27000001 58:1.09 59:0 60:0 61:0 62:0 63:2.1700001 64:0.54000002 65:0 66:1.36 67:0 68:0 69:0.54000002 70:0 71:0.27000001 72:0 73:0.54000002 74:0.54000002 75:1.36 76:0.81999999 77:1.36 78:0.54000002 79:0 80:0 81:0.27000001 82:0 83:0.81999999 84:0 85:0.27000001 86:0 87:0 88:0 89:0.27000001 90:0 91:0 92:0 93:0 94:0 95:0 96:0 97:0.27000001 98:0 99:0 100:0 101:0.81999999 102:0.27000001 103:1.36 104:1.09 105:0.27000001 106:0.81999999 107:0.27000001 108:0 109:0.81999999 110:0.27000001 111:0.27000001 112:0 113:0 114:0 115:1.63 116:0 117:0.81999999 118:1.09 119:0 120:0 121:0 122:0 123:0 124:0 125:0 126:0.81999999 127:0 128:0.27000001 129:0 130:0 131:0 132:0 133:0.27000001 134:0 135:0.54000002 136:0 137:0 138:0.27000001 139:0 140:0.27000001 141:0.54000002 142:0 143:0.27000001 144:0 145:0 146:0 147:0 148:0 149:0 150:0.27000001 151:0 152:0 153:0 154:0 155:0 156:0 157:0 158:0.54000002 159:0 160:0 161:0.54000002 162:0.27000001 163:0 164:0.27000001 165:0 166:0.54000002 167:0.27000001 168:0 169:1.09 170:0.81999999 171:0.27000001 172:0 173:0 174:1.09 175:0.54000002 176:0.27000001 177:0.27000001 178:0.27000001 179:0 180:0 181:0.81999999 182:0 183:0.27000001 184:0.81999999 185:0 186:0.81999999 187:0 188:0 189:0 190:0.54000002 191:0 192:0 193:0.54000002 194:0 195:0.81999999 196:0.27000001 197:0 198:0 199:0 200:0 201:0.27000001 202:0 203:0.27000001 204:0.27000001 205:0 206:0.27000001 207:0.27000001 208:0 209:0 210:0 211:0.27000001 212:0.54000002 213:0 214:0 215:0 216:0 217:0.27000001 218:0 219:0 220:0 221:0.27000001 222:0 223:0.27000001 224:0 225:0 226:0.54000002 227:0.27000001 228:0 229:0 230:0 231:0 232:0 233:0 234:0 235:0 236:0 237:0 238:0.27000001 239:0 240:0 241:0 242:0 243:0.54000002 244:0.27000001 245:0.27000001 246:0 247:0 248:0.27000001 249:0 250:0 251:0 252:0 253:0 254:0 255:0.54000002 256:0.81999999 257:0.27000001 258:0 259:0 260:0 261:0.27000001 262:0 263:0.54000002 264:0.27000001 265:0.27000001 266:0.27000001 267:0 268:0 269:0 270:0.27000001 271:0 272:0 273:0 274:0 275:0.27000001 276:0.27000001 277:0 278:0.27000001 279:0 280:0 281:1.63 282:0.27000001 283:1.09 284:0.54000002 285:0.27000001 286:1.36 287:0 288:0.54000002 289:0.54000002 290:0.81999999 291:0.27000001 292:0 293:0 294:0 295:0.81999999 296:0.27000001 297:0.81999999 298:0.54000002 299:0.27000001 300:0 301:0.81999999 302:0 303:0.54000002 304:0.54000002 305:0 306:0 307:0 308:0 309:0.27000001 310:0 311:0 312:0.54000002 313:0 314:0.27000001 315:0 316:0 317:0.27000001 318:0.27000001 319:0 320:0 321:0.27000001 322:0.27000001 323:0.27000001 324:0.27000001 325:0.27000001 326:0 327:0.27000001 328:0.27000001 329:0.81999999 330:0.81999999 331:0 332:0 333:0.27000001 334:0 335:0.54000002 336:0 337:0 338:0.54000002 339:0 340:0 341:0.27000001 342:0.27000001 343:0 344:1.09 345:0 346:0.27000001 347:0 348:0 349:0.27000001 350:0.27000001 351:0.54000002 352:0.54000002 353:0.54000002 354:0.27000001 355:0.54000002 356:0.27000001 357:0.27000001 358:0.81999999 359:0 360:0.81999999 361:0 362:0 363:0 364:0 365:0 366:0 367:0 368:0 369:0 370:0 371:0.27000001 372:0 373:0 374:0 375:0 376:0 377:0 378:0 379:0 380:0 381:0 382:0 383:0.54000002 384:0.27000001 385:0.27000001 386:0.27000001 387:0.27000001 388:0 389:0 390:0 391:0 392:0 393:0 394:0 395:0 396:0 397:0 398:0.27000001 399:0 400:0.27000001 #
-4.054802375434793049180370871909 1:0 2:0 3:0 4:0 5:0.93000001 6:0 7:0 8:0 9:0 10:0 11:0 12:0 13:0 14:0.93000001 15:0 16:0 17:0 18:0.93000001 19:0 20:0 21:0 22:0 23:0 24:0 25:0 26:0 27:0 28:0 29:0 30:0 31:0 32:0 33:0 34:0 35:0 36:0 37:0 38:0 39:0 40:0 41:0 42:0 43:1.85 44:0.93000001 45:0 46:0 47:0 48:0.93000001 49:0.93000001 50:0 51:0 52:0 53:0 54:1.85 55:0 56:0 57:0 58:0 59:0.93000001 60:0.93000001 61:0 62:0 63:2.78 64:6.48 65:0.93000001 66:0.93000001 67:0 68:0.93000001 69:0.93000001 70:0.93000001 71:0 72:0 73:0 74:0 75:0 76:0.93000001 77:1.85 78:0.93000001 79:0 80:0 81:0.93000001 82:0 83:0 84:0 85:0 86:0 87:0 88:0.93000001 89:0 90:0 91:0 92:0 93:0 94:0 95:0 96:0 97:0 98:0 99:0 100:0.93000001 101:0 102:0 103:0 104:1.85 105:0 106:0 107:0 108:0.93000001 109:0 110:0.93000001 111:0 112:0 113:0 114:0 115:0 116:0 117:0 118:0 119:0 120:0.93000001 121:0 122:0 123:0 124:0.93000001 125:0 126:0 127:0 128:0.93000001 129:0 130:0 131:0 132:0 133:0 134:0 135:0 136:0 137:0 138:0 139:0 140:0 141:0 142:0 143:0.93000001 144:0.93000001 145:0 146:0.93000001 147:0.93000001 148:0 149:0 150:0 151:0 152:0 153:0 154:0 155:0 156:0 157:1.85 158:0 159:0 160:0.93000001 161:0 162:0 163:0 164:0.93000001 165:0 166:0 167:0.93000001 168:0 169:0 170:0 171:0 172:0 173:1.85 174:0 175:0 176:0 177:0.93000001 178:0 179:0 180:0 181:0.93000001 182:0 183:0 184:0 185:0 186:0.93000001 187:0 188:0 189:0 190:0 191:0 192:0.93000001 193:0.93000001 194:0 195:0 196:0 197:0.93000001 198:0 199:0 200:0.93000001 201:0 202:0 203:0 204:0.93000001 205:0 206:0 207:0 208:0 209:0 210:0 211:0 212:0 213:0 214:0 215:0 216:0 217:0 218:0 219:0 220:0 221:0 222:0 223:0.93000001 224:0.93000001 225:0 226:0 227:0 228:0 229:0.93000001 230:0 231:0 232:0 233:0.93000001 234:0 235:0.93000001 236:0 237:0 238:0 239:0 240:0 241:0 242:0 243:0.93000001 244:2.78 245:0 246:0 247:0 248:0.93000001 249:0 250:0 251:0.93000001 252:0 253:0 254:0 255:0 256:0 257:0 258:0 259:0 260:0 261:0.93000001 262:0 263:0.93000001 264:0.93000001 265:0 266:0 267:0 268:0 269:0 270:0 271:0 272:0.93000001 273:0.93000001 274:0 275:0 276:0 277:0 278:0 279:0 280:0 281:0 282:0 283:0 284:0 285:0 286:0 287:0 288:0 289:0.93000001 290:0 291:0 292:0 293:0 294:0 295:0 296:0 297:0 298:0 299:0 300:0 301:0 302:0 303:0.93000001 304:0 305:0 306:0 307:0 308:0 309:0 310:0.93000001 311:0 312:0 313:0 314:0.93000001 315:0 316:0 317:0 318:0 319:0 320:0 321:0 322:0 323:0 324:0 325:0 326:0.93000001 327:0 328:0 329:1.85 330:0 331:0 332:1.85 333:0 334:0.93000001 335:0 336:0 337:0 338:0 339:0 340:0 341:0 342:0 343:0 344:0.93000001 345:0 346:0 347:0 348:0 349:0 350:0.93000001 351:0 352:0 353:0 354:0 355:0 356:0 357:0 358:0 359:0 360:0 361:0 362:0 363:0 364:0.93000001 365:0 366:0 367:0 368:0 369:0 370:0 371:0 372:0 373:0 374:0 375:0 376:0 377:0 378:0 379:0 380:0 381:0 382:0 383:0 384:0.93000001 385:0 386:0.93000001 387:0 388:1.85 389:0 390:0.93000001 391:0 392:0 393:0 394:0 395:0 396:0.93000001 397:0 398:0 399:0 400:0.93000001 #
-1.5484525518544316469160548876971 1:3.3399999 2:0.2 3:0.2 4:0.58999997 5:0.38999999 6:0.58999997 7:0.58999997 8:0.98000002 9:0.79000002 10:0.98000002 11:0.58999997 12:0 13:0.79000002 14:0 15:0.79000002 16:0.2 17:0.58999997 18:1.1799999 19:0 20:0.2 21:0 22:0 23:0 24:0.2 25:0.2 26:0 27:0 28:0.38999999 29:0.2 30:0.2 31:0 32:0 33:0.2 34:0 35:0 36:0 37:0 38:0 39:0 40:0 41:0.79000002 42:0 43:1.1799999 44:0.38999999 45:0.38999999 46:0.58999997 47:0.58999997 48:0 49:0 50:0.38999999 51:0 52:0.2 53:0 54:0.38999999 55:0.38999999 56:0.2 57:0.2 58:0.58999997 59:0 60:0.2 61:0.38999999 62:0 63:0.38999999 64:0.38999999 65:0.2 66:0.2 67:0.79000002 68:0.2 69:0.2 70:0.38999999 71:0 72:0 73:0.2 74:0.38999999 75:0 76:0 77:0.38999999 78:0.58999997 79:0 80:0.2 81:0.2 82:0.2 83:0.2 84:0.2 85:0 86:0.2 87:0.2 88:0 89:0.2 90:0.38999999 91:0.2 92:0.2 93:0.2 94:0 95:0.38999999 96:0.38999999 97:0.38999999 98:0.58999997 99:0 100:0 101:0.98000002 102:0.2 103:0.2 104:0.2 105:0.2 106:0.79000002 107:0.2 108:0.2 109:0.2 110:0.2 111:0 112:0.58999997 113:0.2 114:0 115:1.1799999 116:0.2 117:0.79000002 118:0.58999997 119:0.38999999 120:0.2 121:0.38999999 122:0.2 123:0.38999999 124:0 125:0.2 126:0.38999999 127:0.38999999 128:0.58999997 129:0 130:1.1799999 131:0.2 132:0 133:0.2 134:0 135:0.2 136:0 137:0.38999999 138:0 139:0.2 140:0 141:1.1799999 142:0 143:0.38999999 144:0.2 145:0.2 146:0 147:0.2 148:0 149:0.2 150:0.38999999 151:0 152:0.2 153:0.58999997 154:0 155:0 156:0.58999997 157:0.2 158:0.2 159:0 160:0 161:0.58999997 162:0 163:0.2 164:0.58999997 165:0.79000002 166:0.2 167:0.2 168:0.2 169:0.2 170:0 171:0.2 172:0 173:0 174:0.2 175:0.38999999 176:0 177:0 178:0.38999999 179:0 180:0 181:0.38999999 182:0 183:0.58999997 184:0 185:0 186:1.77 187:0.38999999 188:0.79000002 189:0.2 190:2.1600001 191:0 192:0.38999999 193:0.79000002 194:0 195:0.38999999 196:1.1799999 197:0.2 198:1.38 199:0 200:0 201:0.2 202:0 203:0.2 204:0 205:0 206:0.2 207:0 208:0 209:0 210:0.2 211:0 212:0.2 213:0 214:0 215:0.2 216:0 217:0 218:0.38999999 219:0 220:0 221:0.2 222:0 223:0 224:0 225:0 226:0.79000002 227:0.2 228:0 229:0 230:0 231:0 232:0.2 233:0 234:0 235:0.2 236:0.38999999 237:0.38999999 238:0 239:0 240:0 241:0.38999999 242:0 243:0.38999999 244:0.38999999 245:0.2 246:0 247:0 248:0 249:0.38999999 250:0.58999997 251:0 252:0.2 253:0.38999999 254:0 255:0.2 256:0.79000002 257:0 258:0.38999999 259:0 260:0.2 261:0 262:0.2 263:0 264:0.38999999 265:0.38999999 266:0.2 267:0.2 268:0 269:0 270:0.58999997 271:0.2 272:0 273:0 274:0.2 275:0 276:0 277:0 278:0.2 279:0 280:0 281:1.1799999 282:0.2 283:0.2 284:0.2 285:0 286:0.38999999 287:0.38999999 288:0.38999999 289:0.2 290:0.98000002 291:0 292:0 293:0.2 294:0.79000002 295:0.58999997 296:0.38999999 297:0.2 298:0.2 299:0 300:0 301:0.98000002 302:0.2 303:0.38999999 304:0.2 305:0.2 306:0.38999999 307:0.38999999 308:0.2 309:0 310:0.38999999 311:0 312:0 313:0.38999999 314:0 315:0.58999997 316:0.2 317:0.2 318:0.38999999 319:0.2 320:0.38999999 321:0.98000002 322:0 323:0.2 324:0 325:0 326:0.38999999 327:0.2 328:0.2 329:0.38999999 330:0.58999997 331:0 332:0.2 333:0 334:0 335:0.38999999 336:0.38999999 337:0.2 338:0.2 339:0 340:0 341:0.79000002 342:0 343:1.1799999 344:0.98000002 345:0.38999999 346:0.2 347:0 348:0.38999999 349:0.79000002 350:0.98000002 351:0 352:0 353:0.2 354:0.38999999 355:0.58999997 356:0.38999999 357:0.2 358:1.1799999 359:0 360:0 361:0 362:0 363:0 364:0 365:0.2 366:0 367:0 368:0 369:0 370:0 371:0 372:0 373:0.2 374:0 375:0 376:0 377:0 378:0.38999999 379:0 380:0 381:0 382:0 383:0.2 384:0 385:0.2 386:0.2 387:0 388:0 389:0.2 390:0 391:0 392:0 393:0 394:0.2 395:0 396:0.38999999 397:0 398:0 399:0 400:0.2 #
-1.8550107542276208505427348427474 1:0 2:0 3:0 4:0.74000001 5:0 6:0 7:0 8:0 9:1.47 10:0 11:0 12:0 13:0 14:0 15:0 16:0.74000001 17:0.74000001 18:0.74000001 19:0 20:0.74000001 21:0 22:0 23:0 24:0 25:0 26:0 27:0 28:0 29:0 30:0 31:0 32:0 33:0 34:0 35:0 36:0 37:0 38:0 39:0 40:0 41:0.74000001 42:0 43:0.74000001 44:4.4099998 45:0 46:0 47:0 48:0.74000001 49:0.74000001 50:0.74000001 51:0.74000001 52:0 53:0.74000001 54:0 55:0.74000001 56:0 57:2.21 58:0.74000001 59:0 60:0 61:0 62:0 63:4.4099998 64:4.4099998 65:0 66:0 67:0 68:0.74000001 69:0.74000001 70:0.74000001 71:0.74000001 72:0 73:1.47 74:1.47 75:0.74000001 76:0.74000001 77:2.21 78:0 79:0 80:0 81:0 82:0 83:0 84:1.47 85:0 86:0 87:0 88:0 89:0 90:0 91:0 92:0 93:0 94:0 95:0 96:0 97:0 98:0 99:0 100:0 101:0 102:0 103:0.74000001 104:0 105:0 106:0 107:0 108:0 109:0.74000001 110:0 111:0 112:0 113:0 114:0 115:0 116:0 117:0.74000001 118:0 119:0 120:0.74000001 121:0 122:0 123:0 124:0 125:0 126:0 127:0 128:0 129:0 130:0 131:0 132:0 133:0.74000001 134:0 135:0 136:0 137:0 138:0 139:0 140:0 141:0 142:0 143:0.74000001 144:0.74000001 145:0 146:0 147:0 148:0 149:0.74000001 150:0 151:0 152:0.74000001 153:0 154:0 155:0.74000001 156:0.74000001 157:0 158:0 159:0 160:0 161:0.74000001 162:0 163:1.47 164:1.47 165:0 166:0 167:0 168:0 169:0.74000001 170:0 171:0 172:0 173:0 174:0 175:0 176:0 177:1.47 178:0.74000001 179:0 180:0 181:0.74000001 182:0 183:0.74000001 184:0 185:0.74000001 186:0 187:0 188:0.74000001 189:0 190:0.74000001 191:0 192:0.74000001 193:0.74000001 194:0 195:2.21 196:0.74000001 197:0 198:0 199:0 200:0 201:0 202:0 203:0.74000001 204:0 205:0 206:0 207:0 208:0 209:0 210:1.47 211:0 212:0 213:0 214:0 215:0 216:0 217:0 218:0 219:0 220:0 221:0 222:0 223:0 224:0 225:0 226:0 227:0 228:0.74000001 229:0 230:0 231:0 232:0 233:0.74000001 234:0 235:0 236:0 237:0 238:0 239:0 240:0.74000001 241:0 242:0 243:1.47 244:1.47 245:0 246:0 247:0 248:0 249:0 250:0.74000001 251:0 252:0 253:0 254:0 255:0.74000001 256:0 257:0 258:0 259:0 260:0 261:0 262:0 263:0.74000001 264:0.74000001 265:0 266:0 267:0 268:0 269:0.74000001 270:0 271:0 272:0 273:0 274:0 275:0 276:0 277:0.74000001 278:0 279:0 280:0 281:0 282:0 283:0.74000001 284:0 285:0 286:0 287:0.74000001 288:1.47 289:0 290:0.74000001 291:0.74000001 292:0 293:0 294:0 295:0.74000001 296:0.74000001 297:0 298:0 299:0 300:0 301:0 302:0 303:0 304:0 305:0 306:0.74000001 307:0 308:0 309:0 310:0.74000001 311:0 312:0 313:0 314:0.74000001 315:0 316:0 317:1.47 318:0 319:0 320:0 321:2.21 322:0 323:0.74000001 324:2.21 325:0.74000001 326:0.74000001 327:0 328:0 329:0.74000001 330:0.74000001 331:0 332:0.74000001 333:0 334:0 335:0 336:0 337:1.47 338:0.74000001 339:0 340:0 341:0 342:0 343:0 344:0.74000001 345:0 346:0.74000001 347:0 348:0 349:0 350:1.47 351:0 352:0 353:0 354:0 355:0 356:0 357:0 358:0.74000001 359:0 360:0 361:0 362:0 363:0 364:0 365:0 366:0 367:0 368:0 369:0 370:0 371:0 372:0 373:0 374:0 375:0 376:0 377:0 378:0 379:0 380:0 381:0.74000001 382:0 383:0 384:0 385:0 386:0.74000001 387:0 388:0 389:0 390:0.74000001 391:0 392:0 393:0 394:0 395:0 396:0 397:0 398:0 399:0 400:0.74000001 #
-8.8231482395280522723624017089605 1:0.77999997 2:0 3:0 4:0 5:0 6:0.38999999 7:0 8:0 9:1.16 10:0.38999999 11:0 12:0 13:0 14:0 15:0.38999999 16:1.16 17:0.38999999 18:0.77999997 19:0 20:0.38999999 21:0 22:0 23:0 24:0.38999999 25:0 26:0 27:0 28:0 29:0 30:0.38999999 31:0 32:0 33:0 34:0 35:0 36:0 37:0 38:0 39:0 40:0 41:0.38999999 42:0 43:0 44:0.38999999 45:0 46:1.16 47:0 48:0 49:0.77999997 50:0 51:0 52:0 53:0 54:0 55:0.38999999 56:0.38999999 57:1.16 58:1.16 59:0 60:0.38999999 61:0.77999997 62:0.38999999 63:0 64:0.38999999 65:0.77999997 66:0 67:0 68:0.38999999 69:0.38999999 70:0 71:0 72:0.38999999 73:0 74:0 75:0.38999999 76:0.77999997 77:0 78:0.38999999 79:0 80:0.38999999 81:0 82:0 83:0 84:0 85:0 86:0 87:0 88:0.38999999 89:0 90:0 91:0 92:0.38999999 93:0 94:0 95:0 96:0.77999997 97:0.77999997 98:1.16 99:0 100:0.38999999 101:0.38999999 102:0 103:1.16 104:0.77999997 105:0 106:0 107:0 108:0 109:0.38999999 110:0.38999999 111:0 112:0 113:0.38999999 114:0 115:0 116:0 117:1.16 118:0.77999997 119:0 120:0 121:0 122:0 123:0 124:0 125:0 126:0 127:0 128:0 129:0 130:0 131:0 132:0 133:0 134:0 135:0 136:0 137:0 138:0 139:0 140:0 141:0 142:0 143:0.77999997 144:0 145:0.38999999 146:0.77999997 147:0 148:0.38999999 149:0.77999997 150:0.77999997 151:0.77999997 152:0.38999999 153:0 154:0.38999999 155:0.38999999 156:0.38999999 157:0.38999999 158:0 159:0 160:0 161:0 162:0 163:0.38999999 164:0.38999999 165:0.77999997 166:0 167:0 168:1.16 169:0 170:1.55 171:0 172:0.77999997 173:0 174:0 175:0.38999999 176:0.77999997 177:0 178:0.38999999 179:0 180:0.77999997 181:1.16 182:0 183:0 184:0.38999999 185:0 186:0.38999999 187:0 188:1.16 189:0.38999999 190:0.77999997 191:0 192:0.77999997 193:0 194:0.38999999 195:0.77999997 196:0.38999999 197:0.77999997 198:1.55 199:0 200:0 201:0.38999999 202:0 203:0 204:0 205:0 206:0 207:0 208:0 209:0.38999999 210:0 211:0 212:0 213:0.38999999 214:0 215:0 216:0 217:0 218:0 219:0 220:0 221:0.38999999 222:0 223:1.16 224:1.16 225:0.38999999 226:0.77999997 227:0 228:0.38999999 229:0.77999997 230:0.38999999 231:0 232:1.16 233:0.77999997 234:0.38999999 235:0 236:0 237:0.38999999 238:0 239:0 240:0 241:0 242:0 243:0 244:0.38999999 245:0.77999997 246:0 247:0 248:0.77999997 249:0 250:0.77999997 251:0 252:0.38999999 253:0 254:0 255:0.38999999 256:0.38999999 257:0 258:0 259:0 260:0 261:0 262:0 263:0 264:0 265:0 266:0 267:0 268:0 269:0.38999999 270:0.38999999 271:0 272:0 273:0 274:0 275:0.77999997 276:0 277:0 278:0.38999999 279:0 280:0.38999999 281:0.77999997 282:0 283:0 284:0 285:0 286:0.38999999 287:0 288:0 289:0.38999999 290:0.38999999 291:0 292:0 293:0.38999999 294:0.38999999 295:0 296:0.38999999 297:0 298:1.55 299:0 300:0.38999999 301:0 302:0.38999999 303:0.77999997 304:0 305:0 306:0 307:0 308:0 309:0.38999999 310:1.55 311:0 312:1.9400001 313:0.38999999 314:0.38999999 315:0 316:1.9400001 317:0.38999999 318:0.38999999 319:0 320:0 321:0.38999999 322:0 323:0.38999999 324:0.77999997 325:0.38999999 326:0.38999999 327:0 328:0 329:0.77999997 330:0.38999999 331:0 332:0.38999999 333:0.77999997 334:0 335:0 336:0.77999997 337:0.77999997 338:0 339:0 340:0.77999997 341:0.38999999 342:0 343:0.38999999 344:0.38999999 345:0.38999999 346:1.16 347:0 348:0.77999997 349:0 350:0.77999997 351:0 352:0.77999997 353:0.77999997 354:0.38999999 355:1.16 356:0.38999999 357:0.77999997 358:1.55 359:0 360:0 361:0 362:0 363:0 364:0 365:0 366:0 367:0 368:0 369:0 370:0 371:0 372:0 373:0 374:0 375:0 376:0 377:0 378:0 379:0 380:0 381:0 382:0 383:1.16 384:0 385:0 386:0 387:0 388:1.16 389:0.38999999 390:0 391:0 392:0.77999997 393:0 394:0 395:0 396:0 397:0 398:0 399:0 400:0 #
12.654605829407321593294000194874 1:6.9499998 2:0 3:0.20999999 4:0.63 5:0.31999999 6:3.1600001 7:0 8:0.11 9:0 10:0.20999999 11:0 12:0.31999999 13:2.3199999 14:0 15:1.05 16:0.52999997 17:0.52999997 18:1.26 19:0.11 20:0.11 21:0.11 22:0 23:0 24:0 25:0 26:0 27:0 28:0 29:0 30:0 31:0 32:0 33:0 34:0 35:0 36:0 37:0.11 38:0 39:0 40:0 41:0.52999997 42:0 43:0.20999999 44:0.11 45:0.11 46:0.83999997 47:0.11 48:0.11 49:0.11 50:0.31999999 51:0.20999999 52:0.11 53:0.20999999 54:0.11 55:0 56:0.52999997 57:0 58:0 59:0 60:0 61:0.74000001 62:0 63:0.11 64:0.41999999 65:0.11 66:0.11 67:0 68:0 69:0 70:0.63 71:0 72:0 73:0.11 74:0.20999999 75:0.11 76:0 77:0.11 78:0.83999997 79:0 80:0.11 81:0.11 82:0 83:0 84:0.20999999 85:0.20999999 86:1.79 87:0 88:0 89:0.11 90:0 91:0 92:0.11 93:0.20999999 94:0 95:0.11 96:0.20999999 97:0.20999999 98:0 99:0 100:0 101:3.48 102:0 103:0.94999999 104:0.20999999 105:0.52999997 106:6.7399998 107:0.11 108:0 109:0.11 110:0.41999999 111:0.52999997 112:0.11 113:2.1099999 114:0.20999999 115:0.74000001 116:2.1099999 117:1.05 118:1.05 119:0.20999999 120:0.20999999 121:0.11 122:0 123:0 124:0 125:0 126:0.41999999 127:0.20999999 128:0 129:0 130:0.11 131:0 132:0 133:0.31999999 134:0.20999999 135:0.31999999 136:0.11 137:0 138:0 139:0 140:0.11 141:0 142:0 143:0.11 144:0 145:0 146:0 147:0 148:0.20999999 149:0 150:0 151:0 152:0 153:0.31999999 154:0 155:0.11 156:0.11 157:0 158:0 159:0 160:0 161:0.31999999 162:0.11 163:0 164:0 165:0 166:0.11 167:0 168:0 169:0 170:0 171:0 172:0.11 173:0 174:0 175:0.11 176:0 177:0 178:0.20999999 179:0 180:0 181:0.52999997 182:0 183:0.31999999 184:0.31999999 185:0.20999999 186:0.83999997 187:0.11 188:0 189:0.11 190:0.31999999 191:0 192:0 193:0 194:0.20999999 195:0.63 196:0.20999999 197:0.11 198:0.20999999 199:0 200:0 201:0.11 202:0 203:0.20999999 204:0 205:0.11 206:0.41999999 207:0 208:0 209:0 210:0 211:0 212:0 213:0.11 214:0 215:0 216:0.20999999 217:0 218:0.11 219:0 220:0 221:0.11 222:0 223:0.11 224:0 225:0 226:0.31999999 227:0.11 228:0 229:0 230:0 231:0 232:0 233:0.41999999 234:0.11 235:0.11 236:0 237:0 238:0 239:0 240:0.11 241:1.9 242:0 243:0.52999997 244:0.52999997 245:0.74000001 246:1.58 247:0.41999999 248:0.20999999 249:0 250:0.52999997 251:0.31999999 252:0.31999999 253:3.27 254:0.74000001 255:0.83999997 256:0.20999999 257:0.20999999 258:0.20999999 259:0 260:0.11 261:0.31999999 262:0 263:0.11 264:0.11 265:0.11 266:0.11 267:0.11 268:0 269:0 270:0 271:0 272:0 273:0.94999999 274:1.9 275:0.31999999 276:0 277:0 278:0.20999999 279:0.11 280:0 281:0.52999997 282:0.11 283:0.11 284:0 285:0.11 286:1.16 287:0.31999999 288:0.11 289:0.11 290:0.63 291:0 292:0.11 293:0.94999999 294:0.11 295:0.94999999 296:0.74000001 297:0.20999999 298:0.31999999 299:0 300:0.11 301:0.20999999 302:0 303:0.31999999 304:0.20999999 305:0.31999999 306:2.21 307:0.20999999 308:0 309:0.11 310:0.20999999 311:0.11 312:0.11 313:0.41999999 314:0.11 315:0.63 316:0.52999997 317:0.11 318:0 319:0 320:0.11 321:0.83999997 322:0 323:0 324:0.11 325:0 326:0.52999997 327:0 328:0 329:0.20999999 330:0.11 331:0 332:0 333:0.41999999 334:0.11 335:0.20999999 336:0.31999999 337:0.31999999 338:0.31999999 339:0 340:0 341:0.83999997 342:0 343:0.11 344:0.52999997 345:0.41999999 346:0.41999999 347:0.11 348:0.11 349:0.11 350:0.52999997 351:0 352:0.11 353:0.52999997 354:0.20999999 355:0.20999999 356:0.20999999 357:0.41999999 358:0.74000001 359:0.11 360:0 361:0 362:0 363:0 364:0 365:0 366:0 367:0.11 368:0 369:0 370:0.11 371:0 372:0 373:0 374:0.11 375:0 376:0 377:0 378:0.11 379:0 380:0.11 381:0.11 382:0 383:0.20999999 384:0.20999999 385:0 386:0.11 387:0 388:0 389:0 390:0 391:0 392:0 393:0 394:0 395:0.20999999 396:0 397:0.11 398:0.11 399:0 400:0 #
12.654605829407321593294000194874 1:7.9200001 2:0.090000004 3:0.87 4:0.75 5:0.30000001 6:3.55 7:0.27000001 8:0.15000001 9:0.090000004 10:1.11 11:0.15000001 12:0.20999999 13:0.81 14:0.38999999 15:0.66000003 16:1.45 17:1.2 18:1.39 19:0.15000001 20:0.44999999 21:0.15000001 22:0.059999999 23:0.059999999 24:0.059999999 25:0.059999999 26:0.15000001 27:0.029999999 28:0.090000004 29:0 30:0.15000001 31:0 32:0.029999999 33:0.059999999 34:0.029999999 35:0 36:0.059999999 37:0 38:0.029999999 39:0 40:0.029999999 41:0.72000003 42:0.059999999 43:0.30000001 44:0.23999999 45:0.090000004 46:0.87 47:0.090000004 48:0.090000004 49:0.090000004 50:0.44999999 51:0.029999999 52:0.029999999 53:0.15000001 54:0.090000004 55:0.090000004 56:0.27000001 57:0.18000001 58:0.20999999 59:0.059999999 60:0.12 61:0.60000002 62:0 63:0.15000001 64:0.12 65:0.20999999 66:0.30000001 67:0.090000004 68:0 69:0.059999999 70:0.44999999 71:0.090000004 72:0.029999999 73:0.059999999 74:0.15000001 75:0.38999999 76:0.33000001 77:0.090000004 78:0.27000001 79:0.029999999 80:0.029999999 81:0.27000001 82:0 83:0.18000001 84:0.090000004 85:0 86:0.059999999 87:0.090000004 88:0.029999999 89:0.090000004 90:0.059999999 91:0.059999999 92:0 93:0.12 94:0.090000004 95:0.029999999 96:0.15000001 97:0.059999999 98:0.12 99:0.029999999 100:0.090000004 101:3.25 102:0.15000001 103:0.50999999 104:0.47999999 105:0.20999999 106:4.0100002 107:0.23999999 108:0.23999999 109:0.12 110:0.75 111:0.15000001 112:0.18000001 113:0.56999999 114:0.41999999 115:0.81 116:1.63 117:0.95999998 118:0.69 119:0.20999999 120:0.20999999 121:0.30000001 122:0.059999999 123:0.090000004 124:0.12 125:0.059999999 126:0.30000001 127:0.20999999 128:0.029999999 129:0.029999999 130:0.059999999 131:0 132:0.029999999 133:0.20999999 134:0.27000001 135:0.15000001 136:0.20999999 137:0.029999999 138:0.029999999 139:0 140:0.090000004 141:0.18000001 142:0.029999999 143:0.12 144:0.029999999 145:0 146:0.20999999 147:0.059999999 148:0.029999999 149:0.059999999 150:0.12 151:0 152:0 153:0 154:0.029999999 155:0.090000004 156:0.12 157:0 158:0.059999999 159:0.029999999 160:0.029999999 161:0.23999999 162:0.059999999 163:0.029999999 164:0.059999999 165:0 166:0.18000001 167:0 168:0.059999999 169:0 170:0.090000004 171:0.029999999 172:0 173:0.059999999 174:0.090000004 175:0.029999999 176:0.12 177:0.029999999 178:0.15000001 179:0 180:0.029999999 181:1.45 182:0.090000004 183:0.47999999 184:0.30000001 185:0.12 186:0.72000003 187:0.12 188:0.029999999 189:0.18000001 190:0.75 191:0.090000004 192:0.059999999 193:0.56999999 194:0.30000001 195:0.44999999 196:0.23999999 197:0.27000001 198:0.56999999 199:0.059999999 200:0.18000001 201:0.15000001 202:0 203:0.059999999 204:0.090000004 205:0 206:0.18000001 207:0 208:0 209:0.029999999 210:0.029999999 211:0 212:0 213:0 214:0.029999999 215:0.090000004 216:0.090000004 217:0.090000004 218:0.029999999 219:0.029999999 220:0 221:0.15000001 222:0.029999999 223:0.12 224:0.029999999 225:0.029999999 226:0.36000001 227:0 228:0.029999999 229:0.029999999 230:0.12 231:0 232:0.029999999 233:0.059999999 234:0.059999999 235:0.12 236:0.059999999 237:0 238:0.059999999 239:0 240:0 241:0.77999997 242:0.029999999 243:0.27000001 244:0.18000001 245:0.090000004 246:0.44999999 247:0.12 248:0.059999999 249:0 250:0.50999999 251:0.090000004 252:0.15000001 253:0.83999997 254:0.33000001 255:0.41999999 256:0.50999999 257:0.059999999 258:0.20999999 259:0.12 260:0.090000004 261:0.50999999 262:0 263:0.029999999 264:0.090000004 265:0.029999999 266:0.38999999 267:0.23999999 268:0.090000004 269:0 270:0.33000001 271:0 272:0.090000004 273:0.41999999 274:0.81 275:0.27000001 276:0.27000001 277:0.090000004 278:0.20999999 279:0 280:0.12 281:1.02 282:0.15000001 283:0.15000001 284:0.090000004 285:0.15000001 286:0.63 287:0.23999999 288:0.029999999 289:0.12 290:0.63 291:0.029999999 292:0.029999999 293:0.33000001 294:0.15000001 295:0.95999998 296:0.54000002 297:0.15000001 298:0.30000001 299:0.090000004 300:0.12 301:1.48 302:0.090000004 303:0.27000001 304:0.18000001 305:0.090000004 306:1.42 307:0.18000001 308:0.090000004 309:0.059999999 310:0.47999999 311:0.059999999 312:0.20999999 313:0.60000002 314:0.33000001 315:0.54000002 316:1.48 317:0.54000002 318:0.33000001 319:0.15000001 320:0.23999999 321:1.3 322:0.029999999 323:0.090000004 324:0.029999999 325:0 326:0.81 327:0.059999999 328:0.12 329:0.029999999 330:0.20999999 331:0.059999999 332:0.090000004 333:0.20999999 334:0.12 335:0.15000001 336:0.47999999 337:0.47999999 338:0.27000001 339:0.029999999 340:0.029999999 341:1.11 342:0.090000004 343:0.36000001 344:0.41999999 345:0.12 346:0.63 347:0.059999999 348:0 349:0.12 350:0.44999999 351:0.059999999 352:0.090000004 353:0.18000001 354:0.15000001 355:0.41999999 356:0.54000002 357:0.20999999 358:0.66000003 359:0.090000004 360:0.090000004 361:0.12 362:0 363:0 364:0.059999999 365:0 366:0.27000001 367:0.029999999 368:0 369:0.059999999 370:0.090000004 371:0 372:0 373:0.029999999 374:0.029999999 375:0.090000004 376:0.15000001 377:0.029999999 378:0.090000004 379:0.059999999 380:0.059999999 381:0.30000001 382:0.029999999 383:0.090000004 384:0.029999999 385:0.059999999 386:0.30000001 387:0.15000001 388:0.029999999 389:0.090000004 390:0.18000001 391:0 392:0.029999999 393:0.029999999 394:0.12 395:0.12 396:0.12 397:0.12 398:0.18000001 399:0.029999999 400:0.029999999 #
-12.654605829407321593294000194874 1:9.3699999 2:0 3:0.44 4:0 5:0.44 6:2.1800001 7:0.44 8:0.22 9:0.22 10:0.64999998 11:0 12:0.44 13:0.87 14:0.64999998 15:1.09 16:0.22 17:1.74 18:2.1800001 19:0 20:0.44 21:0 22:0 23:0 24:0.22 25:0.22 26:0 27:0 28:0 29:0 30:0 31:0 32:0 33:0.22 34:0 35:0 36:0.44 37:0 38:0.22 39:0 40:0.22 41:0.64999998 42:0 43:0 44:0.44 45:0 46:0.87 47:0 48:0 49:0 50:0.64999998 51:0 52:0.22 53:0 54:0 55:0 56:0 57:0.22 58:0.44 59:0 60:0 61:1.09 62:0 63:0.44 64:0.44 65:0.22 66:0.64999998 67:0 68:0 69:0 70:0 71:0 72:0 73:0.44 74:0.22 75:0.22 76:0.22 77:0 78:0.87 79:0 80:0 81:0 82:0 83:0.44 84:0 85:0 86:0.44 87:0 88:0 89:0 90:0.64999998 91:0 92:0.22 93:0.22 94:0 95:0 96:0 97:0 98:0 99:0 100:0 101:0.87 102:0.44 103:0.44 104:0.44 105:0.22 106:4.5799999 107:0 108:0.44 109:0 110:0.64999998 111:0 112:0 113:0.87 114:0.44 115:1.74 116:1.09 117:0.87 118:0.44 119:0 120:0 121:0.22 122:0 123:0 124:0 125:0 126:0 127:0 128:0 129:0 130:0.64999998 131:0 132:0 133:0 134:0 135:0 136:0 137:0 138:0 139:0 140:0.22 141:0.44 142:0 143:0.22 144:0 145:0 146:0.22 147:0 148:0 149:0 150:0 151:0.22 152:0 153:0 154:0 155:0.22 156:0 157:0 158:0 159:0 160:0 161:0 162:0.22 163:0 164:0 165:0 166:0 167:0 168:0 169:0 170:0 171:0 172:0 173:0 174:0 175:0.22 176:0.22 177:0 178:0 179:0 180:0 181:0.22 182:0 183:0.22 184:0.22 185:0 186:0.87 187:0 188:0.22 189:0 190:0.87 191:0.22 192:0 193:0.64999998 194:0.64999998 195:0.44 196:0.64999998 197:0.44 198:0.87 199:0 200:0 201:0.22 202:0 203:0 204:0.22 205:0 206:0.22 207:0 208:0 209:0 210:0 211:0 212:0 213:0.22 214:0 215:0 216:0 217:0 218:0 219:0 220:0 221:0.44 222:0 223:0 224:0 225:0 226:0 227:0 228:0 229:0.22 230:0 231:0 232:0 233:0.22 234:0 235:0 236:0 237:0 238:0 239:0 240:0.22 241:1.3099999 242:0 243:0.22 244:0.44 245:0.22 246:0.87 247:0.22 248:0.22 249:0 250:0.22 251:0 252:0 253:0 254:0.22 255:0.64999998 256:0.44 257:0.22 258:0 259:0 260:0.22 261:0.64999998 262:0.22 263:0 264:0.44 265:0.22 266:0.44 267:0 268:0 269:0 270:0 271:0 272:0.22 273:0.44 274:4.5799999 275:0.44 276:0 277:0 278:0.44 279:0 280:0 281:1.53 282:0.22 283:0.22 284:0.44 285:0 286:0.44 287:0.44 288:0 289:0 290:0.87 291:0 292:0 293:0.22 294:0.64999998 295:0.87 296:0.64999998 297:0.22 298:0.87 299:0 300:0 301:1.09 302:0.22 303:0.44 304:0.22 305:0 306:0.22 307:0 308:0 309:0.22 310:0.44 311:0.22 312:0 313:0.64999998 314:0.22 315:0.87 316:0.87 317:0 318:0.22 319:0 320:0.22 321:1.96 322:0 323:0.22 324:0 325:0 326:0.44 327:0 328:0 329:0 330:0 331:0 332:0 333:0 334:0.22 335:0.64999998 336:0.22 337:0.87 338:0.44 339:0 340:0 341:1.3099999 342:0.22 343:0 344:1.3099999 345:0.22 346:0.87 347:0 348:0.22 349:0.22 350:0.64999998 351:0 352:0 353:0.44 354:0.22 355:0.22 356:0.64999998 357:0.44 358:0.87 359:0 360:0 361:0 362:0 363:0 364:0 365:0 366:0 367:0 368:0 369:0 370:0 371:0 372:0 373:0 374:0 375:0 376:0 377:0 378:0 379:0 380:0 381:0.22 382:0 383:0.22 384:0 385:0.22 386:0.22 387:0 388:0 389:0 390:0.22 391:0 392:0 393:0 394:0 395:0 396:0.44 397:0 398:0 399:0 400:0 #
-2.6524888206115875277646409813315 1:0.40000001 2:0 3:0 4:0 5:0 6:1 7:0.40000001 8:0.60000002 9:0 10:0.60000002 11:0 12:0 13:0 14:0.60000002 15:0 16:0.2 17:0.40000001 18:0.2 19:0 20:0 21:0 22:0.2 23:0 24:0 25:0 26:0 27:0 28:0 29:0 30:0.60000002 31:0 32:0 33:0 34:0 35:0 36:0 37:0.2 38:0.2 39:0 40:0 41:0 42:0 43:0.2 44:0 45:0 46:0 47:0 48:0 49:0 50:0 51:0 52:0 53:0 54:0 55:0.2 56:0.2 57:0.2 58:0.2 59:0 60:0 61:0 62:0 63:0.2 64:0 65:0.2 66:0.60000002 67:0 68:0.2 69:0.2 70:0.2 71:0.2 72:0 73:0 74:0 75:0.2 76:0 77:0 78:0.2 79:0 80:0 81:0 82:0 83:0 84:0.2 85:0.40000001 86:1.2 87:0 88:0.2 89:0 90:0 91:0 92:0.2 93:0.2 94:0.2 95:0.2 96:0 97:0 98:0.2 99:0 100:0 101:0 102:0.2 103:0 104:0 105:1.2 106:18.639999 107:0.2 108:0.2 109:0.60000002 110:0.2 111:0 112:0.2 113:0.2 114:0 115:0.2 116:1.6 117:0.2 118:0.60000002 119:3.01 120:5.6100001 121:0 122:0 123:0 124:0.40000001 125:0 126:0.40000001 127:0 128:0 129:0 130:0 131:0 132:0.2 133:0 134:0 135:0 136:0.2 137:0 138:0.2 139:0 140:0 141:0.2 142:0.40000001 143:0 144:0 145:0 146:0.2 147:0 148:0.60000002 149:0.40000001 150:0.40000001 151:0 152:0.40000001 153:0 154:0.2 155:0.2 156:0.80000001 157:0 158:0.80000001 159:0 160:0 161:0.2 162:0.2 163:0 164:0.40000001 165:0 166:0 167:0 168:0.40000001 169:0 170:0 171:0 172:0.2 173:0.2 174:0 175:0 176:1 177:0 178:0.40000001 179:0 180:0.2 181:0.60000002 182:0 183:0 184:0 185:0 186:0.60000002 187:0 188:0.60000002 189:0 190:0.80000001 191:0.2 192:0 193:0.2 194:0.2 195:0 196:0.2 197:0 198:0.80000001 199:0 200:0 201:0 202:0 203:0.2 204:0 205:0 206:0 207:0 208:0 209:0.2 210:0 211:0 212:0 213:0 214:0 215:0 216:0.40000001 217:0 218:0.2 219:0 220:0 221:0 222:0 223:0.2 224:0 225:0.2 226:0.2 227:0.2 228:0 229:0 230:0 231:0.2 232:0 233:0 234:0 235:0 236:0.40000001 237:0.2 238:0 239:0 240:0.40000001 241:0 242:0 243:0 244:0.2 245:0 246:0 247:0 248:0.2 249:0.2 250:0 251:0 252:0.2 253:0 254:0.40000001 255:0 256:0.2 257:0 258:0.60000002 259:0 260:0 261:1.2 262:0 263:0 264:0.2 265:0.2 266:0.2 267:0 268:0 269:0 270:0.2 271:0 272:0 273:0.2 274:0.2 275:0.40000001 276:0 277:0 278:0 279:0 280:0 281:0 282:0 283:0 284:0.2 285:0.2 286:1.2 287:0 288:0 289:0 290:0 291:0 292:0 293:0.2 294:0.2 295:0 296:1 297:0.40000001 298:0.80000001 299:0 300:0 301:0.2 302:0 303:0 304:0.2 305:0 306:3.6099999 307:0.2 308:0 309:0 310:0 311:0.2 312:0.2 313:0.2 314:0 315:0.40000001 316:2.2 317:0.40000001 318:0.60000002 319:0.2 320:0.40000001 321:0 322:0 323:0 324:0 325:0.2 326:0 327:0 328:0 329:0 330:0.2 331:0 332:0.2 333:0.2 334:0.2 335:0.40000001 336:0 337:0.2 338:0.80000001 339:0 340:0.2 341:1.4 342:0.2 343:0.2 344:0.40000001 345:0.40000001 346:0 347:0.40000001 348:0.40000001 349:0.80000001 350:0.60000002 351:0 352:0 353:0.40000001 354:0.40000001 355:0.40000001 356:0.40000001 357:0.40000001 358:0.80000001 359:0 360:0 361:0 362:0 363:0 364:0 365:0 366:0 367:0 368:0.60000002 369:0.80000001 370:0.2 371:0 372:0 373:0 374:0 375:1.2 376:0.2 377:0 378:0 379:0.2 380:0 381:0.2 382:0 383:0 384:0 385:0 386:5.0100002 387:0 388:0.60000002 389:0 390:0.2 391:0 392:0.2 393:0 394:0.2 395:0.40000001 396:0 397:0 398:0 399:0 400:0.60000002 #
-12.165349613009993845480494201183 1:2.73 2:0 3:0.72000003 4:0.86000001 5:0 6:2.01 7:0.72000003 8:0.14 9:0 10:0.72000003 11:0 12:0 13:1.4400001 14:0.43000001 15:0.86000001 16:1.15 17:1.29 18:1.58 19:0 20:0 21:0 22:0 23:0 24:0 25:0 26:0 27:0 28:0 29:0 30:0 31:0 32:0 33:0 34:0 35:0 36:0 37:0 38:0 39:0 40:0.14 41:0.28999999 42:0 43:0.14 44:0 45:0.28999999 46:1.15 47:0.28999999 48:0.14 49:0.14 50:0.43000001 51:0 52:0 53:0.72000003 54:0.14 55:0.56999999 56:0.72000003 57:0 58:0.28999999 59:0.14 60:0 61:0.43000001 62:0 63:0 64:0 65:0 66:0.14 67:0.28999999 68:0 69:0 70:0.56999999 71:0 72:0 73:0.43000001 74:0 75:0.28999999 76:0.72000003 77:0 78:0.43000001 79:0.28999999 80:0 81:0.43000001 82:0 83:0.14 84:0.14 85:0 86:0.28999999 87:0 88:0 89:0 90:0 91:0 92:0 93:0.14 94:0 95:0 96:0.28999999 97:0.14 98:0.14 99:0 100:0 101:3.74 102:0 103:0.43000001 104:0.43000001 105:0.28999999 106:6.6100001 107:0 108:0 109:0.43000001 110:0.56999999 111:0 112:0.43000001 113:0.72000003 114:0.14 115:0.72000003 116:3.1600001 117:1.87 118:0.86000001 119:0.14 120:0 121:0.14 122:0 123:0 124:0.14 125:0.28999999 126:0.56999999 127:0 128:0.14 129:0 130:0 131:0 132:0 133:0.14 134:0 135:0 136:0.28999999 137:0 138:0.14 139:0 140:0 141:0.28999999 142:0 143:0.14 144:0 145:0 146:0.28999999 147:0 148:0 149:0 150:0 151:0 152:0 153:0 154:0 155:0.14 156:0 157:0.14 158:0.14 159:0 160:0 161:0 162:0 163:0 164:0 165:0 166:0.43000001 167:0 168:0 169:0 170:0 171:0 172:0 173:0 174:0.14 175:0 176:0.28999999 177:0 178:0 179:0 180:0 181:0.72000003 182:0 183:0.43000001 184:0.28999999 185:0 186:1.01 187:0 188:0.14 189:0 190:0.43000001 191:0 192:0 193:0.43000001 194:0.14 195:0.43000001 196:0.28999999 197:0.72000003 198:0.72000003 199:0 200:0.28999999 201:0 202:0 203:0 204:0 205:0 206:0.14 207:0 208:0 209:0 210:0.28999999 211:0 212:0 213:0 214:0 215:0 216:0 217:0 218:0 219:0 220:0 221:0.14 222:0 223:0 224:0 225:0 226:0.14 227:0 228:0 229:0 230:0 231:0 232:0 233:0.28999999 234:0 235:0 236:0.14 237:0.28999999 238:0 239:0 240:0 241:1.87 242:0 243:0.28999999 244:0.72000003 245:0.14 246:1.4400001 247:0.28999999 248:0.14 249:0 250:0.86000001 251:0 252:0 253:0.28999999 254:0 255:0.56999999 256:0.43000001 257:0.28999999 258:1.01 259:0 260:0 261:0.14 262:0 263:0 264:0 265:0 266:0.14 267:0 268:0 269:0 270:0 271:0 272:0 273:0.72000003 274:0 275:0.14 276:0 277:0 278:0.14 279:0 280:0 281:0.28999999 282:0.14 283:0.43000001 284:0.28999999 285:0.14 286:0.43000001 287:0.14 288:0 289:0 290:0.14 291:0 292:0 293:1.01 294:0.14 295:0.43000001 296:0.43000001 297:0.43000001 298:0.72000003 299:0 300:0.43000001 301:1.15 302:0 303:1.29 304:0.14 305:0.14 306:4.1700001 307:0.14 308:0.28999999 309:0.28999999 310:0.56999999 311:0 312:0 313:0.14 314:0 315:0.43000001 316:1.15 317:0.14 318:0.43000001 319:0 320:0.14 321:0.86000001 322:0 323:0.56999999 324:0.43000001 325:0.14 326:0.86000001 327:0 328:0.14 329:0 330:0.28999999 331:0.14 332:0.43000001 333:0.56999999 334:0.14 335:0.28999999 336:0.72000003 337:0.43000001 338:0.43000001 339:0 340:0.14 341:1.15 342:0 343:0.56999999 344:0 345:0.28999999 346:0.72000003 347:0 348:0 349:0 350:1.01 351:0.14 352:0.14 353:0.86000001 354:0 355:0.86000001 356:0.56999999 357:0.56999999 358:0.86000001 359:0 360:0.28999999 361:0.14 362:0 363:0 364:0.14 365:0 366:0 367:0 368:0 369:0 370:0.14 371:0 372:0 373:0.14 374:0 375:0 376:0 377:0 378:0 379:0 380:0 381:0.14 382:0 383:0.28999999 384:0 385:0 386:0 387:0 388:0 389:0 390:0 391:0 392:0 393:0.28999999 394:0 395:0 396:0.28999999 397:0.28999999 398:0.14 399:0 400:0 #
12.654605829407321593294000194874 1:0 2:0 3:0.61000001 4:0 5:0.30000001 6:0.61000001 7:0 8:1.52 9:0 10:0.30000001 11:0 12:0 13:0.30000001 14:0.30000001 15:0 16:0.61000001 17:0.30000001 18:0.30000001 19:0 20:0.30000001 21:0 22:0 23:0 24:0 25:0 26:0 27:0.30000001 28:0 29:0 30:0 31:0.30000001 32:0 33:0 34:0.30000001 35:0 36:0.30000001 37:0 38:0 39:0 40:0 41:1.21 42:0 43:0.30000001 44:0.61000001 45:0.91000003 46:0.61000001 47:0 48:0.91000003 49:0.30000001 50:1.21 51:0 52:0 53:0.61000001 54:0 55:0 56:0 57:0 58:0.91000003 59:0 60:0.30000001 61:0.30000001 62:0 63:0 64:0.91000003 65:0.30000001 66:1.21 67:0 68:0.91000003 69:0 70:1.21 71:0 72:0 73:0.30000001 74:0.30000001 75:0.61000001 76:0 77:0.61000001 78:0.61000001 79:0 80:0 81:0.30000001 82:0 83:0.91000003 84:0.61000001 85:0.30000001 86:0 87:0.30000001 88:0.61000001 89:0 90:0 91:0 92:0 93:0.91000003 94:0 95:0.30000001 96:0.61000001 97:0 98:0.30000001 99:0 100:0 101:0.91000003 102:0 103:0.91000003 104:0.61000001 105:0.91000003 106:0 107:0 108:0 109:0 110:0.61000001 111:0 112:0.30000001 113:0 114:0 115:0.30000001 116:0 117:0.61000001 118:0.61000001 119:0 120:0.30000001 121:0 122:0 123:0.30000001 124:0.61000001 125:0 126:0.30000001 127:0 128:0 129:0 130:0.30000001 131:0 132:0 133:0.30000001 134:0 135:0 136:0 137:0 138:0 139:0 140:0.30000001 141:0 142:0 143:0.91000003 144:0.61000001 145:0 146:0.30000001 147:0 148:0 149:0.30000001 150:0.30000001 151:0 152:0 153:1.21 154:0.61000001 155:0.61000001 156:0.91000003 157:0.30000001 158:1.21 159:0 160:0.91000003 161:0.30000001 162:0 163:0.61000001 164:0 165:0.30000001 166:0.30000001 167:0 168:1.21 169:0.30000001 170:0 171:0.30000001 172:0.61000001 173:0.30000001 174:0 175:0.61000001 176:0.61000001 177:0.30000001 178:0 179:0.30000001 180:0 181:0.61000001 182:0.30000001 183:0.30000001 184:0.61000001 185:0.30000001 186:0 187:0.61000001 188:0.61000001 189:1.21 190:0.30000001 191:0 192:0 193:0.91000003 194:0.30000001 195:0.61000001 196:0.30000001 197:0.91000003 198:0.30000001 199:0 200:0.30000001 201:0 202:0 203:0 204:0 205:0 206:0.30000001 207:0 208:0 209:0.61000001 210:0 211:0 212:0 213:0 214:0 215:0 216:0 217:0 218:0 219:0 220:0 221:0 222:0.61000001 223:0.61000001 224:0 225:0 226:0 227:0 228:0.30000001 229:0 230:0.30000001 231:0 232:0.61000001 233:0.30000001 234:0 235:0 236:0 237:0 238:0 239:0 240:0 241:0.30000001 242:0 243:0.61000001 244:0.61000001 245:0 246:0.30000001 247:0 248:0.61000001 249:0.91000003 250:1.52 251:0 252:0 253:0.91000003 254:0 255:0.30000001 256:0.91000003 257:0.30000001 258:0.30000001 259:0 260:0.61000001 261:0 262:0 263:0 264:0.30000001 265:0 266:0 267:0 268:0.30000001 269:0 270:0 271:0 272:0.30000001 273:0 274:0 275:0 276:0 277:0 278:0.61000001 279:0 280:0.30000001 281:0 282:0.30000001 283:0.30000001 284:0.91000003 285:0.30000001 286:0.30000001 287:0 288:0.30000001 289:0.61000001 290:0.61000001 291:0 292:0 293:0.30000001 294:0 295:0.61000001 296:0.61000001 297:0.61000001 298:0.30000001 299:0 300:0.30000001 301:0.61000001 302:0 303:0.61000001 304:0 305:0.30000001 306:0.61000001 307:0.30000001 308:0.61000001 309:0.30000001 310:0.91000003 311:0 312:0.30000001 313:0.61000001 314:0 315:0 316:0 317:0.30000001 318:0 319:0 320:0 321:0 322:0 323:0 324:0 325:0.61000001 326:0.30000001 327:0.30000001 328:0 329:0.61000001 330:0.30000001 331:0 332:0.61000001 333:0.61000001 334:0 335:0.30000001 336:0.30000001 337:0 338:0.30000001 339:0 340:0.30000001 341:0.30000001 342:0 343:0.61000001 344:0.61000001 345:0.61000001 346:0.30000001 347:0 348:0 349:0.61000001 350:0.61000001 351:0 352:0 353:0.61000001 354:0 355:1.52 356:0 357:0.30000001 358:0.61000001 359:0 360:0.30000001 361:0.30000001 362:0 363:0 364:0.30000001 365:0 366:0 367:0 368:0 369:0 370:0 371:0 372:0 373:0 374:0 375:0 376:0 377:0 378:0 379:0 380:0 381:0.30000001 382:0 383:0.30000001 384:0 385:0 386:0.61000001 387:0.30000001 388:0.30000001 389:0.30000001 390:0 391:0 392:0 393:0 394:0.30000001 395:0.61000001 396:0.30000001 397:0 398:0.61000001 399:0.30000001 400:0.30000001 #
12.654605829407321593294000194874 1:0 2:0.28 3:0 4:0.28 5:0 6:0 7:0 8:0 9:0 10:0.83999997 11:0 12:0 13:0 14:0.28 15:0.56 16:0.56 17:0.28 18:0.28 19:0 20:0.28 21:0 22:0 23:0 24:0.56 25:0 26:0 27:0 28:0 29:0 30:0 31:0 32:0 33:0 34:0 35:0 36:0 37:0 38:0 39:0 40:0 41:0 42:0 43:0.56 44:1.11 45:0.56 46:0.83999997 47:0 48:0.56 49:0.56 50:0.56 51:0 52:0 53:0.56 54:0.56 55:0.28 56:0.83999997 57:0 58:0 59:0 60:0 61:0 62:0 63:0.28 64:1.67 65:0.28 66:1.11 67:0.28 68:1.67 69:0.56 70:1.67 71:0.83999997 72:0.28 73:0.28 74:0.83999997 75:0.56 76:0.83999997 77:0.83999997 78:0.28 79:0 80:0 81:0.28 82:0 83:0.56 84:0 85:0.28 86:0.28 87:0.28 88:0 89:0 90:0.83999997 91:0 92:0 93:0 94:0.28 95:0.56 96:0.28 97:0 98:0.28 99:0 100:0 101:0.28 102:0 103:1.39 104:0.28 105:0 106:0.28 107:0 108:0.83999997 109:0 110:0 111:0 112:0 113:0.28 114:0.56 115:0.83999997 116:0.28 117:0.28 118:0.28 119:0 120:0 121:0.28 122:0 123:0.28 124:0 125:0.28 126:0 127:0 128:0 129:0 130:0 131:0 132:0.28 133:0.28 134:0.56 135:0 136:0 137:0 138:0 139:0 140:0 141:0.28 142:0 143:0.28 144:0.56 145:0.56 146:0.28 147:0.28 148:0 149:0 150:0.83999997 151:0.28 152:0 153:0 154:0 155:0.28 156:0.56 157:0.28 158:0 159:0 160:0.56 161:0 162:0 163:0.28 164:0.83999997 165:0.56 166:0 167:0 168:0.56 169:1.39 170:0.83999997 171:0 172:0 173:0.28 174:0.56 175:1.11 176:0.56 177:0 178:0.28 179:0 180:0 181:0.56 182:0 183:1.11 184:1.11 185:0.56 186:0.56 187:0.28 188:0 189:1.39 190:1.11 191:0 192:0 193:0 194:0.83999997 195:1.11 196:0.56 197:0.83999997 198:0 199:0 200:0.28 201:0.28 202:0 203:0 204:0.28 205:0 206:0.56 207:0 208:0 209:0.56 210:0.28 211:0 212:0 213:0 214:0 215:0.56 216:0 217:0.28 218:0.28 219:0 220:0 221:0 222:0 223:0 224:0.83999997 225:0.28 226:0 227:0 228:0 229:0 230:0.28 231:0 232:0.28 233:0 234:0 235:0.28 236:0.28 237:0.28 238:0 239:0 240:0 241:0 242:0 243:0.28 244:1.67 245:0 246:0 247:0 248:0.28 249:0.83999997 250:0.28 251:0 252:0.28 253:0 254:0 255:0 256:0.28 257:0.28 258:0.28 259:0 260:0 261:0.28 262:0.28 263:0.28 264:0 265:0 266:0 267:0.28 268:0.56 269:0.28 270:0.83999997 271:0.83999997 272:0 273:0.28 274:0.28 275:0.28 276:0.56 277:0.28 278:0.28 279:0.28 280:0.28 281:0.83999997 282:0 283:0.56 284:0.56 285:0 286:0.83999997 287:0.56 288:0.28 289:0.56 290:0.56 291:0.83999997 292:0.56 293:0 294:0.83999997 295:0.28 296:1.11 297:0.28 298:0.28 299:0 300:0 301:0.28 302:0 303:0.56 304:0.56 305:0.28 306:0.28 307:0 308:0 309:0.28 310:0.83999997 311:0 312:0 313:2.23 314:0 315:0.83999997 316:1.11 317:0.28 318:0.28 319:0 320:0.28 321:0.28 322:0 323:0.56 324:0.83999997 325:0.28 326:0.28 327:0 328:0 329:0.28 330:0.28 331:0 332:0.28 333:0.28 334:0 335:0.56 336:0.28 337:0 338:0.28 339:0 340:0 341:0 342:0 343:0 344:0.56 345:0 346:0 347:0 348:0.28 349:0.28 350:0 351:0 352:0.28 353:0 354:0.28 355:1.11 356:0 357:0.28 358:0 359:0 360:0 361:0 362:0 363:0 364:0 365:0 366:0 367:0 368:0 369:0 370:0.28 371:0 372:0 373:0 374:0 375:0 376:0 377:0 378:0 379:0 380:0 381:0 382:0 383:0 384:0.56 385:0 386:0.28 387:0 388:0 389:0.28 390:0 391:0 392:0.28 393:0 394:0.28 395:0 396:0 397:0 398:0 399:0 400:0 #
