SVM-light Version V6.02
1 # kernel type
2 # kernel parameter -d 
1 # kernel parameter -g 
1 # kernel parameter -s 
1 # kernel parameter -r 
empty# kernel parameter -u 
400 # highest feature index 
2225 # number of training documents 
910 # number of support vectors plus 1 
0.2315243 # threshold b, each following line is a SV (starting with alpha*y)
-0.0001394723346495940015290354585531 1:1.72 2:0 3:0.19 4:1.15 5:0.56999999 6:0.95999998 7:0.19 8:0.95999998 9:0.38 10:0.56999999 11:0 12:0.19 13:0.95999998 14:0.19 15:0.38 16:0.56999999 17:0.38 18:0.56999999 19:0 20:0 21:0 22:0 23:0 24:0 25:0 26:0 27:0 28:0 29:0 30:0 31:0 32:0 33:0 34:0 35:0 36:0 37:0 38:0 39:0 40:0 41:0.19 42:0 43:0.38 44:0.56999999 45:0.19 46:0 47:0 48:0.56999999 49:0.56999999 50:1.34 51:0.38 52:0 53:0.19 54:0.38 55:0.19 56:0 57:0 58:0.76999998 59:0 60:0.19 61:0.76999998 62:0 63:0.56999999 64:1.15 65:0.19 66:0.95999998 67:0 68:1.15 69:0.56999999 70:1.53 71:0.56999999 72:0.19 73:0.19 74:0 75:0.76999998 76:0.56999999 77:0.95999998 78:0.38 79:0 80:0.38 81:0.19 82:0 83:0 84:0.38 85:0 86:0.19 87:0.19 88:0.38 89:0 90:0.56999999 91:0 92:0 93:0.19 94:0 95:0.19 96:0.19 97:0.38 98:0 99:0 100:0 101:0.95999998 102:0 103:0 104:0.38 105:0 106:0.38 107:0.38 108:0.19 109:0.76999998 110:0.19 111:0.19 112:0 113:0.38 114:0.38 115:0.56999999 116:0 117:0.56999999 118:0.76999998 119:0 120:0.19 121:0.19 122:0 123:0 124:0 125:0 126:0.56999999 127:0 128:0 129:0 130:0 131:0 132:0 133:0 134:0 135:0 136:0 137:0.19 138:0.19 139:0 140:0 141:1.34 142:0 143:0.56999999 144:0.19 145:0.19 146:0.38 147:0 148:0.56999999 149:0.19 150:0.95999998 151:0.56999999 152:0.19 153:0.19 154:0 155:0.38 156:0.38 157:0 158:0.76999998 159:0 160:0.19 161:0.38 162:0 163:0.19 164:0 165:0.19 166:0.19 167:0.19 168:0.19 169:0.19 170:1.15 171:0.19 172:0.38 173:0.19 174:0.38 175:0.38 176:0.38 177:0.19 178:0.56999999 179:0 180:0.19 181:0.95999998 182:0 183:1.34 184:0.56999999 185:0.19 186:0 187:0.19 188:0.56999999 189:0.56999999 190:0.76999998 191:0 192:0.19 193:1.15 194:0.38 195:0.38 196:0.19 197:0.95999998 198:0.76999998 199:0 200:0 201:0.56999999 202:0 203:0.38 204:0.19 205:0 206:0 207:0 208:0.19 209:0.19 210:0 211:0 212:0 213:0.19 214:0 215:0.19 216:0 217:0 218:0.95999998 219:0 220:0 221:0.19 222:0 223:0 224:0.19 225:0 226:0.19 227:0 228:0.38 229:0 230:0.19 231:0 232:0 233:0 234:0.38 235:0.19 236:0.19 237:0.19 238:0 239:0 240:0 241:0.76999998 242:0 243:0.76999998 244:0.56999999 245:0.19 246:0.38 247:0 248:0.56999999 249:0.38 250:0.19 251:0 252:0 253:0.76999998 254:0 255:0.19 256:0.56999999 257:0.19 258:0.19 259:0 260:0 261:0 262:0 263:0.19 264:0.56999999 265:0.38 266:0.38 267:0 268:0 269:0.38 270:0 271:0.19 272:0 273:0 274:0.38 275:0.56999999 276:0.38 277:0.19 278:0.19 279:0 280:0 281:0.38 282:0 283:0.56999999 284:1.53 285:0.19 286:0.19 287:0 288:0.19 289:0.19 290:0.76999998 291:0.38 292:0.19 293:0 294:0.38 295:0.56999999 296:0 297:0.56999999 298:0.38 299:0 300:0.38 301:0.19 302:0 303:0.19 304:0.19 305:0.38 306:0.19 307:0 308:0.38 309:0.38 310:0.38 311:0.19 312:0.19 313:0.19 314:0.19 315:0.56999999 316:0.19 317:0.19 318:0.19 319:0 320:0 321:0.38 322:0 323:0.19 324:1.15 325:0 326:0.19 327:0 328:0.19 329:0.19 330:0 331:0 332:0.19 333:1.15 334:0.38 335:0.56999999 336:0.19 337:0.38 338:0.38 339:0 340:0 341:0.76999998 342:0 343:0.38 344:2.1099999 345:0.19 346:0.95999998 347:0 348:0.19 349:0.56999999 350:0.38 351:0 352:0.38 353:0 354:0.38 355:0.76999998 356:0.38 357:0.19 358:0.56999999 359:0 360:0 361:0 362:0 363:0 364:0 365:0 366:0 367:0 368:0 369:0 370:0 371:0 372:0 373:0 374:0 375:0 376:0 377:0 378:0 379:0 380:0 381:0 382:0 383:0 384:0 385:0 386:0.19 387:0 388:0.38 389:0 390:0.38 391:0 392:0 393:0 394:0 395:0 396:0 397:0 398:0.56999999 399:0 400:0 #
-0.0001394723346495940015290354585531 1:0.58999997 2:0.12 3:0.23999999 4:0.58999997 5:0.12 6:0.58999997 7:0.12 8:1.1900001 9:0.70999998 10:1.1900001 11:0.12 12:0.47999999 13:0.36000001 14:0.23999999 15:0.82999998 16:0.58999997 17:0.58999997 18:0.70999998 19:0.12 20:0.12 21:0 22:0 23:0 24:0 25:0 26:0 27:0 28:0.12 29:0 30:0 31:0 32:0.12 33:0 34:0 35:0.12 36:0 37:0 38:0.12 39:0 40:0.12 41:1.4299999 42:0 43:0.36000001 44:0.82999998 45:0.23999999 46:0.36000001 47:0.23999999 48:0.12 49:0.12 50:0.23999999 51:0.23999999 52:0.12 53:0.23999999 54:0.23999999 55:0.23999999 56:0.23999999 57:0.23999999 58:0.36000001 59:0 60:0 61:0.70999998 62:0 63:0.82999998 64:0.82999998 65:0.12 66:0.36000001 67:0.12 68:0.58999997 69:0.82999998 70:0.58999997 71:0.36000001 72:0.12 73:0.23999999 74:0.36000001 75:0.58999997 76:0.58999997 77:0.23999999 78:0.70999998 79:0 80:0.70999998 81:0.23999999 82:0 83:0.36000001 84:0.36000001 85:0.23999999 86:0.23999999 87:0 88:0.23999999 89:0 90:0.12 91:0 92:0.12 93:0 94:0.23999999 95:0.23999999 96:0.36000001 97:0.12 98:0 99:0 100:0 101:1.54 102:0.12 103:0.36000001 104:0.23999999 105:0.36000001 106:0.47999999 107:0 108:0.23999999 109:1.1900001 110:0.47999999 111:0 112:0.12 113:0.12 114:0.12 115:0.23999999 116:0.47999999 117:0.47999999 118:0.58999997 119:0 120:0.36000001 121:0.12 122:0 123:0 124:0.23999999 125:0 126:0.23999999 127:0.23999999 128:0 129:0.12 130:0.23999999 131:0 132:0.12 133:0.23999999 134:0.12 135:0 136:0.23999999 137:0.23999999 138:0.12 139:0 140:0 141:0.36000001 142:0 143:0.70999998 144:0.58999997 145:0.47999999 146:0.70999998 147:0.36000001 148:0 149:0.36000001 150:0.36000001 151:0.36000001 152:0 153:0.23999999 154:0.36000001 155:0.23999999 156:0.23999999 157:0.23999999 158:0.23999999 159:0 160:0 161:0.82999998 162:0 163:0.23999999 164:0.47999999 165:0.12 166:0.47999999 167:0 168:0.36000001 169:0.58999997 170:0.47999999 171:0.12 172:0.23999999 173:0.82999998 174:0.36000001 175:0.47999999 176:0.23999999 177:0.70999998 178:0.36000001 179:0 180:0 181:1.0700001 182:0.12 183:0.47999999 184:0.70999998 185:0.36000001 186:0.23999999 187:0.23999999 188:0.47999999 189:0.58999997 190:1.1900001 191:0 192:0.23999999 193:0.36000001 194:0.23999999 195:0.58999997 196:0.70999998 197:0.47999999 198:0.36000001 199:0 200:0.12 201:0.23999999 202:0 203:0.23999999 204:0.12 205:0 206:0.36000001 207:0 208:0 209:0.12 210:0.12 211:0 212:0.12 213:0 214:0.12 215:0 216:0.12 217:0.23999999 218:0.12 219:0 220:0 221:0.12 222:0 223:0.12 224:0.58999997 225:0 226:0.23999999 227:0 228:0.23999999 229:0.23999999 230:0.47999999 231:0 232:0.12 233:0.12 234:0 235:0.36000001 236:0 237:0 238:0.58999997 239:0 240:0.12 241:0.36000001 242:0 243:0.23999999 244:0.36000001 245:0.12 246:0.47999999 247:0.12 248:0.12 249:0.36000001 250:0.58999997 251:0 252:0.12 253:0.23999999 254:0 255:0.36000001 256:0.36000001 257:0.58999997 258:0 259:0 260:0.12 261:0.12 262:0 263:0.23999999 264:0.70999998 265:0.12 266:0.12 267:0.12 268:0 269:0.23999999 270:0.36000001 271:0.12 272:0 273:0 274:0.12 275:0.23999999 276:0.12 277:0.12 278:0.36000001 279:0 280:0 281:0.36000001 282:0.12 283:0 284:0.36000001 285:0.23999999 286:0.36000001 287:0.36000001 288:0.36000001 289:0.58999997 290:0.47999999 291:0 292:0.36000001 293:0.36000001 294:0.12 295:0.47999999 296:0.47999999 297:0.36000001 298:0.36000001 299:0 300:0.47999999 301:0.36000001 302:0 303:0.23999999 304:0.94999999 305:0 306:0.70999998 307:0.23999999 308:0.12 309:0.58999997 310:0.47999999 311:0 312:0.23999999 313:0.36000001 314:0.12 315:0.36000001 316:0.36000001 317:0.36000001 318:0.36000001 319:0 320:0 321:0.58999997 322:0 323:0.23999999 324:0.36000001 325:0.23999999 326:0.70999998 327:0 328:0.47999999 329:0 330:0.36000001 331:0.12 332:0.23999999 333:0.23999999 334:0 335:0.47999999 336:0.47999999 337:0.47999999 338:0.94999999 339:0 340:0.23999999 341:0.36000001 342:0 343:0.58999997 344:0.58999997 345:0 346:0.70999998 347:0 348:0.82999998 349:0.23999999 350:0.70999998 351:0.23999999 352:0.47999999 353:0.47999999 354:0.36000001 355:0.12 356:0.23999999 357:0.58999997 358:0.94999999 359:0 360:0.12 361:0 362:0 363:0 364:0 365:0 366:0 367:0 368:0 369:0 370:0.12 371:0 372:0 373:0 374:0 375:0 376:0 377:0 378:0 379:0 380:0 381:0.23999999 382:0.12 383:0.36000001 384:0 385:0.12 386:0.12 387:0.12 388:0.36000001 389:0.12 390:0 391:0.12 392:0 393:0.12 394:0 395:0.23999999 396:0 397:0.12 398:0.36000001 399:0 400:0 #
-0.0001394723346495940015290354585531 1:1.33 2:0.12 3:0.47999999 4:0.61000001 5:0 6:1.21 7:0.36000001 8:0.61000001 9:0.47999999 10:1.33 11:0.12 12:0 13:0.36000001 14:0 15:0.36000001 16:0.36000001 17:0.36000001 18:0.36000001 19:0 20:0 21:0 22:0 23:0 24:0 25:0 26:0 27:0 28:0 29:0 30:0.12 31:0 32:0 33:0 34:0 35:0.12 36:0.12 37:0.12 38:0.12 39:0 40:0 41:0.47999999 42:0 43:0 44:0.73000002 45:0.23999999 46:0.36000001 47:0.12 48:0.61000001 49:0.36000001 50:0.61000001 51:0.23999999 52:0.36000001 53:0.12 54:0.12 55:0.47999999 56:0.12 57:0.12 58:0.23999999 59:0.12 60:0.36000001 61:0.61000001 62:0.12 63:0.23999999 64:0.47999999 65:0.23999999 66:0.61000001 67:0.12 68:1.21 69:1.09 70:0.85000002 71:0 72:0 73:0.36000001 74:0.23999999 75:0.61000001 76:0.61000001 77:0.36000001 78:0.61000001 79:0.36000001 80:0.36000001 81:0.12 82:0 83:0.23999999 84:0.36000001 85:0.12 86:0 87:0 88:0.12 89:0.12 90:0.47999999 91:0 92:0.12 93:0.12 94:0 95:0.12 96:0.36000001 97:0.47999999 98:0.12 99:0 100:0 101:0.73000002 102:0 103:0.36000001 104:0.61000001 105:0.23999999 106:0.12 107:0 108:0.23999999 109:1.21 110:0.47999999 111:0.36000001 112:0.85000002 113:0.12 114:0.36000001 115:0.12 116:0.47999999 117:0.61000001 118:0.97000003 119:0 120:0.23999999 121:0.12 122:0 123:0.23999999 124:0.12 125:0 126:0.23999999 127:0 128:0.12 129:0.12 130:0.12 131:0 132:0 133:0 134:0 135:0 136:0.23999999 137:0.12 138:0 139:0 140:0 141:0.36000001 142:0 143:0.73000002 144:0.97000003 145:0.23999999 146:0.61000001 147:0.23999999 148:0.36000001 149:0.36000001 150:0.73000002 151:0.23999999 152:0.61000001 153:0.12 154:0.23999999 155:0.73000002 156:0.36000001 157:0.36000001 158:0.61000001 159:0 160:0.12 161:0.61000001 162:0 163:0.36000001 164:0.85000002 165:0 166:0.73000002 167:0 168:0.36000001 169:0.23999999 170:0.47999999 171:0.23999999 172:0.36000001 173:0.36000001 174:0.23999999 175:0.12 176:0.23999999 177:0.36000001 178:0.36000001 179:0.12 180:0.23999999 181:1.5700001 182:0.12 183:0.36000001 184:0.36000001 185:0.85000002 186:0.85000002 187:0.12 188:0.61000001 189:0.61000001 190:1.21 191:0.23999999 192:0.36000001 193:0.36000001 194:0.23999999 195:0.73000002 196:0.73000002 197:0.23999999 198:0.47999999 199:0.12 200:0 201:0 202:0 203:0.36000001 204:0.36000001 205:0 206:0.36000001 207:0.12 208:0.47999999 209:0.23999999 210:0.23999999 211:0.23999999 212:0.12 213:0.12 214:0 215:0 216:0.12 217:0.12 218:0 219:0 220:0 221:0.36000001 222:0 223:0.12 224:0.61000001 225:0.12 226:0.12 227:0 228:0.23999999 229:0.12 230:0.23999999 231:0.36000001 232:0 233:0.23999999 234:0.12 235:0.36000001 236:0.23999999 237:0.12 238:0.47999999 239:0 240:0.12 241:0.12 242:0 243:0.47999999 244:0.73000002 245:0.12 246:0.36000001 247:0 248:0.85000002 249:0.36000001 250:0.23999999 251:0 252:0.12 253:0.12 254:0.12 255:0 256:0.12 257:0.12 258:0 259:0 260:0.12 261:0.23999999 262:0 263:0.12 264:0 265:0 266:0 267:0.12 268:0.23999999 269:0 270:0.23999999 271:0 272:0.12 273:0.36000001 274:0 275:0 276:0.23999999 277:0.12 278:0.23999999 279:0 280:0.12 281:0 282:0 283:0.12 284:0.73000002 285:0.23999999 286:0.12 287:0 288:0.61000001 289:0.12 290:0.85000002 291:0.23999999 292:0.12 293:0.23999999 294:0.23999999 295:0.73000002 296:0.36000001 297:0.23999999 298:0.12 299:0 300:0.23999999 301:0.36000001 302:0 303:0.23999999 304:0.61000001 305:0.36000001 306:0.73000002 307:0.12 308:0.36000001 309:0.36000001 310:0.23999999 311:0 312:0.23999999 313:0.23999999 314:0 315:0.12 316:0.47999999 317:0.61000001 318:0.36000001 319:0 320:0.36000001 321:0.36000001 322:0 323:0.61000001 324:0.36000001 325:0 326:0.47999999 327:0 328:0.23999999 329:0.12 330:0.47999999 331:0.23999999 332:0 333:0.23999999 334:0.12 335:0.23999999 336:0.36000001 337:0.23999999 338:0.73000002 339:0 340:0.12 341:0.73000002 342:0.12 343:0.61000001 344:0.23999999 345:0 346:0.73000002 347:0 348:0.47999999 349:0.36000001 350:0.85000002 351:0.12 352:0.47999999 353:0.23999999 354:0.12 355:0.36000001 356:0.23999999 357:0.12 358:0.47999999 359:0 360:0.23999999 361:0.12 362:0 363:0 364:0 365:0 366:0.12 367:0 368:0 369:0 370:0.12 371:0.12 372:0.12 373:0 374:0 375:0 376:0 377:0.12 378:0 379:0 380:0 381:0.23999999 382:0.12 383:0.12 384:0.36000001 385:0.12 386:0.36000001 387:0.12 388:0.23999999 389:0.12 390:0.23999999 391:0 392:0 393:0.23999999 394:0 395:0.12 396:0 397:0 398:0.23999999 399:0 400:0 #
-0.0001394723346495940015290354585531 1:0.85000002 2:0 3:1.0599999 4:0 5:0.20999999 6:0.20999999 7:0.20999999 8:0.63999999 9:0.41999999 10:0.41999999 11:0 12:0 13:0 14:1.27 15:1.0599999 16:0.20999999 17:0.41999999 18:1.0599999 19:0 20:0.20999999 21:0 22:0 23:0.20999999 24:0.20999999 25:0 26:0.41999999 27:0 28:0.20999999 29:0 30:0 31:0 32:0 33:0 34:0 35:0 36:0 37:0.20999999 38:0.20999999 39:0 40:0 41:0.63999999 42:0 43:0.85000002 44:0.63999999 45:0.20999999 46:0.41999999 47:0.20999999 48:0.85000002 49:0.41999999 50:0.41999999 51:0 52:0.20999999 53:0 54:0 55:0 56:0.20999999 57:0.41999999 58:0.63999999 59:0 60:0 61:0.63999999 62:0.20999999 63:0.41999999 64:0.63999999 65:0.20999999 66:1.27 67:0 68:0.20999999 69:0.20999999 70:0.63999999 71:0.41999999 72:0.41999999 73:0.20999999 74:0 75:0.41999999 76:0.85000002 77:0.63999999 78:0.41999999 79:0 80:0 81:0.20999999 82:0.20999999 83:0 84:0.20999999 85:0 86:0.41999999 87:0 88:0.41999999 89:0 90:0 91:0 92:0 93:0 94:0 95:0.20999999 96:0.20999999 97:0.41999999 98:0.41999999 99:0 100:0 101:1.27 102:0 103:0.41999999 104:0.41999999 105:0.20999999 106:0.20999999 107:0.20999999 108:0.41999999 109:0.63999999 110:0.63999999 111:0 112:0 113:0.20999999 114:0.20999999 115:0.85000002 116:0.41999999 117:0.85000002 118:1.0599999 119:0 120:0.20999999 121:0 122:0 123:0.41999999 124:0.20999999 125:0 126:0.20999999 127:0 128:0 129:0 130:0 131:0 132:0 133:0 134:0 135:0.20999999 136:0 137:0 138:0.41999999 139:0 140:0.20999999 141:0.63999999 142:0.63999999 143:0.63999999 144:0.41999999 145:0.20999999 146:0.63999999 147:0 148:0.41999999 149:0 150:1.0599999 151:0 152:0 153:0.41999999 154:0.20999999 155:0.41999999 156:0.41999999 157:0.20999999 158:0.63999999 159:0 160:0 161:0 162:0 163:0.20999999 164:0.20999999 165:0 166:0 167:0.20999999 168:0.63999999 169:0.20999999 170:0.63999999 171:0 172:0 173:0.20999999 174:0.20999999 175:0.85000002 176:0.63999999 177:0.63999999 178:0.20999999 179:0 180:0 181:1.27 182:0.20999999 183:0.20999999 184:0.63999999 185:0.41999999 186:0.41999999 187:0 188:0.20999999 189:0.41999999 190:1.27 191:0 192:0.20999999 193:1.0599999 194:0.41999999 195:0.85000002 196:0.20999999 197:0.63999999 198:0.63999999 199:0 200:0 201:0 202:0 203:0 204:0.63999999 205:0.20999999 206:0.20999999 207:0.20999999 208:0 209:0 210:0 211:0 212:0.20999999 213:0 214:0 215:0.20999999 216:0.20999999 217:0 218:0 219:0 220:0 221:0.41999999 222:0 223:0.41999999 224:0 225:0 226:0 227:0.41999999 228:0.41999999 229:0 230:0 231:0.20999999 232:0 233:0 234:0 235:0 236:0 237:0.20999999 238:0.20999999 239:0 240:0 241:0.20999999 242:0 243:0 244:0.41999999 245:0.20999999 246:0.20999999 247:0 248:0 249:0.63999999 250:0.20999999 251:0 252:0 253:0 254:0 255:0.41999999 256:0.20999999 257:0.20999999 258:0.41999999 259:0 260:0 261:0.41999999 262:0 263:0 264:0.20999999 265:0 266:0.20999999 267:0 268:0.85000002 269:0.41999999 270:0.41999999 271:0 272:0 273:0 274:0.41999999 275:0.41999999 276:0 277:0.20999999 278:0.63999999 279:0 280:0.20999999 281:0.20999999 282:0.20999999 283:0.63999999 284:1.0599999 285:0 286:0.85000002 287:0 288:0.41999999 289:0.63999999 290:1.27 291:0.41999999 292:0 293:0 294:0.41999999 295:0.20999999 296:0.20999999 297:0 298:0.41999999 299:0.20999999 300:0 301:0.63999999 302:0 303:0 304:0.41999999 305:0.20999999 306:1.0599999 307:0 308:0.63999999 309:0.20999999 310:0.20999999 311:0.20999999 312:0.20999999 313:0 314:0.20999999 315:0.20999999 316:0.20999999 317:0.20999999 318:0.63999999 319:0 320:0.20999999 321:0 322:0 323:0 324:0.63999999 325:0.41999999 326:0.85000002 327:0 328:0 329:0.20999999 330:1.0599999 331:0.20999999 332:0.20999999 333:0.20999999 334:0.20999999 335:0.63999999 336:0.41999999 337:0.20999999 338:0.63999999 339:0 340:0.20999999 341:1.0599999 342:0 343:0.63999999 344:0.85000002 345:0.20999999 346:0.63999999 347:0 348:0.41999999 349:0.20999999 350:0.41999999 351:0.20999999 352:0.20999999 353:0.85000002 354:0.63999999 355:0.20999999 356:1.0599999 357:0.63999999 358:0.85000002 359:0.20999999 360:0.41999999 361:0 362:0 363:0 364:0 365:0 366:0 367:0.20999999 368:0 369:0 370:0 371:0 372:0.20999999 373:0 374:0 375:0 376:0 377:0 378:0 379:0 380:0 381:0 382:0 383:0 384:0 385:0 386:0 387:0 388:0.20999999 389:0.20999999 390:0.41999999 391:0 392:0.41999999 393:0 394:0.20999999 395:0 396:0 397:0 398:0.20999999 399:0 400:0 #
-0.0001394723346495940015290354585531 1:2.5799999 2:0 3:0 4:1.9400001 5:0 6:0.64999998 7:0 8:0 9:0.64999998 10:0 11:0 12:0 13:0 14:0.64999998 15:0.64999998 16:0.64999998 17:0 18:0 19:0 20:0 21:0 22:0 23:0 24:0 25:0 26:0 27:0 28:0 29:0 30:0 31:0 32:0 33:0 34:0 35:0 36:0 37:0 38:0 39:0 40:0 41:0.64999998 42:0 43:0.64999998 44:0.64999998 45:0 46:0.64999998 47:0 48:1.29 49:0.64999998 50:2.5799999 51:0 52:0.64999998 53:0.64999998 54:0 55:0.64999998 56:0 57:0.64999998 58:1.29 59:0 60:0 61:0.64999998 62:0 63:0.64999998 64:0 65:1.29 66:1.29 67:0 68:0 69:1.29 70:1.29 71:0 72:0 73:1.9400001 74:0 75:1.9400001 76:0.64999998 77:0 78:0 79:0 80:0 81:0 82:0 83:0.64999998 84:1.29 85:0 86:0 87:0 88:0 89:0 90:0.64999998 91:0 92:0 93:0 94:0 95:1.9400001 96:0 97:0.64999998 98:0 99:0 100:0 101:0.64999998 102:0 103:1.9400001 104:1.9400001 105:0.64999998 106:0.64999998 107:0 108:0.64999998 109:0 110:0 111:0 112:0.64999998 113:0.64999998 114:0 115:0 116:0 117:0 118:0.64999998 119:0 120:0 121:0 122:0 123:0.64999998 124:0 125:0 126:0 127:0 128:0 129:0 130:0 131:0.64999998 132:0 133:0 134:0 135:0 136:0 137:0 138:0 139:0 140:0 141:0 142:0 143:0 144:0.64999998 145:0 146:0 147:0 148:0.64999998 149:0 150:1.29 151:0 152:0.64999998 153:0 154:0.64999998 155:0 156:0.64999998 157:0 158:1.9400001 159:0 160:0 161:0.64999998 162:0 163:1.29 164:0 165:0 166:0.64999998 167:0 168:1.29 169:0 170:0 171:0 172:0 173:0 174:0 175:0 176:0 177:0 178:0 179:0 180:0 181:0.64999998 182:0 183:1.9400001 184:0 185:0.64999998 186:1.29 187:0.64999998 188:0 189:0 190:1.29 191:0.64999998 192:0.64999998 193:0.64999998 194:0 195:0.64999998 196:0 197:1.29 198:0 199:0 200:0 201:0 202:0 203:0 204:0.64999998 205:0 206:1.29 207:0 208:0 209:0 210:0 211:0 212:0 213:0 214:0 215:0 216:0 217:0 218:0 219:0 220:0 221:0 222:0 223:0.64999998 224:0.64999998 225:0 226:0.64999998 227:0 228:0 229:0 230:0 231:0 232:0 233:0 234:0 235:0.64999998 236:0 237:0 238:0 239:0 240:0 241:1.29 242:0 243:0 244:1.29 245:0.64999998 246:0.64999998 247:0 248:0 249:0 250:1.29 251:0 252:0 253:0 254:0.64999998 255:0 256:0 257:0 258:0 259:0 260:0 261:0 262:0 263:0 264:0 265:0.64999998 266:0 267:0 268:0.64999998 269:0 270:0.64999998 271:0 272:0 273:0 274:1.29 275:0.64999998 276:0 277:0 278:0.64999998 279:0 280:0 281:0.64999998 282:0 283:0.64999998 284:0 285:0 286:0.64999998 287:0.64999998 288:0 289:0 290:1.29 291:0 292:0 293:1.29 294:1.29 295:0.64999998 296:0 297:0 298:1.29 299:0 300:0 301:0 302:0 303:0 304:1.29 305:0 306:0 307:0 308:0 309:0.64999998 310:0 311:0 312:0 313:0 314:0 315:0 316:0 317:0 318:0 319:0 320:0 321:0 322:0 323:0.64999998 324:0.64999998 325:0.64999998 326:0 327:0 328:0.64999998 329:0.64999998 330:0 331:0 332:0 333:0 334:0 335:0 336:0 337:0 338:0 339:0 340:0 341:0 342:0 343:1.29 344:0.64999998 345:0.64999998 346:0 347:0 348:1.29 349:0 350:0 351:0 352:0 353:0.64999998 354:0 355:0.64999998 356:0 357:0.64999998 358:0.64999998 359:0 360:0 361:0 362:0 363:0 364:0 365:0 366:0 367:0 368:0 369:0 370:0 371:0 372:0 373:0 374:0 375:0 376:0 377:0 378:0 379:0 380:0 381:0 382:0 383:0 384:0 385:0 386:0 387:0 388:0 389:0 390:0 391:0 392:0 393:0 394:0 395:0 396:0 397:0 398:0 399:0 400:0 #
3.6791259362280988125509101349664e-05 1:0.56 2:0 3:0.38 4:0.38 5:0 6:0.38 7:0.19 8:0.38 9:0.56 10:0.56 11:0 12:0 13:0 14:0.94 15:0.56 16:0.19 17:0.19 18:0.56 19:0 20:0 21:0 22:0 23:0 24:0 25:0 26:0 27:0 28:0 29:0 30:0 31:0 32:0 33:0 34:0.19 35:0 36:0.19 37:0 38:0.19 39:0 40:0 41:0.19 42:0 43:0.56 44:0.19 45:0.56 46:0.56 47:0.19 48:0.56 49:0.19 50:0.75 51:0 52:0.38 53:0.19 54:0.38 55:1.3200001 56:0.75 57:0.38 58:0.38 59:0 60:0 61:0.19 62:0 63:0.19 64:0.38 65:0 66:0 67:0.19 68:0.19 69:0 70:0.94 71:0 72:0.19 73:0.38 74:0.94 75:0.19 76:0.38 77:0.38 78:0.75 79:0 80:0 81:0.19 82:0 83:1.13 84:0.56 85:0.56 86:0.38 87:0 88:0.19 89:0.19 90:0.56 91:0 92:0.19 93:0 94:0 95:0.19 96:0 97:0 98:0 99:0.19 100:0 101:0.38 102:0 103:0.38 104:0.19 105:0.38 106:0.75 107:0 108:0.19 109:0.19 110:0.75 111:0 112:0.19 113:0 114:0.75 115:0.19 116:0.56 117:0.94 118:0.19 119:0 120:0.38 121:0 122:0 123:0 124:0 125:0.19 126:0 127:0 128:0 129:0 130:0 131:0 132:0 133:0.38 134:0.19 135:0 136:0.38 137:0 138:0 139:0.19 140:0 141:0.38 142:0.19 143:0.56 144:0.38 145:0 146:0.19 147:0 148:0.38 149:0.38 150:0.75 151:0 152:0.38 153:0.56 154:0.56 155:0 156:0.19 157:0 158:0 159:0 160:0 161:0.75 162:0 163:0.19 164:0.38 165:0 166:0 167:0 168:0.19 169:0 170:0.19 171:0 172:0.38 173:0 174:0.19 175:0.19 176:0 177:0.38 178:0.75 179:0.19 180:0 181:0.94 182:0 183:0.75 184:0.38 185:0.19 186:1.3200001 187:0 188:0.38 189:0.75 190:0.94 191:0 192:0.19 193:0.56 194:1.3200001 195:0.19 196:0.94 197:0.94 198:1.3200001 199:0 200:0.38 201:0 202:0 203:0 204:0.19 205:0 206:0 207:0 208:0.19 209:0 210:0 211:0 212:0 213:0 214:0 215:0 216:0.19 217:0.19 218:0 219:0 220:0 221:0 222:0 223:0.38 224:0.19 225:0 226:0 227:0 228:0 229:0.19 230:0.75 231:0 232:0 233:0.38 234:0.19 235:0.19 236:0.19 237:0.56 238:0 239:0.19 240:0 241:0.38 242:0 243:0.38 244:0.19 245:0.19 246:0.38 247:0 248:0.38 249:0.19 250:0.56 251:0.19 252:0 253:0.19 254:0.19 255:0.19 256:0.56 257:0.19 258:0.38 259:0 260:0.19 261:0.56 262:0 263:0.56 264:0 265:0.56 266:0.75 267:0 268:0.56 269:0.19 270:0.75 271:0 272:0.75 273:0.75 274:1.13 275:0.19 276:0.38 277:1.13 278:1.51 279:0 280:0.19 281:0 282:0 283:0.38 284:0.19 285:0.19 286:0.38 287:0.19 288:0.56 289:0.19 290:0.75 291:0.19 292:0 293:0.38 294:0.56 295:0.56 296:0.19 297:0.19 298:0.19 299:0.38 300:0.19 301:0.19 302:0 303:0.19 304:0.38 305:0.38 306:0.19 307:0 308:0.19 309:0.38 310:0.94 311:0.19 312:0.19 313:0 314:0.56 315:0.56 316:0.19 317:0.19 318:0.19 319:0.19 320:0.75 321:0.38 322:0 323:0.38 324:0.56 325:0.38 326:0 327:0.19 328:0.38 329:0 330:0.75 331:0 332:0.19 333:0.38 334:0.75 335:0.38 336:0.75 337:0.38 338:0.38 339:0.19 340:0.19 341:0.56 342:0.38 343:0.94 344:0.56 345:0.19 346:0.56 347:0 348:0.19 349:0.38 350:1.13 351:0 352:0 353:0.19 354:0.94 355:0.56 356:0 357:0.56 358:0.38 359:0 360:0.19 361:0 362:0 363:0.19 364:0 365:0.19 366:0.19 367:0.19 368:0 369:0 370:0.38 371:0 372:0.19 373:0 374:0 375:0 376:0 377:0 378:0.38 379:0 380:0 381:0.19 382:0 383:0 384:0.19 385:0.38 386:0.38 387:0.19 388:0 389:0 390:0 391:0 392:0 393:0.38 394:0.19 395:0.19 396:0 397:0 398:0.19 399:0.19 400:0 #
-8.4702215890727797047154989940054e-06 1:5.6700001 2:0 3:1.21 4:0.81 5:0.40000001 6:0 7:0 8:0 9:0.40000001 10:0.81 11:0 12:0 13:2.8299999 14:0 15:0.40000001 16:1.62 17:2.8299999 18:1.21 19:0 20:0 21:0 22:0 23:0 24:0 25:0 26:0 27:0 28:0 29:0 30:0 31:0 32:0 33:0 34:0 35:0 36:0 37:0 38:0 39:0 40:0 41:2.8299999 42:0 43:1.62 44:0.40000001 45:0 46:0.40000001 47:0 48:0 49:0.40000001 50:0 51:0 52:0 53:0.81 54:0 55:0 56:0.40000001 57:0 58:1.21 59:0 60:0 61:0 62:0 63:1.21 64:0.81 65:0 66:0.81 67:0.40000001 68:0 69:0.40000001 70:0.40000001 71:0.40000001 72:0 73:0 74:0.40000001 75:0.40000001 76:0.40000001 77:0 78:0 79:0 80:0.40000001 81:0 82:0 83:0 84:0 85:0.81 86:0.40000001 87:0 88:0 89:0.40000001 90:0 91:0 92:0 93:0 94:0.40000001 95:0 96:0.40000001 97:0 98:0 99:0 100:0 101:0.81 102:0 103:0 104:0.81 105:0 106:0.40000001 107:0 108:0 109:0.81 110:0.81 111:0 112:0.40000001 113:0 114:0 115:1.62 116:0 117:0.81 118:0.40000001 119:0.40000001 120:0 121:0 122:0 123:0 124:0 125:0 126:0 127:0 128:0 129:0 130:0.40000001 131:0 132:0 133:0 134:0 135:0 136:0 137:0 138:0.40000001 139:0 140:0 141:0 142:0 143:0 144:0.40000001 145:0 146:0 147:0 148:0 149:0.81 150:0 151:0 152:0 153:0 154:0 155:0 156:0 157:0 158:0 159:0 160:0 161:0.40000001 162:0 163:0.81 164:1.21 165:0 166:0.81 167:0 168:0.40000001 169:0 170:0.40000001 171:0.40000001 172:0.40000001 173:0.40000001 174:0 175:0 176:0 177:0 178:0.81 179:0 180:0 181:1.62 182:0 183:0.40000001 184:0 185:0 186:0.81 187:0 188:0 189:1.21 190:1.21 191:0.40000001 192:0 193:0.40000001 194:0 195:1.21 196:0 197:0.40000001 198:0.40000001 199:0 200:0.40000001 201:0.40000001 202:0 203:0.40000001 204:0.40000001 205:0 206:0 207:0 208:0 209:0.40000001 210:0 211:0 212:0 213:0.40000001 214:0 215:0 216:0 217:0 218:0 219:0 220:0 221:0.40000001 222:0 223:0 224:0.40000001 225:0 226:0.81 227:0 228:0 229:0 230:0 231:0 232:0 233:0 234:0 235:0 236:0.40000001 237:0.40000001 238:0.40000001 239:0 240:0 241:1.62 242:0 243:0 244:0.40000001 245:0.81 246:0.81 247:0 248:0 249:0.40000001 250:0.81 251:0 252:0 253:0.81 254:0 255:0.40000001 256:0 257:0.40000001 258:0.81 259:0 260:0 261:0 262:0 263:0 264:0 265:0 266:0 267:0 268:0 269:0 270:0.40000001 271:0 272:0.40000001 273:0 274:0 275:0 276:0 277:0 278:0.40000001 279:0 280:0 281:0 282:0 283:0 284:0 285:0 286:0.40000001 287:0 288:0.40000001 289:0.40000001 290:1.21 291:0 292:0 293:0.81 294:0.40000001 295:2.02 296:0 297:0 298:0.40000001 299:0 300:0.81 301:0.40000001 302:0 303:0.40000001 304:0 305:0 306:1.21 307:0 308:0 309:0 310:0.81 311:0.40000001 312:0 313:0 314:0 315:0.40000001 316:0 317:0.40000001 318:0 319:0 320:0 321:1.62 322:0 323:0.81 324:0.40000001 325:0 326:0.40000001 327:0 328:0 329:0 330:0.40000001 331:0 332:0.81 333:0 334:0 335:0.40000001 336:0.40000001 337:0 338:0.81 339:0 340:0 341:2.02 342:0 343:0.40000001 344:0.40000001 345:0.40000001 346:0 347:0.40000001 348:0.40000001 349:0.40000001 350:0.81 351:0 352:0.40000001 353:0.81 354:0 355:0 356:0.40000001 357:0.40000001 358:0.40000001 359:0.40000001 360:0 361:0.40000001 362:0 363:0 364:0 365:0 366:0 367:0 368:0 369:0 370:0 371:0 372:0 373:0 374:0 375:0 376:0 377:0 378:0.40000001 379:0.40000001 380:0 381:0 382:0 383:0.81 384:0 385:0 386:0 387:0 388:0 389:0 390:0 391:0 392:0.40000001 393:0 394:0 395:0 396:0 397:0.40000001 398:0 399:0 400:0 #
-4.5123370507393172881751425284946e-05 1:0 2:0 3:0 4:1.3099999 5:0 6:0 7:0 8:0.64999998 9:0.64999998 10:0.64999998 11:0 12:0 13:0.64999998 14:0 15:0 16:0 17:0 18:0 19:0 20:0.64999998 21:1.3099999 22:0 23:0.64999998 24:0 25:0 26:0 27:0 28:0 29:0 30:0 31:0 32:0.64999998 33:0 34:0 35:0 36:0.64999998 37:0 38:0 39:0 40:0 41:0 42:0 43:0 44:0 45:0 46:0.64999998 47:0 48:1.3099999 49:0 50:0 51:0 52:0 53:0.64999998 54:0 55:0 56:0 57:0 58:0.64999998 59:0 60:0 61:0 62:0.64999998 63:0 64:0.64999998 65:0 66:1.96 67:0 68:0 69:0.64999998 70:0 71:0.64999998 72:1.3099999 73:0 74:0 75:0 76:0.64999998 77:0 78:0.64999998 79:0 80:0 81:0 82:0 83:0 84:0 85:0 86:0 87:0 88:0 89:0 90:0 91:0 92:0.64999998 93:0.64999998 94:0 95:1.3099999 96:0 97:0.64999998 98:0 99:0 100:0 101:0 102:0 103:0 104:0 105:0 106:0 107:0 108:0.64999998 109:0 110:0.64999998 111:0 112:0.64999998 113:1.96 114:0 115:0.64999998 116:0.64999998 117:0.64999998 118:1.96 119:0 120:0.64999998 121:0 122:0 123:0 124:0 125:0 126:0 127:0.64999998 128:0 129:0 130:0 131:0 132:0 133:0 134:0 135:0 136:0.64999998 137:0 138:0 139:0 140:0 141:0 142:0 143:0 144:0.64999998 145:0 146:1.3099999 147:0 148:0 149:0.64999998 150:1.3099999 151:0 152:0 153:0.64999998 154:0.64999998 155:0 156:0 157:0 158:1.3099999 159:0 160:0 161:0 162:1.96 163:0 164:0 165:0 166:0.64999998 167:0 168:0 169:0 170:0 171:0 172:0.64999998 173:0.64999998 174:0 175:0 176:0.64999998 177:0 178:0.64999998 179:0 180:0.64999998 181:0 182:0.64999998 183:0 184:0.64999998 185:0.64999998 186:0.64999998 187:0 188:0 189:1.3099999 190:0 191:0 192:0 193:1.96 194:0 195:0 196:0.64999998 197:0.64999998 198:0 199:0 200:0 201:0 202:0 203:0 204:0 205:0 206:0 207:0 208:0 209:0.64999998 210:0 211:0 212:0.64999998 213:0 214:0 215:0 216:0 217:0 218:0 219:0 220:0 221:0.64999998 222:0 223:0 224:0 225:0 226:0.64999998 227:0 228:0.64999998 229:0.64999998 230:0.64999998 231:0 232:0 233:0 234:0 235:0 236:1.96 237:0 238:0 239:0.64999998 240:0 241:0.64999998 242:0 243:0 244:0.64999998 245:0.64999998 246:1.96 247:0 248:0.64999998 249:0 250:0 251:0 252:0 253:0.64999998 254:0 255:0.64999998 256:1.3099999 257:0.64999998 258:0.64999998 259:0 260:0 261:0 262:0 263:0 264:0 265:0 266:0 267:0 268:0 269:0 270:0.64999998 271:0 272:0 273:0 274:0.64999998 275:0.64999998 276:0 277:0 278:0 279:0 280:0 281:0 282:0 283:0 284:0.64999998 285:0.64999998 286:0 287:0 288:1.3099999 289:0 290:0 291:0 292:0.64999998 293:0 294:0 295:0 296:0.64999998 297:0 298:1.3099999 299:0 300:0 301:0.64999998 302:0 303:1.3099999 304:1.3099999 305:1.3099999 306:0 307:0.64999998 308:0 309:1.3099999 310:1.3099999 311:0 312:0 313:1.3099999 314:0 315:0 316:0.64999998 317:0 318:0 319:0 320:0 321:0.64999998 322:0 323:0 324:0.64999998 325:0 326:0.64999998 327:0 328:0 329:0 330:0 331:0 332:0 333:0 334:0 335:0 336:0 337:0 338:1.3099999 339:0 340:0 341:0.64999998 342:0 343:1.3099999 344:0 345:0 346:0 347:0 348:1.3099999 349:0 350:1.3099999 351:0 352:0 353:0 354:0.64999998 355:1.3099999 356:1.3099999 357:0.64999998 358:1.3099999 359:0 360:0 361:0 362:0 363:0 364:0 365:0 366:0 367:0 368:0 369:0 370:0 371:0 372:0 373:0 374:0 375:0 376:0 377:0 378:0 379:0 380:0.64999998 381:0 382:0 383:0 384:0.64999998 385:0 386:0 387:0 388:0 389:0 390:0.64999998 391:0 392:0.64999998 393:0 394:0 395:0.64999998 396:0 397:0 398:0 399:0 400:0 #
-0.0001394723346495940015290354585531 1:0.31 2:0.63 3:0 4:0 5:0.31 6:0.31 7:0 8:0.63 9:0.31 10:0.63 11:0.31 12:0 13:0 14:0 15:0 16:1.26 17:0.31 18:0.63 19:0 20:0.63 21:0 22:0 23:0 24:0.31 25:0 26:0 27:0 28:0 29:0 30:0.31 31:0 32:0 33:0.31 34:0.31 35:0 36:0 37:0.31 38:0 39:0 40:0 41:0.31 42:0.31 43:0.63 44:0.63 45:0.94 46:0.63 47:0 48:0.63 49:0.31 50:0.94 51:0 52:0 53:0 54:0.31 55:0.31 56:0.31 57:0.31 58:0.31 59:0 60:0.31 61:1.26 62:0.31 63:0.63 64:0.63 65:0.31 66:0.31 67:0 68:0.94 69:0.63 70:0.31 71:0.31 72:0 73:0 74:0 75:0.31 76:0 77:0.31 78:0.31 79:0 80:0.31 81:0 82:0 83:0 84:0.31 85:0 86:0.63 87:0 88:0 89:0 90:0.63 91:0.63 92:0.94 93:0 94:0.31 95:0 96:0 97:0.31 98:0.63 99:0 100:0.63 101:0.63 102:0 103:0.63 104:0 105:0 106:0.31 107:0 108:0 109:0.31 110:1.26 111:0.63 112:0.31 113:0 114:0.31 115:0.63 116:0 117:0.63 118:0.31 119:0 120:0.31 121:0 122:0 123:0.31 124:0 125:0 126:0 127:0 128:0 129:0 130:0 131:0 132:0 133:0 134:0 135:0.31 136:0 137:0.31 138:0 139:0 140:0 141:0 142:0 143:0 144:0.63 145:0.31 146:0.94 147:0 148:1.26 149:0.63 150:0.31 151:0 152:0.31 153:0.94 154:0.31 155:0.31 156:0 157:0 158:0.63 159:0.31 160:0 161:0 162:0.31 163:0 164:0.31 165:0.31 166:0.94 167:0.31 168:0.63 169:0.63 170:0 171:0.31 172:0.94 173:0.31 174:0.63 175:0.31 176:0.63 177:0.63 178:0 179:0 180:0.63 181:0.31 182:0 183:1.26 184:0.31 185:0.31 186:0.63 187:0 188:0.31 189:0.63 190:0.31 191:0.63 192:0 193:0.94 194:0.31 195:0.31 196:0.31 197:0.63 198:0.63 199:0 200:0.63 201:0.31 202:0 203:0.31 204:0.63 205:0.63 206:0 207:0 208:0.94 209:0.31 210:0.31 211:0 212:0 213:0 214:0 215:0.31 216:0 217:0 218:0 219:0 220:0 221:0.31 222:0 223:0 224:0 225:0.63 226:0 227:0 228:0.31 229:0.31 230:0.94 231:0 232:0.31 233:0.31 234:0.31 235:0.31 236:0 237:0 238:0.63 239:0 240:0.63 241:0 242:0 243:0.63 244:0.63 245:0.31 246:0.31 247:0 248:0 249:0.31 250:0.31 251:0 252:0 253:0 254:0 255:0 256:0.31 257:0.31 258:0.63 259:0 260:0 261:0 262:0 263:0 264:0 265:0 266:0.31 267:0 268:0 269:1.26 270:0.31 271:0.31 272:0.63 273:0.31 274:0 275:0.31 276:0.31 277:0.31 278:0.31 279:0 280:0 281:0.63 282:0 283:0.31 284:0.31 285:0.63 286:0.63 287:0 288:0.63 289:0.31 290:0 291:0 292:0.31 293:0 294:0 295:0 296:0 297:0 298:0 299:0 300:0 301:0.31 302:0 303:0.63 304:0.31 305:0 306:0 307:0 308:0 309:0.31 310:0.31 311:0 312:0 313:0 314:0.94 315:0.31 316:0 317:0.63 318:0 319:0 320:0.63 321:0.31 322:0 323:1.26 324:0.63 325:0 326:0 327:0 328:0.31 329:0.63 330:1.26 331:0 332:0.31 333:0 334:0 335:0 336:0.63 337:0.63 338:0.63 339:0 340:0 341:1.26 342:0 343:0.31 344:0.31 345:0 346:0 347:0.31 348:0.31 349:0.94 350:0.31 351:0.31 352:0.63 353:0 354:0 355:0 356:0.31 357:0.63 358:0 359:0 360:0 361:0 362:0 363:0 364:0.31 365:0 366:0 367:0 368:0 369:0 370:0 371:0 372:0 373:0 374:0 375:0 376:0 377:0 378:0 379:0 380:0 381:0.31 382:0 383:0.31 384:0.63 385:0.31 386:0.31 387:0.31 388:0 389:0 390:0.31 391:0 392:0.31 393:0.63 394:0.63 395:0 396:0.31 397:0.31 398:0 399:0 400:0 #
0.00037995304910127977683284572485434 1:0.57999998 2:0.19 3:0.77999997 4:0.38999999 5:0.38999999 6:0.19 7:0 8:0.38999999 9:0.19 10:0.19 11:0.38999999 12:1.17 13:0 14:0.19 15:0.38999999 16:0.38999999 17:0.19 18:0.77999997 19:0 20:0 21:0.38999999 22:0 23:0 24:0.19 25:0 26:0.19 27:0.19 28:0 29:0 30:0.19 31:0.19 32:0.38999999 33:0 34:0 35:0 36:0.38999999 37:0 38:0 39:0 40:0 41:0.38999999 42:0.19 43:0 44:0.19 45:0.19 46:0.38999999 47:0.19 48:0.19 49:0.19 50:0.38999999 51:0 52:0.57999998 53:0.57999998 54:0 55:0.19 56:0.38999999 57:0 58:0 59:0 60:0 61:0.77999997 62:0.19 63:0.19 64:0.97000003 65:0.19 66:0.77999997 67:0.19 68:0.57999998 69:0.38999999 70:0.38999999 71:0.38999999 72:0.77999997 73:0.38999999 74:0.57999998 75:0.38999999 76:0.57999998 77:0.19 78:0.97000003 79:0.19 80:0.38999999 81:0.19 82:0.19 83:0.19 84:0 85:0 86:0 87:0 88:0 89:0.57999998 90:0.38999999 91:0 92:0.57999998 93:0.19 94:0.19 95:0.19 96:0.19 97:0.38999999 98:0 99:0 100:0 101:0.38999999 102:0.19 103:0.57999998 104:0.57999998 105:0 106:0.38999999 107:0 108:0.38999999 109:0.19 110:0.19 111:0 112:0.38999999 113:0.19 114:0.19 115:0 116:0.57999998 117:0.19 118:0 119:0 120:0 121:0.19 122:0 123:0.19 124:0 125:0 126:0.19 127:0 128:0.19 129:0 130:0.38999999 131:0 132:0 133:0.38999999 134:0.19 135:0.19 136:0.57999998 137:0 138:0 139:0 140:0 141:0.19 142:0.38999999 143:0.19 144:0.77999997 145:0.77999997 146:0.77999997 147:0 148:0.38999999 149:0.19 150:0 151:0 152:0.19 153:0.57999998 154:0 155:0.38999999 156:0.38999999 157:0.38999999 158:0.38999999 159:0 160:0 161:0.19 162:0.19 163:0.38999999 164:0.38999999 165:0.38999999 166:0.19 167:0 168:0.19 169:0.97000003 170:0.77999997 171:0 172:0.38999999 173:0.19 174:0.38999999 175:0.19 176:0.19 177:0.19 178:0.57999998 179:0 180:0.19 181:0.38999999 182:0 183:0.38999999 184:0.57999998 185:0 186:0 187:0.38999999 188:0.38999999 189:0.57999998 190:0.38999999 191:0 192:0.97000003 193:0.19 194:0.38999999 195:0.38999999 196:0.19 197:0.57999998 198:0.38999999 199:0 200:0.38999999 201:0 202:0 203:0.19 204:0.19 205:0.19 206:0 207:0.38999999 208:0.19 209:0 210:0.19 211:0.19 212:0.19 213:0 214:0.38999999 215:0.19 216:0 217:0.19 218:0 219:0 220:0 221:0.97000003 222:0 223:0 224:0.77999997 225:0.19 226:0.38999999 227:0.19 228:0.38999999 229:0.19 230:0.19 231:0.57999998 232:0.57999998 233:0.97000003 234:0.38999999 235:0.38999999 236:0.38999999 237:1.17 238:0.57999998 239:0 240:0 241:0.38999999 242:0 243:0 244:0 245:0.38999999 246:0 247:0 248:0.77999997 249:0.38999999 250:0.19 251:0.19 252:0.57999998 253:0 254:0.19 255:0.38999999 256:0.38999999 257:0.77999997 258:0.38999999 259:0 260:0 261:0.57999998 262:0.38999999 263:0.19 264:0.38999999 265:0.19 266:0.38999999 267:0.19 268:0.19 269:0 270:0.77999997 271:0.38999999 272:0.19 273:0 274:0.57999998 275:0 276:0 277:0.38999999 278:0.57999998 279:0 280:0.19 281:0.19 282:0 283:0.19 284:0.38999999 285:0 286:0.38999999 287:0 288:0.57999998 289:0.57999998 290:0.38999999 291:0.19 292:0 293:0.38999999 294:0.38999999 295:0.38999999 296:0.38999999 297:0 298:0.19 299:0 300:0.19 301:0.19 302:0 303:0 304:0.77999997 305:0 306:0 307:0.19 308:0.77999997 309:0.57999998 310:0.57999998 311:0 312:0.19 313:0.57999998 314:0.77999997 315:0.38999999 316:0.57999998 317:0.57999998 318:0.38999999 319:0 320:0 321:0.38999999 322:0 323:0.38999999 324:0.97000003 325:0.19 326:0 327:0.19 328:0 329:0.77999997 330:0.38999999 331:0 332:0.19 333:0.19 334:0.57999998 335:0.19 336:0.38999999 337:0.57999998 338:0.19 339:0.19 340:0.19 341:0.19 342:0.19 343:0.19 344:1.17 345:0.19 346:0 347:0.19 348:0.38999999 349:0.19 350:0.19 351:0 352:0.97000003 353:0 354:0.19 355:0.57999998 356:0.57999998 357:0.19 358:0.97000003 359:0 360:0.38999999 361:0 362:0 363:0 364:0 365:0 366:0 367:0 368:0 369:0 370:0.38999999 371:0 372:0 373:0 374:0 375:0 376:0 377:0 378:0 379:0 380:0 381:0.19 382:0 383:0.19 384:0.57999998 385:0 386:0.19 387:0.19 388:0 389:0 390:0 391:0 392:0 393:0.19 394:0 395:0 396:0 397:0 398:0.38999999 399:0 400:0 #
-0.0001394723346495940015290354585531 1:0.41999999 2:0.039999999 3:0.19 4:0.15000001 5:0.19 6:0.34999999 7:0.23 8:0.23 9:0.34999999 10:0.73000002 11:0.12 12:0.31 13:0.27000001 14:0.31 15:0.19 16:0.31 17:0.38999999 18:0.38999999 19:0.079999998 20:0.23 21:0 22:0 23:0.039999999 24:0.12 25:0.079999998 26:0.039999999 27:0.039999999 28:0.12 29:0.079999998 30:0.12 31:0 32:0.079999998 33:0.079999998 34:0.039999999 35:0.079999998 36:0.12 37:0 38:0.039999999 39:0.039999999 40:0.039999999 41:0.19 42:0 43:0.34999999 44:0.31 45:0.27000001 46:0.27000001 47:0.19 48:0.19 49:0.31 50:0.69 51:0.079999998 52:0.34999999 53:0.31 54:0.12 55:0.12 56:0.27000001 57:0.15000001 58:0.31 59:0 60:0.079999998 61:0.41999999 62:0.12 63:0.31 64:0.38999999 65:0.12 66:0.31 67:0.039999999 68:0.27000001 69:0.38999999 70:1.04 71:0.19 72:0.46000001 73:0.31 74:0.19 75:0.15000001 76:0.38999999 77:0.31 78:0.15000001 79:0.039999999 80:0.19 81:0.19 82:0.079999998 83:0.27000001 84:0.34999999 85:0.19 86:0.039999999 87:0.039999999 88:0.38999999 89:0.15000001 90:0.46000001 91:0.079999998 92:0.34999999 93:0.15000001 94:0.12 95:0.079999998 96:0.34999999 97:0.23 98:0.12 99:0 100:0.12 101:0.15000001 102:0 103:0.079999998 104:0.23 105:0.079999998 106:0.38999999 107:0.079999998 108:0.19 109:0.54000002 110:0.41999999 111:0.079999998 112:0.19 113:0.19 114:0.19 115:0.15000001 116:0.5 117:0.27000001 118:0.38999999 119:0.039999999 120:0.23 121:0.079999998 122:0.079999998 123:0.12 124:0.12 125:0.039999999 126:0.15000001 127:0.12 128:0.15000001 129:0.12 130:0.38999999 131:0 132:0.12 133:0.27000001 134:0.15000001 135:0.15000001 136:0.31 137:0.15000001 138:0.079999998 139:0.039999999 140:0.12 141:0.34999999 142:0.15000001 143:0.41999999 144:0.31 145:0.15000001 146:0.19 147:0.15000001 148:0.5 149:0.31 150:0.46000001 151:0.079999998 152:0.66000003 153:0.34999999 154:0.41999999 155:0.34999999 156:0.66000003 157:0.54000002 158:0.46000001 159:0.23 160:0.079999998 161:0.41999999 162:0.12 163:0.31 164:0.38999999 165:0.38999999 166:0.19 167:0.23 168:0.85000002 169:0.57999998 170:0.66000003 171:0.12 172:0.15000001 173:0.23 174:0.34999999 175:0.27000001 176:0.38999999 177:0.23 178:0.34999999 179:0.039999999 180:0.12 181:0.62 182:0.15000001 183:0.5 184:0.57999998 185:0.81 186:0.38999999 187:0.23 188:0.76999998 189:0.62 190:2.05 191:0.19 192:0.46000001 193:0.62 194:0.31 195:0.62 196:1 197:0.66000003 198:0.57999998 199:0.19 200:0.34999999 201:0.19 202:0 203:0.12 204:0.15000001 205:0.079999998 206:0 207:0 208:0.12 209:0.079999998 210:0.12 211:0.039999999 212:0.079999998 213:0.039999999 214:0.079999998 215:0.15000001 216:0.19 217:0.15000001 218:0.12 219:0 220:0 221:0.38999999 222:0 223:0.34999999 224:0.34999999 225:0.12 226:0.31 227:0.12 228:0.31 229:0.38999999 230:0.46000001 231:0.039999999 232:0.31 233:0.41999999 234:0.34999999 235:0.27000001 236:0.66000003 237:0.54000002 238:0.19 239:0.12 240:0.15000001 241:0.27000001 242:0 243:0.15000001 244:0.41999999 245:0.12 246:0.27000001 247:0.15000001 248:0.5 249:0.31 250:0.54000002 251:0.039999999 252:0.34999999 253:0.19 254:0.31 255:0.19 256:0.41999999 257:0.57999998 258:0.23 259:0 260:0.23 261:0.31 262:0.12 263:0.19 264:0.27000001 265:0.15000001 266:0.15000001 267:0.19 268:0.41999999 269:0.46000001 270:0.5 271:0.079999998 272:0.15000001 273:0.38999999 274:0.73000002 275:0.12 276:0.41999999 277:0.12 278:0.31 279:0.039999999 280:0.039999999 281:0.19 282:0.039999999 283:0.19 284:0.41999999 285:0.12 286:0.19 287:0.23 288:0.19 289:0.27000001 290:0.46000001 291:0.12 292:0.31 293:0.23 294:0.039999999 295:0.12 296:0.34999999 297:0.23 298:0.27000001 299:0.039999999 300:0.039999999 301:0.5 302:0.039999999 303:0.38999999 304:0.41999999 305:0.19 306:0.34999999 307:0.15000001 308:0.41999999 309:0.5 310:1.27 311:0.19 312:0.54000002 313:0.38999999 314:0.57999998 315:0.23 316:1.12 317:0.95999998 318:0.46000001 319:0.039999999 320:0.27000001 321:0.31 322:0.039999999 323:0.23 324:0.31 325:0.23 326:0.38999999 327:0.31 328:0.54000002 329:0.31 330:0.5 331:0.079999998 332:0.31 333:0.38999999 334:0.31 335:0.46000001 336:0.85000002 337:0.76999998 338:0.31 339:0.12 340:0.19 341:0.15000001 342:0.12 343:0.23 344:0.27000001 345:0.34999999 346:0.34999999 347:0.079999998 348:0.46000001 349:0.23 350:0.41999999 351:0.12 352:0.31 353:0.23 354:0.34999999 355:0.23 356:0.31 357:0.38999999 358:0.34999999 359:0.079999998 360:0.19 361:0.15000001 362:0 363:0.039999999 364:0.079999998 365:0 366:0 367:0.039999999 368:0 369:0.19 370:0.039999999 371:0 372:0.19 373:0.039999999 374:0.039999999 375:0.039999999 376:0.12 377:0.079999998 378:0 379:0 380:0.079999998 381:0.15000001 382:0.039999999 383:0.079999998 384:0.15000001 385:0.079999998 386:0.079999998 387:0.12 388:0.19 389:0.19 390:0.38999999 391:0.039999999 392:0.15000001 393:0.19 394:0.19 395:0.079999998 396:0.31 397:0.19 398:0.12 399:0 400:0.19 #
0.00043095917529433071897423945806338 1:2.4000001 2:0.47999999 3:0.72000003 4:1.2 5:0.23999999 6:1.4400001 7:0.23999999 8:0.47999999 9:0.72000003 10:0.95999998 11:0.23999999 12:0 13:0.23999999 14:0.47999999 15:0.47999999 16:0.23999999 17:0.47999999 18:1.2 19:0 20:0.23999999 21:0 22:0 23:0 24:0 25:0 26:0.23999999 27:0 28:0 29:0 30:0 31:0 32:0 33:0 34:0 35:0 36:0 37:0.23999999 38:0 39:0 40:0 41:1.4400001 42:0 43:0.23999999 44:0.72000003 45:0.72000003 46:0.23999999 47:0 48:0.47999999 49:0.23999999 50:0.47999999 51:0 52:0.47999999 53:0.23999999 54:0 55:0.72000003 56:0 57:0.47999999 58:0.23999999 59:0 60:0 61:1.6799999 62:0 63:0.47999999 64:0.72000003 65:0.23999999 66:0.47999999 67:0 68:0.47999999 69:0.23999999 70:1.2 71:0.23999999 72:0 73:0.47999999 74:0.23999999 75:0.23999999 76:0 77:0.23999999 78:0 79:0 80:0 81:0 82:0 83:0.47999999 84:0.23999999 85:0.23999999 86:0.95999998 87:0 88:0.47999999 89:0 90:0.72000003 91:0 92:0 93:0.23999999 94:0.23999999 95:0.72000003 96:0.47999999 97:0.47999999 98:0 99:0 100:0 101:1.2 102:0 103:0.23999999 104:0.23999999 105:0.47999999 106:0.72000003 107:0 108:0 109:0 110:0.72000003 111:0 112:0.23999999 113:0.23999999 114:0 115:1.2 116:0.72000003 117:0.72000003 118:0.23999999 119:0 120:0.23999999 121:0.23999999 122:0 123:0 124:0.47999999 125:0 126:0 127:0 128:0.23999999 129:0.23999999 130:0.23999999 131:0 132:0 133:0 134:0 135:0 136:0.23999999 137:0 138:0.23999999 139:0 140:0 141:0.23999999 142:0 143:0.23999999 144:0.72000003 145:0 146:0.23999999 147:0 148:0 149:0 150:0 151:0.47999999 152:0 153:0.47999999 154:0.72000003 155:0.23999999 156:0 157:0.47999999 158:0 159:0 160:0.23999999 161:0.23999999 162:0 163:0.23999999 164:0 165:0 166:0.23999999 167:0.23999999 168:0 169:0 170:0.47999999 171:0 172:0 173:0 174:0 175:0.23999999 176:0.23999999 177:0 178:0.23999999 179:0 180:0 181:0.72000003 182:0 183:0.72000003 184:0.72000003 185:0.72000003 186:0.95999998 187:0.47999999 188:0.23999999 189:0 190:1.6799999 191:0.23999999 192:0.23999999 193:0.72000003 194:0.23999999 195:0.47999999 196:0.72000003 197:0.95999998 198:0.95999998 199:0 200:0.47999999 201:0.23999999 202:0 203:0.23999999 204:0 205:0 206:0.23999999 207:0 208:0 209:0 210:0.23999999 211:0 212:0 213:0 214:0 215:0.95999998 216:0.23999999 217:0 218:0 219:0 220:0 221:0 222:0 223:0 224:0 225:0 226:0 227:0 228:0 229:0 230:0.23999999 231:0 232:0 233:0.23999999 234:0 235:0 236:0 237:0.95999998 238:0 239:0 240:0 241:0.47999999 242:0 243:0.95999998 244:0.47999999 245:0 246:0 247:0 248:0.72000003 249:0 250:0.23999999 251:0 252:0.23999999 253:0 254:0.23999999 255:0.23999999 256:0.23999999 257:0 258:0 259:0 260:0 261:0.23999999 262:0 263:0.47999999 264:0.47999999 265:0.23999999 266:0 267:0.47999999 268:0.23999999 269:0 270:0.47999999 271:0 272:0 273:0.47999999 274:0.23999999 275:0.47999999 276:0.23999999 277:0 278:0.47999999 279:0 280:0 281:1.2 282:0 283:0.47999999 284:0.47999999 285:0.95999998 286:0.47999999 287:0.23999999 288:0.47999999 289:0.23999999 290:1.4400001 291:0 292:0 293:0.23999999 294:0.47999999 295:0.95999998 296:0.47999999 297:0.47999999 298:0.47999999 299:0 300:0.23999999 301:0.23999999 302:0 303:0.47999999 304:0.23999999 305:0.72000003 306:0 307:0 308:0 309:0 310:0.23999999 311:0 312:0.23999999 313:0 314:0.72000003 315:0.23999999 316:0.72000003 317:0.72000003 318:0.95999998 319:0 320:0 321:0.95999998 322:0 323:0.23999999 324:0 325:0.23999999 326:0.72000003 327:0 328:0.23999999 329:0 330:0.47999999 331:0.23999999 332:0 333:0.23999999 334:0.47999999 335:0.47999999 336:0.95999998 337:0.23999999 338:0.47999999 339:0.23999999 340:0.47999999 341:0.72000003 342:0 343:0.23999999 344:0 345:0.47999999 346:0.23999999 347:0 348:0 349:0.47999999 350:1.2 351:0.23999999 352:0 353:0 354:0.23999999 355:1.4400001 356:0 357:0 358:0.47999999 359:0 360:0 361:0 362:0 363:0 364:0 365:0 366:0 367:0.23999999 368:0 369:0 370:0 371:0 372:0 373:0 374:0 375:0 376:0 377:0 378:0 379:0 380:0 381:0.23999999 382:0 383:0.23999999 384:0.23999999 385:0 386:0 387:0 388:0 389:0 390:0.23999999 391:0.23999999 392:0 393:0 394:0.23999999 395:0.23999999 396:0 397:0.23999999 398:0 399:0 400:0 #
-0.0001394723346495940015290354585531 1:0.47999999 2:0.19 3:0.38 4:0.67000002 5:0.47999999 6:0.47999999 7:0.1 8:0.56999999 9:0.76999998 10:0.38 11:0.19 12:0.1 13:0.19 14:0.1 15:0.38 16:0.38 17:0.1 18:0.67000002 19:0 20:0.28999999 21:0.28999999 22:0 23:0.19 24:0.19 25:0.1 26:0.38 27:0 28:0 29:0.19 30:0.28999999 31:0.1 32:0.28999999 33:0.28999999 34:0.1 35:0 36:0 37:0 38:0 39:0 40:0.1 41:0.28999999 42:0.28999999 43:0.38 44:0.19 45:0.47999999 46:0.19 47:0.1 48:0.19 49:0.56999999 50:0.19 51:0.19 52:0.47999999 53:0.28999999 54:0.1 55:0.28999999 56:1.05 57:0.56999999 58:0.67000002 59:0.19 60:0 61:0.76999998 62:0.1 63:0 64:0.67000002 65:0.1 66:0.19 67:0.1 68:0.28999999 69:0.38 70:0.47999999 71:0.1 72:0.47999999 73:0 74:0.47999999 75:0.28999999 76:0.67000002 77:0.56999999 78:0.67000002 79:0 80:0 81:0.38 82:0.28999999 83:0.28999999 84:0.28999999 85:0.19 86:0.19 87:0.1 88:0 89:0.19 90:0.28999999 91:0 92:0.1 93:0.19 94:0.1 95:0.19 96:0.56999999 97:0.28999999 98:0.28999999 99:0.1 100:0.28999999 101:0.28999999 102:0 103:0.28999999 104:0.47999999 105:0.19 106:0.19 107:0.1 108:0.1 109:0.67000002 110:0.1 111:0.1 112:0.47999999 113:0 114:0.19 115:0.1 116:0.28999999 117:0.38 118:0.28999999 119:0.28999999 120:0.28999999 121:0.1 122:0.1 123:0.38 124:0.1 125:0 126:0.28999999 127:0 128:0.1 129:0.1 130:0.1 131:0 132:0.19 133:0.19 134:0.1 135:0.19 136:0.1 137:0 138:0.38 139:0 140:0 141:0.56999999 142:0.38 143:0 144:0.38 145:0 146:0.28999999 147:0.1 148:0.1 149:0.38 150:0.56999999 151:0 152:0.19 153:0.28999999 154:0.19 155:0.1 156:0.67000002 157:0.1 158:0.19 159:0.19 160:0.1 161:0.19 162:0.1 163:0.19 164:0.28999999 165:0.38 166:0.38 167:0.1 168:0.47999999 169:0.38 170:0.67000002 171:0.19 172:0.47999999 173:0.19 174:0.38 175:0.56999999 176:0.86000001 177:0.19 178:0.28999999 179:0.1 180:0.28999999 181:0.1 182:0.1 183:0.47999999 184:0.47999999 185:0.47999999 186:0.28999999 187:0.47999999 188:0.19 189:0.28999999 190:0.19 191:0 192:0 193:0.19 194:0.28999999 195:0.19 196:0.86000001 197:0.38 198:0.67000002 199:0.1 200:0.47999999 201:0.28999999 202:0 203:0.1 204:0.19 205:0 206:0 207:0 208:0 209:0.19 210:0.1 211:0 212:0.19 213:0.19 214:0.1 215:0 216:0 217:0.1 218:0 219:0 220:0 221:0.28999999 222:0.1 223:0.38 224:0.67000002 225:0.38 226:0.19 227:0.1 228:0.56999999 229:0.28999999 230:0.28999999 231:0.1 232:0.1 233:0.28999999 234:0.47999999 235:0.28999999 236:0.86000001 237:0.19 238:0.28999999 239:0.1 240:0 241:0.28999999 242:0 243:0.76999998 244:0.1 245:0.19 246:0.28999999 247:0.1 248:0.1 249:0.19 250:0.1 251:0 252:0.47999999 253:0.19 254:0 255:0.19 256:0.95999998 257:0.1 258:0.28999999 259:0 260:0.1 261:0.1 262:0.1 263:0.1 264:0 265:0.38 266:0.1 267:0.19 268:0.76999998 269:0.19 270:0.28999999 271:0 272:0.47999999 273:0.1 274:0.28999999 275:0.38 276:0.38 277:0.28999999 278:0.19 279:0 280:0.19 281:0.19 282:0.1 283:0.28999999 284:0.38 285:0.38 286:0.19 287:0.1 288:0.38 289:0.56999999 290:0.19 291:0 292:0.19 293:0 294:0.19 295:0.19 296:0.76999998 297:0.19 298:0.19 299:0.1 300:0.19 301:0.67000002 302:0.38 303:1.15 304:0.67000002 305:0.19 306:0.19 307:0.67000002 308:0.47999999 309:0.1 310:0.56999999 311:0.28999999 312:0.86000001 313:0.47999999 314:0.56999999 315:0.56999999 316:1.53 317:0.76999998 318:0.86000001 319:0 320:0.38 321:0.38 322:0.28999999 323:0.56999999 324:0.38 325:0.1 326:0.28999999 327:0 328:0.1 329:0.67000002 330:0.47999999 331:0 332:0.38 333:0.1 334:0.1 335:0.47999999 336:0.28999999 337:0 338:0.28999999 339:0.1 340:0 341:0.47999999 342:0 343:0.67000002 344:0 345:0.28999999 346:0.19 347:0.1 348:0.28999999 349:0.38 350:0.56999999 351:0 352:0.19 353:1.05 354:0.47999999 355:0.19 356:0.67000002 357:0.56999999 358:0 359:0.19 360:0.1 361:0.47999999 362:0 363:0 364:0.1 365:0 366:0 367:0 368:0 369:0 370:0.19 371:0 372:0 373:0 374:0.1 375:0 376:0.28999999 377:0.1 378:0.1 379:0 380:0.1 381:0.28999999 382:0 383:0.19 384:0.1 385:0 386:0.47999999 387:0 388:0.1 389:0.19 390:0.19 391:0.1 392:0.28999999 393:0.19 394:0.19 395:0.19 396:0.19 397:0.1 398:0.1 399:0 400:0.19 #
-0.0001394723346495940015290354585531 1:0.12 2:0 3:0.23 4:0.12 5:0.34999999 6:0.47 7:0.47 8:0.12 9:0.57999998 10:0.57999998 11:0.12 12:0.12 13:0.34999999 14:0 15:0.23 16:0.23 17:0.12 18:0.34999999 19:0 20:0.81999999 21:0 22:0.12 23:0 24:0 25:0.12 26:0.47 27:0.12 28:0 29:0.12 30:0.23 31:0 32:0.12 33:0.12 34:0.47 35:0.57999998 36:0.34999999 37:0.12 38:0 39:0 40:0 41:0.47 42:0.69999999 43:0.34999999 44:0.57999998 45:0.81999999 46:0.12 47:0.23 48:0.34999999 49:0.57999998 50:0.57999998 51:0 52:0.12 53:0.23 54:0 55:0.57999998 56:0.23 57:0 58:0 59:0 60:0.23 61:0.12 62:0.12 63:0.47 64:0.23 65:0.57999998 66:0.57999998 67:0.12 68:0.94 69:0.57999998 70:0.69999999 71:0.23 72:0.12 73:0.34999999 74:0.12 75:0.23 76:0.34999999 77:0.23 78:0.34999999 79:0.23 80:0.12 81:0.57999998 82:0.23 83:0.34999999 84:0.34999999 85:0.34999999 86:0.47 87:0 88:0.34999999 89:0.47 90:0.57999998 91:0 92:0.47 93:0.34999999 94:0.12 95:0.12 96:0 97:0.23 98:0.34999999 99:0.12 100:0.69999999 101:0.23 102:0.12 103:0.23 104:0.34999999 105:0 106:0.12 107:0.12 108:0.34999999 109:0.81999999 110:0.69999999 111:0.12 112:0.34999999 113:0.23 114:0.23 115:0.12 116:0.12 117:0.47 118:0.34999999 119:0.34999999 120:0.12 121:0.12 122:0.12 123:0.23 124:0.34999999 125:0 126:0.23 127:0.47 128:0.23 129:0 130:0.23 131:0 132:0 133:0.12 134:0.23 135:0.12 136:0.12 137:0 138:0.12 139:0.12 140:0 141:0.12 142:0 143:0.34999999 144:0.34999999 145:0.12 146:0.23 147:0.34999999 148:0.12 149:0.23 150:0.69999999 151:0.12 152:0.23 153:0 154:0.23 155:0.47 156:0.47 157:0.23 158:0 159:0.12 160:0.23 161:0.34999999 162:0 163:0.69999999 164:0.94 165:0.57999998 166:0.69999999 167:0 168:0.34999999 169:0.94 170:0.57999998 171:0 172:0.34999999 173:0 174:0.23 175:0.47 176:0.94 177:0.12 178:0.34999999 179:0.12 180:0.47 181:0.81999999 182:0.34999999 183:0.69999999 184:0.47 185:0.34999999 186:0.47 187:0.12 188:0.34999999 189:1.29 190:0.81999999 191:0.12 192:0.23 193:0.34999999 194:0.23 195:0.47 196:0.47 197:0.47 198:0.81999999 199:0.23 200:0.34999999 201:0.12 202:0 203:0.23 204:0.23 205:0 206:0 207:0.12 208:0 209:0.12 210:0.34999999 211:0 212:0.12 213:0.12 214:0.12 215:0 216:0 217:0 218:0.12 219:0 220:0.12 221:0.34999999 222:0.12 223:0.12 224:0.34999999 225:0.57999998 226:0.23 227:0 228:0.34999999 229:0.23 230:0.12 231:0.12 232:0 233:0.47 234:0.23 235:0.12 236:0.34999999 237:0.23 238:0.12 239:0 240:0.12 241:0 242:0.34999999 243:0.47 244:0.57999998 245:0.12 246:0.23 247:0 248:0 249:0 250:0.23 251:0 252:0.12 253:0.23 254:0.34999999 255:0 256:0.47 257:0.34999999 258:0.23 259:0.47 260:0.23 261:0.34999999 262:0 263:0 264:0.23 265:0.12 266:0.23 267:0 268:0.12 269:0.23 270:0.23 271:0.12 272:0.23 273:0.12 274:0 275:0.12 276:0.23 277:0.34999999 278:0.34999999 279:0 280:0.34999999 281:0.34999999 282:0 283:0.47 284:0.47 285:0.12 286:0.12 287:0 288:0.12 289:0.57999998 290:0.47 291:0.34999999 292:0.23 293:0.12 294:0.12 295:0.12 296:0.12 297:0.47 298:0 299:0.12 300:0.12 301:0.23 302:0 303:0 304:0.23 305:0.23 306:0.23 307:0.34999999 308:0.47 309:0.57999998 310:0.81999999 311:0 312:0.34999999 313:0.34999999 314:0.23 315:0.12 316:0.47 317:0.47 318:0.69999999 319:0.12 320:0.23 321:0.47 322:0.23 323:0.12 324:0.23 325:0.81999999 326:0.12 327:0 328:0.23 329:0.12 330:0.47 331:0 332:0.12 333:0.34999999 334:0.34999999 335:0.12 336:0.23 337:0.34999999 338:0.34999999 339:0.23 340:0.12 341:0.23 342:0.12 343:0.69999999 344:0 345:0.47 346:0.34999999 347:0.23 348:0.12 349:0.57999998 350:0.34999999 351:0 352:0.57999998 353:0 354:0 355:0.23 356:0.34999999 357:0.34999999 358:0.34999999 359:0 360:0.23 361:0.23 362:0.34999999 363:0.12 364:0.12 365:0.23 366:0 367:0 368:0 369:0.12 370:0.47 371:0.23 372:0.12 373:0 374:0 375:0.12 376:0 377:0 378:0.12 379:0 380:0 381:0.12 382:0 383:0.34999999 384:0.57999998 385:0.23 386:0.12 387:0.12 388:0.12 389:0 390:0.23 391:0.12 392:0.23 393:0.57999998 394:0.12 395:0.12 396:0.69999999 397:0.47 398:0.34999999 399:0 400:0.34999999 #
-7.0271989183275849989371297787955e-05 1:0 2:0.40000001 3:0 4:0.79000002 5:0 6:0 7:0.40000001 8:0.40000001 9:2.3800001 10:1.59 11:0 12:0 13:0 14:0.40000001 15:0 16:0 17:0 18:0 19:0 20:0.40000001 21:0 22:0 23:0.40000001 24:0 25:0.40000001 26:0 27:0.40000001 28:0 29:0 30:0.40000001 31:0 32:0 33:0 34:0 35:0 36:0 37:0 38:0.79000002 39:0 40:0.40000001 41:0 42:0 43:0 44:0.40000001 45:0.79000002 46:0 47:0 48:0.40000001 49:0 50:0.79000002 51:0 52:0 53:0 54:0 55:0 56:0.79000002 57:0.40000001 58:0 59:0 60:0 61:0.40000001 62:1.1900001 63:0.40000001 64:0.40000001 65:0 66:0 67:0 68:0 69:1.1900001 70:1.59 71:0 72:0.40000001 73:0 74:0 75:0.79000002 76:0 77:0.40000001 78:1.1900001 79:0 80:0.40000001 81:0.40000001 82:0 83:0 84:0 85:0 86:0.79000002 87:0 88:1.1900001 89:0.40000001 90:0.79000002 91:0 92:0 93:0 94:0 95:0 96:1.1900001 97:0.40000001 98:0 99:0.40000001 100:0 101:0.40000001 102:0.40000001 103:0.40000001 104:0 105:0.79000002 106:0 107:0 108:0 109:0.40000001 110:0 111:0 112:0 113:0 114:0 115:0 116:0 117:0 118:0 119:0 120:0 121:0.79000002 122:0 123:0 124:0.79000002 125:0.40000001 126:0 127:0 128:0.79000002 129:0 130:0.40000001 131:0.40000001 132:0.40000001 133:1.1900001 134:0 135:0 136:0.40000001 137:0 138:0 139:0 140:0 141:0.79000002 142:0 143:0 144:0.79000002 145:0 146:0 147:0 148:0.40000001 149:1.1900001 150:0.40000001 151:0.40000001 152:0 153:0 154:0.40000001 155:0.79000002 156:0.40000001 157:0.40000001 158:0.79000002 159:0 160:0.40000001 161:0.40000001 162:0 163:0.79000002 164:0.79000002 165:0.79000002 166:0 167:1.59 168:1.1900001 169:2.3800001 170:0.40000001 171:0 172:0.40000001 173:0 174:0 175:1.1900001 176:0.40000001 177:0.79000002 178:0.79000002 179:0 180:0 181:0.79000002 182:0.40000001 183:0.40000001 184:1.98 185:0.40000001 186:0.40000001 187:0.40000001 188:0.79000002 189:1.1900001 190:1.98 191:0 192:1.59 193:0.79000002 194:0.40000001 195:0.40000001 196:0.40000001 197:0.40000001 198:0 199:0 200:0.40000001 201:1.1900001 202:0 203:0 204:0 205:0 206:0 207:0 208:0 209:0 210:0.40000001 211:0 212:0 213:0 214:0 215:0 216:0 217:0 218:0 219:0 220:0 221:0.40000001 222:0 223:0.40000001 224:0.40000001 225:0 226:0.40000001 227:0 228:0 229:0 230:0 231:0 232:0 233:0 234:0 235:0.40000001 236:0.40000001 237:0.40000001 238:0 239:0.40000001 240:0.79000002 241:0 242:0 243:0.40000001 244:0 245:0 246:0 247:0 248:0.79000002 249:0 250:0.40000001 251:0 252:0.79000002 253:0 254:0 255:0 256:0 257:0 258:0 259:0 260:0 261:0 262:0.40000001 263:0.40000001 264:0.40000001 265:0 266:0 267:0 268:0.40000001 269:0.79000002 270:0 271:0 272:0.40000001 273:0 274:0 275:0 276:0 277:0 278:0 279:0 280:0 281:0 282:0 283:0 284:0 285:1.1900001 286:0.40000001 287:0.40000001 288:0.79000002 289:0.40000001 290:0 291:0 292:0 293:0 294:0.40000001 295:0 296:0 297:0 298:0 299:0 300:0.40000001 301:0.40000001 302:0 303:0 304:0.79000002 305:0 306:0.40000001 307:0.79000002 308:0 309:0 310:0.79000002 311:0 312:0 313:0 314:0.40000001 315:0 316:0.79000002 317:0 318:0 319:0 320:0.40000001 321:0 322:0 323:0 324:0.40000001 325:0.40000001 326:0 327:0 328:0 329:0.40000001 330:1.1900001 331:0.40000001 332:0 333:0 334:0.79000002 335:0 336:0 337:0.40000001 338:0 339:0 340:0.40000001 341:0 342:0 343:0 344:0 345:0.40000001 346:0 347:0.79000002 348:0 349:0.79000002 350:1.1900001 351:0 352:0 353:0 354:0 355:0 356:0 357:0.40000001 358:0 359:0 360:0.40000001 361:0 362:0 363:0 364:0.40000001 365:0 366:0 367:0 368:0 369:0 370:0 371:0 372:0 373:0 374:0 375:0 376:0 377:0 378:0.40000001 379:0 380:0 381:1.1900001 382:0 383:0 384:0 385:0 386:0 387:0.79000002 388:0 389:0.40000001 390:0.79000002 391:0 392:0 393:0.40000001 394:0 395:0.40000001 396:0 397:0.40000001 398:0 399:0 400:0 #
0.00067298371351005804776729268823487 1:2.1400001 2:0 3:1.0700001 4:0.36000001 5:0 6:1.0700001 7:0.36000001 8:0 9:0.36000001 10:1.42 11:0.36000001 12:0.36000001 13:0.70999998 14:0.70999998 15:0.36000001 16:1.0700001 17:0 18:0.70999998 19:0 20:0 21:0 22:0 23:0 24:0 25:0 26:0.36000001 27:0 28:0.36000001 29:0 30:0 31:0 32:0 33:0 34:0 35:0 36:0 37:0 38:0 39:0 40:0 41:1.42 42:0 43:0.36000001 44:0 45:0.36000001 46:0.70999998 47:0.36000001 48:0.36000001 49:0.36000001 50:1.0700001 51:0 52:0 53:0 54:0 55:0 56:0 57:0 58:0.70999998 59:0 60:0 61:0 62:0 63:0.36000001 64:0.36000001 65:0 66:0.70999998 67:0.36000001 68:0.36000001 69:0.70999998 70:0 71:0 72:0 73:0 74:0.36000001 75:0.70999998 76:0 77:1.42 78:0 79:0 80:0 81:0 82:0 83:0 84:0.70999998 85:0 86:1.0700001 87:0 88:0 89:0 90:0.36000001 91:0 92:0.36000001 93:0 94:0.36000001 95:0 96:0.70999998 97:0 98:0 99:0 100:0.70999998 101:1.0700001 102:0 103:0 104:0.70999998 105:0.70999998 106:0 107:0 108:1.0700001 109:0 110:0.70999998 111:0 112:0.36000001 113:0.70999998 114:0.70999998 115:1.78 116:0 117:0 118:1.0700001 119:0 120:0.36000001 121:0.36000001 122:0 123:0 124:0.36000001 125:0 126:1.0700001 127:0.36000001 128:0 129:0 130:0 131:0 132:0 133:0 134:0.36000001 135:0 136:0 137:0 138:0.70999998 139:0 140:0 141:0.36000001 142:0 143:0.36000001 144:0.70999998 145:0.70999998 146:0.36000001 147:0.36000001 148:0 149:0 150:0.36000001 151:0 152:0.36000001 153:0 154:0 155:0 156:0 157:0.70999998 158:0.70999998 159:0 160:0 161:0 162:0 163:0.36000001 164:0.36000001 165:0.36000001 166:0 167:0 168:0.36000001 169:0.36000001 170:0 171:0 172:0 173:0 174:0 175:0.36000001 176:0.70999998 177:0 178:0.36000001 179:0 180:0 181:2.1400001 182:0 183:0.36000001 184:1.0700001 185:0 186:0 187:1.0700001 188:0.36000001 189:0.36000001 190:1.42 191:0 192:0 193:1.0700001 194:0.36000001 195:0.70999998 196:1.0700001 197:0.36000001 198:0.36000001 199:0 200:0 201:0.36000001 202:0 203:0 204:0 205:0 206:0 207:0 208:0.36000001 209:0 210:0 211:0.36000001 212:0.36000001 213:0 214:0 215:0.36000001 216:0 217:0 218:0 219:0 220:0 221:1.0700001 222:0 223:0.36000001 224:0.36000001 225:0 226:0 227:0 228:0 229:0 230:0 231:0 232:0 233:0 234:0 235:0 236:0.36000001 237:0 238:0.36000001 239:0 240:0 241:0 242:0.36000001 243:0.70999998 244:0 245:0 246:0.36000001 247:0 248:0.36000001 249:0 250:0.70999998 251:0 252:0 253:1.0700001 254:0 255:0.36000001 256:0 257:0.36000001 258:0.70999998 259:0 260:0.36000001 261:0.70999998 262:0 263:0 264:0 265:0 266:0 267:0 268:0 269:0.36000001 270:1.0700001 271:0 272:0 273:0.36000001 274:0.36000001 275:0.70999998 276:0 277:0 278:0.70999998 279:0 280:0.36000001 281:0.70999998 282:0.36000001 283:0.36000001 284:0 285:1.0700001 286:1.78 287:0.36000001 288:0.36000001 289:0.36000001 290:0.36000001 291:0.36000001 292:0 293:0 294:0.36000001 295:0.36000001 296:0.36000001 297:0 298:0.36000001 299:0 300:0 301:0 302:0 303:0.36000001 304:0 305:0.36000001 306:0.36000001 307:0 308:0 309:0.36000001 310:0.70999998 311:0.36000001 312:0.70999998 313:0 314:0 315:0.70999998 316:1.0700001 317:1.0700001 318:0 319:0 320:0 321:0 322:0 323:0.36000001 324:0 325:0 326:0 327:0 328:0 329:0 330:1.42 331:0 332:0 333:0 334:0.70999998 335:0.36000001 336:0.36000001 337:0 338:0.70999998 339:0 340:0 341:0.70999998 342:0 343:0.36000001 344:0 345:0.36000001 346:1.0700001 347:0.36000001 348:1.0700001 349:0 350:0.70999998 351:0.36000001 352:0 353:1.0700001 354:0.36000001 355:0.70999998 356:0 357:0 358:0.36000001 359:0 360:0.36000001 361:0 362:0 363:0 364:0 365:0 366:0 367:0 368:0 369:0 370:0 371:0 372:0 373:0 374:0 375:0 376:0 377:0 378:0 379:0 380:0 381:0 382:0 383:0.36000001 384:0 385:0.36000001 386:0.36000001 387:0 388:0 389:0 390:0.36000001 391:0 392:0 393:0.36000001 394:0 395:0 396:0.36000001 397:0 398:0 399:0 400:0 #
-0.0001394723346495940015290354585531 1:0.34999999 2:0 3:0.69 4:0.69 5:0.69 6:0 7:0 8:0.51999998 9:0.86000001 10:1.04 11:0.17 12:0 13:0.17 14:0.34999999 15:0.17 16:0.17 17:0.51999998 18:0 19:0 20:0.34999999 21:0 22:0 23:0 24:0 25:0 26:0.17 27:0 28:0 29:0 30:0 31:0 32:0 33:0 34:0 35:0 36:0 37:0.34999999 38:0.17 39:0 40:0 41:0.34999999 42:0 43:0.86000001 44:0.34999999 45:0.51999998 46:0.17 47:0 48:1.04 49:0.17 50:1.38 51:0 52:0 53:0.51999998 54:0.51999998 55:0 56:0.17 57:0.17 58:0.51999998 59:0 60:0 61:0.86000001 62:0.17 63:0.34999999 64:0.69 65:0.69 66:0 67:0 68:0.51999998 69:0.69 70:1.38 71:0 72:0.69 73:0 74:0.17 75:0.34999999 76:0.51999998 77:0.69 78:0.17 79:0 80:0 81:0.17 82:0 83:0 84:0.69 85:0.17 86:0.51999998 87:0 88:0.69 89:0 90:0.51999998 91:0 92:0.34999999 93:0 94:0.17 95:0 96:0.34999999 97:0.34999999 98:0.34999999 99:0 100:0.34999999 101:0.51999998 102:0 103:0.17 104:0.17 105:0.34999999 106:0.34999999 107:0 108:0.34999999 109:0.69 110:0.51999998 111:0 112:0 113:0.17 114:0 115:0.34999999 116:0.34999999 117:0.69 118:0.69 119:0 120:0.17 121:0.17 122:0 123:0.34999999 124:0 125:0.17 126:0.17 127:0.34999999 128:0.17 129:0.17 130:0.17 131:0 132:0 133:0 134:0 135:0 136:0.17 137:0 138:0.17 139:0 140:0 141:0.51999998 142:0.17 143:0.51999998 144:0.51999998 145:0 146:0.34999999 147:0 148:0.34999999 149:1.04 150:1.55 151:0.17 152:0.17 153:0.34999999 154:0.34999999 155:0.34999999 156:0.34999999 157:0.69 158:0.86000001 159:0 160:0.34999999 161:0.51999998 162:0 163:0.17 164:0.51999998 165:0.34999999 166:0.17 167:0.51999998 168:0.86000001 169:0.51999998 170:0.51999998 171:0 172:0.17 173:0.34999999 174:0.34999999 175:1.04 176:0.69 177:0.51999998 178:0.34999999 179:0 180:0.17 181:1.55 182:0 183:1.04 184:0.86000001 185:0.34999999 186:0.69 187:0.17 188:1.04 189:0.51999998 190:0.51999998 191:0.34999999 192:0.69 193:0.34999999 194:0 195:0.17 196:0.86000001 197:0.34999999 198:1.04 199:0 200:0 201:0.17 202:0 203:0 204:0.17 205:0 206:0.17 207:0 208:0 209:0 210:0.17 211:0.17 212:0.17 213:0.17 214:0.17 215:0 216:0.17 217:0 218:0 219:0 220:0 221:0.17 222:0 223:0.17 224:0.69 225:0.17 226:0 227:0.17 228:0.86000001 229:0.17 230:0.34999999 231:0 232:0.34999999 233:0.17 234:0 235:0.51999998 236:0.17 237:0.34999999 238:0 239:0.17 240:0 241:0 242:0 243:0.17 244:0.17 245:0.17 246:0.17 247:0.17 248:0.17 249:0.17 250:0 251:0.17 252:0.17 253:0 254:0.17 255:0.34999999 256:0.34999999 257:0.17 258:0.51999998 259:0 260:0 261:0.17 262:0 263:0 264:0.69 265:0.17 266:0 267:0 268:0 269:0.17 270:0.17 271:0 272:0 273:0 274:0 275:0.51999998 276:0.17 277:0 278:0.17 279:0 280:0.34999999 281:0.69 282:0.17 283:0.34999999 284:0.17 285:0.34999999 286:0.34999999 287:0 288:0.51999998 289:0.51999998 290:0.34999999 291:0 292:0 293:0 294:0.17 295:0.34999999 296:0.34999999 297:0.34999999 298:0.51999998 299:0 300:0 301:0 302:0 303:0.86000001 304:0.51999998 305:0.17 306:0.51999998 307:0 308:0.51999998 309:0.34999999 310:0.86000001 311:0.17 312:0.69 313:0.17 314:0 315:0.34999999 316:0.69 317:0.17 318:0.34999999 319:0 320:0 321:0.34999999 322:0 323:0.34999999 324:0.17 325:0 326:1.21 327:0.51999998 328:0.34999999 329:0.51999998 330:0.34999999 331:0.17 332:0.51999998 333:0.34999999 334:0 335:0.17 336:0.51999998 337:0.17 338:0.17 339:0 340:0.34999999 341:0.17 342:0 343:0.51999998 344:0.51999998 345:0.34999999 346:0.34999999 347:0 348:0.34999999 349:1.04 350:0.34999999 351:0 352:0.34999999 353:0.34999999 354:0.17 355:0.51999998 356:0.51999998 357:0.69 358:0.34999999 359:0 360:0 361:0 362:0 363:0 364:0 365:0 366:0 367:0 368:0 369:0.17 370:0 371:0 372:0 373:0 374:0 375:0 376:0 377:0 378:0 379:0 380:0 381:0 382:0.17 383:0.17 384:0.34999999 385:0 386:0.17 387:0.17 388:0.34999999 389:0 390:0.34999999 391:0 392:0.17 393:0 394:0 395:0 396:0 397:0 398:0.17 399:0 400:0.34999999 #
-0.0001394723346495940015290354585531 1:1.49 2:0 3:0.37 4:0.37 5:0.93000001 6:1.12 7:0 8:0 9:0.37 10:1.12 11:0.19 12:0.19 13:0.37 14:0.74000001 15:0.93000001 16:0.19 17:0.56 18:0.74000001 19:0 20:0.56 21:0 22:0 23:0 24:0 25:0 26:0.19 27:0 28:0 29:0.19 30:0 31:0.37 32:0 33:0 34:0.19 35:0 36:0.37 37:0.19 38:0 39:0 40:0 41:1.12 42:0 43:0 44:0.19 45:0 46:0 47:0 48:0.19 49:0.19 50:0.37 51:0 52:0 53:0 54:0 55:0.19 56:0.56 57:0.19 58:0.37 59:0 60:0.37 61:0.56 62:0.19 63:0.37 64:0.93000001 65:0 66:0.37 67:0.19 68:0.19 69:0.19 70:0.37 71:0 72:0 73:0.19 74:0.37 75:0.74000001 76:0.56 77:0 78:0.56 79:0 80:0 81:0.74000001 82:0 83:0 84:0.19 85:0.19 86:0 87:0.19 88:0 89:0.37 90:0.19 91:0 92:0.19 93:0 94:0 95:0.19 96:0.37 97:0.56 98:0.37 99:0.19 100:0.74000001 101:0.56 102:0 103:0.19 104:0.19 105:0.19 106:1.12 107:0.19 108:0.37 109:0.19 110:0.56 111:0 112:0.19 113:0.19 114:0.56 115:0.56 116:0.37 117:0.37 118:0.93000001 119:0.19 120:0 121:0 122:0.19 123:0.19 124:0 125:0.19 126:0.37 127:0 128:0 129:0 130:0 131:0 132:0.19 133:0.37 134:0 135:0.19 136:0.19 137:0 138:0.19 139:0 140:0 141:0.56 142:0.19 143:0.19 144:0 145:0.19 146:0.19 147:0 148:0.19 149:0 150:0 151:0 152:0.37 153:0 154:0.19 155:0.19 156:0.19 157:0 158:0.37 159:0 160:0.19 161:0.37 162:0 163:0.37 164:0 165:0.19 166:0 167:0 168:0 169:0.19 170:0.37 171:0 172:0.19 173:0.74000001 174:0 175:0.56 176:0 177:0 178:0.19 179:0 180:0 181:0.74000001 182:0.37 183:0 184:0.74000001 185:0.93000001 186:0.93000001 187:0 188:0.93000001 189:0.19 190:2.23 191:0.37 192:0.37 193:0 194:0.19 195:0.74000001 196:0.74000001 197:0.37 198:0.56 199:0.19 200:0.37 201:0 202:0 203:0.19 204:0 205:0 206:0 207:0.37 208:0 209:0 210:0.56 211:0 212:0 213:0.19 214:0.19 215:0.37 216:0.19 217:0.37 218:0.37 219:0 220:0.19 221:0.19 222:0 223:0.19 224:0.19 225:0 226:0.37 227:0.37 228:0 229:0 230:0 231:0 232:0 233:0.56 234:0 235:0.19 236:0 237:0.19 238:0 239:0 240:0.19 241:0 242:0.19 243:0.19 244:0.37 245:0.74000001 246:0.19 247:0 248:0 249:0.37 250:0.37 251:0.19 252:0 253:0 254:0 255:0.19 256:0.74000001 257:0.37 258:0.19 259:0 260:0 261:0.56 262:0 263:0.19 264:0.37 265:0 266:0 267:0.19 268:0.19 269:0 270:0.37 271:0.37 272:0 273:0 274:0.19 275:0.37 276:0.56 277:0.19 278:0 279:0 280:0.37 281:0.93000001 282:0 283:0.19 284:0.19 285:0.37 286:0.19 287:0.19 288:0.19 289:0.19 290:1.12 291:0.37 292:0.19 293:0.37 294:0.56 295:0.37 296:0.37 297:0.74000001 298:1.12 299:0.19 300:0.37 301:0.56 302:0 303:0.37 304:1.12 305:0.37 306:0.74000001 307:0.19 308:0.19 309:0.37 310:0.74000001 311:0.19 312:0.37 313:0.37 314:0 315:1.12 316:1.12 317:0.56 318:0.19 319:0 320:0.19 321:0.37 322:0 323:0.19 324:0.19 325:0 326:0.19 327:0 328:0.37 329:0.37 330:1.12 331:0.19 332:0 333:0.19 334:0 335:0.37 336:0.93000001 337:0.19 338:0.93000001 339:0 340:0 341:1.3 342:0 343:0.19 344:0.56 345:0.19 346:0.37 347:0.19 348:0 349:0 350:0.93000001 351:0.56 352:0.19 353:0.37 354:0.19 355:0.19 356:1.12 357:0.37 358:0.19 359:0.19 360:0.19 361:0 362:0.37 363:0 364:0 365:0 366:0.19 367:0 368:0 369:0 370:0.19 371:0 372:0 373:0 374:0 375:0.19 376:0 377:0 378:0 379:0 380:0 381:0.19 382:0 383:0.37 384:0.19 385:0 386:0.37 387:0 388:0.19 389:0 390:0.37 391:0 392:0 393:0.19 394:0.56 395:0.56 396:0.37 397:0.37 398:0 399:0 400:0.37 #
-0.0001394723346495940015290354585531 1:2 2:0 3:0 4:0.67000002 5:0.67000002 6:1.67 7:0.33000001 8:0.33000001 9:0.33000001 10:2 11:0 12:0.33000001 13:0 14:1 15:0.33000001 16:0.33000001 17:0.33000001 18:1.33 19:0.33000001 20:1.33 21:0 22:0 23:0 24:0 25:0 26:0 27:0 28:0 29:0 30:0 31:0 32:0 33:0 34:0 35:0 36:0 37:0.33000001 38:0 39:0 40:0 41:0 42:0 43:0 44:0 45:0 46:0 47:0.33000001 48:0 49:0 50:0.33000001 51:0 52:0 53:0 54:0 55:0 56:0.33000001 57:0 58:0 59:0 60:0 61:0.67000002 62:0 63:0 64:0.67000002 65:0 66:0 67:0 68:0 69:0.33000001 70:0.67000002 71:0 72:0 73:0 74:0.67000002 75:0 76:0 77:0 78:0.67000002 79:0 80:0 81:0.33000001 82:0 83:0 84:0 85:0 86:0.67000002 87:0 88:0.33000001 89:0 90:0.33000001 91:0 92:0 93:0 94:0.33000001 95:0.33000001 96:0 97:0 98:0 99:0 100:0 101:1.33 102:0.33000001 103:0 104:0.33000001 105:0.33000001 106:2.6700001 107:0 108:0.33000001 109:0 110:1.67 111:0.67000002 112:0 113:1.33 114:0.33000001 115:0.33000001 116:0.67000002 117:1 118:0.33000001 119:0.67000002 120:0.33000001 121:0.33000001 122:0 123:0 124:0 125:0 126:0.33000001 127:0.33000001 128:0 129:0 130:0.67000002 131:0 132:0.33000001 133:0.67000002 134:0 135:1 136:0 137:0 138:0 139:0 140:0 141:0 142:0 143:0 144:0.33000001 145:0 146:0 147:0 148:0 149:0 150:0 151:0 152:0 153:0.67000002 154:0 155:0.33000001 156:0 157:0 158:0 159:0 160:0 161:0.33000001 162:0 163:0 164:0 165:0 166:0 167:0 168:0 169:0 170:0 171:0 172:0 173:0 174:0.33000001 175:0.33000001 176:0 177:0 178:0.33000001 179:0 180:0 181:2.6700001 182:0 183:0 184:0 185:0.67000002 186:3.6700001 187:1 188:0 189:0 190:2.6700001 191:0.33000001 192:0 193:0.67000002 194:0.67000002 195:1.33 196:0.67000002 197:1.33 198:0.67000002 199:1.33 200:0.33000001 201:1.33 202:0 203:0 204:0 205:0 206:0 207:0 208:0 209:0 210:0.33000001 211:0 212:0 213:0 214:0 215:0.33000001 216:0 217:0 218:0 219:0 220:0 221:0 222:0 223:0 224:0 225:0 226:0 227:0 228:0 229:0 230:0 231:0 232:0 233:0 234:0 235:0.33000001 236:0.33000001 237:0 238:0 239:0 240:0 241:0.33000001 242:0 243:0.33000001 244:0 245:0 246:0.67000002 247:0 248:0.33000001 249:0 250:1 251:0.33000001 252:0 253:0.67000002 254:0.33000001 255:0.33000001 256:0.33000001 257:0 258:0.67000002 259:0.33000001 260:0 261:0.33000001 262:0 263:0 264:0.33000001 265:0 266:0.33000001 267:0.33000001 268:0 269:0 270:1 271:0 272:0 273:0.33000001 274:0 275:1 276:0.67000002 277:0 278:0.33000001 279:0 280:0 281:1 282:0 283:0.33000001 284:0.33000001 285:0.33000001 286:0.33000001 287:0.33000001 288:0 289:0 290:2 291:0 292:0 293:0 294:0.33000001 295:0.67000002 296:0.67000002 297:0 298:0.67000002 299:0.33000001 300:0.33000001 301:0 302:0 303:0.33000001 304:0 305:0 306:0.33000001 307:0.33000001 308:0 309:0 310:1.67 311:0 312:0 313:0.33000001 314:0 315:0.33000001 316:0.33000001 317:0.67000002 318:0.33000001 319:0 320:0.33000001 321:1.33 322:0 323:0 324:0.67000002 325:0 326:0.33000001 327:0 328:0 329:0.33000001 330:0.33000001 331:0 332:0 333:0 334:0 335:0 336:0.33000001 337:0 338:0 339:0 340:0.33000001 341:0.67000002 342:0 343:0 344:0 345:0 346:1.67 347:0 348:0 349:0.33000001 350:1.67 351:0 352:0 353:1 354:0.33000001 355:0 356:0 357:0 358:0.67000002 359:0.33000001 360:0 361:0.67000002 362:0 363:0 364:0 365:0 366:0 367:0.67000002 368:0 369:0 370:1 371:0.33000001 372:0 373:0 374:0 375:0 376:0 377:0 378:0.67000002 379:0 380:0 381:0 382:0 383:0 384:0.33000001 385:0.33000001 386:0.33000001 387:0 388:0 389:0 390:0.67000002 391:0 392:0 393:0 394:0.33000001 395:0.67000002 396:0.33000001 397:0 398:0 399:0 400:0 #
0.0004677422042369085218409263671191 1:3.8699999 2:0 3:0.55000001 4:0.92000002 5:0 6:1.47 7:0 8:0.55000001 9:0.37 10:0.55000001 11:0.55000001 12:0.18000001 13:0.18000001 14:0.18000001 15:0.74000001 16:1.47 17:0.55000001 18:1.47 19:0 20:0.18000001 21:0 22:0 23:0 24:0 25:0 26:0.18000001 27:0 28:0 29:0.18000001 30:0 31:0 32:0 33:0 34:0 35:0.18000001 36:0.18000001 37:0 38:0.18000001 39:0 40:0.18000001 41:0.18000001 42:0.18000001 43:0.18000001 44:0.55000001 45:0.18000001 46:0.18000001 47:0 48:0 49:0 50:0.18000001 51:0.18000001 52:0 53:0.74000001 54:0.18000001 55:0 56:0 57:0.55000001 58:0.55000001 59:0.18000001 60:0.18000001 61:0.92000002 62:0 63:0.18000001 64:0.37 65:0 66:0.55000001 67:0.37 68:0.18000001 69:0 70:0.74000001 71:0.18000001 72:0 73:0.37 74:0 75:0.55000001 76:0.18000001 77:0.18000001 78:0.74000001 79:0.55000001 80:0.18000001 81:0.18000001 82:0 83:0 84:0.18000001 85:0 86:0.74000001 87:0 88:0 89:0.18000001 90:0.18000001 91:0 92:0 93:0 94:0 95:0 96:0 97:0.18000001 98:0 99:0 100:0 101:1.29 102:0 103:0.18000001 104:0.37 105:0.37 106:1.84 107:0 108:0.18000001 109:0.37 110:0.92000002 111:0.18000001 112:0.18000001 113:0.55000001 114:0.18000001 115:0.74000001 116:2.03 117:0.18000001 118:1.29 119:0.18000001 120:0.18000001 121:0.18000001 122:0 123:0 124:0.37 125:0 126:0 127:0 128:0 129:0 130:0.18000001 131:0 132:0.18000001 133:0 134:0.18000001 135:0 136:0 137:0 138:0.37 139:0 140:0 141:0 142:0 143:0.18000001 144:0 145:0.18000001 146:0.18000001 147:0 148:0 149:0.18000001 150:0 151:0.37 152:0 153:0 154:0 155:0 156:0.18000001 157:0.18000001 158:0.18000001 159:0 160:0 161:0.55000001 162:0 163:0 164:0 165:0 166:0.55000001 167:0 168:0.18000001 169:0.37 170:0.55000001 171:0 172:0 173:0 174:0 175:0.55000001 176:0 177:0.37 178:0.18000001 179:0 180:0 181:0.92000002 182:0.37 183:0.37 184:1.1 185:0 186:0.74000001 187:0.18000001 188:0 189:0 190:2.03 191:0 192:0 193:0.74000001 194:0.37 195:0.74000001 196:0.55000001 197:0.37 198:0.55000001 199:0.18000001 200:0 201:0.18000001 202:0 203:0 204:0.18000001 205:0 206:0 207:0.18000001 208:0 209:0.18000001 210:0 211:0 212:0.18000001 213:0 214:0 215:0.18000001 216:0.18000001 217:0 218:0.37 219:0.37 220:0 221:0.18000001 222:0 223:0 224:0 225:0 226:0 227:0 228:0 229:0 230:0.18000001 231:0 232:0 233:0 234:0 235:0.18000001 236:0.18000001 237:0 238:0 239:0 240:0 241:0.55000001 242:0 243:0.18000001 244:0.55000001 245:0 246:0.74000001 247:0 248:0.18000001 249:0.18000001 250:0.18000001 251:0 252:0 253:0.55000001 254:0.74000001 255:0.55000001 256:0.37 257:0 258:0 259:0.18000001 260:0 261:0.18000001 262:0 263:0 264:0.18000001 265:0.18000001 266:0.18000001 267:0.18000001 268:0.18000001 269:0.37 270:0.55000001 271:0 272:0 273:0.37 274:0.55000001 275:0.55000001 276:0 277:0.18000001 278:0.18000001 279:0 280:0 281:1.29 282:0.18000001 283:0.37 284:0.18000001 285:0.55000001 286:0.55000001 287:0.18000001 288:0 289:0.18000001 290:1.29 291:0.18000001 292:0 293:0.18000001 294:0.55000001 295:1.1 296:0.18000001 297:0 298:0.37 299:0 300:0.18000001 301:1.1 302:0 303:0.55000001 304:0.55000001 305:0 306:1.84 307:0.18000001 308:0 309:0 310:0.55000001 311:0 312:0 313:0.55000001 314:0 315:0.18000001 316:2.03 317:0.37 318:0.37 319:0.18000001 320:0 321:0.92000002 322:0 323:0.18000001 324:0.18000001 325:0 326:0.74000001 327:0 328:0 329:0.37 330:0.18000001 331:0 332:0 333:0.18000001 334:0.18000001 335:0.18000001 336:0.37 337:0.37 338:1.1 339:0 340:0.18000001 341:1.1 342:0 343:0.92000002 344:0.37 345:0.18000001 346:0.37 347:0.18000001 348:0.18000001 349:0.37 350:0.74000001 351:0.18000001 352:0 353:0.37 354:0.18000001 355:0.74000001 356:0.37 357:1.47 358:1.47 359:0.37 360:0 361:0 362:0.18000001 363:0.37 364:0.18000001 365:0 366:0.18000001 367:0 368:0 369:0 370:0 371:0 372:0 373:0 374:0.37 375:0.55000001 376:0.18000001 377:0.18000001 378:0 379:0 380:0 381:0.18000001 382:0.18000001 383:0 384:0 385:0 386:0.18000001 387:0 388:0 389:0 390:0.18000001 391:0 392:0 393:0.18000001 394:0.18000001 395:0 396:0 397:0 398:0.18000001 399:0 400:0.18000001 #
0.0005093289406815822975213570167341 1:0.79000002 2:0.090000004 3:0.090000004 4:0.090000004 5:0.18000001 6:0.34999999 7:0.18000001 8:0.70999998 9:0.44 10:0 11:0 12:0.090000004 13:0.25999999 14:0 15:0.090000004 16:0.34999999 17:0 18:0.090000004 19:0 20:0.25999999 21:0.090000004 22:0 23:0.090000004 24:0.090000004 25:0 26:0.090000004 27:0.090000004 28:0.18000001 29:0.090000004 30:0.18000001 31:0 32:0 33:0.090000004 34:0 35:0 36:0 37:0 38:0.25999999 39:0 40:0.090000004 41:0.25999999 42:0.18000001 43:0.18000001 44:1.9400001 45:0.25999999 46:0.18000001 47:0.090000004 48:0.52999997 49:0.25999999 50:0.18000001 51:0.090000004 52:0.34999999 53:0.44 54:0 55:0.88 56:1.76 57:0.25999999 58:0.44 59:0 60:0.25999999 61:0.090000004 62:0 63:0.25999999 64:1.15 65:0 66:0.18000001 67:0 68:1.9400001 69:0.79000002 70:0.090000004 71:0.62 72:1.0599999 73:0.25999999 74:0.18000001 75:0.090000004 76:0.88 77:0.25999999 78:0.52999997 79:0 80:0.44 81:0 82:0 83:0.25999999 84:0.18000001 85:0 86:0.090000004 87:0.090000004 88:0 89:0.34999999 90:0 91:0 92:0.090000004 93:0 94:0.18000001 95:0 96:0.34999999 97:0.090000004 98:0.090000004 99:0 100:0 101:0.18000001 102:0 103:0.34999999 104:0.090000004 105:0 106:0.52999997 107:0 108:0.52999997 109:0.44 110:0.090000004 111:0 112:0.52999997 113:0.090000004 114:0.090000004 115:0.44 116:0.090000004 117:0.18000001 118:0.18000001 119:0 120:0.18000001 121:0 122:0 123:0.44 124:0 125:0.090000004 126:0 127:0 128:0 129:0.090000004 130:0 131:0 132:0.25999999 133:0.090000004 134:0 135:0 136:0.090000004 137:0 138:0.090000004 139:0 140:0 141:0.34999999 142:0.090000004 143:0.52999997 144:0.090000004 145:0.25999999 146:0.18000001 147:0 148:0.34999999 149:1.3200001 150:0.62 151:0.090000004 152:0.70999998 153:0.18000001 154:0.18000001 155:0.62 156:1.3200001 157:0.79000002 158:0.25999999 159:0 160:0.34999999 161:0.25999999 162:0.090000004 163:0.34999999 164:0.62 165:0.18000001 166:0.44 167:0.090000004 168:0.70999998 169:1.0599999 170:0.70999998 171:0.52999997 172:0.44 173:0.18000001 174:0.44 175:0.70999998 176:0.88 177:0.44 178:0.88 179:0 180:0.090000004 181:0.18000001 182:0 183:1.0599999 184:0.62 185:0.090000004 186:0.090000004 187:0.18000001 188:0.18000001 189:0.34999999 190:0.18000001 191:0.18000001 192:0.25999999 193:0.44 194:0 195:0.34999999 196:0.18000001 197:0.44 198:0.34999999 199:0 200:0 201:0.18000001 202:0 203:0.52999997 204:0.25999999 205:0 206:0 207:0 208:0.090000004 209:0.62 210:0.090000004 211:0.18000001 212:0 213:0 214:0 215:0 216:0.18000001 217:0.090000004 218:0 219:0 220:0.090000004 221:0.52999997 222:0.18000001 223:1.15 224:0.62 225:0.18000001 226:0.18000001 227:0 228:0.18000001 229:0.70999998 230:0.79000002 231:0.090000004 232:0.25999999 233:0.18000001 234:0.090000004 235:0.62 236:1.23 237:0.18000001 238:0.25999999 239:0.090000004 240:0.090000004 241:0 242:0 243:0.34999999 244:0.97000003 245:0.090000004 246:0.18000001 247:0.090000004 248:0 249:0.18000001 250:0.090000004 251:0 252:0 253:0.18000001 254:0.44 255:0.090000004 256:0 257:0.25999999 258:0.34999999 259:0 260:0 261:0.090000004 262:0.090000004 263:0 264:0.090000004 265:0 266:0 267:0.34999999 268:0.52999997 269:0.18000001 270:0.79000002 271:0.18000001 272:0.18000001 273:0 274:0.44 275:0.25999999 276:0.090000004 277:0.090000004 278:0.18000001 279:0 280:0 281:0.25999999 282:0.090000004 283:0.79000002 284:0 285:0 286:0.44 287:0 288:0.25999999 289:0.090000004 290:0 291:0 292:1.6799999 293:0.44 294:0.090000004 295:1.41 296:0 297:1.0599999 298:0.18000001 299:0.44 300:0.090000004 301:0.44 302:0.090000004 303:1.0599999 304:1.41 305:0.25999999 306:0.52999997 307:0 308:1.15 309:0.52999997 310:0.090000004 311:0 312:0.79000002 313:0.18000001 314:0.44 315:0.70999998 316:1.6799999 317:0.62 318:0.44 319:0 320:0.090000004 321:0.090000004 322:0.18000001 323:0.52999997 324:0.34999999 325:0.090000004 326:0.18000001 327:0 328:0.52999997 329:0.62 330:0.25999999 331:0 332:0.25999999 333:0.090000004 334:0.18000001 335:0.70999998 336:0.44 337:0.34999999 338:0.25999999 339:0.18000001 340:0.090000004 341:0.090000004 342:0.18000001 343:0.25999999 344:0.18000001 345:0.090000004 346:0.25999999 347:0 348:0.34999999 349:0.52999997 350:0.34999999 351:0.25999999 352:0.090000004 353:0.090000004 354:0.70999998 355:0.34999999 356:0.88 357:0.090000004 358:0.18000001 359:0 360:0.090000004 361:0 362:0 363:0.090000004 364:0 365:0 366:0 367:0 368:0 369:0 370:0.44 371:0 372:0 373:0.090000004 374:0 375:0 376:0.090000004 377:0 378:0 379:0 380:0 381:0.18000001 382:0.090000004 383:0.18000001 384:0.090000004 385:0 386:0.090000004 387:0 388:0.090000004 389:0.44 390:0.18000001 391:0 392:0.52999997 393:0 394:0.090000004 395:0.090000004 396:0 397:0.18000001 398:0 399:0 400:0.090000004 #
0.00031427214707905237658230879205234 1:0.69999999 2:0 3:0.30000001 4:0.5 5:0.1 6:0.2 7:0 8:0.2 9:0.30000001 10:0.60000002 11:0.1 12:0.40000001 13:0.30000001 14:0.30000001 15:0.5 16:0.1 17:0 18:0.60000002 19:0 20:0.1 21:0 22:0.1 23:0 24:0 25:0.1 26:0 27:0 28:0.1 29:0 30:0.2 31:0 32:0 33:0 34:0.1 35:0 36:0 37:0 38:0.1 39:0 40:0 41:0.2 42:0.1 43:1.09 44:0.30000001 45:0.5 46:0.30000001 47:0.1 48:0.5 49:0.40000001 50:0.79000002 51:0.2 52:0.69999999 53:0.5 54:0.1 55:0.60000002 56:0.2 57:0.40000001 58:0.69999999 59:0.1 60:0.79000002 61:0.5 62:0.2 63:0.69999999 64:1.49 65:0.5 66:0.1 67:0 68:0.1 69:1.09 70:0.5 71:0.2 72:0.5 73:0.2 74:0.60000002 75:0.88999999 76:0.40000001 77:0.2 78:0.2 79:0 80:0.40000001 81:0.1 82:0 83:0.30000001 84:0.5 85:0.2 86:0.2 87:0 88:0.1 89:0.40000001 90:0.1 91:0 92:0.1 93:0.2 94:0.2 95:0 96:0.2 97:0.60000002 98:0.1 99:0.30000001 100:0.2 101:0.2 102:0 103:0.30000001 104:0.40000001 105:0.2 106:0.5 107:0 108:0.30000001 109:0.30000001 110:0.2 111:0.1 112:0.30000001 113:0.1 114:0.1 115:0.30000001 116:0.30000001 117:0.2 118:0.2 119:0 120:0.30000001 121:0 122:0 123:0.1 124:0 125:0 126:0.2 127:0 128:0 129:0 130:0.2 131:0 132:0 133:0.1 134:0.1 135:0.1 136:0 137:0 138:0 139:0 140:0 141:0.40000001 142:0 143:0.69999999 144:0.30000001 145:0.2 146:0.60000002 147:0.1 148:0.2 149:0.60000002 150:0.1 151:0 152:0.40000001 153:0.2 154:0.1 155:0 156:0.40000001 157:0.40000001 158:0.30000001 159:0 160:0.1 161:0.30000001 162:0 163:1.1900001 164:0.60000002 165:0.1 166:0 167:0.1 168:0.79000002 169:0.79000002 170:0.79000002 171:0.1 172:0.1 173:0.30000001 174:0.5 175:0.5 176:0.40000001 177:0.79000002 178:0.2 179:0 180:0.30000001 181:0.30000001 182:0 183:0.69999999 184:1.09 185:0.30000001 186:0.40000001 187:0 188:0.5 189:0.60000002 190:0.5 191:0.1 192:0.5 193:0.40000001 194:0.40000001 195:0.30000001 196:0.30000001 197:0.30000001 198:0.40000001 199:0 200:0.30000001 201:0.1 202:0 203:0.1 204:0.1 205:0 206:0.1 207:0 208:0.1 209:0 210:0.1 211:0 212:0.30000001 213:0.1 214:0.2 215:0 216:0.1 217:0.1 218:0.1 219:0 220:0 221:0.30000001 222:0.1 223:0.79000002 224:0.40000001 225:0 226:0.30000001 227:0 228:0.2 229:0.40000001 230:0.40000001 231:0 232:0.1 233:0.40000001 234:0.30000001 235:0.30000001 236:0.5 237:0.2 238:0.40000001 239:0 240:0.2 241:0.2 242:0 243:0.1 244:0.40000001 245:0.30000001 246:0.1 247:0 248:0.2 249:0.2 250:0.60000002 251:0 252:0.1 253:0 254:0.99000001 255:0.40000001 256:0.5 257:0.40000001 258:0.2 259:0.1 260:0.2 261:0.40000001 262:0.1 263:0.40000001 264:0.60000002 265:0.30000001 266:0 267:0.2 268:0.60000002 269:0.5 270:0.30000001 271:0.1 272:0.30000001 273:0.69999999 274:2.6800001 275:0.60000002 276:0.60000002 277:0.2 278:0 279:0 280:0 281:0.69999999 282:0 283:0.30000001 284:0.40000001 285:0.2 286:0 287:0 288:0.2 289:0.2 290:0.69999999 291:0.1 292:0.2 293:0.2 294:0.99000001 295:1.6900001 296:0.1 297:0.1 298:0.2 299:0 300:0.30000001 301:0.2 302:0 303:0.2 304:0.69999999 305:0.2 306:0.30000001 307:0 308:0.1 309:0.30000001 310:0.2 311:0.30000001 312:0.60000002 313:0.40000001 314:0.2 315:0.1 316:0.79000002 317:0.40000001 318:0.60000002 319:0.1 320:0.1 321:0.30000001 322:0.1 323:0.2 324:0.60000002 325:0.5 326:0.2 327:0.2 328:0.60000002 329:0.40000001 330:0.60000002 331:0.1 332:0.1 333:0.2 334:0.2 335:0.1 336:0.1 337:0.1 338:0.30000001 339:0 340:0.2 341:0.30000001 342:0 343:0.60000002 344:0.30000001 345:0.1 346:0.2 347:0 348:0.2 349:0.88999999 350:0.1 351:0 352:0.40000001 353:0.60000002 354:0.2 355:0 356:0.5 357:0.5 358:0.40000001 359:0 360:0.1 361:0 362:0 363:0 364:0 365:0.1 366:0.2 367:0 368:0 369:0 370:0.1 371:0 372:0 373:0 374:0.1 375:0 376:0 377:0.1 378:0 379:0.1 380:0 381:0.1 382:0 383:0.5 384:0.1 385:0 386:0.40000001 387:0.1 388:0.1 389:0.5 390:0.30000001 391:0 392:0.2 393:0.1 394:0.2 395:0.2 396:0.30000001 397:0.1 398:0.40000001 399:0 400:0.40000001 #
-0.0001394723346495940015290354585531 1:2.4100001 2:0 3:0.80000001 4:0.63999999 5:0.16 6:0.63999999 7:0 8:0.31999999 9:0.95999998 10:0.95999998 11:0.16 12:0.16 13:0.63999999 14:0.31999999 15:0.47999999 16:0.47999999 17:0.31999999 18:0.80000001 19:0 20:0.31999999 21:0 22:0.16 23:0 24:0.16 25:0 26:0.31999999 27:0 28:0 29:0 30:0.31999999 31:0 32:0 33:0 34:0.16 35:0.16 36:0.16 37:0.16 38:0 39:0 40:0 41:0.63999999 42:0.16 43:0 44:0.31999999 45:0.16 46:0.47999999 47:0.16 48:0 49:0.47999999 50:0.31999999 51:0.47999999 52:0.16 53:0 54:0.16 55:0.16 56:0.31999999 57:0.47999999 58:0.80000001 59:0.16 60:0 61:0.80000001 62:0 63:0.31999999 64:0.47999999 65:0.31999999 66:0.63999999 67:0.16 68:0.80000001 69:0.47999999 70:0.16 71:0.16 72:0 73:0.31999999 74:0.31999999 75:0.16 76:1.77 77:0.31999999 78:0.47999999 79:0.16 80:0 81:0 82:0 83:0.31999999 84:0.31999999 85:0 86:0 87:0 88:0 89:0 90:0.16 91:0 92:0 93:0.31999999 94:0 95:0.31999999 96:0.16 97:0.31999999 98:0.63999999 99:0 100:0 101:0.80000001 102:0 103:0.31999999 104:0.95999998 105:0.31999999 106:0.95999998 107:0 108:0.47999999 109:0.47999999 110:0.63999999 111:0 112:0.16 113:0.31999999 114:0.31999999 115:0.63999999 116:0.63999999 117:0.31999999 118:0.31999999 119:0.16 120:0.16 121:0.16 122:0 123:0.16 124:0.16 125:0.16 126:0.16 127:0 128:0 129:0 130:0 131:0.16 132:0.16 133:0.16 134:0.16 135:0.16 136:0 137:0 138:0.16 139:0 140:0.16 141:0.63999999 142:0.16 143:0.80000001 144:0.16 145:0 146:0.63999999 147:0.16 148:0 149:0.16 150:0.95999998 151:0 152:0.31999999 153:0.31999999 154:0 155:0 156:0.16 157:0.31999999 158:0.16 159:0.16 160:0.16 161:0.16 162:0 163:0.31999999 164:0.31999999 165:0.16 166:0.16 167:0.31999999 168:0.47999999 169:0.31999999 170:0.63999999 171:0.16 172:0.31999999 173:0.16 174:0.16 175:0.47999999 176:0.16 177:0.31999999 178:0.16 179:0 180:0 181:0.95999998 182:0.47999999 183:0.47999999 184:0.63999999 185:0.31999999 186:0.31999999 187:0.16 188:0.47999999 189:0.16 190:0.80000001 191:0 192:0 193:0 194:0 195:0.80000001 196:0.80000001 197:0.80000001 198:0.80000001 199:0 200:0.31999999 201:0.16 202:0.16 203:0.16 204:0 205:0 206:0.47999999 207:0 208:0.16 209:0 210:0.16 211:0 212:0.16 213:0 214:0 215:0.31999999 216:0.31999999 217:0 218:0.16 219:0 220:0.16 221:0.31999999 222:0 223:0.16 224:0 225:0 226:0 227:0.16 228:0.16 229:0.16 230:0.31999999 231:0.16 232:0.16 233:0 234:0.16 235:0 236:0.31999999 237:0.16 238:0.31999999 239:0 240:0 241:0 242:0 243:0 244:0.63999999 245:0.16 246:0.47999999 247:0 248:0.16 249:0.31999999 250:0.16 251:0 252:0 253:0.16 254:0 255:0.16 256:0.16 257:0.31999999 258:0.47999999 259:0.16 260:0 261:0.31999999 262:0 263:0.16 264:0.31999999 265:0 266:0.31999999 267:0.31999999 268:0 269:0.16 270:0.16 271:0 272:0 273:0.16 274:1.61 275:0.16 276:0.16 277:0.16 278:0.31999999 279:0 280:0.16 281:1.12 282:0 283:0.16 284:0 285:0.47999999 286:0.31999999 287:0.16 288:0.47999999 289:0.31999999 290:0.31999999 291:0.16 292:0 293:0.16 294:0.47999999 295:0.95999998 296:0.95999998 297:0.16 298:0.31999999 299:0 300:0 301:0.80000001 302:0.31999999 303:0.63999999 304:0.47999999 305:0 306:0.80000001 307:0.16 308:0.80000001 309:0 310:0.63999999 311:0.47999999 312:0.63999999 313:0.16 314:0.16 315:0.47999999 316:0.95999998 317:0 318:0.80000001 319:0 320:0.16 321:0.31999999 322:0 323:0.16 324:0.80000001 325:0 326:0.47999999 327:0 328:0.31999999 329:0.31999999 330:0.80000001 331:0 332:0 333:0.16 334:0.31999999 335:0.31999999 336:0.47999999 337:0.16 338:0.16 339:0 340:0 341:0.95999998 342:0 343:0.31999999 344:0.95999998 345:0.31999999 346:0.47999999 347:0.16 348:0.47999999 349:0.16 350:0.47999999 351:0.47999999 352:0.16 353:0.31999999 354:0.16 355:0.63999999 356:0.47999999 357:0.16 358:0.63999999 359:0 360:0.47999999 361:0 362:0 363:0.16 364:0.16 365:0 366:0.16 367:0 368:0 369:0 370:0 371:0 372:0 373:0 374:0 375:0.16 376:0 377:0.16 378:0 379:0 380:0 381:0 382:0.16 383:0 384:0.31999999 385:0 386:0.16 387:0 388:0.16 389:0.31999999 390:0.31999999 391:0 392:0.16 393:0 394:0 395:0 396:0 397:0.16 398:0.31999999 399:0 400:0 #
-1.6488595598968777314980924120214e-05 1:0 2:0 3:0.64999998 4:0.64999998 5:0 6:0 7:0 8:0 9:0 10:0 11:0 12:0 13:0 14:0 15:0 16:1.3 17:0.64999998 18:0.64999998 19:0 20:0 21:0 22:0 23:0 24:0 25:0.64999998 26:0 27:0 28:0.64999998 29:0 30:0 31:0 32:0 33:0 34:0 35:0 36:0 37:0 38:0 39:0 40:0 41:0 42:0 43:1.3 44:0.64999998 45:0 46:1.3 47:0.64999998 48:0 49:0 50:2.5999999 51:0 52:0.64999998 53:0 54:0 55:0 56:0.64999998 57:0 58:0 59:0 60:0 61:0 62:0 63:0.64999998 64:0 65:0 66:0 67:0 68:0 69:0 70:0.64999998 71:0 72:0 73:0 74:0 75:1.95 76:0.64999998 77:0 78:0.64999998 79:0 80:0 81:0 82:0 83:0 84:1.3 85:0.64999998 86:0.64999998 87:0 88:0 89:0 90:0.64999998 91:0 92:1.3 93:1.95 94:0 95:0 96:0.64999998 97:0 98:0 99:0 100:0 101:0.64999998 102:0 103:0.64999998 104:0 105:0.64999998 106:0 107:0 108:0 109:0 110:0.64999998 111:0 112:0.64999998 113:0 114:0 115:0.64999998 116:0.64999998 117:0 118:0 119:0 120:0.64999998 121:0 122:0 123:0 124:0 125:0 126:0 127:0 128:0 129:0 130:0 131:0 132:0 133:0 134:0.64999998 135:0 136:0 137:0 138:0 139:0 140:0 141:0 142:0.64999998 143:0.64999998 144:0 145:0 146:0 147:0 148:0.64999998 149:0.64999998 150:0 151:0 152:0 153:1.3 154:0 155:0 156:0.64999998 157:0 158:0 159:0 160:0 161:0.64999998 162:0 163:0 164:0.64999998 165:0 166:0.64999998 167:0 168:0.64999998 169:0.64999998 170:0 171:0.64999998 172:0 173:0 174:0.64999998 175:0 176:1.3 177:0 178:0 179:0 180:0 181:0 182:0 183:0 184:0 185:1.3 186:0 187:0 188:0 189:0.64999998 190:0.64999998 191:0 192:0 193:1.3 194:0.64999998 195:1.3 196:1.95 197:0 198:1.3 199:0 200:0 201:0 202:0 203:0 204:0 205:0.64999998 206:0 207:0 208:0 209:0 210:0 211:0 212:0 213:0 214:0 215:0.64999998 216:0 217:0 218:0 219:0.64999998 220:0 221:0 222:0 223:0.64999998 224:0 225:0 226:0 227:0 228:0 229:0.64999998 230:0 231:0 232:0.64999998 233:0 234:0 235:0.64999998 236:1.95 237:1.3 238:0 239:0 240:0 241:0.64999998 242:0 243:0.64999998 244:0.64999998 245:1.3 246:0 247:0 248:0 249:0.64999998 250:0.64999998 251:0 252:0.64999998 253:0 254:0 255:0 256:0 257:0.64999998 258:0 259:0 260:0 261:0 262:0 263:1.3 264:0 265:0 266:0 267:0 268:0 269:0 270:1.3 271:0.64999998 272:0 273:0 274:0.64999998 275:0 276:0 277:0 278:0 279:0 280:0 281:0 282:0.64999998 283:0 284:0 285:0.64999998 286:1.3 287:0 288:0 289:0.64999998 290:0 291:0 292:0.64999998 293:0.64999998 294:0.64999998 295:0 296:0.64999998 297:0 298:0.64999998 299:0 300:0 301:0.64999998 302:0 303:0.64999998 304:0 305:0 306:1.3 307:0 308:1.3 309:0.64999998 310:0.64999998 311:0 312:1.3 313:0.64999998 314:0.64999998 315:1.3 316:0.64999998 317:0 318:2.5999999 319:0.64999998 320:0 321:0 322:0 323:0 324:0.64999998 325:1.3 326:0 327:0 328:0.64999998 329:0.64999998 330:0.64999998 331:0 332:0 333:0 334:0 335:0 336:0.64999998 337:0 338:0 339:0 340:0 341:1.3 342:0 343:1.3 344:0 345:0 346:0 347:0 348:0 349:0.64999998 350:0.64999998 351:0 352:0 353:0 354:0 355:0 356:0.64999998 357:0.64999998 358:0 359:0 360:0.64999998 361:0 362:0 363:0 364:0 365:0 366:0 367:0 368:0.64999998 369:0 370:0 371:0 372:0 373:0 374:0 375:0 376:0.64999998 377:0 378:0 379:0 380:0 381:0 382:0 383:0 384:0 385:0 386:0 387:0 388:0 389:0 390:0 391:0 392:0 393:0 394:0 395:0 396:0 397:1.3 398:0 399:0 400:0 #
-0.00013623475275431924246156978330902 1:4.3800001 2:0 3:1.99 4:0.80000001 5:0 6:0.80000001 7:0 8:0 9:0.40000001 10:0.40000001 11:0 12:0 13:1.2 14:0 15:1.59 16:1.2 17:0.40000001 18:0.80000001 19:0.40000001 20:0 21:0 22:0 23:0 24:0 25:0 26:0 27:0 28:0 29:0 30:0 31:0 32:0 33:0 34:0 35:0 36:0 37:0 38:0 39:0 40:0 41:0.80000001 42:0 43:0.80000001 44:0.40000001 45:0 46:0.80000001 47:0.80000001 48:0 49:0 50:0 51:0.40000001 52:0.80000001 53:0 54:0.40000001 55:0.40000001 56:0.40000001 57:0.80000001 58:0.80000001 59:0 60:0 61:0.80000001 62:0 63:0 64:1.2 65:0 66:0.40000001 67:0 68:0 69:0.40000001 70:0.40000001 71:0 72:0.40000001 73:0 74:0 75:0.80000001 76:0 77:0 78:0.80000001 79:0 80:0.40000001 81:0 82:0 83:0.40000001 84:0 85:0 86:1.2 87:0 88:0 89:0 90:0 91:0 92:0 93:0.40000001 94:0 95:0 96:0 97:0 98:0 99:0 100:0 101:0.80000001 102:0 103:0.80000001 104:0.40000001 105:0 106:1.2 107:0 108:0 109:0 110:0.40000001 111:0.40000001 112:0.40000001 113:0.40000001 114:0 115:1.2 116:0.40000001 117:0 118:0.80000001 119:0 120:0 121:0.40000001 122:0 123:0 124:0 125:0 126:0.40000001 127:0 128:0 129:0 130:0.40000001 131:0 132:0 133:0.40000001 134:0 135:0 136:0 137:0 138:0 139:0 140:0 141:0.40000001 142:0 143:0 144:0 145:0 146:0 147:0 148:0 149:0 150:0 151:0.40000001 152:0 153:0.40000001 154:0.40000001 155:0.40000001 156:0 157:0.40000001 158:0 159:0 160:0 161:0 162:0 163:0.40000001 164:0 165:0 166:0.40000001 167:0 168:0 169:0.40000001 170:0.40000001 171:0 172:0 173:0 174:0.40000001 175:0 176:0 177:0 178:0.80000001 179:0 180:0 181:0 182:0 183:0.80000001 184:0 185:0 186:0 187:0.40000001 188:0 189:0 190:0 191:0 192:0 193:0.40000001 194:0.40000001 195:0.40000001 196:0.40000001 197:0.40000001 198:0.80000001 199:0.40000001 200:0.40000001 201:0.40000001 202:0 203:0.40000001 204:0 205:0 206:0 207:0 208:0 209:0 210:0 211:0 212:0 213:0.40000001 214:0 215:0 216:0 217:0 218:0.40000001 219:0.40000001 220:0 221:0 222:0 223:0 224:0.40000001 225:0 226:0.80000001 227:0 228:0.40000001 229:0 230:0.80000001 231:0 232:0.40000001 233:0 234:0 235:0 236:0 237:0 238:0.40000001 239:0 240:0 241:1.99 242:0 243:0 244:0.80000001 245:0.40000001 246:0.80000001 247:0 248:0.40000001 249:0.40000001 250:0 251:0 252:0.40000001 253:0.40000001 254:0 255:0.80000001 256:0.40000001 257:0.40000001 258:0 259:0.40000001 260:0 261:0 262:0 263:0.40000001 264:0 265:0 266:0.40000001 267:0 268:0 269:0 270:0 271:0.40000001 272:0 273:0.40000001 274:0.80000001 275:0.80000001 276:0.40000001 277:0 278:0.40000001 279:0 280:0 281:1.99 282:0 283:0.40000001 284:0.40000001 285:0.80000001 286:0 287:0 288:0.40000001 289:0 290:0 291:0 292:0.40000001 293:0.40000001 294:0.80000001 295:0.80000001 296:0 297:2.3900001 298:1.2 299:0.40000001 300:0.40000001 301:1.2 302:0 303:0 304:0 305:0.80000001 306:0 307:0 308:0.40000001 309:0.40000001 310:0 311:0 312:0 313:0.40000001 314:0 315:0 316:1.59 317:0 318:0.80000001 319:0 320:0 321:0.40000001 322:0 323:0.40000001 324:0 325:0 326:0 327:0 328:0.80000001 329:0 330:0.80000001 331:0 332:0 333:0.80000001 334:0 335:1.2 336:0.40000001 337:0.80000001 338:0 339:0 340:0 341:0.80000001 342:0 343:0.40000001 344:0.80000001 345:0 346:0 347:0 348:0 349:0.80000001 350:0.40000001 351:0 352:0.40000001 353:0.80000001 354:1.2 355:1.99 356:0.40000001 357:0 358:1.59 359:0 360:0 361:0 362:0 363:0.40000001 364:0.40000001 365:0 366:0 367:0.40000001 368:0 369:0 370:0 371:0 372:0 373:0.80000001 374:0 375:0 376:0 377:0 378:0 379:0.40000001 380:0 381:0 382:0 383:0 384:0 385:0 386:0 387:0 388:0 389:0 390:0.80000001 391:0 392:0 393:0 394:0 395:0.40000001 396:0 397:0 398:0 399:0 400:0 #
0.0006078021244814947252055326032405 1:0.20999999 2:0 3:0.20999999 4:1.04 5:0.41 6:0 7:0.20999999 8:0.41 9:0.20999999 10:0.41 11:0 12:0.20999999 13:0 14:0.41 15:0.20999999 16:0.20999999 17:0.62 18:0.20999999 19:0 20:0 21:0 22:0 23:0 24:0 25:0 26:0 27:0 28:0 29:0 30:0.20999999 31:0 32:0 33:0 34:0 35:0 36:0 37:0 38:0 39:0 40:0 41:0 42:0 43:0.20999999 44:0.20999999 45:0.41 46:0.41 47:0.20999999 48:0.20999999 49:0.62 50:0.62 51:0 52:0.62 53:0.20999999 54:0.41 55:0.20999999 56:0.20999999 57:0.41 58:0.20999999 59:0 60:0.41 61:1.04 62:0 63:0.41 64:0.41 65:0 66:0 67:0 68:0.62 69:0.82999998 70:1.24 71:0.20999999 72:0.20999999 73:0.62 74:1.04 75:0.20999999 76:0.82999998 77:0.82999998 78:0.62 79:0 80:0 81:0.20999999 82:0 83:0.20999999 84:0.20999999 85:0 86:0.20999999 87:0.20999999 88:0.20999999 89:0 90:0 91:0 92:0.62 93:0.20999999 94:0.20999999 95:0 96:0.62 97:0.41 98:0 99:0 100:0.41 101:0.20999999 102:0 103:0 104:0.20999999 105:0 106:0.41 107:0.20999999 108:0.41 109:0 110:0.62 111:0 112:0.20999999 113:0.20999999 114:0 115:0 116:0.41 117:0.20999999 118:0.20999999 119:0 120:0.20999999 121:0 122:0 123:0.41 124:0.20999999 125:0.20999999 126:0 127:0 128:0.41 129:0 130:0 131:0 132:0.20999999 133:0.20999999 134:0 135:0 136:0 137:0.20999999 138:0.20999999 139:0 140:0 141:0.20999999 142:0 143:0.62 144:0.62 145:0.20999999 146:0.41 147:0 148:0 149:0.20999999 150:0.82999998 151:0.20999999 152:1.24 153:0.20999999 154:0.41 155:0.20999999 156:0.62 157:0.20999999 158:0 159:0.20999999 160:0 161:0.62 162:0 163:0 164:0.82999998 165:0 166:0 167:0 168:1.45 169:0 170:0.20999999 171:0.20999999 172:0.62 173:0.62 174:0.20999999 175:0.20999999 176:0.82999998 177:0.41 178:0 179:0 180:0.20999999 181:0.62 182:0 183:0.41 184:0.62 185:0.62 186:0 187:0.20999999 188:0.20999999 189:0.62 190:0.41 191:0 192:0.62 193:0 194:0.41 195:0.62 196:1.66 197:0.62 198:0.41 199:0.20999999 200:0 201:0.20999999 202:0 203:0.20999999 204:0 205:0.20999999 206:0 207:0 208:0.20999999 209:0 210:0 211:0 212:0 213:0 214:0 215:0 216:0 217:0 218:0 219:0 220:0.20999999 221:0.20999999 222:0 223:0.20999999 224:1.24 225:0.20999999 226:0.20999999 227:0 228:0.20999999 229:0.41 230:0.41 231:0 232:0.41 233:0.41 234:0.41 235:0.20999999 236:0.82999998 237:0.41 238:0.41 239:0 240:0.41 241:0 242:0 243:0.20999999 244:0.62 245:0.20999999 246:0 247:0 248:0.82999998 249:0.20999999 250:0.41 251:0 252:0.20999999 253:0.41 254:0 255:0.41 256:0.62 257:0.62 258:0.20999999 259:0.20999999 260:0 261:0.41 262:0 263:0.41 264:0.20999999 265:0.20999999 266:0.41 267:0 268:0 269:0.41 270:0.62 271:0 272:0 273:0 274:0.41 275:0 276:1.24 277:0.62 278:0 279:0 280:0 281:0.20999999 282:0 283:0 284:0.82999998 285:0.20999999 286:0.20999999 287:0.20999999 288:0.20999999 289:0 290:0 291:0.20999999 292:0.20999999 293:0.20999999 294:0 295:0.20999999 296:0.41 297:0.20999999 298:0 299:0 300:0.20999999 301:0.82999998 302:0.20999999 303:1.04 304:1.45 305:0.41 306:0.82999998 307:0.41 308:0.20999999 309:1.04 310:0.41 311:0.20999999 312:0 313:0.62 314:0.62 315:0.41 316:1.45 317:1.45 318:0.41 319:0.20999999 320:0 321:0 322:0 323:0.20999999 324:0.20999999 325:0 326:0.20999999 327:0.20999999 328:0.82999998 329:0.82999998 330:1.45 331:0 332:0.41 333:0.62 334:0.20999999 335:0.20999999 336:1.04 337:0.62 338:0.62 339:0 340:0.20999999 341:0 342:0 343:0.62 344:0 345:0 346:0 347:0 348:0 349:0.62 350:0.41 351:0 352:0.62 353:0.41 354:0 355:0 356:1.04 357:0 358:0.62 359:0 360:0.41 361:0 362:0 363:0 364:0 365:0.20999999 366:0 367:0 368:0 369:0.20999999 370:0.20999999 371:0 372:0 373:0 374:0 375:0.20999999 376:0 377:0 378:0 379:0 380:0 381:0 382:0 383:0.20999999 384:0.20999999 385:0 386:0.20999999 387:0.20999999 388:0 389:0.20999999 390:0 391:0 392:0.20999999 393:0.20999999 394:0.20999999 395:0.20999999 396:0.20999999 397:0 398:0.62 399:0 400:0 #
