SVM-light Version V6.02
2 # kernel type
3 # kernel parameter -d 
0.0005 # kernel parameter -g 
1 # kernel parameter -s 
1 # kernel parameter -r 
empty# kernel parameter -u 
400 # highest feature index 
2225 # number of training documents 
409 # number of support vectors plus 1 
22.515312 # threshold b, each following line is a SV (starting with alpha*y)
-1.1696164152692745119566097855568 1:2.75 2:0.12 3:0.88 4:0.62 5:0.25 6:0.38 7:0.5 8:0.38 9:0.62 10:1.75 11:0.38 12:0.62 13:0.25 14:0.25 15:1.88 16:0.88 17:1.12 18:0.38 19:0.25 20:0.62 21:0 22:0 23:0.25 24:0.12 25:0 26:0.25 27:0.12 28:0 29:0 30:0.12 31:0 32:0 33:0 34:0.25 35:0 36:0.12 37:0 38:0 39:0.12 40:0 41:1.38 42:0.25 43:0.75 44:0.5 45:0.5 46:0.12 47:0 48:0.5 49:0.38 50:0.38 51:0.12 52:0.25 53:0.5 54:0 55:0.5 56:0.5 57:0.25 58:0.25 59:0 60:0 61:0.88 62:0 63:0.38 64:0.38 65:0.12 66:0.38 67:0.12 68:0.25 69:0.38 70:0.5 71:0.25 72:0.38 73:0.12 74:0.12 75:1.12 76:0.25 77:0.38 78:0.12 79:0 80:0.25 81:0.12 82:0 83:0.12 84:0.12 85:0 86:0.25 87:0 88:0.12 89:0.12 90:0.12 91:0.12 92:0.25 93:0 94:0.12 95:0 96:0.12 97:0.12 98:0.38 99:0 100:0 101:0.25 102:0 103:0.5 104:0.25 105:0.12 106:0.25 107:0.25 108:0.25 109:0.5 110:0.75 111:0 112:0.5 113:0 114:0 115:0.25 116:0.12 117:0.62 118:0.12 119:0 120:0 121:0.38 122:0 123:0.38 124:0.25 125:0 126:0.12 127:0 128:0 129:0 130:0.12 131:0.12 132:0 133:0.12 134:0 135:0.38 136:0 137:0.12 138:0.12 139:0 140:0.12 141:0.38 142:0 143:0.5 144:0.38 145:0.12 146:0 147:0 148:0 149:0.5 150:0.25 151:0.12 152:0 153:0.12 154:0 155:0.38 156:0.12 157:0.12 158:0.25 159:0 160:0 161:1.12 162:0.25 163:0.5 164:0.25 165:0.12 166:0.25 167:0 168:0.25 169:0.5 170:0.5 171:0 172:0 173:0.25 174:0 175:0.5 176:0.12 177:0.12 178:0.25 179:0 180:0.25 181:1 182:0 183:0.12 184:0.5 185:0.38 186:1 187:0.38 188:0.12 189:0.5 190:0.62 191:0 192:0.62 193:0.12 194:0.25 195:0.75 196:0.75 197:0.62 198:0 199:0 200:0.62 201:0.25 202:0 203:0 204:0.12 205:0 206:0.12 207:0 208:0.12 209:0.12 210:0.25 211:0.12 212:0 213:0.12 214:0.12 215:0 216:0.5 217:0.12 218:0 219:0 220:0.12 221:1 222:0 223:0.5 224:0.5 225:0 226:0.25 227:0 228:0.12 229:0.25 230:0.38 231:0 232:0.12 233:0.25 234:0 235:0.62 236:0.12 237:0 238:0 239:0 240:0 241:0.62 242:0 243:0.25 244:0.12 245:0 246:0.12 247:0.12 248:0.12 249:0.12 250:0.5 251:0 252:0 253:0.12 254:0 255:0.5 256:0.25 257:0.75 258:0.12 259:0.12 260:0 261:0 262:0.12 263:0 264:0.38 265:0.12 266:0.12 267:0.12 268:0 269:0 270:0 271:0 272:0 273:0.38 274:0.12 275:0.25 276:0 277:0.12 278:0.12 279:0 280:0.38 281:2.1199999 282:0.12 283:0.25 284:0.38 285:0 286:0.12 287:0.12 288:0.25 289:0.5 290:0.88 291:0.38 292:0.25 293:0.12 294:0.25 295:0.88 296:1.12 297:0.88 298:0.62 299:0 300:0.25 301:0.88 302:0.12 303:0.62 304:0.25 305:0.12 306:0.5 307:0.12 308:0.25 309:0.38 310:0.25 311:0.12 312:0.25 313:0.38 314:0.12 315:0.5 316:1.12 317:0.88 318:0.5 319:0.25 320:0.12 321:0.88 322:0.12 323:0.5 324:0.5 325:0.12 326:0.12 327:0.12 328:0.12 329:0.25 330:0.38 331:0.12 332:0.62 333:0.62 334:0.25 335:0.5 336:0.62 337:0.38 338:0.5 339:0 340:0.12 341:0.38 342:0.12 343:0.5 344:0.62 345:0.12 346:0.12 347:0.12 348:0.12 349:0.12 350:0.38 351:0 352:0 353:0.25 354:0.12 355:0.25 356:0.5 357:0 358:0.12 359:0 360:0.12 361:0.12 362:0 363:0 364:0.12 365:0 366:0 367:0 368:0 369:0 370:0 371:0.12 372:0.12 373:0 374:0 375:0 376:0.12 377:0 378:0.12 379:0 380:0 381:0.38 382:0.12 383:0.12 384:0 385:0 386:0.25 387:0.12 388:0.25 389:0 390:0.25 391:0 392:0.12 393:0.12 394:0.25 395:0.25 396:0.38 397:0.38 398:0 399:0 400:0 #
-12.654605829407321593294000194874 1:0.38999999 2:0.13 3:0.25999999 4:0.66000003 5:0.25999999 6:0.52999997 7:0 8:0.52999997 9:0.52999997 10:0.66000003 11:0.38999999 12:0.13 13:0.25999999 14:0.38999999 15:0.92000002 16:0.38999999 17:0.66000003 18:0.79000002 19:0.25999999 20:0.13 21:0 22:0.13 23:0 24:0 25:0 26:0.13 27:0.13 28:0.13 29:0.13 30:0 31:0 32:0 33:0 34:0 35:0.38999999 36:0.38999999 37:0 38:0.13 39:0 40:0 41:0.79000002 42:0 43:0.25999999 44:0.38999999 45:0.25999999 46:0.52999997 47:0.13 48:0.52999997 49:0.25999999 50:0.52999997 51:0.13 52:0.25999999 53:0.13 54:0.25999999 55:0.52999997 56:0.13 57:0 58:0.13 59:0 60:0.13 61:0.79000002 62:0.13 63:0.38999999 64:0.66000003 65:0.13 66:0.52999997 67:0.13 68:0.92000002 69:0.38999999 70:0.66000003 71:0.25999999 72:0.13 73:0.25999999 74:0 75:0.38999999 76:0.25999999 77:0.66000003 78:0.52999997 79:0.13 80:0 81:0.13 82:0 83:0.13 84:0.13 85:0.13 86:0.13 87:0.38999999 88:0.25999999 89:0.25999999 90:0 91:0.25999999 92:0 93:0.13 94:0.13 95:0.38999999 96:0.25999999 97:0.25999999 98:0.38999999 99:0 100:0.13 101:0.92000002 102:0.25999999 103:0.13 104:0.52999997 105:0.25999999 106:0.25999999 107:0 108:0.25999999 109:0.52999997 110:0.52999997 111:0.13 112:0.25999999 113:0.13 114:0.13 115:0.66000003 116:0.25999999 117:0.52999997 118:0.52999997 119:0 120:0 121:0.13 122:0 123:0 124:0.13 125:0.25999999 126:0.13 127:0.13 128:0.13 129:0 130:0.38999999 131:0 132:0.13 133:0 134:0 135:0.13 136:0.13 137:0.25999999 138:0.25999999 139:0 140:0.13 141:0.38999999 142:0.13 143:0.38999999 144:0.52999997 145:0.25999999 146:0.79000002 147:0.13 148:0.38999999 149:0 150:0.79000002 151:0.13 152:0.38999999 153:0.66000003 154:0.25999999 155:0.38999999 156:0.38999999 157:0.38999999 158:0.66000003 159:0.13 160:0 161:0.13 162:0.13 163:0.13 164:0.38999999 165:0.25999999 166:0.13 167:0.25999999 168:0.52999997 169:0.13 170:0.52999997 171:0 172:0.13 173:0.38999999 174:0 175:0.38999999 176:0.38999999 177:0.38999999 178:0.25999999 179:0 180:0.13 181:0.79000002 182:0 183:0.66000003 184:0.13 185:0.52999997 186:0.38999999 187:0.13 188:0.25999999 189:0.38999999 190:1.1799999 191:0.38999999 192:0.52999997 193:0.66000003 194:0.25999999 195:0.52999997 196:0.79000002 197:0.38999999 198:0.52999997 199:0.13 200:0.25999999 201:0.25999999 202:0 203:0 204:0.66000003 205:0 206:0 207:0 208:0.52999997 209:0.25999999 210:0.25999999 211:0 212:0 213:0 214:0.13 215:0 216:0 217:0.13 218:0.38999999 219:0 220:0 221:0.25999999 222:0 223:0.13 224:0.25999999 225:0 226:0.13 227:0.13 228:0.38999999 229:0 230:0.66000003 231:0.13 232:0 233:0 234:0.13 235:0.38999999 236:0.25999999 237:0.25999999 238:0.13 239:0 240:0 241:0.25999999 242:0 243:0.25999999 244:0.38999999 245:0.13 246:0.13 247:0 248:0.38999999 249:0.13 250:0.38999999 251:0 252:0 253:0.38999999 254:0.25999999 255:0 256:0.25999999 257:0.25999999 258:0.52999997 259:0 260:0.38999999 261:0.13 262:0.25999999 263:0.13 264:0 265:0 266:0.38999999 267:0 268:0.13 269:0.13 270:0.52999997 271:0.13 272:0 273:0.13 274:0.66000003 275:0.52999997 276:0.25999999 277:0 278:0.52999997 279:0 280:0 281:0.66000003 282:0.13 283:0.52999997 284:0.38999999 285:0.25999999 286:0.38999999 287:0.38999999 288:0.92000002 289:0.66000003 290:1.1799999 291:0.38999999 292:0.13 293:0.25999999 294:0.25999999 295:0.92000002 296:0.38999999 297:0 298:0.38999999 299:0.25999999 300:0.13 301:0.38999999 302:0.25999999 303:0.92000002 304:0.13 305:0.13 306:0.52999997 307:0 308:0.25999999 309:0.25999999 310:0.13 311:0.13 312:0.25999999 313:0.13 314:0.25999999 315:0.66000003 316:0.25999999 317:0.52999997 318:0.66000003 319:0 320:0 321:0.25999999 322:0 323:0.38999999 324:0.79000002 325:0.25999999 326:0.25999999 327:0.13 328:0.25999999 329:0.25999999 330:0.25999999 331:0 332:0.38999999 333:0.25999999 334:0.13 335:0.52999997 336:0.52999997 337:0.25999999 338:0.25999999 339:0 340:0.13 341:1.45 342:0 343:0.66000003 344:1.05 345:0.38999999 346:0.38999999 347:0.13 348:0.13 349:0.38999999 350:0.25999999 351:0 352:0.52999997 353:0.25999999 354:0.38999999 355:0.52999997 356:0.25999999 357:0.25999999 358:0.66000003 359:0 360:0 361:0 362:0 363:0 364:0 365:0 366:0.13 367:0 368:0.13 369:0 370:0 371:0 372:0 373:0 374:0.25999999 375:0.13 376:0.25999999 377:0 378:0 379:0 380:0 381:0.13 382:0 383:0 384:0.13 385:0 386:0.38999999 387:0.13 388:0.13 389:0 390:0.13 391:0 392:0 393:0.13 394:0 395:0.25999999 396:0 397:0.13 398:0 399:0 400:0 #
-12.654605829407321593294000194874 1:1.33 2:0.12 3:0.47999999 4:0.61000001 5:0 6:1.21 7:0.36000001 8:0.61000001 9:0.47999999 10:1.33 11:0.12 12:0 13:0.36000001 14:0 15:0.36000001 16:0.36000001 17:0.36000001 18:0.36000001 19:0 20:0 21:0 22:0 23:0 24:0 25:0 26:0 27:0 28:0 29:0 30:0.12 31:0 32:0 33:0 34:0 35:0.12 36:0.12 37:0.12 38:0.12 39:0 40:0 41:0.47999999 42:0 43:0 44:0.73000002 45:0.23999999 46:0.36000001 47:0.12 48:0.61000001 49:0.36000001 50:0.61000001 51:0.23999999 52:0.36000001 53:0.12 54:0.12 55:0.47999999 56:0.12 57:0.12 58:0.23999999 59:0.12 60:0.36000001 61:0.61000001 62:0.12 63:0.23999999 64:0.47999999 65:0.23999999 66:0.61000001 67:0.12 68:1.21 69:1.09 70:0.85000002 71:0 72:0 73:0.36000001 74:0.23999999 75:0.61000001 76:0.61000001 77:0.36000001 78:0.61000001 79:0.36000001 80:0.36000001 81:0.12 82:0 83:0.23999999 84:0.36000001 85:0.12 86:0 87:0 88:0.12 89:0.12 90:0.47999999 91:0 92:0.12 93:0.12 94:0 95:0.12 96:0.36000001 97:0.47999999 98:0.12 99:0 100:0 101:0.73000002 102:0 103:0.36000001 104:0.61000001 105:0.23999999 106:0.12 107:0 108:0.23999999 109:1.21 110:0.47999999 111:0.36000001 112:0.85000002 113:0.12 114:0.36000001 115:0.12 116:0.47999999 117:0.61000001 118:0.97000003 119:0 120:0.23999999 121:0.12 122:0 123:0.23999999 124:0.12 125:0 126:0.23999999 127:0 128:0.12 129:0.12 130:0.12 131:0 132:0 133:0 134:0 135:0 136:0.23999999 137:0.12 138:0 139:0 140:0 141:0.36000001 142:0 143:0.73000002 144:0.97000003 145:0.23999999 146:0.61000001 147:0.23999999 148:0.36000001 149:0.36000001 150:0.73000002 151:0.23999999 152:0.61000001 153:0.12 154:0.23999999 155:0.73000002 156:0.36000001 157:0.36000001 158:0.61000001 159:0 160:0.12 161:0.61000001 162:0 163:0.36000001 164:0.85000002 165:0 166:0.73000002 167:0 168:0.36000001 169:0.23999999 170:0.47999999 171:0.23999999 172:0.36000001 173:0.36000001 174:0.23999999 175:0.12 176:0.23999999 177:0.36000001 178:0.36000001 179:0.12 180:0.23999999 181:1.5700001 182:0.12 183:0.36000001 184:0.36000001 185:0.85000002 186:0.85000002 187:0.12 188:0.61000001 189:0.61000001 190:1.21 191:0.23999999 192:0.36000001 193:0.36000001 194:0.23999999 195:0.73000002 196:0.73000002 197:0.23999999 198:0.47999999 199:0.12 200:0 201:0 202:0 203:0.36000001 204:0.36000001 205:0 206:0.36000001 207:0.12 208:0.47999999 209:0.23999999 210:0.23999999 211:0.23999999 212:0.12 213:0.12 214:0 215:0 216:0.12 217:0.12 218:0 219:0 220:0 221:0.36000001 222:0 223:0.12 224:0.61000001 225:0.12 226:0.12 227:0 228:0.23999999 229:0.12 230:0.23999999 231:0.36000001 232:0 233:0.23999999 234:0.12 235:0.36000001 236:0.23999999 237:0.12 238:0.47999999 239:0 240:0.12 241:0.12 242:0 243:0.47999999 244:0.73000002 245:0.12 246:0.36000001 247:0 248:0.85000002 249:0.36000001 250:0.23999999 251:0 252:0.12 253:0.12 254:0.12 255:0 256:0.12 257:0.12 258:0 259:0 260:0.12 261:0.23999999 262:0 263:0.12 264:0 265:0 266:0 267:0.12 268:0.23999999 269:0 270:0.23999999 271:0 272:0.12 273:0.36000001 274:0 275:0 276:0.23999999 277:0.12 278:0.23999999 279:0 280:0.12 281:0 282:0 283:0.12 284:0.73000002 285:0.23999999 286:0.12 287:0 288:0.61000001 289:0.12 290:0.85000002 291:0.23999999 292:0.12 293:0.23999999 294:0.23999999 295:0.73000002 296:0.36000001 297:0.23999999 298:0.12 299:0 300:0.23999999 301:0.36000001 302:0 303:0.23999999 304:0.61000001 305:0.36000001 306:0.73000002 307:0.12 308:0.36000001 309:0.36000001 310:0.23999999 311:0 312:0.23999999 313:0.23999999 314:0 315:0.12 316:0.47999999 317:0.61000001 318:0.36000001 319:0 320:0.36000001 321:0.36000001 322:0 323:0.61000001 324:0.36000001 325:0 326:0.47999999 327:0 328:0.23999999 329:0.12 330:0.47999999 331:0.23999999 332:0 333:0.23999999 334:0.12 335:0.23999999 336:0.36000001 337:0.23999999 338:0.73000002 339:0 340:0.12 341:0.73000002 342:0.12 343:0.61000001 344:0.23999999 345:0 346:0.73000002 347:0 348:0.47999999 349:0.36000001 350:0.85000002 351:0.12 352:0.47999999 353:0.23999999 354:0.12 355:0.36000001 356:0.23999999 357:0.12 358:0.47999999 359:0 360:0.23999999 361:0.12 362:0 363:0 364:0 365:0 366:0.12 367:0 368:0 369:0 370:0.12 371:0.12 372:0.12 373:0 374:0 375:0 376:0 377:0.12 378:0 379:0 380:0 381:0.23999999 382:0.12 383:0.12 384:0.36000001 385:0.12 386:0.36000001 387:0.12 388:0.23999999 389:0.12 390:0.23999999 391:0 392:0 393:0.23999999 394:0 395:0.12 396:0 397:0 398:0.23999999 399:0 400:0 #
-7.0595708063351594319101423025131 1:0.85000002 2:0 3:1.0599999 4:0 5:0.20999999 6:0.20999999 7:0.20999999 8:0.63999999 9:0.41999999 10:0.41999999 11:0 12:0 13:0 14:1.27 15:1.0599999 16:0.20999999 17:0.41999999 18:1.0599999 19:0 20:0.20999999 21:0 22:0 23:0.20999999 24:0.20999999 25:0 26:0.41999999 27:0 28:0.20999999 29:0 30:0 31:0 32:0 33:0 34:0 35:0 36:0 37:0.20999999 38:0.20999999 39:0 40:0 41:0.63999999 42:0 43:0.85000002 44:0.63999999 45:0.20999999 46:0.41999999 47:0.20999999 48:0.85000002 49:0.41999999 50:0.41999999 51:0 52:0.20999999 53:0 54:0 55:0 56:0.20999999 57:0.41999999 58:0.63999999 59:0 60:0 61:0.63999999 62:0.20999999 63:0.41999999 64:0.63999999 65:0.20999999 66:1.27 67:0 68:0.20999999 69:0.20999999 70:0.63999999 71:0.41999999 72:0.41999999 73:0.20999999 74:0 75:0.41999999 76:0.85000002 77:0.63999999 78:0.41999999 79:0 80:0 81:0.20999999 82:0.20999999 83:0 84:0.20999999 85:0 86:0.41999999 87:0 88:0.41999999 89:0 90:0 91:0 92:0 93:0 94:0 95:0.20999999 96:0.20999999 97:0.41999999 98:0.41999999 99:0 100:0 101:1.27 102:0 103:0.41999999 104:0.41999999 105:0.20999999 106:0.20999999 107:0.20999999 108:0.41999999 109:0.63999999 110:0.63999999 111:0 112:0 113:0.20999999 114:0.20999999 115:0.85000002 116:0.41999999 117:0.85000002 118:1.0599999 119:0 120:0.20999999 121:0 122:0 123:0.41999999 124:0.20999999 125:0 126:0.20999999 127:0 128:0 129:0 130:0 131:0 132:0 133:0 134:0 135:0.20999999 136:0 137:0 138:0.41999999 139:0 140:0.20999999 141:0.63999999 142:0.63999999 143:0.63999999 144:0.41999999 145:0.20999999 146:0.63999999 147:0 148:0.41999999 149:0 150:1.0599999 151:0 152:0 153:0.41999999 154:0.20999999 155:0.41999999 156:0.41999999 157:0.20999999 158:0.63999999 159:0 160:0 161:0 162:0 163:0.20999999 164:0.20999999 165:0 166:0 167:0.20999999 168:0.63999999 169:0.20999999 170:0.63999999 171:0 172:0 173:0.20999999 174:0.20999999 175:0.85000002 176:0.63999999 177:0.63999999 178:0.20999999 179:0 180:0 181:1.27 182:0.20999999 183:0.20999999 184:0.63999999 185:0.41999999 186:0.41999999 187:0 188:0.20999999 189:0.41999999 190:1.27 191:0 192:0.20999999 193:1.0599999 194:0.41999999 195:0.85000002 196:0.20999999 197:0.63999999 198:0.63999999 199:0 200:0 201:0 202:0 203:0 204:0.63999999 205:0.20999999 206:0.20999999 207:0.20999999 208:0 209:0 210:0 211:0 212:0.20999999 213:0 214:0 215:0.20999999 216:0.20999999 217:0 218:0 219:0 220:0 221:0.41999999 222:0 223:0.41999999 224:0 225:0 226:0 227:0.41999999 228:0.41999999 229:0 230:0 231:0.20999999 232:0 233:0 234:0 235:0 236:0 237:0.20999999 238:0.20999999 239:0 240:0 241:0.20999999 242:0 243:0 244:0.41999999 245:0.20999999 246:0.20999999 247:0 248:0 249:0.63999999 250:0.20999999 251:0 252:0 253:0 254:0 255:0.41999999 256:0.20999999 257:0.20999999 258:0.41999999 259:0 260:0 261:0.41999999 262:0 263:0 264:0.20999999 265:0 266:0.20999999 267:0 268:0.85000002 269:0.41999999 270:0.41999999 271:0 272:0 273:0 274:0.41999999 275:0.41999999 276:0 277:0.20999999 278:0.63999999 279:0 280:0.20999999 281:0.20999999 282:0.20999999 283:0.63999999 284:1.0599999 285:0 286:0.85000002 287:0 288:0.41999999 289:0.63999999 290:1.27 291:0.41999999 292:0 293:0 294:0.41999999 295:0.20999999 296:0.20999999 297:0 298:0.41999999 299:0.20999999 300:0 301:0.63999999 302:0 303:0 304:0.41999999 305:0.20999999 306:1.0599999 307:0 308:0.63999999 309:0.20999999 310:0.20999999 311:0.20999999 312:0.20999999 313:0 314:0.20999999 315:0.20999999 316:0.20999999 317:0.20999999 318:0.63999999 319:0 320:0.20999999 321:0 322:0 323:0 324:0.63999999 325:0.41999999 326:0.85000002 327:0 328:0 329:0.20999999 330:1.0599999 331:0.20999999 332:0.20999999 333:0.20999999 334:0.20999999 335:0.63999999 336:0.41999999 337:0.20999999 338:0.63999999 339:0 340:0.20999999 341:1.0599999 342:0 343:0.63999999 344:0.85000002 345:0.20999999 346:0.63999999 347:0 348:0.41999999 349:0.20999999 350:0.41999999 351:0.20999999 352:0.20999999 353:0.85000002 354:0.63999999 355:0.20999999 356:1.0599999 357:0.63999999 358:0.85000002 359:0.20999999 360:0.41999999 361:0 362:0 363:0 364:0 365:0 366:0 367:0.20999999 368:0 369:0 370:0 371:0 372:0.20999999 373:0 374:0 375:0 376:0 377:0 378:0 379:0 380:0 381:0 382:0 383:0 384:0 385:0 386:0 387:0 388:0.20999999 389:0.20999999 390:0.41999999 391:0 392:0.41999999 393:0 394:0.20999999 395:0 396:0 397:0 398:0.20999999 399:0 400:0 #
-12.654605829407321593294000194874 1:0 2:0.57999998 3:1.16 4:1.16 5:0 6:0 7:0 8:0.57999998 9:0 10:1.16 11:0 12:0 13:0 14:0.57999998 15:1.16 16:1.16 17:0 18:0 19:0 20:0 21:1.16 22:0 23:0 24:0 25:0 26:0 27:0 28:0 29:0 30:0 31:0 32:0 33:0 34:0 35:0 36:0.57999998 37:0 38:0 39:0 40:0 41:0.57999998 42:0 43:0 44:0 45:0 46:0 47:0 48:0 49:0 50:1.16 51:0.57999998 52:0 53:0 54:0 55:0.57999998 56:0.57999998 57:1.16 58:1.16 59:0 60:0 61:1.16 62:0 63:1.16 64:1.16 65:0 66:1.16 67:0 68:0 69:0.57999998 70:0.57999998 71:0 72:0 73:0.57999998 74:0 75:0 76:1.16 77:1.16 78:0 79:0 80:0 81:0 82:0 83:0 84:0 85:0 86:0 87:0 88:0 89:1.16 90:0 91:0 92:0 93:0.57999998 94:0 95:0 96:0.57999998 97:0.57999998 98:0 99:0 100:0 101:0 102:0.57999998 103:0 104:1.73 105:0 106:0 107:0 108:0 109:0 110:1.73 111:0 112:0 113:0 114:0 115:0.57999998 116:1.16 117:0 118:0 119:0 120:0 121:0 122:0 123:0.57999998 124:0 125:0 126:0 127:0 128:0.57999998 129:0.57999998 130:0 131:0 132:0 133:0 134:0 135:0 136:0 137:0 138:0 139:0 140:0 141:0 142:0 143:0.57999998 144:0.57999998 145:0.57999998 146:0 147:0 148:0.57999998 149:0.57999998 150:0.57999998 151:0 152:0 153:0 154:0.57999998 155:0 156:0.57999998 157:0.57999998 158:0 159:0 160:0 161:0.57999998 162:0 163:0 164:1.16 165:0.57999998 166:0 167:0 168:0.57999998 169:0.57999998 170:1.73 171:0 172:0 173:0 174:0.57999998 175:0.57999998 176:1.16 177:0.57999998 178:0.57999998 179:0 180:0 181:0.57999998 182:0 183:0 184:0 185:0.57999998 186:1.16 187:1.73 188:0.57999998 189:0.57999998 190:1.16 191:0 192:1.16 193:1.73 194:0 195:1.73 196:0 197:0 198:0.57999998 199:0 200:0 201:0.57999998 202:0 203:0 204:0 205:0 206:0 207:0 208:0 209:0.57999998 210:0 211:0 212:0 213:0 214:0 215:0 216:0 217:0 218:0 219:0 220:0 221:0 222:0 223:0 224:0 225:0 226:0.57999998 227:0 228:0.57999998 229:0 230:0 231:0 232:0 233:0 234:0 235:0.57999998 236:0.57999998 237:0 238:0 239:0 240:0 241:0 242:0 243:0 244:1.16 245:0 246:1.16 247:0 248:0 249:1.16 250:0.57999998 251:0 252:0 253:0 254:0.57999998 255:0.57999998 256:0 257:0 258:0 259:0.57999998 260:0 261:1.16 262:0 263:0 264:0 265:0 266:0 267:0 268:0.57999998 269:0 270:0.57999998 271:0 272:0 273:0 274:0 275:0 276:0.57999998 277:0 278:0 279:0 280:0 281:0.57999998 282:0 283:0.57999998 284:0.57999998 285:0 286:0.57999998 287:0 288:0.57999998 289:1.16 290:0.57999998 291:0 292:0 293:0.57999998 294:0 295:1.16 296:0.57999998 297:0.57999998 298:0.57999998 299:0 300:0 301:0.57999998 302:0.57999998 303:0.57999998 304:0.57999998 305:0.57999998 306:0.57999998 307:0 308:0 309:0.57999998 310:0.57999998 311:0 312:0.57999998 313:1.16 314:0.57999998 315:0 316:1.16 317:0.57999998 318:0 319:0 320:1.16 321:0.57999998 322:0 323:0.57999998 324:0 325:0 326:0.57999998 327:0 328:0 329:1.16 330:1.16 331:0 332:0 333:0 334:0 335:0.57999998 336:0 337:0 338:0.57999998 339:0 340:0 341:0 342:0 343:0.57999998 344:0.57999998 345:0.57999998 346:0 347:0 348:0 349:0 350:0 351:0 352:0 353:1.16 354:0 355:0.57999998 356:0 357:0 358:0 359:0 360:0 361:0 362:0 363:0 364:0 365:0 366:0 367:0 368:0 369:0 370:0.57999998 371:0 372:0 373:0 374:0 375:0 376:0 377:0 378:0 379:0 380:0 381:0 382:0 383:0 384:0 385:0 386:0 387:0 388:0.57999998 389:0 390:0 391:0 392:0.57999998 393:0 394:0 395:0 396:0 397:0 398:0 399:0 400:0 #
26.211096918598059346550144255161 1:0.44999999 2:0 3:0.75 4:1.05 5:0.30000001 6:0.30000001 7:0 8:0.30000001 9:0.44999999 10:0.60000002 11:0.44999999 12:0.15000001 13:0.60000002 14:0.30000001 15:0.44999999 16:0.44999999 17:0.15000001 18:0.30000001 19:0.15000001 20:0.15000001 21:0 22:0 23:0.15000001 24:0.30000001 25:0 26:0 27:0.15000001 28:0 29:0 30:0 31:0 32:0.15000001 33:0 34:0 35:0 36:0 37:0.15000001 38:0 39:0.15000001 40:0 41:0.89999998 42:0 43:0.30000001 44:0.75 45:0.15000001 46:0.15000001 47:0.15000001 48:0.44999999 49:0.44999999 50:0.30000001 51:0 52:0.60000002 53:0.30000001 54:0.30000001 55:0.44999999 56:0.44999999 57:0.75 58:0.44999999 59:0 60:0.60000002 61:0.75 62:0 63:0.60000002 64:0.89999998 65:0.30000001 66:0.44999999 67:0 68:0.75 69:0.30000001 70:0.60000002 71:0.15000001 72:0.44999999 73:0.60000002 74:0.30000001 75:0.60000002 76:0.30000001 77:0.15000001 78:0.89999998 79:0.15000001 80:0.75 81:0.15000001 82:0.15000001 83:0.15000001 84:0.15000001 85:0 86:0.30000001 87:0 88:0.30000001 89:0.15000001 90:0.89999998 91:0.15000001 92:0 93:0.44999999 94:0.15000001 95:0 96:0.15000001 97:0.15000001 98:0.60000002 99:0 100:0.30000001 101:0.30000001 102:0 103:0.44999999 104:0.60000002 105:0.30000001 106:0.15000001 107:0.15000001 108:0.30000001 109:0 110:0.30000001 111:0.30000001 112:0.15000001 113:0 114:0.30000001 115:0 116:0.15000001 117:0.44999999 118:0.30000001 119:0 120:0 121:0 122:0 123:0 124:0.30000001 125:0.30000001 126:0 127:0.15000001 128:0 129:0 130:0.15000001 131:0 132:0 133:0.15000001 134:0 135:0 136:0 137:0.30000001 138:0.15000001 139:0.15000001 140:0 141:0.30000001 142:0.15000001 143:0.75 144:0.44999999 145:0.30000001 146:0.30000001 147:0.15000001 148:0.44999999 149:0.75 150:0.30000001 151:0 152:0.30000001 153:0.30000001 154:0.15000001 155:0.30000001 156:0.30000001 157:0.60000002 158:0.30000001 159:0 160:0.15000001 161:0.44999999 162:0 163:0.44999999 164:0.60000002 165:0.44999999 166:0.30000001 167:0 168:0.15000001 169:0.44999999 170:0.44999999 171:0.30000001 172:0.15000001 173:0.15000001 174:0.60000002 175:0 176:0.44999999 177:0.15000001 178:0.30000001 179:0.15000001 180:0.15000001 181:0.60000002 182:0 183:0.44999999 184:0.89999998 185:0.44999999 186:0.30000001 187:0 188:0.60000002 189:0.75 190:0.75 191:0.44999999 192:0.30000001 193:0.30000001 194:0.30000001 195:0.15000001 196:0.30000001 197:1.05 198:0.30000001 199:0.15000001 200:0.60000002 201:0.44999999 202:0 203:0 204:0.15000001 205:0 206:0 207:0 208:0 209:0.15000001 210:0.15000001 211:0.30000001 212:0 213:0.15000001 214:0.75 215:0 216:0 217:0.30000001 218:0.44999999 219:0 220:0 221:0.15000001 222:0.15000001 223:0.30000001 224:0 225:0 226:0.30000001 227:0 228:0.15000001 229:0.30000001 230:0.44999999 231:0.15000001 232:0.15000001 233:0 234:1.35 235:0 236:0.30000001 237:0.44999999 238:0.15000001 239:0 240:0 241:0.60000002 242:0 243:0.15000001 244:0.44999999 245:0.44999999 246:0 247:0.15000001 248:0.30000001 249:0.15000001 250:0.60000002 251:0 252:0 253:0.30000001 254:0.30000001 255:0 256:0.15000001 257:0.60000002 258:0.15000001 259:0.15000001 260:0 261:0.75 262:0 263:0.15000001 264:0.44999999 265:0.30000001 266:0.75 267:0 268:0.60000002 269:0.60000002 270:0.30000001 271:0 272:0.44999999 273:0 274:0.30000001 275:0.15000001 276:0.15000001 277:0.15000001 278:0.60000002 279:0 280:0.15000001 281:0 282:0.15000001 283:0.30000001 284:0.30000001 285:0 286:0.15000001 287:0.15000001 288:0.30000001 289:0 290:0.30000001 291:0.15000001 292:0.15000001 293:0 294:0 295:0.30000001 296:0.44999999 297:0.44999999 298:0.15000001 299:0 300:0.15000001 301:0.44999999 302:0.15000001 303:0.60000002 304:0.60000002 305:0.30000001 306:0.30000001 307:0.15000001 308:0.30000001 309:0 310:0.44999999 311:0.15000001 312:0.60000002 313:0.44999999 314:0.15000001 315:0.15000001 316:0.60000002 317:0 318:0 319:0 320:0.15000001 321:0.44999999 322:0 323:1.2 324:0.75 325:0.30000001 326:0 327:0.15000001 328:0.44999999 329:0.30000001 330:1.05 331:0.15000001 332:0.15000001 333:0.15000001 334:0.15000001 335:0.30000001 336:0.15000001 337:0.60000002 338:0.30000001 339:0 340:0.30000001 341:0.30000001 342:0 343:0.60000002 344:0.30000001 345:0.15000001 346:0.44999999 347:0.30000001 348:0.44999999 349:0.60000002 350:0.44999999 351:0 352:0.44999999 353:0.30000001 354:0.15000001 355:0.15000001 356:0.60000002 357:0.15000001 358:0.30000001 359:0 360:0.30000001 361:0.15000001 362:0 363:0 364:0 365:0 366:0 367:0 368:0 369:0.15000001 370:0.15000001 371:0 372:0.15000001 373:0 374:0.15000001 375:0 376:0.15000001 377:0 378:0.15000001 379:0 380:0 381:0.15000001 382:0.30000001 383:0.15000001 384:0 385:0.15000001 386:0 387:0 388:0.44999999 389:0.30000001 390:0.44999999 391:0 392:0 393:0.30000001 394:0.15000001 395:0.44999999 396:0.44999999 397:0.30000001 398:0.15000001 399:0 400:0.15000001 #
-12.654605829407321593294000194874 1:1.5599999 2:0 3:0.58999997 4:0.68000001 5:0.38999999 6:0.77999997 7:0 8:0.58999997 9:0.28999999 10:2.54 11:0.2 12:0.28999999 13:1.17 14:0.38999999 15:0.68000001 16:0.68000001 17:0.49000001 18:1.37 19:0.2 20:0.2 21:0 22:0 23:0 24:0 25:0 26:0 27:0 28:0 29:0 30:0 31:0.1 32:0 33:0.1 34:0 35:0 36:0 37:0 38:0 39:0 40:0 41:0.58999997 42:0 43:0.58999997 44:0.2 45:0.1 46:1.08 47:0 48:0.28999999 49:0.1 50:0.28999999 51:0.1 52:0 53:0.2 54:0.1 55:0.49000001 56:0.49000001 57:0.2 58:0.28999999 59:0.28999999 60:0.2 61:0.58999997 62:0 63:0.77999997 64:0.2 65:0.2 66:0.38999999 67:0 68:0.38999999 69:0.38999999 70:0.38999999 71:0 72:0 73:0.2 74:0.1 75:0.38999999 76:0 77:0.2 78:0.1 79:0 80:0.38999999 81:0.38999999 82:0 83:0.1 84:0 85:0.38999999 86:0.38999999 87:0 88:0.2 89:0 90:0.28999999 91:0.1 92:0.1 93:0 94:0 95:0 96:0.28999999 97:0.28999999 98:0.49000001 99:0.2 100:0.1 101:1.27 102:0 103:0.68000001 104:0.68000001 105:0.38999999 106:0.88 107:0 108:0.98000002 109:0.1 110:0.77999997 111:0.2 112:0.2 113:0.68000001 114:0 115:0.58999997 116:0.28999999 117:0.58999997 118:1.27 119:0.28999999 120:0.2 121:0.1 122:0 123:0 124:0 125:0 126:0.2 127:0 128:0 129:0 130:0 131:0 132:0 133:0.2 134:0 135:0.1 136:0 137:0 138:0 139:0.1 140:0 141:0.88 142:0 143:0.2 144:0.2 145:0.38999999 146:0.77999997 147:0.1 148:0.49000001 149:0.1 150:0.2 151:0 152:0.28999999 153:0.2 154:0 155:0.49000001 156:0.2 157:0.58999997 158:0.98000002 159:0.1 160:0.1 161:0.58999997 162:0 163:0.1 164:0.1 165:0 166:0.1 167:0.1 168:0.28999999 169:0 170:0.28999999 171:0 172:0 173:0.2 174:0.1 175:0 176:0 177:0.1 178:0.28999999 179:0 180:0 181:1.37 182:0.1 183:0.58999997 184:0.49000001 185:0.68000001 186:0.88 187:0.1 188:0.49000001 189:0.2 190:0.77999997 191:0.28999999 192:0.2 193:0.38999999 194:0.68000001 195:0.2 196:0.58999997 197:0.98000002 198:0.77999997 199:0 200:0 201:0.38999999 202:0 203:0.1 204:0 205:0 206:0 207:0 208:0 209:0.1 210:0.38999999 211:0.1 212:0 213:0 214:0.2 215:0 216:0.1 217:0 218:0.38999999 219:0 220:0 221:0.49000001 222:0 223:0.1 224:0 225:0 226:0 227:0.1 228:0.2 229:0.2 230:0.1 231:0.1 232:0 233:0.1 234:0 235:0 236:0.2 237:0.1 238:0.2 239:0 240:0 241:0.98000002 242:0 243:0.38999999 244:0.2 245:0.28999999 246:0.98000002 247:0.1 248:0 249:0 250:0.68000001 251:0 252:0.1 253:0.28999999 254:0 255:0.49000001 256:0.38999999 257:0.2 258:0.38999999 259:0.1 260:0.1 261:0.38999999 262:0 263:0.1 264:0.38999999 265:0 266:0.1 267:0 268:0.2 269:0 270:0.2 271:0 272:0.2 273:0.2 274:0 275:0.49000001 276:0 277:0 278:0.1 279:0 280:0.1 281:0.2 282:0 283:0.1 284:0.28999999 285:0.1 286:0.88 287:0 288:0.28999999 289:0.28999999 290:0.28999999 291:0 292:0 293:0.77999997 294:0.2 295:1.37 296:0.2 297:0.49000001 298:0.49000001 299:0.2 300:0.28999999 301:0.98000002 302:0 303:0.2 304:0.1 305:0 306:0.49000001 307:0 308:0.28999999 309:0.2 310:0.2 311:0.2 312:0.2 313:0.2 314:0.28999999 315:0.1 316:0.49000001 317:0.38999999 318:0.38999999 319:0.38999999 320:0.2 321:0.88 322:0 323:0.49000001 324:0.2 325:0 326:0.58999997 327:0.1 328:0.88 329:0.1 330:0.38999999 331:0 332:0 333:0.2 334:0.1 335:0.38999999 336:0.1 337:0.38999999 338:0.68000001 339:0 340:0.1 341:0.88 342:0.1 343:0.28999999 344:0.77999997 345:0.38999999 346:0.98000002 347:0.1 348:0.58999997 349:0.2 350:1.47 351:0.28999999 352:0.28999999 353:0.49000001 354:0.2 355:0.49000001 356:0.98000002 357:0.38999999 358:1.47 359:0.1 360:0.1 361:0.38999999 362:0 363:0.1 364:0 365:0 366:0.2 367:0 368:0.1 369:0 370:0.28999999 371:0 372:0 373:0 374:0 375:0.1 376:0.2 377:0.2 378:0.28999999 379:0.1 380:0.2 381:0.2 382:0 383:0.1 384:0.2 385:0 386:0.38999999 387:0 388:0 389:0 390:0.2 391:0 392:0 393:0.1 394:0.1 395:0.2 396:0.1 397:0 398:0.58999997 399:0.1 400:0.1 #
63.371649035942027694545686244965 1:0.44 2:0 3:0.28999999 4:0.44 5:0.58999997 6:0.44 7:0 8:0.28999999 9:0.15000001 10:1.03 11:0.15000001 12:0.58999997 13:0.15000001 14:0.44 15:0 16:0.28999999 17:0.15000001 18:0.28999999 19:0 20:0.15000001 21:0 22:0 23:0.15000001 24:0 25:0 26:0 27:0 28:0 29:0.15000001 30:0 31:0 32:0.15000001 33:0 34:0 35:0 36:0.28999999 37:0 38:0 39:0 40:0 41:0.44 42:0.15000001 43:0.28999999 44:1.03 45:0.44 46:0.58999997 47:0.28999999 48:0.44 49:0.88 50:0.74000001 51:0.15000001 52:0.44 53:0 54:0 55:0.58999997 56:0.74000001 57:0.44 58:0.58999997 59:0 60:0.28999999 61:0.58999997 62:0.15000001 63:0.88 64:0.88 65:0.58999997 66:0.44 67:0 68:0.44 69:1.03 70:1.1799999 71:0.28999999 72:0.28999999 73:0.15000001 74:0.28999999 75:0 76:0.15000001 77:0.15000001 78:0.28999999 79:0.15000001 80:0.28999999 81:0.44 82:0 83:0 84:0.28999999 85:0 86:0.28999999 87:0.15000001 88:0.15000001 89:0.44 90:0.88 91:0.15000001 92:0.28999999 93:0.28999999 94:0 95:0 96:0.15000001 97:0.44 98:0.15000001 99:0.15000001 100:0.58999997 101:0.28999999 102:0 103:0.15000001 104:0.58999997 105:0.15000001 106:0 107:0.15000001 108:0.44 109:0.88 110:0.28999999 111:0.28999999 112:0.15000001 113:0 114:0.15000001 115:0 116:0.28999999 117:0.15000001 118:0.28999999 119:0 120:0.28999999 121:0 122:0 123:0 124:0.15000001 125:0.15000001 126:0.15000001 127:0 128:0 129:0.15000001 130:0.28999999 131:0 132:0 133:0 134:0 135:0 136:0 137:0 138:0.15000001 139:0 140:0.15000001 141:0.44 142:0 143:0.58999997 144:0.28999999 145:0.74000001 146:0.44 147:0.15000001 148:0.44 149:0.28999999 150:0.15000001 151:0 152:0.44 153:0.44 154:0.44 155:0 156:0.74000001 157:0.44 158:0.44 159:0 160:0.15000001 161:0.28999999 162:0 163:1.1799999 164:1.03 165:0.44 166:0.58999997 167:0.15000001 168:0.44 169:2.0599999 170:0.44 171:0.15000001 172:0.88 173:0.15000001 174:0.58999997 175:0.28999999 176:0.74000001 177:0 178:0.74000001 179:0.44 180:0.44 181:0.44 182:0 183:0.44 184:1.03 185:0.28999999 186:0.58999997 187:0.15000001 188:0.74000001 189:0.74000001 190:0.58999997 191:0.15000001 192:1.03 193:0.28999999 194:0.44 195:0.15000001 196:0.28999999 197:0.74000001 198:0.44 199:0.15000001 200:0.88 201:0.15000001 202:0 203:0.15000001 204:0.15000001 205:0.15000001 206:0 207:0 208:0.15000001 209:0.15000001 210:0.44 211:0 212:0 213:0.15000001 214:0.15000001 215:0.15000001 216:0.28999999 217:0.15000001 218:0.28999999 219:0 220:0 221:0.28999999 222:0 223:0.88 224:0 225:0.15000001 226:0.15000001 227:0 228:0.58999997 229:0.74000001 230:0.44 231:0.15000001 232:0.44 233:0 234:0.44 235:0 236:0.15000001 237:0.15000001 238:0.88 239:0 240:0.15000001 241:0 242:0 243:0.44 244:0.15000001 245:0.15000001 246:0 247:0 248:0.44 249:0.28999999 250:0.44 251:0.15000001 252:0 253:0 254:0 255:0 256:0.15000001 257:0.15000001 258:0.28999999 259:0 260:0 261:0.44 262:0 263:0 264:0.44 265:0.28999999 266:0 267:0 268:0.15000001 269:0.74000001 270:0.58999997 271:0 272:0.15000001 273:0 274:0.15000001 275:0 276:0.44 277:0.44 278:0.28999999 279:0 280:0 281:0.15000001 282:0 283:0.15000001 284:0.28999999 285:0.15000001 286:0.28999999 287:0 288:0.15000001 289:0 290:0.15000001 291:0.15000001 292:0 293:0 294:0.15000001 295:0.28999999 296:0.28999999 297:0 298:0.15000001 299:0 300:0 301:0.58999997 302:0 303:1.3200001 304:0.44 305:0.28999999 306:0.15000001 307:0 308:0.58999997 309:0.44 310:0.15000001 311:0.15000001 312:0.44 313:0.44 314:0.15000001 315:0.44 316:0 317:0.15000001 318:0.15000001 319:0 320:0.28999999 321:0.44 322:0.15000001 323:0.74000001 324:0.28999999 325:0.15000001 326:0.15000001 327:0 328:0.44 329:0.44 330:0.58999997 331:0 332:0 333:0 334:0.58999997 335:0.15000001 336:0 337:0.15000001 338:0.15000001 339:0 340:0.15000001 341:0.15000001 342:0 343:0.58999997 344:0.74000001 345:0 346:0 347:0.15000001 348:0.15000001 349:0.88 350:0.88 351:0.28999999 352:0 353:0.28999999 354:0 355:0.15000001 356:0.88 357:0.44 358:0.28999999 359:0 360:0.15000001 361:0 362:0 363:0.15000001 364:0 365:0 366:0 367:0 368:0.15000001 369:0.15000001 370:0 371:0 372:0.15000001 373:0 374:0 375:0 376:0 377:0.28999999 378:0 379:0 380:0 381:0.28999999 382:0.28999999 383:0.15000001 384:0 385:0.15000001 386:0.28999999 387:0 388:0.58999997 389:0.44 390:0.28999999 391:0.15000001 392:0.15000001 393:0.28999999 394:0.15000001 395:0.15000001 396:0.28999999 397:0.15000001 398:0.15000001 399:0 400:0 #
81.288452479100669734179973602295 1:0.34 2:0 3:0.50999999 4:0.34 5:0.34 6:0.17 7:0.17 8:0.50999999 9:0.34 10:0.68000001 11:0.17 12:0.17 13:0 14:0.17 15:0.34 16:0.50999999 17:0.17 18:0.17 19:0 20:0.17 21:0 22:0 23:0 24:0 25:0.17 26:0.17 27:0 28:0.17 29:0 30:0.17 31:0 32:0.17 33:0 34:0 35:0.17 36:0 37:0 38:0 39:0.17 40:0 41:0.68000001 42:0.17 43:0.34 44:0.50999999 45:0.50999999 46:0.50999999 47:0 48:0 49:0 50:0 51:0 52:0.68000001 53:0.17 54:0 55:0 56:0.17 57:0.34 58:0.34 59:0 60:0.34 61:0 62:0 63:0.50999999 64:1.87 65:0.17 66:0.50999999 67:0.50999999 68:0.68000001 69:0.34 70:1.36 71:0.34 72:0.34 73:0 74:0 75:0 76:0.50999999 77:0.50999999 78:0.68000001 79:0.34 80:0.34 81:0.17 82:0 83:0.17 84:0.50999999 85:0.17 86:0.50999999 87:0.17 88:0.50999999 89:0.17 90:0.50999999 91:0.17 92:0.50999999 93:0.34 94:0.68000001 95:0.34 96:0.17 97:0.17 98:0.68000001 99:0 100:0 101:0.17 102:0.17 103:0.34 104:0.50999999 105:0 106:0.34 107:0 108:0.50999999 109:0.34 110:0.50999999 111:0.17 112:0.50999999 113:0 114:0 115:0.68000001 116:0.68000001 117:0.34 118:0.34 119:0 120:0 121:0 122:0 123:0 124:0 125:0.34 126:0.34 127:0.17 128:0.50999999 129:0.17 130:0.17 131:0 132:0.17 133:0 134:0 135:0.17 136:0.17 137:0 138:0.17 139:0 140:0 141:0.50999999 142:0.17 143:0.34 144:0.17 145:0.17 146:1.02 147:0 148:0 149:0.34 150:0.50999999 151:0 152:0.17 153:0 154:0.17 155:1.02 156:0.17 157:0.17 158:0 159:0 160:0.34 161:0.50999999 162:0 163:0.17 164:1.1900001 165:0 166:0.34 167:0.17 168:0.34 169:0.50999999 170:0.17 171:0.17 172:0.17 173:0 174:0 175:0.68000001 176:0 177:0 178:0.68000001 179:0 180:0.34 181:0.17 182:0 183:0.68000001 184:0.50999999 185:0.85000002 186:0.17 187:0.34 188:0 189:1.1900001 190:2.21 191:0.17 192:0.50999999 193:0.85000002 194:0.34 195:0.68000001 196:1.02 197:0.34 198:0.85000002 199:0 200:0.34 201:0 202:0 203:0.17 204:0.34 205:0 206:0.17 207:0 208:0.17 209:0 210:0.17 211:0 212:0.17 213:0 214:0 215:0 216:0 217:0.17 218:0.34 219:0 220:0 221:0.68000001 222:0 223:0.34 224:0.68000001 225:0.17 226:0.34 227:0.17 228:0.17 229:0.68000001 230:0.68000001 231:0 232:0.68000001 233:0.50999999 234:0.17 235:0.17 236:0.68000001 237:0.50999999 238:0 239:0 240:0.34 241:0.17 242:0 243:0.34 244:0 245:0.34 246:0 247:0 248:0.17 249:0.34 250:0.17 251:0 252:0.17 253:0.17 254:0 255:0 256:0.34 257:0.17 258:1.02 259:0 260:0.17 261:0 262:0 263:0.17 264:0.17 265:0.17 266:0.50999999 267:0.17 268:0 269:0 270:0 271:0 272:0.34 273:0 274:0 275:0 276:0.34 277:0.34 278:0.34 279:0 280:0 281:0.17 282:0.17 283:0.17 284:0.34 285:0.50999999 286:0 287:0 288:0.68000001 289:0.34 290:1.02 291:0.17 292:0.34 293:0.17 294:0.17 295:0.17 296:0.85000002 297:0.34 298:0.34 299:0 300:0 301:0.34 302:0.17 303:0 304:1.02 305:0.50999999 306:0.17 307:0.17 308:0.17 309:0.34 310:0.68000001 311:0.17 312:0.50999999 313:0.34 314:0 315:0.50999999 316:0.50999999 317:0.17 318:0.68000001 319:0.17 320:0 321:0.50999999 322:0 323:0 324:0.17 325:0.68000001 326:0 327:0 328:0.17 329:0.34 330:0.50999999 331:0 332:0.34 333:0.68000001 334:0.17 335:0.34 336:0 337:0.17 338:0.17 339:0 340:0.17 341:0.50999999 342:0.17 343:0.50999999 344:0.34 345:0.85000002 346:0 347:0.34 348:0.34 349:0 350:0.85000002 351:0 352:1.1900001 353:0 354:0.50999999 355:0.50999999 356:0.17 357:0.17 358:0.68000001 359:0.17 360:0.50999999 361:0.34 362:0.17 363:0 364:0.17 365:0 366:0 367:0 368:0 369:0 370:0.17 371:0 372:0 373:0 374:0 375:0 376:0 377:0 378:0 379:0 380:0 381:0 382:0 383:0 384:0.17 385:0 386:0.34 387:0 388:0.17 389:0 390:0.68000001 391:0 392:0 393:0.34 394:0.17 395:0.17 396:0.34 397:0.34 398:0.34 399:0 400:0.17 #
76.06077211132515003555454313755 1:0.91000003 2:0.30000001 3:1.6799999 4:1.0700001 5:0.91000003 6:0.61000001 7:0.15000001 8:0.61000001 9:0.46000001 10:1.0700001 11:0 12:0 13:0.61000001 14:0.15000001 15:0.61000001 16:0.75999999 17:0.30000001 18:0.61000001 19:0 20:0 21:0 22:0 23:0 24:0.15000001 25:0 26:0 27:0 28:0 29:0 30:0.15000001 31:0 32:0 33:0 34:0 35:0 36:0 37:0 38:0 39:0 40:0 41:0.91000003 42:0 43:0.15000001 44:0.30000001 45:0 46:0.46000001 47:0.30000001 48:0.46000001 49:0.61000001 50:1.0700001 51:0.15000001 52:0.15000001 53:0.15000001 54:0.30000001 55:0.46000001 56:0.61000001 57:0 58:0.61000001 59:0 60:0.15000001 61:1.0700001 62:0 63:1.22 64:0.46000001 65:0.15000001 66:1.0700001 67:0.61000001 68:0.46000001 69:0.61000001 70:0.61000001 71:0.15000001 72:0.30000001 73:0.75999999 74:0.15000001 75:0.46000001 76:0.46000001 77:0.30000001 78:0.15000001 79:0 80:0.30000001 81:0.91000003 82:0 83:0.46000001 84:0 85:0 86:0.30000001 87:0 88:0.15000001 89:0.30000001 90:0.30000001 91:0.30000001 92:0.15000001 93:0 94:0.15000001 95:0.15000001 96:0 97:0.15000001 98:0.15000001 99:0.15000001 100:0.30000001 101:0.61000001 102:0 103:0.46000001 104:0.30000001 105:0.46000001 106:0.30000001 107:0 108:0.30000001 109:0.30000001 110:0.46000001 111:0.15000001 112:0 113:0.30000001 114:0.61000001 115:0.91000003 116:0.15000001 117:0.75999999 118:0.46000001 119:0 120:0 121:0.15000001 122:0 123:0 124:0.15000001 125:0.30000001 126:0.15000001 127:0 128:0.15000001 129:0.15000001 130:0.15000001 131:0 132:0 133:0.30000001 134:0 135:0 136:0.30000001 137:0 138:0.30000001 139:0.30000001 140:0 141:0.46000001 142:0 143:0.15000001 144:0.75999999 145:0.15000001 146:0.30000001 147:0.15000001 148:0.30000001 149:0.75999999 150:0.30000001 151:0 152:0.30000001 153:0.15000001 154:0.15000001 155:0.15000001 156:0 157:0.46000001 158:0.46000001 159:0.15000001 160:0.30000001 161:1.0700001 162:0 163:0.15000001 164:0.46000001 165:0.15000001 166:0.46000001 167:0 168:0.46000001 169:0.15000001 170:0.61000001 171:0 172:0.30000001 173:0.61000001 174:0.15000001 175:0.30000001 176:0.46000001 177:0 178:0 179:0 180:0 181:1.6799999 182:0 183:0.15000001 184:1.0700001 185:0.46000001 186:0.91000003 187:0.30000001 188:0.75999999 189:0.46000001 190:1.22 191:0.30000001 192:0.30000001 193:0.15000001 194:0.15000001 195:0.61000001 196:0.30000001 197:0.75999999 198:0.30000001 199:0.15000001 200:0.30000001 201:0 202:0 203:0 204:0.15000001 205:0 206:0 207:0 208:0.15000001 209:0.15000001 210:0.30000001 211:0 212:0 213:0 214:0 215:0 216:0.15000001 217:0.15000001 218:0.46000001 219:0 220:0 221:0 222:0 223:0 224:0.61000001 225:0 226:0.30000001 227:0 228:0 229:0 230:0 231:0 232:0 233:0.15000001 234:0.30000001 235:0.15000001 236:0.15000001 237:0.15000001 238:0.30000001 239:0.15000001 240:0 241:0.75999999 242:0 243:0.30000001 244:0.46000001 245:0.46000001 246:0.46000001 247:0.30000001 248:0.15000001 249:0.15000001 250:0.30000001 251:0 252:0.15000001 253:0.30000001 254:0.30000001 255:0.15000001 256:0.30000001 257:0.15000001 258:0.61000001 259:0 260:0.15000001 261:0.15000001 262:0 263:0.15000001 264:0.61000001 265:0.15000001 266:0.30000001 267:0 268:0 269:0.30000001 270:0.46000001 271:0 272:0.15000001 273:0.15000001 274:0 275:0 276:0 277:0.46000001 278:0.15000001 279:0 280:0.15000001 281:0.61000001 282:0 283:0.46000001 284:0.61000001 285:0.30000001 286:0.30000001 287:0.15000001 288:0.61000001 289:0.30000001 290:1.37 291:0.15000001 292:0 293:0.15000001 294:0.15000001 295:0.75999999 296:0.15000001 297:0.15000001 298:0.30000001 299:0 300:0.15000001 301:0.75999999 302:0 303:0.61000001 304:0.30000001 305:0 306:0.30000001 307:0.15000001 308:0.30000001 309:0 310:0.46000001 311:0 312:0.30000001 313:0.75999999 314:0.30000001 315:0.75999999 316:0.61000001 317:0.15000001 318:0 319:0 320:0 321:0.30000001 322:0 323:0.30000001 324:0.75999999 325:0.15000001 326:0 327:0.15000001 328:0.46000001 329:0.61000001 330:0.30000001 331:0 332:0.15000001 333:0.15000001 334:0.30000001 335:0.30000001 336:0.46000001 337:0 338:0.15000001 339:0 340:0.15000001 341:0.61000001 342:0 343:0.46000001 344:0.46000001 345:0.30000001 346:0.30000001 347:0.15000001 348:0.15000001 349:0 350:0.61000001 351:0.15000001 352:0 353:0.75999999 354:0 355:0.61000001 356:0.46000001 357:0.30000001 358:0.15000001 359:0.15000001 360:0 361:0 362:0 363:0 364:0.15000001 365:0 366:0 367:0 368:0 369:0 370:0.30000001 371:0 372:0 373:0 374:0 375:0.15000001 376:0.15000001 377:0.15000001 378:0.15000001 379:0 380:0 381:0 382:0 383:0.15000001 384:0.46000001 385:0 386:0 387:0 388:0 389:0 390:0.30000001 391:0 392:0 393:0 394:0 395:0.15000001 396:0.30000001 397:0.30000001 398:0.30000001 399:0 400:0.15000001 #
-3.3411090869696735694560629781336 1:0 2:0 3:0 4:0.93000001 5:0 6:0 7:0 8:0 9:0 10:0 11:0 12:0 13:0.93000001 14:0 15:1.86 16:1.4 17:0.47 18:0 19:0 20:0 21:0 22:0 23:0 24:0 25:0 26:0 27:0 28:0 29:0 30:0 31:0 32:0 33:0 34:0 35:0 36:0 37:0 38:0.47 39:0 40:0 41:0.47 42:0 43:0.93000001 44:0.93000001 45:0.47 46:0.47 47:0 48:0 49:0 50:0 51:0 52:0 53:0.93000001 54:0 55:0 56:0.47 57:0 58:0.47 59:0.47 60:0.47 61:1.4 62:0 63:0 64:1.4 65:0 66:1.4 67:0 68:0 69:0.47 70:0.93000001 71:0.47 72:0 73:1.4 74:0.47 75:0 76:0.93000001 77:0 78:0.47 79:0 80:0 81:0.47 82:0 83:0 84:0.47 85:0 86:0.47 87:0 88:0 89:0.47 90:0 91:0.47 92:0 93:0.93000001 94:0 95:0.47 96:0.47 97:0.47 98:0.47 99:0 100:0 101:0 102:0 103:0.47 104:0 105:1.4 106:0.47 107:0 108:0.47 109:0.47 110:0.47 111:0 112:0.47 113:0 114:0 115:0 116:0.47 117:0 118:0.47 119:0.47 120:0 121:0 122:0 123:0 124:0.47 125:0 126:0 127:0 128:0 129:0 130:0 131:0 132:0 133:0 134:0 135:0.47 136:0.47 137:0 138:0 139:0 140:0 141:0 142:0 143:0 144:0.47 145:0 146:0 147:0 148:0.47 149:0 150:0 151:0 152:0 153:0.93000001 154:0.47 155:0 156:0 157:0 158:0.47 159:0 160:0 161:0 162:0 163:0.47 164:0 165:0 166:0 167:0.47 168:0.47 169:0.47 170:0 171:0 172:0.47 173:0.47 174:0.47 175:0 176:0 177:0.47 178:0.47 179:0 180:0 181:0.47 182:0 183:0.93000001 184:0 185:0 186:0.47 187:0 188:0.47 189:0 190:0 191:0 192:0.47 193:0.47 194:0 195:0.47 196:1.4 197:0 198:0 199:0 200:0.47 201:0.47 202:0 203:0.93000001 204:0.47 205:0 206:0 207:0 208:0 209:0 210:0 211:0 212:0 213:0.47 214:0 215:0 216:0.47 217:0.47 218:0 219:0 220:0 221:0 222:0 223:0 224:0.93000001 225:0.47 226:0 227:0 228:0 229:0 230:0 231:0 232:0 233:0 234:0 235:0.47 236:0 237:0 238:0.93000001 239:0 240:0 241:0.47 242:0 243:0 244:1.4 245:0.93000001 246:0.47 247:0 248:0 249:0 250:0.47 251:0 252:0.47 253:1.4 254:0.93000001 255:1.86 256:0.47 257:0.47 258:0.47 259:0.93000001 260:0.47 261:0 262:0 263:0.47 264:0.47 265:0 266:0.47 267:0 268:0.47 269:0 270:0 271:0 272:0 273:0 274:0 275:0.47 276:0.47 277:0.47 278:0 279:0 280:0 281:0.93000001 282:0 283:0.47 284:0.93000001 285:0.47 286:0 287:0 288:0.47 289:0 290:0.93000001 291:0 292:0 293:0.93000001 294:0.93000001 295:0.47 296:0.47 297:0 298:0 299:0 300:0 301:0 302:0 303:0.47 304:0 305:0.47 306:0.93000001 307:0.47 308:0 309:0 310:1.4 311:1.86 312:0.47 313:1.4 314:0 315:0.47 316:0.93000001 317:0.47 318:0.47 319:0 320:0 321:0.47 322:0 323:0.47 324:0.47 325:0.47 326:0.47 327:0 328:0 329:1.4 330:0.47 331:0 332:0 333:0.47 334:0 335:0 336:0.47 337:0.93000001 338:0.47 339:0 340:0 341:0 342:0.47 343:0.47 344:0.47 345:0.47 346:0 347:0.47 348:0 349:0.47 350:0.47 351:0 352:0.47 353:0 354:0 355:0 356:0.47 357:0.93000001 358:0 359:0 360:0.47 361:0.47 362:0 363:0 364:0 365:0 366:0 367:0 368:0 369:0.47 370:0 371:0 372:0 373:0.47 374:0 375:0 376:0 377:0.47 378:0 379:0 380:0 381:0 382:0 383:0 384:0 385:0 386:0 387:0 388:0 389:0 390:0.47 391:0 392:0 393:0 394:0 395:0 396:0.47 397:0.93000001 398:0 399:0 400:0.93000001 #
-12.654605829407321593294000194874 1:0.30000001 2:0.30000001 3:0 4:0 5:0 6:0 7:0 8:0 9:0.30000001 10:0.30000001 11:0.60000002 12:0 13:0 14:0.30000001 15:0 16:0 17:0.88999999 18:0 19:0 20:0.60000002 21:0 22:0 23:0.60000002 24:0 25:0.30000001 26:0 27:0 28:0 29:0.30000001 30:0 31:0 32:0 33:0 34:0 35:0 36:0 37:0.30000001 38:0 39:0 40:0 41:0.30000001 42:0.30000001 43:0.60000002 44:3.8699999 45:0.88999999 46:0 47:0.60000002 48:0 49:1.79 50:0 51:0.60000002 52:0 53:0.88999999 54:0.60000002 55:0 56:0.30000001 57:0 58:0 59:0 60:0.60000002 61:0.60000002 62:0 63:2.98 64:2.6800001 65:1.79 66:1.1900001 67:0 68:1.1900001 69:0.60000002 70:0.30000001 71:0.30000001 72:0.60000002 73:0 74:0.88999999 75:0 76:0.30000001 77:0.30000001 78:0.60000002 79:0.60000002 80:0 81:0.30000001 82:0 83:0.30000001 84:0.60000002 85:0.60000002 86:1.1900001 87:0 88:0 89:0.30000001 90:0 91:1.1900001 92:0.60000002 93:0 94:0.60000002 95:0 96:0.60000002 97:1.1900001 98:0 99:0 100:0.30000001 101:0.30000001 102:0 103:0.60000002 104:0.88999999 105:0.30000001 106:0.30000001 107:0.30000001 108:0 109:0.88999999 110:0.30000001 111:0.30000001 112:0 113:0 114:0.88999999 115:0.30000001 116:0 117:0.30000001 118:0 119:0 120:0 121:0 122:0 123:0 124:0.30000001 125:0.60000002 126:0 127:0 128:0 129:0 130:0 131:0 132:0 133:0.30000001 134:0 135:0.30000001 136:0 137:0 138:0 139:0 140:0 141:0 142:0 143:0.30000001 144:0 145:0 146:0.30000001 147:0 148:0 149:1.1900001 150:0 151:0 152:0 153:0 154:0.30000001 155:0 156:0.30000001 157:0 158:0 159:0 160:0 161:0.30000001 162:0 163:1.1900001 164:1.1900001 165:1.1900001 166:0.60000002 167:0 168:0.30000001 169:4.7600002 170:0.60000002 171:0.60000002 172:0.88999999 173:1.1900001 174:0.60000002 175:0.60000002 176:0 177:0 178:0.30000001 179:0 180:0.88999999 181:0 182:0.30000001 183:0 184:0.60000002 185:0 186:0 187:0 188:0 189:0.88999999 190:0 191:0 192:0.30000001 193:0 194:0 195:0 196:0.30000001 197:0 198:0 199:0 200:0 201:0.60000002 202:0 203:0.30000001 204:0 205:0.30000001 206:0.60000002 207:0 208:0 209:0.30000001 210:0.30000001 211:1.49 212:0 213:0 214:0.60000002 215:0 216:0.60000002 217:0 218:0.30000001 219:0 220:0.30000001 221:0 222:0 223:0.60000002 224:0.30000001 225:0.60000002 226:0 227:0 228:0.30000001 229:1.1900001 230:0 231:0 232:0.60000002 233:0 234:0.30000001 235:0.30000001 236:0 237:0.60000002 238:0 239:0 240:0 241:0 242:0 243:0.60000002 244:0.60000002 245:0.60000002 246:0 247:0 248:0 249:0.30000001 250:0 251:0 252:0 253:0 254:0 255:0 256:0.30000001 257:0 258:0 259:0 260:0 261:0 262:0.60000002 263:0.60000002 264:1.1900001 265:0.60000002 266:0 267:0 268:0 269:1.49 270:0 271:0 272:0.60000002 273:0 274:0.60000002 275:0 276:0.30000001 277:0 278:0 279:0 280:0 281:0.30000001 282:0 283:0.30000001 284:0 285:0 286:0.60000002 287:0 288:0 289:0 290:0 291:0 292:0 293:0 294:0.30000001 295:0.30000001 296:0 297:0 298:0 299:0 300:0 301:0.30000001 302:0 303:1.1900001 304:0.60000002 305:0 306:0 307:0 308:0 309:0 310:0 311:0.30000001 312:0.88999999 313:0 314:0 315:0 316:0.30000001 317:0 318:0 319:0 320:0 321:0.30000001 322:0 323:0.60000002 324:0.60000002 325:0 326:0.30000001 327:0.30000001 328:0.60000002 329:0.60000002 330:0 331:0 332:0 333:0 334:0 335:0 336:0 337:0.30000001 338:0.30000001 339:0 340:0.60000002 341:0 342:0 343:0 344:0.30000001 345:0 346:0 347:0 348:0 349:0.30000001 350:0.60000002 351:0 352:0.30000001 353:0 354:0 355:0 356:0 357:0 358:0 359:0 360:0 361:0 362:0 363:0 364:0.30000001 365:0 366:0 367:0 368:0 369:0 370:0 371:0 372:0 373:0 374:0 375:0 376:0 377:0.30000001 378:0 379:0 380:0 381:0 382:0 383:0.60000002 384:0.88999999 385:0 386:0.60000002 387:0.30000001 388:0 389:0.30000001 390:0 391:0 392:0 393:0 394:0 395:0 396:0.30000001 397:0.30000001 398:0 399:0 400:0 #
-12.654605829407321593294000194874 1:0.98000002 2:0 3:0 4:1.96 5:0 6:0 7:0 8:0 9:0 10:0 11:0 12:0.98000002 13:0 14:0 15:0 16:0 17:0 18:0 19:0 20:0 21:0 22:0.98000002 23:0 24:0 25:0 26:0 27:0 28:0 29:0 30:0 31:0.98000002 32:0 33:0.98000002 34:0 35:0 36:0.98000002 37:0 38:0 39:0 40:0 41:0 42:0 43:0.98000002 44:0.98000002 45:0 46:0 47:0 48:0.98000002 49:0 50:0.98000002 51:0 52:0 53:0.98000002 54:0 55:0 56:1.96 57:0 58:0.98000002 59:0 60:0 61:0.98000002 62:0 63:0 64:0 65:0.98000002 66:0 67:0 68:0.98000002 69:1.96 70:0.98000002 71:0 72:1.96 73:0 74:0 75:0.98000002 76:0 77:0 78:0 79:0 80:0.98000002 81:0 82:0.98000002 83:0 84:0 85:0 86:0 87:0 88:0 89:0 90:0 91:0 92:0 93:0 94:0 95:0.98000002 96:0 97:0.98000002 98:0 99:0 100:0 101:0 102:0 103:0.98000002 104:0 105:0 106:0 107:0 108:0 109:0 110:0.98000002 111:0 112:0 113:0 114:0 115:0 116:0.98000002 117:0 118:0.98000002 119:0 120:0 121:0 122:0 123:0 124:0.98000002 125:0 126:0 127:0 128:0 129:0.98000002 130:0.98000002 131:0 132:0 133:0 134:0 135:0 136:0 137:0 138:0 139:0 140:0 141:0 142:0 143:0.98000002 144:0 145:0 146:0 147:0.98000002 148:0 149:0.98000002 150:0 151:0 152:0 153:0.98000002 154:0 155:0 156:0 157:0 158:0 159:0 160:0 161:0 162:0 163:2.9400001 164:0 165:0 166:0 167:0.98000002 168:0.98000002 169:2.9400001 170:0.98000002 171:0 172:0 173:0 174:0 175:0.98000002 176:1.96 177:0 178:0.98000002 179:0 180:0 181:0 182:0.98000002 183:0 184:0.98000002 185:0 186:0 187:0.98000002 188:0 189:2.9400001 190:2.9400001 191:0 192:0.98000002 193:0 194:0 195:0.98000002 196:0 197:0 198:0 199:0 200:0 201:0 202:0 203:0.98000002 204:0.98000002 205:0 206:0 207:0 208:0 209:0 210:0 211:0 212:0 213:0.98000002 214:0 215:0 216:0 217:0 218:0 219:0 220:0 221:0 222:0 223:0.98000002 224:0 225:0 226:0.98000002 227:0 228:0 229:0 230:0 231:0 232:0.98000002 233:0 234:0 235:0 236:0.98000002 237:0 238:0 239:0 240:0.98000002 241:0 242:0 243:0 244:0 245:0 246:0.98000002 247:0 248:0 249:0 250:0.98000002 251:0 252:0 253:0 254:0 255:0 256:0 257:0 258:0.98000002 259:0.98000002 260:0 261:0 262:0 263:0 264:0 265:0 266:0 267:0 268:0 269:0 270:0 271:0 272:0 273:0 274:0 275:0 276:0 277:0 278:0 279:0 280:0 281:0.98000002 282:0 283:0 284:0 285:0 286:0.98000002 287:0 288:0 289:0 290:0.98000002 291:0 292:0 293:0 294:0 295:0 296:0 297:0 298:0.98000002 299:0 300:0 301:0 302:0.98000002 303:0 304:0 305:1.96 306:0 307:0.98000002 308:0.98000002 309:0.98000002 310:0 311:0 312:0 313:0 314:0 315:0 316:0 317:2.9400001 318:0 319:0 320:0 321:0 322:0 323:0 324:0.98000002 325:0 326:0.98000002 327:0 328:0 329:0 330:0.98000002 331:0.98000002 332:0 333:0 334:0 335:0 336:0 337:0 338:0 339:0 340:0 341:0.98000002 342:0 343:0 344:1.96 345:0 346:0 347:0 348:0 349:0.98000002 350:0 351:0 352:0 353:0 354:0 355:0 356:1.96 357:0 358:0 359:0 360:0 361:0 362:0 363:0 364:0 365:0 366:0 367:0 368:0 369:0.98000002 370:0 371:0 372:0 373:0 374:0 375:0 376:0 377:0 378:0 379:0 380:0 381:0 382:0 383:0 384:0.98000002 385:0 386:0 387:0 388:0 389:0 390:0 391:0 392:0 393:0 394:0 395:0 396:0 397:0 398:0.98000002 399:0 400:0 #
253.09211658814643897130736149848 1:1.83 2:0 3:0.15000001 4:0.75999999 5:0.30000001 6:0.91000003 7:0.30000001 8:0.15000001 9:0.15000001 10:1.52 11:0.15000001 12:0 13:0 14:1.0700001 15:1.52 16:0.46000001 17:0.46000001 18:1.22 19:0.46000001 20:0.30000001 21:0.15000001 22:0.15000001 23:0.15000001 24:0 25:0 26:0 27:0.15000001 28:0 29:0 30:0 31:0.15000001 32:0 33:0 34:0 35:0 36:0 37:0 38:0 39:0 40:0.15000001 41:0.91000003 42:0 43:0 44:0.61000001 45:0.15000001 46:0.30000001 47:0 48:0 49:0.15000001 50:0.46000001 51:0 52:0.30000001 53:0.30000001 54:0 55:0.15000001 56:0.61000001 57:0.30000001 58:0 59:0 60:0.15000001 61:1.22 62:0 63:0.30000001 64:0.30000001 65:0.15000001 66:0.30000001 67:0.15000001 68:0.30000001 69:0 70:1.22 71:0.15000001 72:0.15000001 73:0.46000001 74:0.75999999 75:0.30000001 76:0.30000001 77:0 78:0.46000001 79:0.15000001 80:0 81:0.30000001 82:0 83:0 84:0.61000001 85:0 86:0.30000001 87:0.15000001 88:0.15000001 89:0 90:0.46000001 91:0 92:0 93:0 94:0 95:0.15000001 96:0.15000001 97:0.15000001 98:0.15000001 99:0 100:0 101:0.91000003 102:0 103:0.61000001 104:0.15000001 105:0.46000001 106:0.46000001 107:0.30000001 108:0 109:0 110:1.0700001 111:0.30000001 112:0.46000001 113:0.15000001 114:0 115:0.61000001 116:0.30000001 117:0.61000001 118:0.91000003 119:0.15000001 120:0.15000001 121:0.15000001 122:0.30000001 123:0.46000001 124:0.15000001 125:0 126:0.30000001 127:0 128:0 129:0 130:0.61000001 131:0 132:0.15000001 133:0.46000001 134:0 135:0 136:0 137:0 138:0.30000001 139:0 140:0 141:0.15000001 142:0 143:0.15000001 144:0.46000001 145:0 146:0.46000001 147:0.15000001 148:0.15000001 149:0 150:0.75999999 151:0.15000001 152:0.30000001 153:0 154:0.15000001 155:0.15000001 156:0 157:0 158:0.15000001 159:0 160:0 161:0 162:0 163:0 164:0 165:0 166:0.15000001 167:0.15000001 168:0 169:0 170:0 171:0 172:0 173:0 174:0 175:0.30000001 176:0 177:0 178:0.15000001 179:0 180:0 181:1.37 182:0.30000001 183:0.46000001 184:0.61000001 185:0.46000001 186:0.75999999 187:0.46000001 188:0.30000001 189:0.30000001 190:1.52 191:0.30000001 192:0.46000001 193:0.91000003 194:0.30000001 195:1.52 196:0.91000003 197:0.30000001 198:0.75999999 199:0.15000001 200:0.30000001 201:0 202:0 203:0 204:0.15000001 205:0.15000001 206:0.15000001 207:0 208:0 209:0 210:0.30000001 211:0 212:0 213:0.15000001 214:0.15000001 215:0.15000001 216:0.15000001 217:0 218:0.15000001 219:0 220:0 221:0.46000001 222:0 223:0.15000001 224:0.30000001 225:0.15000001 226:0.15000001 227:0 228:0 229:0 230:0.30000001 231:0 232:0 233:0.30000001 234:0 235:0.75999999 236:0 237:0 238:0 239:0 240:0.15000001 241:0.91000003 242:0 243:0.15000001 244:0.61000001 245:0.15000001 246:0.30000001 247:0 248:0.75999999 249:0 250:0.61000001 251:0 252:0.15000001 253:0.61000001 254:0.15000001 255:0.15000001 256:0 257:0.46000001 258:0.61000001 259:0.46000001 260:0 261:0.46000001 262:0 263:0.46000001 264:0.30000001 265:0.15000001 266:0.91000003 267:0.30000001 268:0.30000001 269:0 270:0.30000001 271:0 272:0.15000001 273:0.46000001 274:0.75999999 275:0.46000001 276:0.15000001 277:0.46000001 278:0.15000001 279:0 280:0.30000001 281:0.75999999 282:0 283:0.30000001 284:1.0700001 285:0.30000001 286:0.61000001 287:0.15000001 288:0.46000001 289:0 290:1.37 291:0.15000001 292:0.30000001 293:0.30000001 294:0.75999999 295:1.52 296:0.30000001 297:0.46000001 298:0.61000001 299:0.15000001 300:0.15000001 301:0.30000001 302:0 303:0.61000001 304:0.15000001 305:0 306:0.30000001 307:0.15000001 308:0.15000001 309:0.15000001 310:0.61000001 311:0 312:0.30000001 313:0.30000001 314:0.61000001 315:0.15000001 316:0.15000001 317:0.30000001 318:0.30000001 319:0 320:0.15000001 321:0.46000001 322:0 323:0.15000001 324:0.30000001 325:0 326:0.15000001 327:0.15000001 328:0 329:0 330:0.15000001 331:0 332:0 333:0.75999999 334:0.46000001 335:0.46000001 336:0.46000001 337:0.15000001 338:0.61000001 339:0 340:0.15000001 341:0.91000003 342:0 343:0.30000001 344:0.15000001 345:0.15000001 346:0.61000001 347:0.30000001 348:0.46000001 349:0 350:0.46000001 351:0 352:0 353:0.91000003 354:0.75999999 355:0.91000003 356:0.46000001 357:0.30000001 358:0.91000003 359:0 360:0.15000001 361:0.30000001 362:0 363:0 364:0 365:0 366:0.15000001 367:0 368:0 369:0 370:0.30000001 371:0 372:0 373:0 374:0 375:0.46000001 376:0 377:0.15000001 378:0.15000001 379:0 380:0 381:0.15000001 382:0.15000001 383:0 384:0 385:0 386:0.30000001 387:0 388:0 389:0 390:0.46000001 391:0 392:0 393:0 394:0.15000001 395:0.15000001 396:0.30000001 397:0.30000001 398:0.15000001 399:0 400:0 #
213.37497336933301994577050209045 1:1.22 2:0.11 3:0.55000001 4:0.88 5:0.22 6:0.55000001 7:0.22 8:0.33000001 9:0.44 10:0.88 11:0.22 12:0.88 13:0.44 14:0 15:1.66 16:1.33 17:0.55000001 18:0.44 19:0.44 20:0.11 21:0.11 22:0 23:0 24:0.11 25:0 26:0 27:0 28:0 29:0.11 30:0 31:0 32:0 33:0 34:0.11 35:0.11 36:0.33000001 37:0 38:0 39:0 40:0 41:1.1 42:0.11 43:0.44 44:0.66000003 45:0.11 46:0.66000003 47:0 48:0.22 49:0.11 50:0.33000001 51:0.33000001 52:0.22 53:0.44 54:0.11 55:0 56:0.11 57:0.11 58:0.22 59:0 60:0.11 61:0.76999998 62:0 63:0.44 64:0.55000001 65:0.11 66:0.22 67:0 68:0.22 69:0.55000001 70:0.55000001 71:0.22 72:0.22 73:0.22 74:0.11 75:0.55000001 76:0.76999998 77:0.44 78:0.76999998 79:0 80:0.11 81:0.22 82:0 83:0.11 84:0 85:0.33000001 86:0.22 87:0 88:0.11 89:0.22 90:0.66000003 91:0.11 92:0 93:0.22 94:0 95:0.44 96:0.44 97:0.22 98:0.33000001 99:0 100:0.22 101:0.66000003 102:0 103:0.33000001 104:0.11 105:0.44 106:0.33000001 107:0.11 108:0.11 109:0.76999998 110:0.11 111:0.22 112:0.11 113:0 114:0.22 115:0.22 116:0.22 117:0.66000003 118:0.55000001 119:0 120:0.11 121:0.11 122:0 123:0.11 124:0.22 125:0 126:0 127:0 128:0.22 129:0 130:0.22 131:0 132:0 133:0 134:0 135:0.11 136:0.22 137:0 138:0 139:0 140:0 141:0.44 142:0 143:0.22 144:0.22 145:0.11 146:0.44 147:0.11 148:0.22 149:0.11 150:0.55000001 151:0.11 152:0.11 153:0.11 154:0.11 155:0.33000001 156:0.33000001 157:0.22 158:0.33000001 159:0 160:0 161:0.55000001 162:0 163:0.44 164:0.44 165:0.22 166:0 167:0.22 168:0.11 169:0.44 170:0.44 171:0.22 172:0.11 173:0.22 174:0.11 175:0.33000001 176:0.44 177:0.22 178:0.22 179:0.44 180:0.22 181:0.88 182:0.22 183:0.66000003 184:0.76999998 185:0.33000001 186:0.44 187:0 188:0.22 189:0.55000001 190:0.55000001 191:0.33000001 192:0.44 193:0.22 194:0.11 195:0.66000003 196:0.33000001 197:0.44 198:0.55000001 199:0.11 200:0.44 201:0.44 202:0 203:0.11 204:0.11 205:0 206:0.33000001 207:0.11 208:0.11 209:0.11 210:0.33000001 211:0 212:0.22 213:0.22 214:0.11 215:0.11 216:0.33000001 217:0.44 218:0.33000001 219:0 220:0 221:0.55000001 222:0.11 223:0.22 224:0.22 225:0.11 226:0.11 227:0 228:0.22 229:0.22 230:0.33000001 231:0 232:0 233:0.33000001 234:0 235:0.22 236:0.33000001 237:0.11 238:0.11 239:0 240:0 241:0.33000001 242:0 243:0.11 244:0.44 245:0.22 246:0.11 247:0.11 248:0.22 249:0.33000001 250:0.22 251:0.22 252:0 253:0.44 254:0.11 255:0.44 256:0.66000003 257:0.11 258:0 259:0 260:0.11 261:0.11 262:0 263:0.11 264:0.11 265:0 266:0 267:0.11 268:0.22 269:0.11 270:0.11 271:0 272:0.22 273:0.11 274:0.33000001 275:0 276:0.33000001 277:0.11 278:0 279:0 280:0 281:1.1 282:0.11 283:0.22 284:0.55000001 285:0.22 286:0.99000001 287:0.11 288:0.44 289:0.33000001 290:0.88 291:0.44 292:0 293:0.11 294:0.22 295:0.76999998 296:0.66000003 297:0.44 298:0.55000001 299:0 300:0.33000001 301:0.99000001 302:0 303:0.76999998 304:0.44 305:0.76999998 306:0.44 307:0 308:0.22 309:0.44 310:0.88 311:0.55000001 312:0.11 313:0.44 314:0.22 315:0.88 316:1.77 317:0.33000001 318:0.33000001 319:0.22 320:0.11 321:0.22 322:0.11 323:0.22 324:0.33000001 325:0.11 326:0 327:0 328:0.44 329:0.11 330:0.44 331:0.22 332:0.22 333:0.11 334:0 335:0.99000001 336:0.55000001 337:0.44 338:0.44 339:0 340:0.11 341:0.76999998 342:0.11 343:0.33000001 344:0.33000001 345:0.11 346:0.33000001 347:0 348:0.33000001 349:0.33000001 350:0.55000001 351:0.11 352:0.11 353:0.44 354:0.11 355:0.44 356:0.55000001 357:0.11 358:1.99 359:0.11 360:0.11 361:0.11 362:0 363:0 364:0.11 365:0.33000001 366:0.11 367:0.11 368:0 369:0.11 370:0.11 371:0 372:0.11 373:0.11 374:0 375:0 376:0.11 377:0 378:0 379:0 380:0 381:0.76999998 382:0 383:0 384:0.22 385:0.11 386:0 387:0 388:0.11 389:0.11 390:0.11 391:0 392:0.11 393:0 394:0 395:0.22 396:0.11 397:0.11 398:0.11 399:0 400:0.11 #
-9.6794819871925028564874082803726 1:2.47 2:0 3:0.31 4:0.31 5:0.31 6:0.31 7:0.31 8:0 9:0 10:1.23 11:0.31 12:0.31 13:0.62 14:0.31 15:0.31 16:1.23 17:0.93000001 18:0.62 19:0.62 20:0.62 21:0.62 22:0.31 23:0 24:0 25:0 26:0.31 27:0 28:0 29:0 30:0 31:0.31 32:0 33:0 34:0 35:0.31 36:0.31 37:0 38:0 39:0 40:0 41:0 42:0 43:0 44:0.31 45:0 46:0.31 47:0 48:0.62 49:0 50:0 51:0.62 52:0 53:0 54:0 55:0.31 56:0.31 57:0.31 58:0.31 59:0 60:0 61:0.31 62:0 63:0 64:0.93000001 65:0 66:0 67:0 68:0 69:0 70:1.23 71:0.31 72:0 73:0 74:0.31 75:0 76:0 77:0 78:0.31 79:0.31 80:0 81:0.31 82:0 83:0 84:0 85:0.31 86:0 87:0.31 88:0.31 89:0 90:1.23 91:0 92:0 93:0.31 94:0 95:0 96:0 97:0 98:0 99:0 100:0.93000001 101:0.93000001 102:0.31 103:0.31 104:0 105:0.93000001 106:0.31 107:0.31 108:0 109:0 110:0.62 111:0 112:0 113:0 114:0 115:0.31 116:0.31 117:0.62 118:0 119:0 120:0.62 121:0.31 122:0 123:0 124:0.31 125:0.31 126:0.31 127:0 128:0.31 129:0 130:0 131:0 132:0 133:0.31 134:0 135:0.62 136:0 137:0.31 138:0.31 139:0 140:0 141:0 142:0 143:0.31 144:0 145:0.31 146:0 147:0 148:0 149:0 150:0 151:0.31 152:0.31 153:0.31 154:0 155:0.31 156:0.31 157:0.31 158:0 159:0 160:0 161:0.31 162:0 163:0 164:0 165:0.31 166:0.31 167:0 168:0 169:0 170:0 171:0 172:0.31 173:0.62 174:0.31 175:0 176:0.31 177:0 178:0 179:0.31 180:0 181:0.62 182:0.93000001 183:0.62 184:0 185:0.31 186:1.23 187:0.93000001 188:0.31 189:0.31 190:2.47 191:0.31 192:0.31 193:0.31 194:0 195:1.23 196:0.31 197:0.62 198:0.31 199:0 200:0.31 201:1.23 202:0 203:0 204:0 205:0 206:0 207:0 208:0 209:0.31 210:0.93000001 211:0 212:0 213:0.62 214:0 215:0 216:0 217:0 218:0 219:0 220:0 221:0.31 222:0 223:0 224:0 225:0 226:0 227:0 228:0 229:0.62 230:0.31 231:0 232:0 233:0.31 234:0.31 235:0 236:0 237:0.31 238:0.31 239:0 240:0 241:0.93000001 242:0 243:0.31 244:0.31 245:0 246:0.31 247:0 248:0 249:0.31 250:0.62 251:0 252:0 253:0.31 254:0 255:0.93000001 256:0.62 257:0.62 258:0.31 259:0.31 260:0 261:0 262:0 263:0 264:0 265:0 266:0.31 267:0 268:0.31 269:0 270:0 271:0 272:0 273:0 274:0 275:0.31 276:0.62 277:0.31 278:0.31 279:0 280:0.31 281:0.31 282:0 283:0 284:0.62 285:0.31 286:0.93000001 287:0 288:0 289:0 290:0.62 291:0 292:0.62 293:0 294:0 295:1.54 296:0.62 297:0.62 298:0 299:0.31 300:0.93000001 301:0.62 302:0.31 303:0.31 304:0 305:0 306:0.62 307:0 308:0.31 309:0 310:0.31 311:0 312:0 313:1.54 314:0 315:0 316:2.78 317:1.23 318:0.93000001 319:0.31 320:0.93000001 321:0.31 322:0.31 323:0 324:0.31 325:0 326:0 327:0.62 328:0.31 329:0.62 330:0.31 331:0.31 332:0 333:0.31 334:0.62 335:0.31 336:1.23 337:0.62 338:0.93000001 339:0 340:0 341:0.93000001 342:0 343:0.62 344:0 345:0.31 346:0 347:0.31 348:0 349:0.31 350:1.23 351:0 352:0.31 353:0.31 354:0 355:0 356:0.62 357:0.31 358:0 359:0 360:0 361:0.31 362:0 363:0 364:0.31 365:0 366:0 367:0 368:0 369:0 370:0.31 371:0.31 372:0 373:0 374:0.31 375:0.31 376:0.31 377:0 378:0.31 379:0 380:0 381:0.31 382:0 383:0.31 384:0.31 385:0.31 386:0.31 387:0.31 388:0 389:0.31 390:0 391:0 392:0.31 393:0 394:0.31 395:0.62 396:0.31 397:0 398:0.31 399:0.31 400:0.31 #
-12.654605829407321593294000194874 1:1.55 2:0.34999999 3:0.69 4:0.17 5:0.86000001 6:1.04 7:0.34999999 8:0.34999999 9:0.17 10:1.04 11:0.17 12:0.34999999 13:0.69 14:0.17 15:0.69 16:0.34999999 17:0.86000001 18:1.38 19:0 20:0.17 21:0.34999999 22:0.51999998 23:0 24:0 25:0 26:0.34999999 27:0 28:0.34999999 29:0 30:0 31:0.17 32:0 33:0 34:0 35:0.17 36:0.34999999 37:0 38:0 39:0 40:0 41:0.34999999 42:0.17 43:0 44:0.51999998 45:0.34999999 46:0.69 47:0 48:0.34999999 49:0.17 50:0 51:0 52:0.51999998 53:0 54:0 55:0.86000001 56:0.17 57:0 58:0.34999999 59:0 60:0 61:0.69 62:0 63:0 64:0.34999999 65:0 66:0.17 67:0.17 68:0 69:0.34999999 70:0.34999999 71:0 72:0.51999998 73:0 74:0.51999998 75:0 76:0.69 77:0 78:1.21 79:0 80:0 81:0.51999998 82:0.17 83:0 84:0 85:0.17 86:0.17 87:0 88:0.51999998 89:0.17 90:1.38 91:0 92:0 93:0.17 94:0 95:0 96:0.34999999 97:0.34999999 98:0.69 99:0 100:0.51999998 101:0.86000001 102:0.17 103:0 104:0.51999998 105:0.17 106:0.17 107:0 108:0.34999999 109:0.17 110:0.86000001 111:0.17 112:0.51999998 113:0.17 114:0.17 115:0.86000001 116:0.34999999 117:0.17 118:0.34999999 119:0 120:0.34999999 121:0.34999999 122:0.17 123:0.17 124:0 125:0.17 126:0.34999999 127:0.17 128:0.17 129:0 130:0 131:0.17 132:0.17 133:0.51999998 134:0 135:0.34999999 136:0.17 137:0 138:0 139:0 140:0 141:0.69 142:0 143:0 144:0 145:0 146:0.69 147:0.34999999 148:0.34999999 149:0.34999999 150:0.69 151:0 152:0 153:0.69 154:0 155:0 156:0.17 157:0.34999999 158:0.86000001 159:0 160:0.17 161:0.17 162:0 163:0.34999999 164:0.34999999 165:0 166:0.17 167:0 168:0 169:0.17 170:0 171:0 172:0.17 173:0 174:0 175:0.34999999 176:0.17 177:0.17 178:0 179:0.17 180:0 181:0.69 182:0.34999999 183:0.51999998 184:0.51999998 185:0.86000001 186:0.17 187:0.17 188:0.51999998 189:0.17 190:1.55 191:0.17 192:0.51999998 193:0.34999999 194:0.17 195:0.17 196:1.55 197:0.86000001 198:1.55 199:0 200:0.17 201:0 202:0 203:0 204:0 205:0.17 206:0 207:0 208:0.34999999 209:0 210:0.51999998 211:0 212:0 213:0.17 214:0 215:0 216:0.51999998 217:0 218:0.17 219:0 220:0 221:0.34999999 222:0 223:0.51999998 224:0.34999999 225:0 226:0.51999998 227:0.17 228:0 229:0.17 230:0 231:0 232:0.17 233:0.51999998 234:0.17 235:0.34999999 236:0.17 237:0.17 238:0.17 239:0 240:0.51999998 241:0.51999998 242:0 243:0.51999998 244:0.17 245:0 246:0.34999999 247:0.17 248:0.17 249:0 250:0.69 251:0.17 252:0.17 253:0.34999999 254:0.17 255:0 256:0.17 257:0.51999998 258:0.69 259:0 260:0.17 261:0.17 262:0 263:0.34999999 264:0.17 265:0.17 266:0.34999999 267:0.17 268:0.17 269:0 270:0.17 271:0 272:0 273:0.17 274:0.34999999 275:0 276:0 277:0.17 278:0 279:0 280:0 281:0.86000001 282:0.17 283:0.17 284:0.34999999 285:0.34999999 286:0 287:0 288:0.17 289:0.17 290:0.86000001 291:0 292:0.34999999 293:0.17 294:0.17 295:0.17 296:0.17 297:0.51999998 298:0.34999999 299:0 300:0.34999999 301:0.69 302:0 303:0.34999999 304:0.34999999 305:0.51999998 306:0.34999999 307:0.34999999 308:0.51999998 309:0.17 310:0.69 311:0.34999999 312:0.34999999 313:0.34999999 314:0 315:0.51999998 316:0.34999999 317:0.69 318:0.17 319:0 320:0.17 321:1.04 322:0 323:0.17 324:0.51999998 325:0.17 326:0.17 327:0 328:0.17 329:0 330:0.51999998 331:0.17 332:0.34999999 333:0.17 334:0.34999999 335:0.17 336:0.34999999 337:0.51999998 338:0.34999999 339:0.17 340:0.17 341:1.04 342:0.17 343:0.51999998 344:0.51999998 345:1.04 346:0.51999998 347:0.51999998 348:0.51999998 349:0 350:1.38 351:0.17 352:0.17 353:0.34999999 354:0.17 355:0.51999998 356:0.69 357:0 358:0.51999998 359:0.17 360:0 361:0 362:0 363:0 364:0 365:0 366:0 367:0 368:0 369:0 370:0.17 371:0 372:0 373:0 374:0 375:0.17 376:0.17 377:0 378:0 379:0 380:0 381:0.51999998 382:0 383:0.34999999 384:0.17 385:0.17 386:0.17 387:0.34999999 388:0.34999999 389:0 390:0.17 391:0 392:0 393:0.17 394:0 395:0 396:0 397:0.17 398:0.17 399:0 400:0 #
-0.65354662264271612404087363756844 1:0.18000001 2:0 3:0 4:0 5:0.18000001 6:0.18000001 7:0.18000001 8:0.69999999 9:0 10:0.18000001 11:0.18000001 12:0.18000001 13:0.18000001 14:0.69999999 15:0.34999999 16:0.69999999 17:0.34999999 18:0.34999999 19:0.34999999 20:0.69999999 21:0 22:0 23:0.18000001 24:0 25:0 26:0.18000001 27:0 28:0.18000001 29:0 30:0.52999997 31:0 32:0 33:0 34:0 35:0.18000001 36:0 37:0.18000001 38:0 39:0 40:0.18000001 41:0.52999997 42:0 43:0.34999999 44:0.18000001 45:0.52999997 46:0.18000001 47:0.18000001 48:0.34999999 49:0.18000001 50:0.52999997 51:0.52999997 52:0 53:0.34999999 54:0.18000001 55:0.18000001 56:0.34999999 57:0.18000001 58:0.52999997 59:0 60:0 61:0.34999999 62:0 63:0.18000001 64:0.34999999 65:0.34999999 66:0.18000001 67:0 68:0.34999999 69:0.52999997 70:0.69999999 71:0 72:0.34999999 73:0.69999999 74:0.52999997 75:0.34999999 76:0.34999999 77:0.34999999 78:0 79:0 80:0 81:0.18000001 82:0.18000001 83:0.52999997 84:0.34999999 85:0.34999999 86:0 87:0.18000001 88:0.34999999 89:0.69999999 90:0.88 91:0.34999999 92:0.34999999 93:0 94:0.34999999 95:0.18000001 96:0.18000001 97:0.34999999 98:0.18000001 99:0 100:0 101:0.34999999 102:0.18000001 103:0.34999999 104:0.34999999 105:0.52999997 106:1.23 107:0.34999999 108:0.34999999 109:0.18000001 110:0.18000001 111:0.34999999 112:0 113:0.18000001 114:0.18000001 115:0.52999997 116:0.52999997 117:0.18000001 118:0.52999997 119:0.18000001 120:0 121:0 122:0 123:0.18000001 124:0 125:0.18000001 126:0.18000001 127:0 128:0.18000001 129:0.18000001 130:0.18000001 131:0.18000001 132:0.18000001 133:0.18000001 134:0.52999997 135:0 136:0 137:0.18000001 138:0 139:0 140:0.18000001 141:0.34999999 142:0.18000001 143:0.34999999 144:0.18000001 145:0.34999999 146:0.52999997 147:0 148:0.34999999 149:0.18000001 150:0.18000001 151:0.52999997 152:0.18000001 153:0.18000001 154:0.88 155:0.34999999 156:0.18000001 157:0.52999997 158:0.18000001 159:0 160:0.34999999 161:0.18000001 162:0.18000001 163:0.18000001 164:1.05 165:0.18000001 166:0.69999999 167:0 168:0.18000001 169:0.52999997 170:0.34999999 171:0.34999999 172:0.18000001 173:0.34999999 174:0 175:0.18000001 176:0.34999999 177:0.34999999 178:0.34999999 179:0 180:0.18000001 181:0.18000001 182:0.18000001 183:0.52999997 184:0.34999999 185:0.52999997 186:0.34999999 187:0.34999999 188:0.18000001 189:0.88 190:1.4 191:0.34999999 192:0.34999999 193:0.34999999 194:0.34999999 195:0.18000001 196:1.4 197:0.69999999 198:0.69999999 199:0.18000001 200:0 201:0.69999999 202:0.18000001 203:0 204:0.52999997 205:0 206:0 207:0.18000001 208:0 209:0 210:0.18000001 211:0 212:0.18000001 213:0.52999997 214:0 215:0.18000001 216:0.34999999 217:0.18000001 218:0.34999999 219:0 220:0.18000001 221:0 222:0 223:0.18000001 224:0 225:0.18000001 226:0.34999999 227:0 228:0 229:0.18000001 230:0.34999999 231:0.34999999 232:0.18000001 233:0.34999999 234:0.34999999 235:0.18000001 236:0.18000001 237:0 238:0.34999999 239:0.18000001 240:0 241:0.34999999 242:0 243:0 244:0.69999999 245:0.18000001 246:0.52999997 247:0.18000001 248:0.34999999 249:0.34999999 250:0.52999997 251:0 252:0.18000001 253:0.18000001 254:0.18000001 255:0.18000001 256:0.34999999 257:0.88 258:0.18000001 259:0 260:0.18000001 261:0.52999997 262:0 263:0.34999999 264:0.18000001 265:0.69999999 266:0 267:0.18000001 268:0.88 269:0.34999999 270:0.69999999 271:0 272:0.34999999 273:0 274:0 275:0.18000001 276:0.18000001 277:0.18000001 278:0.69999999 279:0 280:0.52999997 281:0.18000001 282:0 283:0 284:0.18000001 285:0.34999999 286:0 287:0 288:0.18000001 289:0.34999999 290:0.52999997 291:0 292:0.34999999 293:0.52999997 294:0 295:0.34999999 296:0.18000001 297:0.34999999 298:0 299:0 300:0.18000001 301:0.34999999 302:0.18000001 303:0.69999999 304:0.52999997 305:0.18000001 306:0 307:0.34999999 308:0.52999997 309:0.88 310:0.88 311:0.18000001 312:0 313:0.34999999 314:0.52999997 315:0 316:0.34999999 317:0.18000001 318:0.34999999 319:0.18000001 320:0.34999999 321:0.52999997 322:0 323:0 324:0.34999999 325:0.52999997 326:0.52999997 327:0 328:0.34999999 329:0.18000001 330:0.52999997 331:0.18000001 332:0.18000001 333:0.18000001 334:0.34999999 335:0 336:0.34999999 337:0 338:0.52999997 339:0.34999999 340:0.52999997 341:0.18000001 342:0.34999999 343:1.05 344:0.18000001 345:0.18000001 346:0.69999999 347:0.18000001 348:0.18000001 349:0.18000001 350:0.52999997 351:0 352:0.18000001 353:0.34999999 354:0.52999997 355:0 356:0.69999999 357:0.18000001 358:0.69999999 359:0 360:0 361:0 362:0 363:0 364:0.18000001 365:0.18000001 366:0.34999999 367:0 368:0.18000001 369:0 370:0 371:0 372:0 373:0.18000001 374:0 375:0.18000001 376:0 377:0 378:0.18000001 379:0 380:0 381:0.52999997 382:0 383:0.18000001 384:0 385:0 386:0.52999997 387:0.18000001 388:0.18000001 389:0 390:0.18000001 391:0 392:0 393:0.34999999 394:0.34999999 395:0 396:0.52999997 397:0.34999999 398:0.18000001 399:0 400:0 #
41.523919932097101082035806030035 1:0 2:0 3:0 4:0.74000001 5:0 6:0 7:0 8:0 9:1.47 10:0 11:0 12:0 13:0 14:0 15:0 16:0.74000001 17:0.74000001 18:0.74000001 19:0 20:0.74000001 21:0 22:0 23:0 24:0 25:0 26:0 27:0 28:0 29:0 30:0 31:0 32:0 33:0 34:0 35:0 36:0 37:0 38:0 39:0 40:0 41:0.74000001 42:0 43:0.74000001 44:4.4099998 45:0 46:0 47:0 48:0.74000001 49:0.74000001 50:0.74000001 51:0.74000001 52:0 53:0.74000001 54:0 55:0.74000001 56:0 57:2.21 58:0.74000001 59:0 60:0 61:0 62:0 63:4.4099998 64:4.4099998 65:0 66:0 67:0 68:0.74000001 69:0.74000001 70:0.74000001 71:0.74000001 72:0 73:1.47 74:1.47 75:0.74000001 76:0.74000001 77:2.21 78:0 79:0 80:0 81:0 82:0 83:0 84:1.47 85:0 86:0 87:0 88:0 89:0 90:0 91:0 92:0 93:0 94:0 95:0 96:0 97:0 98:0 99:0 100:0 101:0 102:0 103:0.74000001 104:0 105:0 106:0 107:0 108:0 109:0.74000001 110:0 111:0 112:0 113:0 114:0 115:0 116:0 117:0.74000001 118:0 119:0 120:0.74000001 121:0 122:0 123:0 124:0 125:0 126:0 127:0 128:0 129:0 130:0 131:0 132:0 133:0.74000001 134:0 135:0 136:0 137:0 138:0 139:0 140:0 141:0 142:0 143:0.74000001 144:0.74000001 145:0 146:0 147:0 148:0 149:0.74000001 150:0 151:0 152:0.74000001 153:0 154:0 155:0.74000001 156:0.74000001 157:0 158:0 159:0 160:0 161:0.74000001 162:0 163:1.47 164:1.47 165:0 166:0 167:0 168:0 169:0.74000001 170:0 171:0 172:0 173:0 174:0 175:0 176:0 177:1.47 178:0.74000001 179:0 180:0 181:0.74000001 182:0 183:0.74000001 184:0 185:0.74000001 186:0 187:0 188:0.74000001 189:0 190:0.74000001 191:0 192:0.74000001 193:0.74000001 194:0 195:2.21 196:0.74000001 197:0 198:0 199:0 200:0 201:0 202:0 203:0.74000001 204:0 205:0 206:0 207:0 208:0 209:0 210:1.47 211:0 212:0 213:0 214:0 215:0 216:0 217:0 218:0 219:0 220:0 221:0 222:0 223:0 224:0 225:0 226:0 227:0 228:0.74000001 229:0 230:0 231:0 232:0 233:0.74000001 234:0 235:0 236:0 237:0 238:0 239:0 240:0.74000001 241:0 242:0 243:1.47 244:1.47 245:0 246:0 247:0 248:0 249:0 250:0.74000001 251:0 252:0 253:0 254:0 255:0.74000001 256:0 257:0 258:0 259:0 260:0 261:0 262:0 263:0.74000001 264:0.74000001 265:0 266:0 267:0 268:0 269:0.74000001 270:0 271:0 272:0 273:0 274:0 275:0 276:0 277:0.74000001 278:0 279:0 280:0 281:0 282:0 283:0.74000001 284:0 285:0 286:0 287:0.74000001 288:1.47 289:0 290:0.74000001 291:0.74000001 292:0 293:0 294:0 295:0.74000001 296:0.74000001 297:0 298:0 299:0 300:0 301:0 302:0 303:0 304:0 305:0 306:0.74000001 307:0 308:0 309:0 310:0.74000001 311:0 312:0 313:0 314:0.74000001 315:0 316:0 317:1.47 318:0 319:0 320:0 321:2.21 322:0 323:0.74000001 324:2.21 325:0.74000001 326:0.74000001 327:0 328:0 329:0.74000001 330:0.74000001 331:0 332:0.74000001 333:0 334:0 335:0 336:0 337:1.47 338:0.74000001 339:0 340:0 341:0 342:0 343:0 344:0.74000001 345:0 346:0.74000001 347:0 348:0 349:0 350:1.47 351:0 352:0 353:0 354:0 355:0 356:0 357:0 358:0.74000001 359:0 360:0 361:0 362:0 363:0 364:0 365:0 366:0 367:0 368:0 369:0 370:0 371:0 372:0 373:0 374:0 375:0 376:0 377:0 378:0 379:0 380:0 381:0.74000001 382:0 383:0 384:0 385:0 386:0.74000001 387:0 388:0 389:0 390:0.74000001 391:0 392:0 393:0 394:0 395:0 396:0 397:0 398:0 399:0 400:0.74000001 #
4.7277921562269966671010479331017 1:0 2:0 3:0 4:0 5:0.93000001 6:0 7:0 8:0 9:0 10:0 11:0 12:0 13:0 14:0.93000001 15:0 16:0 17:0 18:0.93000001 19:0 20:0 21:0 22:0 23:0 24:0 25:0 26:0 27:0 28:0 29:0 30:0 31:0 32:0 33:0 34:0 35:0 36:0 37:0 38:0 39:0 40:0 41:0 42:0 43:1.85 44:0.93000001 45:0 46:0 47:0 48:0.93000001 49:0.93000001 50:0 51:0 52:0 53:0 54:1.85 55:0 56:0 57:0 58:0 59:0.93000001 60:0.93000001 61:0 62:0 63:2.78 64:6.48 65:0.93000001 66:0.93000001 67:0 68:0.93000001 69:0.93000001 70:0.93000001 71:0 72:0 73:0 74:0 75:0 76:0.93000001 77:1.85 78:0.93000001 79:0 80:0 81:0.93000001 82:0 83:0 84:0 85:0 86:0 87:0 88:0.93000001 89:0 90:0 91:0 92:0 93:0 94:0 95:0 96:0 97:0 98:0 99:0 100:0.93000001 101:0 102:0 103:0 104:1.85 105:0 106:0 107:0 108:0.93000001 109:0 110:0.93000001 111:0 112:0 113:0 114:0 115:0 116:0 117:0 118:0 119:0 120:0.93000001 121:0 122:0 123:0 124:0.93000001 125:0 126:0 127:0 128:0.93000001 129:0 130:0 131:0 132:0 133:0 134:0 135:0 136:0 137:0 138:0 139:0 140:0 141:0 142:0 143:0.93000001 144:0.93000001 145:0 146:0.93000001 147:0.93000001 148:0 149:0 150:0 151:0 152:0 153:0 154:0 155:0 156:0 157:1.85 158:0 159:0 160:0.93000001 161:0 162:0 163:0 164:0.93000001 165:0 166:0 167:0.93000001 168:0 169:0 170:0 171:0 172:0 173:1.85 174:0 175:0 176:0 177:0.93000001 178:0 179:0 180:0 181:0.93000001 182:0 183:0 184:0 185:0 186:0.93000001 187:0 188:0 189:0 190:0 191:0 192:0.93000001 193:0.93000001 194:0 195:0 196:0 197:0.93000001 198:0 199:0 200:0.93000001 201:0 202:0 203:0 204:0.93000001 205:0 206:0 207:0 208:0 209:0 210:0 211:0 212:0 213:0 214:0 215:0 216:0 217:0 218:0 219:0 220:0 221:0 222:0 223:0.93000001 224:0.93000001 225:0 226:0 227:0 228:0 229:0.93000001 230:0 231:0 232:0 233:0.93000001 234:0 235:0.93000001 236:0 237:0 238:0 239:0 240:0 241:0 242:0 243:0.93000001 244:2.78 245:0 246:0 247:0 248:0.93000001 249:0 250:0 251:0.93000001 252:0 253:0 254:0 255:0 256:0 257:0 258:0 259:0 260:0 261:0.93000001 262:0 263:0.93000001 264:0.93000001 265:0 266:0 267:0 268:0 269:0 270:0 271:0 272:0.93000001 273:0.93000001 274:0 275:0 276:0 277:0 278:0 279:0 280:0 281:0 282:0 283:0 284:0 285:0 286:0 287:0 288:0 289:0.93000001 290:0 291:0 292:0 293:0 294:0 295:0 296:0 297:0 298:0 299:0 300:0 301:0 302:0 303:0.93000001 304:0 305:0 306:0 307:0 308:0 309:0 310:0.93000001 311:0 312:0 313:0 314:0.93000001 315:0 316:0 317:0 318:0 319:0 320:0 321:0 322:0 323:0 324:0 325:0 326:0.93000001 327:0 328:0 329:1.85 330:0 331:0 332:1.85 333:0 334:0.93000001 335:0 336:0 337:0 338:0 339:0 340:0 341:0 342:0 343:0 344:0.93000001 345:0 346:0 347:0 348:0 349:0 350:0.93000001 351:0 352:0 353:0 354:0 355:0 356:0 357:0 358:0 359:0 360:0 361:0 362:0 363:0 364:0.93000001 365:0 366:0 367:0 368:0 369:0 370:0 371:0 372:0 373:0 374:0 375:0 376:0 377:0 378:0 379:0 380:0 381:0 382:0 383:0 384:0.93000001 385:0 386:0.93000001 387:0 388:1.85 389:0 390:0.93000001 391:0 392:0 393:0 394:0 395:0 396:0.93000001 397:0 398:0 399:0 400:0.93000001 #
92.730619155886699900293024256825 1:0.11 2:0.11 3:0.22 4:0.11 5:0.11 6:0.11 7:0.11 8:0.22 9:0.31999999 10:0.11 11:0 12:0.11 13:0.22 14:0.11 15:0.11 16:0.11 17:0.22 18:0.22 19:0 20:0.22 21:0 22:0 23:0 24:0.31999999 25:0 26:0 27:0.11 28:0.11 29:0.31999999 30:0.11 31:0 32:0.11 33:0 34:0 35:0 36:0.31999999 37:0.11 38:0 39:0 40:0 41:0.31999999 42:0.11 43:0.11 44:0.54000002 45:0.22 46:0 47:0.43000001 48:0.54000002 49:0.22 50:0 51:0.11 52:1.51 53:0.11 54:0.43000001 55:0 56:0.54000002 57:0.11 58:0.43000001 59:0 60:0.11 61:0.43000001 62:0.11 63:0.64999998 64:0.97000003 65:0.31999999 66:0.43000001 67:0.31999999 68:0.64999998 69:0.86000001 70:1.1799999 71:0 72:0.86000001 73:0.11 74:0.31999999 75:0.22 76:0.22 77:0.22 78:0.43000001 79:0 80:0.11 81:0 82:0 83:0.11 84:0.11 85:0.22 86:0.11 87:0.22 88:0.43000001 89:0.31999999 90:0.43000001 91:0.11 92:0.31999999 93:0.11 94:0.22 95:0.11 96:0.54000002 97:0.22 98:0.43000001 99:0 100:0.54000002 101:0 102:0 103:0.11 104:0 105:0.22 106:0 107:0 108:0.11 109:0.11 110:0 111:0.11 112:0.31999999 113:0 114:0.11 115:0 116:0.22 117:0.43000001 118:0.43000001 119:0 120:0.11 121:0 122:0 123:0 124:0 125:0.22 126:0 127:0.54000002 128:0.22 129:0.11 130:0.22 131:0 132:0.31999999 133:0 134:0 135:0.11 136:0.11 137:0.54000002 138:0.11 139:0.11 140:0.22 141:0.22 142:0.22 143:0.86000001 144:0.54000002 145:0.11 146:0.11 147:0 148:0.54000002 149:0.43000001 150:0.43000001 151:0 152:0.75 153:0.31999999 154:0.22 155:0.11 156:0.54000002 157:0.11 158:0.64999998 159:0 160:0.22 161:0.31999999 162:0.31999999 163:0.75 164:1.1799999 165:0.64999998 166:0.43000001 167:0 168:0.64999998 169:1.4 170:0.64999998 171:0.22 172:1.51 173:0.22 174:0.64999998 175:0.11 176:0.64999998 177:0.22 178:0.43000001 179:0.11 180:0.11 181:0 182:0 183:0 184:0.54000002 185:0.22 186:0.22 187:0 188:0.22 189:1.1799999 190:1.1799999 191:0.22 192:1.51 193:0.11 194:0.54000002 195:0.43000001 196:0.75 197:0.22 198:0.31999999 199:0.11 200:0.64999998 201:0.11 202:0 203:0.22 204:0.11 205:0.11 206:0 207:0 208:0 209:0.43000001 210:0.11 211:0 212:0.75 213:0.11 214:0.11 215:0 216:0.11 217:0 218:0 219:0 220:0 221:0.22 222:0.11 223:1.61 224:1.51 225:0.43000001 226:0.11 227:0.54000002 228:1.1799999 229:1.61 230:0.75 231:0.75 232:1.61 233:0.11 234:0.43000001 235:0.31999999 236:0.64999998 237:0.75 238:0.54000002 239:0 240:0.43000001 241:0.22 242:0 243:0 244:0.22 245:0.11 246:0 247:0 248:0.22 249:0.22 250:0.31999999 251:0 252:0 253:0 254:0 255:0.11 256:0.22 257:0.11 258:0.11 259:0 260:0.11 261:0.11 262:0.11 263:0.11 264:0.31999999 265:0.11 266:0 267:0 268:0.11 269:0.54000002 270:0.22 271:0 272:1.51 273:0.11 274:0.64999998 275:0 276:0.43000001 277:0.22 278:0.11 279:0 280:0.11 281:0 282:0 283:0 284:0.43000001 285:0.22 286:0 287:0.11 288:0 289:0.31999999 290:0.31999999 291:0 292:0.31999999 293:0 294:0 295:0.11 296:0.22 297:0.22 298:0.11 299:0 300:0.11 301:0.22 302:0.11 303:0.43000001 304:0.31999999 305:0.31999999 306:0.31999999 307:0.11 308:0.75 309:0.75 310:0.86000001 311:0 312:0.86000001 313:0.31999999 314:0.22 315:0.43000001 316:0.75 317:0.22 318:0.22 319:0 320:0.43000001 321:0.11 322:0 323:0.31999999 324:0.11 325:0.31999999 326:0.11 327:0 328:0.22 329:0.54000002 330:0.43000001 331:0.22 332:0.43000001 333:0 334:0.54000002 335:0.31999999 336:0.43000001 337:0.11 338:0.11 339:0 340:0.11 341:0.31999999 342:0.11 343:0.11 344:0.64999998 345:0.31999999 346:0.22 347:0 348:0.11 349:0.43000001 350:0.86000001 351:0.22 352:0.31999999 353:0.11 354:0.22 355:0 356:0.54000002 357:0.31999999 358:0.54000002 359:0 360:0.11 361:0 362:0.11 363:0 364:0 365:0 366:0 367:0 368:0 369:0 370:0.11 371:0 372:0 373:0 374:0 375:0 376:0 377:0 378:0.11 379:0 380:0 381:0.11 382:0.11 383:0.22 384:0.43000001 385:0.31999999 386:0.11 387:0.31999999 388:0.11 389:0.43000001 390:0.22 391:0.11 392:0.54000002 393:0 394:0 395:0 396:0.31999999 397:0.11 398:0.22 399:0 400:0.11 #
82.627170905493812824715860188007 1:0.81 2:0 3:0.49000001 4:0.81 5:0.31999999 6:0.81 7:0.31999999 8:0.16 9:0 10:1.46 11:0 12:0.16 13:0.31999999 14:0.97000003 15:1.13 16:0.81 17:0.64999998 18:0.64999998 19:0 20:0.49000001 21:0 22:0 23:0.16 24:0 25:0.31999999 26:0.16 27:0 28:0.31999999 29:0 30:0 31:0 32:0 33:0 34:0 35:0 36:0 37:0 38:0.16 39:0 40:0 41:0.64999998 42:0.16 43:0.97000003 44:0.64999998 45:0.49000001 46:1.13 47:0.16 48:0 49:0 50:0.49000001 51:0.31999999 52:0 53:0.16 54:0.16 55:0.16 56:0.31999999 57:0.49000001 58:0.31999999 59:0 60:0.16 61:0.49000001 62:0 63:0.49000001 64:0.16 65:0 66:0.31999999 67:0.16 68:0.16 69:0.31999999 70:0.97000003 71:0.31999999 72:0.31999999 73:0.49000001 74:0 75:0.64999998 76:0.81 77:0.16 78:0.16 79:0.31999999 80:0.16 81:0 82:0 83:0.31999999 84:0.16 85:0.16 86:0.16 87:0 88:0.16 89:0 90:0.31999999 91:0.16 92:0.31999999 93:0.31999999 94:0.16 95:0.49000001 96:0.16 97:0.31999999 98:0.31999999 99:0 100:0.49000001 101:0.81 102:0 103:0.49000001 104:0.31999999 105:0.16 106:0.81 107:0.31999999 108:0.16 109:0 110:1.3 111:0.16 112:0 113:0.16 114:0.31999999 115:0.64999998 116:0.49000001 117:0.64999998 118:0.81 119:0 120:0.16 121:0.31999999 122:0 123:0.31999999 124:0 125:0.16 126:0.16 127:0.31999999 128:0 129:0 130:0.31999999 131:0.16 132:0.16 133:0.49000001 134:0 135:0.49000001 136:0 137:0 138:0 139:0.31999999 140:0.16 141:0.31999999 142:0 143:0.16 144:0 145:0 146:0.49000001 147:0.49000001 148:0.31999999 149:0 150:0 151:0 152:0.16 153:0.16 154:0 155:0.16 156:0.16 157:0 158:0 159:0 160:0 161:0.31999999 162:0.16 163:0 164:0 165:0.16 166:0 167:0.31999999 168:0 169:0.16 170:0.31999999 171:0 172:0 173:0 174:0.16 175:0.16 176:0 177:0 178:0 179:0 180:0 181:1.62 182:0.31999999 183:0.81 184:0.81 185:0.31999999 186:0.64999998 187:0.49000001 188:0.49000001 189:0.31999999 190:2.5899999 191:0.31999999 192:0.31999999 193:0.97000003 194:0.31999999 195:0.97000003 196:0.81 197:0.49000001 198:0.31999999 199:0 200:0.64999998 201:0.49000001 202:0 203:0.16 204:0.31999999 205:0 206:0.16 207:0 208:0 209:0 210:0.49000001 211:0.16 212:0 213:0 214:0 215:0 216:0 217:0.16 218:0.31999999 219:0 220:0 221:0.81 222:0 223:0.16 224:0 225:0 226:0 227:0 228:0 229:0 230:0.49000001 231:0 232:0 233:0.16 234:0.16 235:0 236:0.16 237:0 238:0.16 239:0 240:0 241:0.49000001 242:0 243:0.31999999 244:0.16 245:0.64999998 246:0.49000001 247:0.31999999 248:0.16 249:0 250:0.64999998 251:0 252:0 253:0.16 254:0.16 255:0.31999999 256:0.16 257:0.49000001 258:0.31999999 259:0.16 260:0 261:0.16 262:0 263:0.16 264:0.16 265:0.16 266:0.49000001 267:0 268:0.16 269:0.16 270:0.49000001 271:0 272:0.16 273:0.16 274:0 275:0.16 276:0.31999999 277:0 278:0.64999998 279:0 280:0 281:0.64999998 282:0.16 283:0.31999999 284:1.46 285:0.31999999 286:0.97000003 287:0.16 288:0 289:0.16 290:0.97000003 291:0.16 292:0.31999999 293:0.49000001 294:0.49000001 295:0.97000003 296:0.31999999 297:0.16 298:0.16 299:0 300:0.16 301:0.81 302:0.16 303:0.31999999 304:0.64999998 305:0.31999999 306:0.49000001 307:0.31999999 308:0 309:0.16 310:0.64999998 311:0.16 312:0 313:0.49000001 314:0 315:0.31999999 316:0.64999998 317:0.31999999 318:0.49000001 319:0 320:0 321:0.49000001 322:0 323:0.64999998 324:0.31999999 325:0.16 326:0 327:0.16 328:0.16 329:0 330:0.97000003 331:0 332:0 333:0 334:0.16 335:0.31999999 336:0.64999998 337:0.16 338:0.16 339:0 340:0.16 341:0.64999998 342:0.16 343:0.31999999 344:0.31999999 345:0.16 346:0.16 347:0 348:0.16 349:0.49000001 350:0.64999998 351:0.16 352:0.16 353:0.31999999 354:0.31999999 355:0.81 356:0.16 357:0.16 358:0.81 359:0 360:0.31999999 361:0.16 362:0 363:0 364:0 365:0.16 366:0 367:0 368:0 369:0 370:0.16 371:0 372:0 373:0 374:0 375:0.31999999 376:0 377:0 378:0 379:0 380:0 381:0.31999999 382:0 383:0.16 384:0.16 385:0 386:0.31999999 387:0 388:0 389:0 390:0.31999999 391:0 392:0 393:0.16 394:0 395:0.31999999 396:0.31999999 397:0.31999999 398:0.49000001 399:0 400:0 #
-12.654605829407321593294000194874 1:0.22 2:0 3:0.64999998 4:0.43000001 5:0.43000001 6:0 7:0 8:0 9:0.22 10:0.86000001 11:0.22 12:0.22 13:0 14:0.22 15:0.43000001 16:0.64999998 17:0.22 18:0.22 19:0 20:0 21:0.22 22:0 23:0.22 24:0 25:0.22 26:0 27:0 28:0 29:0 30:0.22 31:0 32:0 33:0.22 34:0 35:0.22 36:0 37:0.22 38:0 39:0.22 40:0 41:0.86000001 42:0.43000001 43:0.22 44:0.43000001 45:0 46:0.22 47:0 48:0.64999998 49:0.64999998 50:0.64999998 51:0 52:0.64999998 53:0 54:0 55:0.22 56:0 57:0.43000001 58:1.08 59:0 60:0.22 61:0.22 62:0 63:0 64:0.43000001 65:0.22 66:0.22 67:0 68:0.64999998 69:0.64999998 70:0.64999998 71:0.22 72:0.22 73:0.22 74:0 75:0.43000001 76:0.64999998 77:0 78:0.22 79:0 80:0 81:0 82:0 83:0.43000001 84:0.22 85:0 86:0.64999998 87:0 88:0.43000001 89:0 90:0.64999998 91:0 92:0.43000001 93:0.43000001 94:0 95:0.22 96:0 97:0.43000001 98:0 99:0 100:0 101:0.43000001 102:0 103:0.43000001 104:0 105:0.22 106:0.22 107:0 108:0.43000001 109:0.64999998 110:0.22 111:0.22 112:0.22 113:0.22 114:0 115:0.43000001 116:0.43000001 117:1.51 118:0.43000001 119:0 120:0.22 121:0 122:0 123:0 124:0 125:0 126:0.22 127:0 128:0 129:0.22 130:0 131:0 132:0 133:0 134:0.22 135:0.22 136:0 137:0 138:0.43000001 139:0 140:0 141:0.64999998 142:0.22 143:0.43000001 144:0.22 145:0.22 146:0 147:0.43000001 148:0.43000001 149:0.22 150:1.51 151:0.43000001 152:0 153:0.22 154:0.64999998 155:0.64999998 156:1.08 157:0.22 158:0.43000001 159:0 160:0.22 161:0 162:0 163:0.43000001 164:0.86000001 165:0.22 166:0.43000001 167:0 168:0.64999998 169:0.64999998 170:0.86000001 171:0 172:0 173:0.22 174:0.86000001 175:0 176:1.08 177:0.64999998 178:0.64999998 179:0 180:0.22 181:0.43000001 182:0.22 183:1.29 184:0.22 185:0.43000001 186:0.22 187:0 188:0.43000001 189:0.43000001 190:1.51 191:0.64999998 192:0.22 193:0.64999998 194:0.22 195:0.43000001 196:0.43000001 197:0.64999998 198:1.72 199:0 200:0.43000001 201:0 202:0.43000001 203:0.22 204:0.43000001 205:0 206:0.22 207:0 208:0 209:0.22 210:0.22 211:0 212:0.22 213:0 214:0 215:0.22 216:0 217:0 218:0 219:0.22 220:0 221:0.22 222:0.22 223:0.22 224:0 225:0 226:0.43000001 227:0.22 228:0.64999998 229:0.22 230:0.22 231:0 232:0.43000001 233:0.43000001 234:0 235:0 236:0.22 237:0.43000001 238:0 239:0 240:0 241:0 242:0 243:0 244:0.43000001 245:0.43000001 246:0.64999998 247:0.22 248:0.43000001 249:0.43000001 250:0.22 251:0 252:0.22 253:0 254:0 255:0.43000001 256:0.22 257:0 258:0.22 259:0 260:0 261:0.43000001 262:0 263:0 264:0 265:0.22 266:0 267:0 268:0.64999998 269:1.08 270:0.22 271:0 272:0 273:0.43000001 274:0.22 275:0.64999998 276:0.43000001 277:0 278:0 279:0 280:0.22 281:0.43000001 282:0 283:0.43000001 284:0.22 285:0.22 286:0.43000001 287:0 288:1.08 289:0.22 290:0.64999998 291:0 292:0 293:0.22 294:0.22 295:0.43000001 296:0.64999998 297:0.22 298:0.43000001 299:0.22 300:0.22 301:0.22 302:0 303:0 304:0.22 305:0.64999998 306:0.86000001 307:0 308:0.64999998 309:0.43000001 310:0.86000001 311:0 312:0.86000001 313:0 314:0.43000001 315:0.43000001 316:0.64999998 317:0 318:0.64999998 319:0 320:0 321:0.43000001 322:0.22 323:0.64999998 324:0.43000001 325:0.22 326:0.43000001 327:0 328:0.22 329:0.22 330:0.43000001 331:0.43000001 332:0.22 333:0 334:0.86000001 335:0.43000001 336:0.22 337:0.22 338:0.22 339:0 340:0.22 341:0 342:0 343:0.86000001 344:0.22 345:0.22 346:1.08 347:0.43000001 348:0.86000001 349:0.86000001 350:0.43000001 351:0 352:0 353:0.64999998 354:0.22 355:0.43000001 356:0.22 357:0.43000001 358:0.22 359:0 360:0 361:0 362:0 363:0 364:0 365:0 366:0 367:0 368:0 369:0 370:0 371:0 372:0 373:0 374:0.22 375:0.22 376:0 377:0.22 378:0 379:0 380:0 381:0.22 382:0 383:0.22 384:0.22 385:0 386:0 387:0 388:0 389:0.43000001 390:0.22 391:0 392:0 393:0 394:0.22 395:0 396:0 397:0.22 398:0.22 399:0 400:0.22 #
-11.301775761337921721860766410828 1:0.18000001 2:0.37 3:0 4:0.37 5:0.18000001 6:0.18000001 7:0 8:0.92000002 9:0.55000001 10:0.18000001 11:0 12:0.18000001 13:0 14:0.55000001 15:0 16:0.92000002 17:0.74000001 18:0.18000001 19:0 20:0.18000001 21:0 22:0 23:0.18000001 24:0.18000001 25:0 26:0.55000001 27:0 28:0.92000002 29:0.55000001 30:0 31:0 32:0 33:0 34:0 35:0 36:0 37:0 38:0.18000001 39:0 40:0 41:0.74000001 42:0.18000001 43:0.18000001 44:0.37 45:0.37 46:0.37 47:0 48:0.37 49:0.37 50:0.37 51:0 52:0.37 53:0 54:0.18000001 55:0 56:0.37 57:0.18000001 58:0.55000001 59:0 60:0.18000001 61:0.55000001 62:0 63:0.18000001 64:0.92000002 65:0 66:0.18000001 67:0.18000001 68:1.1 69:0.37 70:0.55000001 71:0.18000001 72:0.37 73:0 74:0.18000001 75:0.55000001 76:0.37 77:0.55000001 78:0.55000001 79:0 80:0.18000001 81:0.37 82:0.18000001 83:0.37 84:0.18000001 85:0 86:0 87:0 88:0.18000001 89:0 90:0.18000001 91:0.18000001 92:0.37 93:0 94:0 95:0.18000001 96:0.18000001 97:0.55000001 98:0.55000001 99:0 100:0 101:0.37 102:0.18000001 103:0.18000001 104:0.18000001 105:0.55000001 106:0.74000001 107:0 108:0.55000001 109:0.18000001 110:0.18000001 111:0.18000001 112:0.55000001 113:0.37 114:0 115:0 116:0 117:0.18000001 118:0.55000001 119:0 120:0.55000001 121:0 122:0 123:0.18000001 124:0 125:0.18000001 126:0.37 127:0 128:0.18000001 129:0 130:0.18000001 131:0 132:0.37 133:0.18000001 134:0 135:0 136:0 137:0 138:0 139:0 140:0 141:0.92000002 142:0.18000001 143:0.55000001 144:0.37 145:0 146:0.18000001 147:0.18000001 148:1.1 149:0.74000001 150:1.47 151:0.37 152:1.29 153:0.18000001 154:0.37 155:0.18000001 156:0.74000001 157:0.55000001 158:0.92000002 159:0 160:0.37 161:0.37 162:0.18000001 163:0.55000001 164:1.1 165:0.18000001 166:0.92000002 167:0.18000001 168:0.55000001 169:1.66 170:0.92000002 171:0.18000001 172:0.92000002 173:0.37 174:0 175:0.18000001 176:0.18000001 177:0 178:1.1 179:0 180:0.37 181:0.74000001 182:0.37 183:0.37 184:0.37 185:0.18000001 186:0.55000001 187:0 188:0.92000002 189:1.47 190:0.92000002 191:0.18000001 192:1.1 193:0 194:0.18000001 195:0.37 196:0.18000001 197:0.55000001 198:0.37 199:0 200:0 201:0 202:0 203:0 204:0.18000001 205:0.18000001 206:0.18000001 207:0 208:0 209:0.18000001 210:0.37 211:0 212:0.37 213:0.18000001 214:0 215:0 216:0 217:0.18000001 218:0.37 219:0 220:0 221:0.74000001 222:0.55000001 223:0.18000001 224:0.37 225:0.55000001 226:0.37 227:0.37 228:0.92000002 229:0.92000002 230:0.55000001 231:0 232:0.55000001 233:0.37 234:0.18000001 235:0 236:0.74000001 237:0 238:0.37 239:0 240:0.55000001 241:0.18000001 242:0 243:0.18000001 244:0.37 245:0 246:0 247:0 248:0 249:0.37 250:0 251:0 252:0.18000001 253:0 254:0 255:0.37 256:0.18000001 257:0 258:0.18000001 259:0 260:0 261:0 262:0 263:0 264:0.18000001 265:0.18000001 266:0.18000001 267:0.18000001 268:0.18000001 269:0 270:0.55000001 271:0.18000001 272:0 273:0 274:0.37 275:0 276:0.18000001 277:0.37 278:0 279:0 280:0 281:0 282:0.37 283:0.37 284:0 285:0 286:0.18000001 287:0 288:0.55000001 289:0.18000001 290:0.37 291:0 292:0 293:0 294:0 295:0 296:0 297:0 298:0.18000001 299:0 300:0 301:0.18000001 302:0 303:0.55000001 304:0.55000001 305:0.74000001 306:0 307:0.18000001 308:0.37 309:0.74000001 310:0.37 311:0.18000001 312:0 313:0 314:0.18000001 315:0 316:0.37 317:0.37 318:0.92000002 319:0 320:0 321:0 322:0 323:0.18000001 324:0.37 325:0 326:0.18000001 327:0.18000001 328:0.74000001 329:0.55000001 330:0.92000002 331:0.18000001 332:0.55000001 333:0 334:0 335:0.18000001 336:0.74000001 337:0.37 338:0.18000001 339:0 340:0.18000001 341:0 342:0 343:0.55000001 344:0.74000001 345:0.37 346:0 347:0.18000001 348:1.1 349:0.74000001 350:0.74000001 351:0.18000001 352:0.74000001 353:0.37 354:0.37 355:0 356:0.37 357:0.92000002 358:0.55000001 359:0 360:0.18000001 361:0 362:0 363:0 364:0 365:0 366:0 367:0 368:0 369:0 370:0 371:0 372:0 373:0 374:0 375:0 376:0 377:0 378:0 379:0 380:0 381:0.37 382:0 383:0.37 384:0.18000001 385:0 386:0.37 387:0 388:0 389:0.37 390:0 391:0 392:0.37 393:0 394:0 395:0.18000001 396:0.18000001 397:0 398:0.37 399:0 400:0 #
-12.654605829407321593294000194874 1:0 2:0 3:0 4:0 5:0.70999998 6:0.70999998 7:0 8:0 9:0 10:2.1300001 11:0 12:0.70999998 13:0 14:0.70999998 15:0.70999998 16:0 17:0.70999998 18:1.42 19:0 20:0 21:0 22:0 23:0 24:0 25:0.70999998 26:0 27:0 28:0 29:0 30:0 31:0 32:0.70999998 33:0 34:0 35:0 36:0 37:0 38:0 39:0 40:0 41:0.70999998 42:0.70999998 43:0.70999998 44:0.70999998 45:0 46:0 47:0 48:0 49:0 50:0.70999998 51:0 52:0 53:0 54:1.42 55:0 56:0 57:0 58:0.70999998 59:0 60:0 61:0 62:0 63:0 64:0 65:0.70999998 66:0 67:0 68:0 69:0.70999998 70:0 71:0.70999998 72:0.70999998 73:0 74:0.70999998 75:0 76:0 77:0.70999998 78:0 79:0 80:0.70999998 81:0 82:0 83:0.70999998 84:0 85:0.70999998 86:0.70999998 87:0 88:0.70999998 89:0.70999998 90:0.70999998 91:0 92:0 93:0 94:0 95:0 96:0 97:0 98:0 99:0 100:0.70999998 101:0 102:0 103:0 104:0 105:0 106:0 107:0 108:1.42 109:0.70999998 110:0.70999998 111:0.70999998 112:0 113:0.70999998 114:0 115:0.70999998 116:0 117:0 118:0 119:0 120:0 121:0 122:0 123:0 124:0 125:0 126:0 127:0 128:0 129:0 130:0 131:0 132:0 133:0 134:0 135:0 136:0 137:0 138:0 139:0 140:0 141:0 142:0 143:2.1300001 144:0.70999998 145:0 146:0 147:0 148:1.42 149:1.42 150:1.42 151:0 152:0 153:1.42 154:0 155:0 156:2.1300001 157:0 158:0.70999998 159:0 160:0 161:1.42 162:0.70999998 163:0.70999998 164:0.70999998 165:0 166:1.42 167:0 168:1.42 169:0.70999998 170:0 171:0 172:0 173:0 174:0 175:0 176:0.70999998 177:0.70999998 178:0 179:0 180:0 181:2.1300001 182:0 183:0 184:0 185:0 186:0.70999998 187:0 188:0.70999998 189:0.70999998 190:0.70999998 191:0 192:1.42 193:0 194:0.70999998 195:2.1300001 196:0.70999998 197:0.70999998 198:0 199:0 200:0 201:1.42 202:0 203:0 204:0.70999998 205:0 206:0 207:0 208:0 209:0 210:0 211:0 212:0 213:0 214:0 215:0 216:0.70999998 217:0 218:0 219:0 220:0 221:0 222:0 223:0.70999998 224:0 225:0 226:0 227:0 228:1.42 229:0 230:0.70999998 231:0 232:0 233:0 234:0 235:0 236:0.70999998 237:0 238:0 239:0 240:0 241:0 242:0 243:0 244:0 245:1.42 246:0 247:0 248:0.70999998 249:0.70999998 250:0 251:0.70999998 252:0 253:0 254:0 255:0 256:0.70999998 257:0 258:0 259:0 260:0.70999998 261:0 262:0 263:0.70999998 264:0 265:0 266:0 267:0 268:1.42 269:1.42 270:0 271:0 272:0 273:0.70999998 274:1.42 275:0 276:0 277:0 278:0.70999998 279:0 280:0 281:0 282:0 283:0 284:0.70999998 285:0 286:0 287:0 288:0.70999998 289:0 290:0.70999998 291:0 292:0 293:0.70999998 294:0 295:0 296:1.42 297:0 298:0 299:0 300:0 301:1.42 302:0 303:0 304:0.70999998 305:0.70999998 306:0.70999998 307:0 308:0.70999998 309:0 310:1.42 311:0 312:0 313:1.42 314:0.70999998 315:0 316:0.70999998 317:0 318:0 319:0 320:0 321:0 322:0 323:0 324:0.70999998 325:0 326:0 327:0 328:0 329:0 330:0.70999998 331:0 332:0 333:0 334:0.70999998 335:0.70999998 336:0 337:0 338:0 339:0 340:0 341:0.70999998 342:0 343:0 344:0 345:0 346:0 347:0 348:0.70999998 349:1.42 350:0.70999998 351:0 352:0 353:0 354:0 355:0 356:0.70999998 357:0 358:0.70999998 359:0 360:0 361:0 362:0 363:0 364:0 365:0 366:0 367:0 368:0 369:0 370:0 371:0 372:0 373:0 374:0 375:0 376:0 377:0 378:0 379:0 380:0 381:0 382:0 383:0 384:0 385:0 386:0.70999998 387:0 388:0 389:0 390:0 391:0 392:0 393:0 394:0 395:0 396:0 397:0 398:0.70999998 399:0 400:0 #
81.886511800962011875526513904333 1:0.88 2:0.66000003 3:0.88 4:0.44 5:0.44 6:0.44 7:0 8:0.44 9:0 10:0.22 11:0 12:0.22 13:0 14:1.3200001 15:0.22 16:0.66000003 17:0 18:0.66000003 19:0.44 20:0 21:0 22:0.66000003 23:0.22 24:0.44 25:0 26:0.44 27:0 28:0.66000003 29:0 30:0.44 31:0.44 32:0 33:0 34:0 35:0.22 36:0.22 37:0 38:0.44 39:0 40:0 41:0.22 42:0 43:0.22 44:0.44 45:0 46:0.44 47:0 48:0 49:0.44 50:0.22 51:0 52:0.44 53:0.22 54:0 55:0.44 56:0.22 57:0 58:0.22 59:0 60:0.66000003 61:0.66000003 62:0 63:1.54 64:0.22 65:0 66:0 67:0.22 68:0 69:0.22 70:0.44 71:0.44 72:0.66000003 73:0.22 74:0.22 75:0 76:0.22 77:0.22 78:0.22 79:0 80:0.22 81:0.22 82:0.22 83:0 84:0.44 85:0.22 86:0.22 87:0 88:0.66000003 89:0 90:1.1 91:0.22 92:0.44 93:0 94:0 95:0 96:0.44 97:0 98:0 99:0 100:0.44 101:1.98 102:0.44 103:0 104:0 105:1.1 106:0.22 107:0 108:0.22 109:0.22 110:0.44 111:0.22 112:0.22 113:0 114:0.22 115:0.88 116:0.88 117:0 118:1.1 119:0.44 120:0 121:0 122:0 123:0 124:0 125:0 126:0 127:0 128:0.44 129:0 130:0.22 131:0 132:0 133:0.22 134:0 135:0 136:0.44 137:0 138:0 139:0 140:0.22 141:0.22 142:0.44 143:0 144:0.44 145:0 146:0.44 147:0.22 148:0.22 149:0.44 150:0.88 151:0 152:0 153:0 154:0.44 155:0.22 156:0.22 157:0 158:0.88 159:0 160:0 161:0.22 162:0 163:0.22 164:0.44 165:0 166:0.22 167:0.22 168:0.22 169:0.44 170:0.44 171:0 172:0 173:0 174:0.22 175:0.22 176:0 177:0.22 178:1.3200001 179:0 180:0.44 181:0.44 182:0.22 183:0 184:0.22 185:1.1 186:1.3200001 187:0 188:0.44 189:0.44 190:1.76 191:0.44 192:0 193:0 194:0.88 195:0 196:0.44 197:0 198:0.66000003 199:0 200:0.22 201:0.22 202:0 203:0 204:0.22 205:0.22 206:0.88 207:0 208:0.22 209:0.66000003 210:0.44 211:0.22 212:0.22 213:0 214:0 215:0 216:0.22 217:0 218:0 219:0.22 220:0 221:0.22 222:0 223:0 224:0 225:0 226:0 227:0.22 228:0 229:0.22 230:0.22 231:0.22 232:0.22 233:0.22 234:0 235:0.22 236:0.44 237:0 238:0.66000003 239:0.44 240:0 241:0.44 242:0.44 243:0 244:0.44 245:0 246:0.66000003 247:0 248:0 249:0.66000003 250:0 251:0.22 252:0 253:0.22 254:0 255:0.22 256:0 257:0 258:0.44 259:0 260:0 261:0.44 262:0 263:0.44 264:0.88 265:0 266:0 267:0 268:0 269:0 270:0 271:0.22 272:0 273:0.44 274:0 275:0.44 276:0.22 277:0.44 278:0.88 279:0 280:0 281:0.44 282:0.66000003 283:0 284:0.22 285:0 286:0.44 287:0.22 288:0 289:0.22 290:0.44 291:0.22 292:0 293:0.88 294:0 295:1.1 296:0.44 297:0.66000003 298:0 299:0 300:0 301:0.22 302:0.22 303:0.22 304:0.22 305:0.66000003 306:0.66000003 307:0.22 308:0.44 309:0.22 310:0.22 311:0 312:0.44 313:0.44 314:0.22 315:0.44 316:1.3200001 317:0.88 318:0.22 319:0 320:0 321:0 322:0 323:0.22 324:0.44 325:0 326:0.44 327:0.22 328:0 329:0.44 330:0 331:0.22 332:0.22 333:0 334:0 335:0.66000003 336:0.44 337:0 338:0 339:0 340:0.44 341:0.66000003 342:0.22 343:0 344:0.22 345:0.22 346:1.3200001 347:0 348:0.66000003 349:0 350:0.88 351:0.44 352:0 353:0.44 354:0.88 355:0.66000003 356:0.22 357:0.88 358:0.22 359:0.22 360:0 361:0.44 362:0 363:0.22 364:0 365:0 366:0 367:0 368:0.44 369:0 370:0.22 371:0 372:0 373:0.22 374:0 375:0 376:0 377:0.44 378:0 379:0 380:0 381:0 382:0 383:0 384:0 385:0.66000003 386:0.44 387:0 388:0 389:0.22 390:0 391:0 392:0.22 393:0.22 394:0 395:0 396:0.22 397:0 398:0.22 399:0.22 400:0 #
